/*
 * This file is auto-generated by train.ipynb
 * Quantized to 32-bit fixed-point (16 fractional bits)
 */

#pragma once

#include "definitions.h"

// Conv layer weights.
int conv_weights [FILTERS][KRN_ROWS][KRN_COLS]
	= {
			{
				{ -9685, 23552, 8141, -32248, -23261, 3145, -15655 },
				{ -22617, 38453, 15418, -11028, -22009, -16188, -13113 },
				{ 17465, 11868, 16427, -3325, -4742, -19253, -3168 },
				{ -2727, 17308, 3659, 9774, -6414, -7342, 15618 },
				{ -20108, -20279, -15042, 4135, 39025, 7312, 15887 },
				{ 1405, 28885, 34398, 24107, 26204, 30745, 31279 },
				{ 21697, 19806, 29231, 24529, 20379, -8180, -19910 }
			},

			{
				{ 1119, -4607, -20917, -21072, 23949, 2398, 14883 },
				{ 4401, 487, -16096, -10945, 14759, 21939, -18597 },
				{ 12069, 10765, -32347, -7571, 34026, 24032, -39636 },
				{ -22705, 4691, -21802, -15743, 31788, 23098, -40089 },
				{ 15691, 9433, -22058, -1602, 29979, 3606, -14238 },
				{ -31848, -2150, 19132, 6034, 26414, -3509, -19080 },
				{ -4474, -23458, 19755, 7679, -6494, 26068, -22930 }
			},

			{
				{ 9445, 120, 20546, 13442, 9931, 20308, -16270 },
				{ -21439, -11888, -25524, 23982, 14972, 45689, 26727 },
				{ -1483, -16681, -10916, -21334, -2056, 25416, 48556 },
				{ 22817, 15470, -35107, -49628, -74464, -30883, 34401 },
				{ 10524, 14923, -11082, -17911, -69328, -53401, 465 },
				{ -26608, 15572, 33236, 20580, -7717, -44768, -896 },
				{ -16680, 21694, 19593, 39305, 33340, 4379, -27360 }
			},
			{
				{ 43036, -8662, -12294, 28721, 37235, 35538, 32196 },
				{ 30118, -15585, 10447, 5055, -6765, 15228, 4064 },
				{ -29970, -9895, -9679, -17797, -19457, -37767, -37233 },
				{ -58068, -88377, -93262, -80879, -84132, -68046, -50143 },
				{ -66181, -61012, -41788, -34903, -1116, -2530, -151 },
				{ -483, 26264, 13448, 30283, 4467, 25950, 21385 },
				{ 18275, 21554, 35294, 12702, 28721, 13288, 8786 }
			}
		};

// Conv layer biases.
int conv_biases [FILTERS] = { -22163, -1496, 66, 10029 };
