/*
 * This file is auto-generated by train.ipynb
 */

#pragma once

#include "definitions.h"


// Dense layer weights.
float dense_weights[FLAT_SIZE][DENSE_SIZE]
	 = {
			{ 0.036508385092020035, 0.07090944796800613, -0.0675138458609581, -0.08185195922851562, -0.0033884800504893064, 0.004491522908210754, 0.05658678710460663, -0.08535406738519669, 0.045515257865190506, -0.01378996018320322 },
			{ -0.0391291044652462, -0.017836077138781548, -0.08589117974042892, 0.056585706770420074, -0.17831917107105255, -0.048001982271671295, 0.09288183599710464, -0.08387670665979385, -0.014107848517596722, -0.004724566824734211 },
			{ -0.08500589430332184, -0.2188691645860672, -0.027551207691431046, 0.11147906631231308, -0.13442496955394745, -0.0726240798830986, 0.11147823929786682, -0.1321614384651184, -0.15105974674224854, -0.11047517508268356 },
			{ -0.2362251579761505, -0.1986285150051117, 0.11225451529026031, 0.0634211078286171, -0.08283231407403946, -0.0718640387058258, 0.11876418441534042, -0.3373766243457794, 0.0774156004190445, -0.26617956161499023 },
			{ -0.013274960219860077, -0.24568472802639008, 0.20702962577342987, -0.05832391604781151, -0.17325526475906372, -0.026276180520653725, 0.09766174852848053, -0.41957995295524597, 0.07528921961784363, -0.40723517537117004 },
			{ -0.06692377477884293, -0.10306787490844727, 0.09637270122766495, 0.02838561125099659, -0.3169707953929901, 0.03444975987076759, 0.1650572121143341, -0.3951672315597534, -0.021887097507715225, -0.23002074658870697 },
			{ 0.006794944405555725, -0.09249383211135864, -0.05528281629085541, 0.041952960193157196, -0.1302000731229782, 0.03867513686418533, 0.07509586960077286, -0.12197845429182053, -0.04018488898873329, 0.07205093652009964 },
			{ -0.09538817405700684, -0.035651400685310364, 0.08150563389062881, -0.05573010817170143, -0.1258692890405655, 0.03297490254044533, 0.02778860740363598, -0.11130531877279282, 0.018275845795869827, 0.08135619014501572 },
			{ -0.11427560448646545, -0.14137184619903564, 0.023292019963264465, 0.009218539111316204, -0.04059738665819168, 0.01888873241841793, 0.05603838711977005, -0.13169829547405243, 0.07148592919111252, 0.057106420397758484 },
			{ -0.1496696174144745, 0.03947865962982178, -0.12105502933263779, 0.08195921778678894, -0.01742374151945114, 0.03338278457522392, 0.0116777578368783, -0.26099449396133423, 0.03338943049311638, -0.07127531617879868 },
			{ -0.015690691769123077, -0.11028061807155609, -0.12205478549003601, -0.04574408754706383, 0.031406499445438385, -0.017095519229769707, 0.22377030551433563, -0.1855180710554123, -0.08077126741409302, -0.11662612110376358 },
			{ -0.11129144579172134, -0.10769259929656982, -0.13563920557498932, -0.06513896584510803, 0.070283904671669, -0.09080339223146439, 0.12103830277919769, -0.06696592271327972, 0.03735325485467911, -0.18845689296722412 },
			{ -0.08242708444595337, -0.30833280086517334, -0.20841987431049347, -0.21777565777301788, 0.09894668310880661, -0.012489087879657745, 0.008614921942353249, -0.07949527353048325, 0.11157295107841492, -0.41038134694099426 },
			{ -0.005137110128998756, -0.3555462956428528, -0.027417205274105072, -0.38639986515045166, 0.04205111041665077, 0.16819514334201813, -0.12301119416952133, -0.11256718635559082, 0.09986299276351929, -0.10325896739959717 },
			{ -0.06898372620344162, -0.09586583822965622, -0.04222438484430313, 0.13789372146129608, -0.10937212407588959, 0.014895450323820114, 0.12331357598304749, 0.04981096461415291, -0.14712923765182495, -0.04646329581737518 },
			{ -0.14651264250278473, 0.0723075196146965, -0.17963139712810516, 0.18249669671058655, -0.1268613636493683, -0.1412561982870102, 0.19651630520820618, 0.03947019949555397, -0.09684915840625763, -0.2215319573879242 },
			{ -0.136765256524086, -0.10103302448987961, 0.011383838020265102, 0.18060363829135895, 0.0378866083920002, -0.09157099574804306, 0.04791494831442833, -0.028184661641716957, -0.001438239822164178, -0.34601056575775146 },
			{ 0.009157808497548103, -0.030901754274964333, -0.07221824675798416, -0.03960360959172249, -0.06408984214067459, -0.07291390746831894, 0.023142538964748383, 0.010359294712543488, 0.05815153568983078, -0.017738312482833862 },
			{ -0.11503420770168304, -0.22590096294879913, 0.04740156978368759, 0.05739957466721535, 0.007519400678575039, -0.0409117192029953, 0.05006808415055275, -0.08683721721172333, 0.005241958424448967, 0.28478607535362244 },
			{ -0.08144405484199524, -0.1830524206161499, 0.06346510350704193, 0.024958062916994095, -0.2248140573501587, 0.06183178722858429, -0.01153054740279913, -0.037119146436452866, 0.08325732499361038, 0.194038987159729 },
			{ -0.032650236040353775, -0.07651042938232422, 0.06409434229135513, 0.10423664003610611, -0.18386909365653992, 0.011176327243447304, -0.06035670265555382, -0.054960187524557114, 0.044716425240039825, 0.0629040077328682 },
			{ 0.04113851860165596, -0.07837038487195969, 0.029406771063804626, 0.024821709841489792, -0.2261030673980713, -0.0450594425201416, -0.0324929840862751, -0.06270898878574371, 0.010035442188382149, 0.08577314764261246 },
			{ 0.026770947501063347, -0.06992834806442261, 0.03006378561258316, -0.03981567919254303, -0.10866369307041168, -0.03663567826151848, -0.07660537213087082, -0.02123674936592579, -0.004537090193480253, 0.06702842563390732 },
			{ -0.013727802783250809, 0.026654496788978577, 0.030828585848212242, 0.07211840897798538, -0.16122515499591827, 0.12416762858629227, 0.061845336109399796, -0.08468133956193924, 0.04750128835439682, -0.017667584121227264 },
			{ 0.042643774300813675, -0.1151537150144577, 0.01007111556828022, 0.0030212639831006527, -0.05178855359554291, -0.028277993202209473, 0.0024429080076515675, -0.21657174825668335, 0.04155777022242546, 0.0713004469871521 },
			{ -0.08557120710611343, 0.0057877469807863235, -0.08952108770608902, -0.02700609527528286, 0.1040683388710022, -0.08598622679710388, 0.02317323163151741, -0.12216930091381073, 0.11723680794239044, 0.015337631106376648 },
			{ 0.017375633120536804, -0.07983715832233429, -0.018842915073037148, -0.03256700560450554, 0.12540176510810852, -0.03862464427947998, 0.03356921672821045, -0.1971728801727295, 0.003264441154897213, -0.27011415362358093 },
			{ -0.41098669171333313, -0.26881831884384155, -0.18948882818222046, -0.06703545153141022, -0.008220456540584564, 0.11278342455625534, 0.16226354241371155, -0.5386217832565308, -0.012050731107592583, -0.23675118386745453 },
			{ -0.1926421970129013, -0.22269104421138763, 0.010584989562630653, 0.016262974590063095, -0.10549306869506836, -0.177395761013031, -0.00542342197149992, -0.041374627500772476, 0.07696385681629181, -0.30140450596809387 },
			{ -0.11841865628957748, 0.025587761774659157, 0.13159377872943878, 0.05731596052646637, 0.0763792023062706, -0.12684530019760132, 0.07087491452693939, -0.008896942250430584, -0.028733476996421814, -0.23475117981433868 },
			{ 0.046537064015865326, -0.13267435133457184, 0.01881735771894455, 0.08228994905948639, 0.031500834971666336, -0.030578484758734703, -0.09502394497394562, 0.03584498167037964, -0.016251442953944206, -0.008413932286202908 },
			{ -0.05391870439052582, -0.220206156373024, -0.014410517178475857, 0.04634061083197594, -0.13237234950065613, 0.011358821764588356, -0.11878575384616852, 0.05737684667110443, -0.04093850031495094, 0.17567476630210876 },
			{ -0.0008135459502227604, -0.11917410790920258, -0.09862788766622543, 0.12114895135164261, -0.17150314152240753, -0.050831880420446396, -0.044328343123197556, 0.07357875257730484, 0.032482072710990906, 0.13729903101921082 },
			{ -0.046268146485090256, -0.0863117128610611, -0.08707771450281143, 0.007118941750377417, -0.2118445634841919, -0.037281379103660583, -0.041774529963731766, 0.06779760867357254, -0.01594524458050728, 0.006853058002889156 },
			{ 0.004645349457859993, -0.08266407251358032, -0.001796076656319201, -0.0285477377474308, -0.2388468086719513, -0.017369069159030914, -0.11091411858797073, 0.019927309826016426, -0.04392414167523384, 0.06559032201766968 },
			{ 0.019248733296990395, -0.04841407760977745, 0.02834295481443405, 0.005022829864174128, -0.27166590094566345, 0.0668499693274498, -0.1336480677127838, 0.058278657495975494, -0.011869583278894424, 0.07948439568281174 },
			{ -0.04357235133647919, 0.05190129578113556, -0.12583382427692413, 0.07984670251607895, -0.11761206388473511, 0.027768559753894806, -0.1438690572977066, 0.0222801323980093, 0.024129780009388924, 0.06881260871887207 },
			{ 0.07244647294282913, -0.013513420708477497, -0.06482211500406265, -0.0535353384912014, -0.06988944858312607, 0.03568829596042633, -0.05949702486395836, 0.06098814681172371, -0.04778280109167099, -0.00447848578915 },
			{ 0.06368162482976913, -0.032152362167835236, -0.18394611775875092, 4.893673030892387e-05, 0.029946643859148026, 0.11870160698890686, -0.11146288365125656, 0.02710880897939205, -0.027615003287792206, 0.04179708659648895 },
			{ -0.062417227774858475, 0.07145985215902328, -0.03802234306931496, -0.042568568140268326, 0.08052977919578552, -0.004877294413745403, 0.01008758693933487, -0.07528915256261826, -0.0077645303681492805, 0.017257923260331154 },
			{ -0.025907540693879128, -0.15982139110565186, -0.02719828486442566, 0.03637445345520973, 0.07305016368627548, -0.008255578577518463, 0.007984059862792492, -0.01879490725696087, -0.036395519971847534, -0.05371678248047829 },
			{ -0.055130600929260254, -0.3665944039821625, -0.06221384182572365, -0.16494537889957428, 0.09966500103473663, 0.13152796030044556, -0.15145134925842285, -0.19250521063804626, 0.05036616697907448, -0.1871146410703659 },
			{ -0.14526820182800293, -0.1386355310678482, 0.08672279119491577, 0.061710916459560394, -0.09418302774429321, -0.17197203636169434, 0.03812481835484505, 0.0579352006316185, -0.03184010833501816, -0.0482131652534008 },
			{ 0.007266939617693424, -0.12591961026191711, -0.013341096229851246, 0.12262827157974243, -0.06575866043567657, -0.07798002660274506, -0.07193805277347565, 0.09897704422473907, -0.003589809173718095, -0.02864772453904152 },
			{ 0.0585087351500988, -0.18685556948184967, 0.05002947524189949, -0.05406349152326584, -0.05713234841823578, -0.09681744873523712, 0.0022717032115906477, 0.09508536756038666, -0.006140786223113537, 0.07678961753845215 },
			{ 0.011455475352704525, -0.06026332080364227, -0.017825743183493614, 0.013550084084272385, -0.13029611110687256, -0.06087638437747955, 0.05734662711620331, -0.06386136263608932, -0.08912238478660583, 0.038105983287096024 },
			{ 0.09728085249662399, -0.03775715082883835, 0.0016728141345083714, 0.014645841903984547, -0.14449116587638855, -0.13274048268795013, -0.06659745424985886, 0.14963778853416443, 0.042066171765327454, -0.0704842284321785 },
			{ 0.03209510073065758, -0.016050901263952255, -0.04734259471297264, 0.10996482521295547, -0.15047810971736908, 0.07105694711208344, -6.430402572732419e-05, 0.08366881310939789, -0.017534079030156136, 0.01580371893942356 },
			{ 0.14083115756511688, -0.04819518327713013, -0.03623370826244354, 0.048515331000089645, -0.15455031394958496, 0.08992362022399902, -0.14714841544628143, 0.12008131295442581, -0.11654219776391983, 0.0027790600433945656 },
			{ -0.031325824558734894, 0.08171508461236954, -0.12280100584030151, 0.019010605290532112, -0.13347555696964264, -0.05847737565636635, -0.132398784160614, 0.20473654568195343, -0.09846732020378113, -0.04065890610218048 },
			{ 0.030119827017188072, 0.165311798453331, -0.04198594018816948, 0.13030676543712616, -0.08485893160104752, -0.04532228410243988, -0.2017146497964859, 0.09260950982570648, -0.09319581836462021, -0.013430861756205559 },
			{ -0.04095234349370003, 0.04859515279531479, -0.036527857184410095, -0.035244088619947433, -0.0881199836730957, -0.056832052767276764, -0.10501182824373245, 0.09472324699163437, -0.01431110966950655, 0.06253506988286972 },
			{ -0.06097102910280228, -0.07502663135528564, -0.059132322669029236, 0.05450000986456871, -0.06307835131883621, -0.0801326334476471, -0.11923696100711823, -0.035990867763757706, 0.006060534622520208, 0.05863907188177109 },
			{ -0.026782140135765076, -0.028450217097997665, -0.05785411223769188, 0.09917712211608887, -0.0563218854367733, 0.05771913006901741, -0.07589035481214523, -0.007511521223932505, 0.08524157851934433, -0.04499901086091995 },
			{ -0.059908103197813034, -0.04827186092734337, -0.07905998826026917, 0.04147831350564957, 0.03770393878221512, 0.1193503886461258, -0.24749451875686646, -0.012249668128788471, 0.06360375136137009, -0.1116064116358757 },
			{ -0.1775720864534378, -0.429143488407135, -0.053852781653404236, -0.17552274465560913, 0.11371936649084091, 0.3395349383354187, -0.23962050676345825, -0.1606987714767456, -0.06712426990270615, -0.19224873185157776 },
			{ -0.011159515008330345, -0.12545058131217957, -0.13371019065380096, 0.13906407356262207, -0.15028363466262817, -0.13419197499752045, -0.07272781431674957, 0.07783044874668121, 0.12406448274850845, -0.1558583676815033 },
			{ -0.10906276106834412, -0.17195142805576324, -0.04947832226753235, 0.04362299665808678, -0.07463137060403824, -0.0037634321488440037, -0.05038326233625412, 0.04055789113044739, 0.04374276101589203, 0.007656023371964693 },
			{ 0.045071136206388474, 0.034430235624313354, -0.06882445514202118, -0.0662618950009346, 0.01658565364778042, -0.21818150579929352, -0.021418878808617592, 0.09174688905477524, 0.047060225158929825, 0.10364930331707001 },
			{ 0.08475073426961899, 0.03998275473713875, -0.07876601070165634, -0.058360449969768524, 0.07109200209379196, -0.19561631977558136, 0.02105279639363289, 0.13243214786052704, 0.08728623390197754, -0.07705118507146835 },
			{ 0.06470217555761337, -0.06073370203375816, -0.08245858550071716, -0.045753490179777145, 0.1372525840997696, -0.09805139154195786, -0.031131235882639885, 0.1531108021736145, -0.034879446029663086, -0.05220479518175125 },
			{ -0.030149463564157486, -0.026635801419615746, -0.04530895873904228, -0.016749702394008636, 0.15718886256217957, 0.0022048642858862877, -0.004662667401134968, 0.07795833796262741, -0.017898233607411385, -0.17596685886383057 },
			{ -0.07465823739767075, 0.1729585975408554, -0.07147261500358582, 0.013143948279321194, 0.0064707170240581036, 0.0019649374298751354, -0.05149471387267113, 0.04528200998902321, -0.008593624457716942, -0.03971902281045914 },
			{ 9.015609975904226e-05, 0.24895614385604858, -0.18004165589809418, 0.10464069247245789, 0.003551769070327282, -0.1074036955833435, -0.1128452718257904, 0.05264350771903992, 0.04242195188999176, 0.19738048315048218 },
			{ -0.12524469196796417, 0.0549219585955143, -0.14105670154094696, 0.12614622712135315, -0.08861231803894043, -0.1479407250881195, -0.1680540293455124, -0.0038805417716503143, 0.00013800966553390026, 0.13114264607429504 },
			{ -0.02080562710762024, -0.06738277524709702, -0.06323076039552689, 0.11617708206176758, 0.004861420951783657, -0.16908341646194458, -0.11028312891721725, 0.16202552616596222, 0.09286382049322128, 0.03712685778737068 },
			{ 0.10576338320970535, -0.027031205594539642, -0.11056862771511078, 0.08640515059232712, 0.04392217844724655, -0.11816570162773132, -0.17581498622894287, 0.11638786643743515, 0.10774832963943481, 0.04093401879072189 },
			{ 0.05958469584584236, 0.052127253264188766, -0.030681919306516647, 0.003926516976207495, -0.11851055175065994, -0.15099574625492096, -0.10114908218383789, -0.04564230144023895, 0.03781295195221901, 0.016209585592150688 },
			{ 0.04206010326743126, 0.036312513053417206, -0.03376622125506401, -0.14462140202522278, -0.15250766277313232, 0.083741694688797, -0.08691306412220001, -0.16782553493976593, 0.11305338144302368, 0.08636327087879181 },
			{ -0.09621824324131012, -0.4038815200328827, 0.1397940218448639, -0.3678286075592041, -0.0888507142663002, 0.22997181117534637, -0.07488705217838287, -0.20551592111587524, -0.012716298922896385, -0.054664768278598785 },
			{ -0.13890713453292847, -0.13654054701328278, -0.13975556194782257, -0.18496914207935333, -0.1930239498615265, 0.02800039015710354, -0.01005437970161438, 0.16124266386032104, 0.06582682579755783, 0.14463834464550018 },
			{ -0.010403275489807129, -0.0697973221540451, -0.04734237119555473, -0.08330421894788742, -0.08093956857919693, -0.04863094165921211, 0.052949730306863785, 0.016015777364373207, 0.08890697360038757, 0.06698138266801834 },
			{ 0.002519430825486779, 0.037239477038383484, 0.1643180102109909, -0.1913100630044937, 0.11457474529743195, -0.11947428435087204, -0.02657216228544712, -0.00832943432033062, -0.016938842833042145, -0.02837274968624115 },
			{ 0.05500001832842827, 0.05480508878827095, 0.16551484167575836, -0.3298356533050537, 0.11091378331184387, -0.07011694461107254, 0.04210669919848442, 0.09286187589168549, 0.0014712077099829912, -0.09596842527389526 },
			{ 0.044640470296144485, -0.15672944486141205, 0.09704842418432236, -0.2748066484928131, 0.17093884944915771, -0.012902853079140186, 0.13181985914707184, -0.0008996434044092894, 0.01918496936559677, -0.06882353872060776 },
			{ -0.07761482149362564, 0.03471514582633972, -0.06393185257911682, -0.20443560183048248, 0.15765933692455292, 0.06637772172689438, 0.018423348665237427, -0.04951588064432144, 0.042034897953271866, -0.02274160459637642 },
			{ -0.10923423618078232, 0.03698316588997841, -0.04132059961557388, -0.03836348280310631, 0.15965290367603302, 0.04056026414036751, 0.10646623373031616, -0.2771100103855133, 0.058137036859989166, 0.09040012955665588 },
			{ -0.3113046884536743, 0.15426886081695557, -0.08785758912563324, 0.061083100736141205, -0.04209193214774132, -0.10188469290733337, 0.0547085665166378, -0.2429785281419754, 0.0825885757803917, 0.18924760818481445 },
			{ -0.30315396189689636, 0.12649382650852203, -0.1447422057390213, 0.17279304563999176, 0.09600289165973663, -0.21270915865898132, 0.05481969937682152, -0.0881752148270607, 0.0069938600063323975, 0.22975723445415497 },
			{ -0.006085666362196207, -0.0750352293252945, -0.0438615083694458, 0.06777166575193405, 0.15669630467891693, -0.25369545817375183, -0.05446096882224083, 0.03999342396855354, 0.043787382543087006, 0.07494000345468521 },
			{ 0.06824274361133575, -0.1577739417552948, -0.06905821710824966, -0.14291362464427948, 0.15838125348091125, -0.16175886988639832, -0.009186523035168648, 0.15715183317661285, 0.0652938038110733, 0.01169393490999937 },
			{ 0.0022402664180845022, -0.21520888805389404, -0.0006018998683430254, -0.14707012474536896, 0.021898696199059486, -0.2811058461666107, -0.023460756987333298, 0.07398179918527603, 0.10236626863479614, 0.04494751617312431 },
			{ 0.12919236719608307, 0.0002617556310724467, 0.16300754249095917, -0.02089502662420273, -0.08863186091184616, -0.24241255223751068, -0.09082457423210144, -0.14898160099983215, 0.07908481359481812, 0.026370136067271233 },
			{ 0.114931620657444, -0.24698029458522797, 0.22692357003688812, -0.28212493658065796, -0.1993197500705719, 0.14511409401893616, -0.17007531225681305, -0.25189220905303955, 0.011967352591454983, -0.04905885085463524 },
			{ -0.10306402295827866, -0.017634764313697815, -0.014647755771875381, -0.1867814064025879, -0.004513952415436506, 0.07782917469739914, -0.15568749606609344, -0.06656040996313095, -0.03793630748987198, 0.08607210963964462 },
			{ 0.013981443829834461, 0.04866032302379608, 0.07330571860074997, -0.11230314522981644, 0.14145919680595398, -0.03052142634987831, 0.065953828394413, -0.06930718570947647, -0.0094106774777174, 0.008929532021284103 },
			{ 0.01729683019220829, -0.10520162433385849, 0.14736060798168182, -0.07673055678606033, 0.0855393037199974, -0.020216211676597595, -0.13233628869056702, 0.01161969918757677, 0.026124771684408188, 0.025121334940195084 },
			{ 0.09602731466293335, -0.040533967316150665, 0.10051378607749939, -0.3141799867153168, 0.18316343426704407, -0.1100880578160286, -0.03373538330197334, 0.027613360434770584, 0.05500917509198189, -0.00733173917979002 },
			{ -0.0004806652432307601, -0.2310125082731247, -0.09640864282846451, -0.32673314213752747, 0.2078399658203125, -0.062178388237953186, 0.048222847282886505, -0.026766791939735413, 0.1473090499639511, -0.07030488550662994 },
			{ -0.13595089316368103, 0.03775224834680557, 0.04834986478090286, -0.18492482602596283, 0.1661817580461502, -0.06391894072294235, 0.049926333129405975, -0.276522159576416, 0.11417776346206665, 0.11750459671020508 },
			{ -0.388207346200943, -0.07335283607244492, 0.012586123310029507, -0.06142650917172432, 0.10673275589942932, -0.030422642827033997, 0.08373934775590897, -0.20887240767478943, 0.08315505087375641, 0.09214445948600769 },
			{ -0.2993890643119812, 0.04685034602880478, -0.10385596752166748, 0.10621900856494904, 0.0687725692987442, -0.11455138027667999, 0.06615528464317322, -0.13872630894184113, 0.13284242153167725, -0.02747522108256817 },
			{ -0.21751320362091064, 0.02060287445783615, -0.11885995417833328, 0.03488784655928612, 0.14596785604953766, -0.04317981377243996, 0.02038704790174961, -0.0362393781542778, 0.07768891751766205, 0.10848885029554367 },
			{ 0.007854988798499107, -0.16869843006134033, -0.06090746447443962, -0.06959449499845505, 0.27965953946113586, -0.16752859950065613, 0.018618257716298103, 0.13012129068374634, -0.011686677113175392, -0.006754787173122168 },
			{ 0.10941184312105179, -0.32398006319999695, 0.02439248189330101, -0.11597681045532227, 0.12062662094831467, -0.08051013201475143, 0.06687335669994354, 0.11291775852441788, -0.06705307960510254, 0.06740724295377731 },
			{ 0.11334042251110077, -0.14546014368534088, 0.06784070283174515, -0.05692381411790848, 0.05650566145777702, -0.07830796390771866, 0.005118947941809893, -0.009313627146184444, -0.15576623380184174, -0.0582217201590538 },
			{ 0.15657910704612732, 0.022726109251379967, 0.15989434719085693, -0.06859482824802399, -0.1824340969324112, -0.32523345947265625, 0.06152680143713951, -0.013361324556171894, 0.007053064182400703, -0.126376211643219 },
			{ 0.12676021456718445, 0.010724625550210476, 0.27394068241119385, -0.09629368782043457, -0.15006735920906067, 0.15396112203598022, 0.10086464136838913, -0.3047827184200287, 0.08059218525886536, -0.14781811833381653 },
			{ -0.10698116570711136, -0.013048889115452766, 0.03328780084848404, -0.014119191095232964, 0.08072616904973984, -0.22014418244361877, -0.1529308408498764, 0.004461139440536499, -0.22859050333499908, 0.03287854418158531 },
			{ 0.10091198235750198, -0.08707078546285629, -0.011952019296586514, 0.07731175422668457, -0.08345424383878708, -0.10858098417520523, 0.053364578634500504, 0.060280002653598785, 0.06359359622001648, -0.06265444308519363 },
			{ 0.04536126181483269, -0.12343856692314148, -0.022624723613262177, -0.05740008130669594, 0.02994903177022934, -0.018695704638957977, -0.07252582162618637, -0.16757424175739288, 0.17635387182235718, -0.01199505664408207 },
			{ -0.027188502252101898, -0.13324731588363647, 0.055903203785419464, -0.11722072213888168, 0.21509502828121185, -0.1378055214881897, 0.06764296442270279, -0.02418825961649418, 0.1761419028043747, 0.012631664983928204 },
			{ 0.06349678337574005, -0.1091691106557846, 0.027062879875302315, -0.07121196389198303, 0.17463694512844086, -0.14406491816043854, -0.022303935140371323, -0.13377076387405396, 0.06185735762119293, 0.04119378700852394 },
			{ -0.041216276586055756, -0.0393429696559906, 0.030380135402083397, -0.011300844140350819, 0.0115605928003788, -0.17953073978424072, 0.0609273798763752, -0.06258560717105865, 0.09299201518297195, 0.15919135510921478 },
			{ 0.04105650261044502, -0.04732339456677437, 0.14712440967559814, -0.14711780846118927, 0.14290128648281097, -0.02979889325797558, 0.006314651574939489, -0.0726597011089325, 0.02611556276679039, -0.07057522982358932 },
			{ -0.16440655291080475, 0.0242830328643322, 0.08815178275108337, -0.08199657499790192, 0.2083384096622467, -0.10045284032821655, 0.025418506935238838, -0.09580564498901367, 0.07938404381275177, -0.2015456110239029 },
			{ -0.2011612057685852, 0.09992127120494843, 0.020348984748125076, -0.11974013596773148, 0.05529959872364998, -0.033798523247241974, 0.028238441795110703, 0.08023623377084732, 0.04681931063532829, -0.10390417277812958 },
			{ -0.0019274906953796744, -0.048947498202323914, -0.0955280140042305, -0.008415043354034424, 0.12280945479869843, 0.012617802247405052, 0.13235729932785034, 0.13249243795871735, -0.11042021214962006, -0.15838350355625153 },
			{ 0.06597431749105453, -0.11989133805036545, 0.009021547622978687, -0.07521168887615204, 0.1157878115773201, 0.07953348755836487, 0.058983348309993744, 0.10971169918775558, -0.12015532702207565, -0.09817404299974442 },
			{ 0.07227151840925217, 0.1377810388803482, 0.08095771074295044, -0.02416679821908474, 0.1737402230501175, -0.011508616618812084, -0.001015388173982501, 0.02216299995779991, -0.17654642462730408, -0.07107451558113098 },
			{ 0.04957772046327591, 0.12677410244941711, -0.006975134834647179, -0.10182785242795944, 0.023365264758467674, -0.09527967125177383, 0.08918336033821106, -0.008882896974682808, -0.050875820219516754, -0.08836349099874496 },
			{ 0.05516233295202255, 0.056999970227479935, 0.08120325207710266, -0.11764372140169144, -0.18159788846969604, 0.07138314843177795, 0.06300457566976547, -0.0036245991941541433, 0.035074274986982346, -0.3527063727378845 },
			{ -0.0546569898724556, -0.2494039684534073, 0.17367680370807648, 0.02491191402077675, 0.0015914776595309377, -0.06239166855812073, -0.12091410160064697, 0.09739919751882553, -0.24173447489738464, -0.1267942190170288 },
			{ -0.020911743864417076, -0.21590709686279297, 0.11461430042982101, 0.01904067024588585, 0.013581543229520321, 0.023096933960914612, 0.016656892374157906, -0.13340553641319275, 0.049060504883527756, -0.17090186476707458 },
			{ -0.0034105763770639896, -0.10329978168010712, -0.016215357929468155, 0.09277409315109253, 0.08149103075265884, 0.08178379386663437, -0.1081261932849884, -0.13622786104679108, 0.050095055252313614, -0.08401715755462646 },
			{ 0.06387216597795486, -0.005814991891384125, 0.03841949626803398, -0.0022167558781802654, 0.07794443517923355, 0.005338392686098814, 0.0155275147408247, 0.004704796709120274, 0.03197254240512848, -0.06108841300010681 },
			{ 0.02073371224105358, 0.06199920177459717, 0.06964477896690369, -0.07938264310359955, -0.06122351437807083, -0.11399777233600616, -0.01115815807133913, -0.08481702953577042, -0.052755940705537796, 0.047543030232191086 },
			{ 0.04303068295121193, 0.022134283557534218, -0.0160641111433506, -0.11637632548809052, 0.019283754751086235, -0.2250174880027771, 0.06919867545366287, -0.00844609085470438, -0.1289355456829071, 0.03125682845711708 },
			{ 0.11475956439971924, -0.06130020320415497, 0.15174295008182526, -0.044496774673461914, 0.13156643509864807, -0.03670408949255943, 0.12012714147567749, 0.0612504705786705, -0.06823965907096863, -0.1438339203596115 },
			{ 0.07048159092664719, 0.02285933867096901, 0.08860987424850464, 0.10369721800088882, -0.12403609603643417, -0.07381635159254074, 0.0889996662735939, -0.0317213349044323, -0.02544049173593521, -0.3372909724712372 },
			{ -0.07066519558429718, 0.08947202563285828, -0.02730187587440014, 0.07753974199295044, -0.023727459833025932, 0.014748099260032177, 0.11740302294492722, 0.018220040947198868, -0.016459308564662933, -0.12644653022289276 },
			{ -0.09984946250915527, -0.009132539853453636, 0.01890583150088787, -0.005040287505835295, 0.07836302369832993, -0.06081520766019821, 0.06619642674922943, 0.06767688691616058, -0.126204714179039, -0.082639679312706 },
			{ 0.015789179131388664, -0.10382066667079926, -0.005551728419959545, 0.028897617012262344, -0.010399742051959038, 0.10924731194972992, -0.014738564379513264, 0.12031232565641403, -0.06912405043840408, -0.1269148886203766 },
			{ 0.0020590443164110184, 0.0562843382358551, -0.015603839419782162, 0.022700436413288116, 0.047172293066978455, 0.0012019630521535873, -0.020201871171593666, 0.034726619720458984, -0.04729137569665909, -0.009104711003601551 },
			{ 0.056909553706645966, -0.03355326130986214, -0.06346007436513901, -0.07863198220729828, -0.018505670130252838, 0.05606554076075554, 0.09886382520198822, -0.10979080945253372, -0.032077740877866745, -0.06186011806130409 },
			{ 0.02528480812907219, 0.11885726451873779, 0.08038817346096039, -0.07814674079418182, -0.21914933621883392, 0.10511317849159241, 0.02953439950942993, -0.1551285982131958, -0.09078064560890198, -0.032249998301267624 },
			{ 0.00940531212836504, -0.09484690427780151, 0.11571895331144333, 0.028237439692020416, -0.06447504460811615, -0.11186447739601135, 0.013698622584342957, -0.18469777703285217, -0.1366143524646759, -0.212627112865448 },
			{ -0.005555958487093449, 0.058283206075429916, 0.04177339747548103, -0.006225056480616331, 0.12076609581708908, 0.03211960196495056, -0.020329436287283897, -0.0795440673828125, 0.06146453693509102, -0.11796289682388306 },
			{ -0.013061567209661007, 0.14275766909122467, -0.01844126731157303, 0.0837792232632637, -0.005929220002144575, 0.050160348415374756, -0.19553226232528687, -0.09069589525461197, -0.037003904581069946, -0.07257908582687378 },
			{ 0.05964271351695061, 0.129192054271698, 0.03346502035856247, -0.007514311466366053, -0.14144353568553925, 0.03383057564496994, -0.016136830672621727, -0.06878739595413208, -0.07591500133275986, 0.08460406213998795 },
			{ 0.12660828232765198, -0.01613607443869114, 0.07479355484247208, 0.01008889265358448, -0.03334870561957359, 0.06678364425897598, 0.046496257185935974, 0.10917945951223373, -0.19926446676254272, 0.042783401906490326 },
			{ 0.167336106300354, -0.07915326207876205, 0.052133142948150635, -0.04446727782487869, -0.07200730592012405, 0.05216348171234131, 0.09082461893558502, 0.06566743552684784, -0.12686508893966675, -0.01782442256808281 },
			{ 0.15115347504615784, -0.13977299630641937, 0.025100838392972946, 0.04266258701682091, -0.05627895146608353, 0.08045876771211624, 0.09563630819320679, -0.06743225455284119, 0.02510514110326767, -0.1763923317193985 },
			{ -0.021446725353598595, 0.11158733814954758, 0.11415962129831314, 0.06295271217823029, -0.27235811948776245, 0.0014409208670258522, 0.1431368887424469, -0.10057742148637772, 0.09808021783828735, -0.18141183257102966 },
			{ -0.04466298967599869, 0.11647146940231323, 0.09125246107578278, -0.09139393270015717, -0.1291537880897522, 0.09800925105810165, 0.12711352109909058, -0.04870415851473808, 0.03276236727833748, -0.11085734516382217 },
			{ 0.06056831032037735, 0.04742944985628128, 0.05049006640911102, -0.023977603763341904, -0.11156491935253143, 0.04619923606514931, 0.010930717922747135, -0.05435744300484657, -0.0272279754281044, -0.054686933755874634 },
			{ -0.09203023463487625, 0.020137429237365723, 0.09481498599052429, -0.0001004455698421225, -0.07220607995986938, 0.060451019555330276, 0.04689326882362366, -0.1444254368543625, 0.003985402174293995, -0.12155831605195999 },
			{ -0.029102757573127747, 0.06867188960313797, -0.09640112519264221, -0.0062493812292814255, 0.02893671579658985, -0.015584081411361694, 0.1004377007484436, 0.011443277820944786, 0.010338765569031239, -0.03359038382768631 },
			{ 0.14121995866298676, -0.029512977227568626, -0.1755102425813675, 0.019790422171354294, -0.044990286231040955, 0.14089058339595795, -0.007241145707666874, -0.06246546283364296, 0.023538455367088318, -0.05371858924627304 },
			{ -0.1957978755235672, 0.12770619988441467, -0.11281901597976685, -0.13659855723381042, -0.2231511026620865, 0.18219873309135437, 0.034736517816782, -0.10060399025678635, 0.053640272468328476, 0.012763699516654015 },
			{ 0.08261895924806595, -0.20273035764694214, 0.14352571964263916, -0.16991877555847168, -0.07479582726955414, -0.0041994680650532246, -0.14350657165050507, -0.07854039967060089, 0.03612104803323746, -0.11250085383653641 },
			{ -0.022709183394908905, -0.02140769176185131, 0.10899766534566879, -0.04573509469628334, -0.19168898463249207, -0.12354705482721329, -0.24570505321025848, 0.05399855226278305, 0.041140418499708176, -0.02102646231651306 },
			{ -0.04067862406373024, 0.03116428293287754, 0.10287000238895416, 0.059643831104040146, -0.016533194109797478, 0.1006077378988266, -0.19524681568145752, 0.13237227499485016, -0.016336731612682343, 0.01789890043437481 },
			{ -0.011965861544013023, 0.023509977385401726, 0.061642203480005264, 0.022757161408662796, -0.107591912150383, 0.03661448508501053, -0.08444200456142426, -0.059253331273794174, -0.08081655204296112, 0.05487261340022087 },
			{ 0.09079080075025558, -0.17816919088363647, 0.020402692258358, 0.06744664162397385, -0.08558713644742966, 0.0748228207230568, 0.04945727437734604, -0.06621752679347992, -0.013641156256198883, 0.07730938494205475 },
			{ 0.23389501869678497, -0.15822862088680267, 0.015840426087379456, 0.10830055922269821, -0.301472932100296, 0.1427716463804245, 0.0451371967792511, -0.18838302791118622, -0.06880945712327957, -0.033450786024332047 },
			{ 0.2573834955692291, -0.17552387714385986, 0.1961268186569214, 0.08393560349941254, -0.4121902287006378, 0.145365372300148, 0.11028990894556046, -0.2907630503177643, 0.1078796461224556, -0.11342692375183105 },
			{ 0.11559168994426727, 0.06434040516614914, 0.1871057152748108, 0.045547109097242355, -0.37188634276390076, 0.031455013900995255, 0.017750008031725883, -0.13534776866436005, 0.03442218527197838, -0.11315901577472687 },
			{ 0.04697941616177559, 0.15530098974704742, 0.15269799530506134, 0.0013515980681404471, -0.06865207105875015, 0.11854895204305649, -0.05625809356570244, -0.19971877336502075, 0.11373778432607651, -0.09698379784822464 },
			{ 0.0906340628862381, -0.0520615354180336, 0.11850100755691528, 0.07059813290834427, -0.13209007680416107, -0.005586278159171343, 0.12718965113162994, -0.17514680325984955, 0.002286899834871292, -0.1442517638206482 },
			{ -0.11787588894367218, 0.05209645628929138, 0.15485943853855133, 0.007515437435358763, 0.02218255214393139, 0.027236463502049446, 0.03690684959292412, -0.19782975316047668, 0.06371620297431946, -0.05180579423904419 },
			{ -0.015131724067032337, -0.09393343329429626, -0.009715712629258633, -0.005789310205727816, -0.014223958365619183, 0.07362156361341476, -0.03840808570384979, -0.15374214947223663, -0.02604370377957821, 0.0725502148270607 },
			{ -0.035985346883535385, -0.11899857968091965, -0.11005930602550507, -0.08506056666374207, -0.10052087157964706, 0.15805788338184357, -0.05858699977397919, -0.33991414308547974, 0.11135242134332657, 0.020040621981024742 },
			{ -0.215730682015419, 0.04049326479434967, -0.020429354161024094, -0.17172138392925262, -0.11867272108793259, 0.16415946185588837, 0.04548313096165657, -0.11156284809112549, -0.051555510610342026, 0.14497274160385132 },
			{ -0.0356803759932518, -0.06660359352827072, -0.08812082558870316, -0.021717345342040062, -0.1522635817527771, -0.13292168080806732, -0.04192846640944481, 0.10440564900636673, -0.008640649728477001, -0.10092104226350784 },
			{ -0.11626916378736496, -0.0025148300919681787, 0.04605932533740997, 0.15573415160179138, -0.13844983279705048, -0.15494869649410248, -0.2271455079317093, 0.10623232275247574, -0.0640888586640358, -0.009852007031440735 },
			{ -0.2301216423511505, -0.16696681082248688, -0.137870654463768, 0.27651992440223694, 0.03333770111203194, -0.1388610452413559, -0.21059183776378632, 0.15657348930835724, -0.040119826793670654, 0.1155964806675911 },
			{ -0.09854284673929214, -0.07404069602489471, -0.1455695629119873, 0.19271627068519592, 0.0010919641936197877, 0.06434305757284164, -0.473491907119751, 0.14053994417190552, 0.08398161828517914, 0.0837089940905571 },
			{ 0.002533416263759136, -0.23337040841579437, -0.06027316302061081, 0.014778390526771545, -0.1632564663887024, 0.13821780681610107, -0.04781370237469673, -0.10232701897621155, 0.06508827209472656, -0.030198123306035995 },
			{ -0.04032093659043312, -0.17129245400428772, -0.07558522373437881, 0.14858350157737732, -0.31521371006965637, 0.10650627315044403, 0.04147237911820412, -0.19307415187358856, 0.0570945218205452, -0.00529492786154151 },
			{ 0.020054221153259277, -0.09586547315120697, -0.11068777740001678, 0.07311472296714783, -0.20852099359035492, 0.14084793627262115, 0.137989342212677, -0.138417586684227, 0.0747549831867218, -0.15146805346012115 },
			{ 0.03331674262881279, -0.039447885006666183, -0.07914666831493378, 0.07584015280008316, -0.13911736011505127, 0.1000175029039383, 0.08162510395050049, -0.12017291784286499, 0.08859526365995407, -0.0896826684474945 },
			{ -0.10333877056837082, -0.18777956068515778, 0.044297073036432266, -0.04533876106142998, 0.07249701768159866, 0.08207232505083084, 0.12003529816865921, -0.1267094910144806, 0.07951536029577255, -0.031554773449897766 },
			{ -0.1539275050163269, -0.011622544378042221, 0.09178048372268677, -0.02997906133532524, 0.02278130128979683, 0.0701688751578331, -0.1341210901737213, -0.09198777377605438, 0.008956029079854488, 0.030215293169021606 },
			{ -0.23246096074581146, 0.18840765953063965, -0.035176459699869156, -0.05691093951463699, -0.04521894454956055, 0.03031119331717491, -0.15771223604679108, -0.028138378635048866, 0.01943814381957054, 0.15302753448486328 },
			{ -0.10737408697605133, -0.1390257328748703, 0.09916593134403229, 0.058033909648656845, -0.09438514709472656, 0.13122302293777466, -0.051984310150146484, -0.0890774130821228, 0.08081407845020294, 0.055872563272714615 },
			{ -0.009408178739249706, -0.1346338540315628, -0.17228494584560394, -0.05811526998877525, -0.11478305608034134, 0.1332540363073349, -0.23048849403858185, -0.26459330320358276, 0.14286606013774872, 0.11109956353902817 },
			{ -0.09292546659708023, 0.005775224883109331, 0.02276843972504139, -0.07083045691251755, -0.136729896068573, 0.09717079252004623, -0.12970426678657532, -0.17355962097644806, -0.2542206346988678, 0.19692909717559814 },
			{ -0.13919097185134888, -0.02499392442405224, -0.19923293590545654, 0.10224267840385437, -0.08847306668758392, -0.11300872266292572, -0.005020397715270519, 0.15287506580352783, -0.22199055552482605, 0.12834113836288452 },
			{ -0.07013707607984543, -0.046925127506256104, -0.0562407560646534, 0.2214648723602295, -0.09559798240661621, -0.1375112235546112, -0.15768404304981232, 0.041178517043590546, -0.08092288672924042, 0.22008126974105835 },
			{ -0.20960591733455658, -0.16515623033046722, -0.14110857248306274, 0.39665380120277405, -0.20354361832141876, -0.20549751818180084, -0.07029875367879868, 0.1428421586751938, -0.11089165508747101, 0.0858735740184784 },
			{ -0.32417747378349304, -0.07051125913858414, -0.4150504171848297, 0.3537835478782654, -0.16944238543510437, -0.12475015223026276, -0.16494150459766388, 0.19233720004558563, -0.13121017813682556, 0.00995564553886652 },
			{ 0.09998827427625656, 0.19988837838172913, -0.3431025445461273, 0.21248707175254822, -0.00801111850887537, 0.15025484561920166, -0.29042181372642517, 0.048215657472610474, -0.19662976264953613, -0.13804152607917786 },
			{ -0.13350355625152588, 0.4748242497444153, -0.4659353792667389, 0.07288404554128647, 0.036140210926532745, -0.006174755748361349, -0.2836587131023407, 0.2107805609703064, -0.18801982700824738, -0.019158490002155304 },
			{ -0.36906707286834717, 0.4673908054828644, -0.48301324248313904, -0.16185763478279114, 0.2429748922586441, -0.17347142100334167, -0.44182413816452026, 0.26977282762527466, -0.11070554703474045, 0.12448339909315109 },
			{ -0.48403075337409973, 0.3067319095134735, -0.3189884424209595, -0.24490027129650116, 0.3367496728897095, -0.12640763819217682, -0.4598480463027954, 0.23451390862464905, -0.07340511679649353, 0.11644686013460159 },
			{ -0.32202816009521484, 0.17377938330173492, -0.1602918654680252, -0.2527328133583069, 0.30667024850845337, 0.004716011695563793, -0.2023000717163086, 0.08733020722866058, -0.1195126324892044, 0.04655386880040169 },
			{ -0.2797040641307831, 0.0880575031042099, 0.19780246913433075, -0.12541142106056213, 0.1645345687866211, -0.11471684277057648, -0.30398425459861755, 0.025215966627001762, -0.04763930290937424, 0.051236145198345184 },
			{ -0.223798006772995, 0.10159900784492493, -0.001671769074164331, -0.10642851889133453, 0.12140766531229019, -0.057992879301309586, -0.20812645554542542, -0.10474584251642227, -0.004129262175410986, -0.024982405826449394 },
			{ -0.2294522374868393, -0.009822496213018894, -0.22871291637420654, -0.04703396186232567, 0.04673221707344055, 0.027101032435894012, -0.09638071060180664, -0.08568847924470901, 0.08409866690635681, 0.12123033404350281 },
			{ 0.014248199760913849, -0.410659521818161, -0.13527345657348633, -0.006869062315672636, -0.05261596292257309, 0.0371895506978035, -0.3212047219276428, -0.16609112918376923, 0.04604601114988327, 0.09799031913280487 },
			{ -0.19363635778427124, -0.10178964585065842, 0.14817887544631958, -0.14036715030670166, 0.03544136509299278, 0.1306753009557724, -0.2450476437807083, -0.04361800104379654, -0.2838859558105469, 0.08636626601219177 },
			{ -0.04072069004178047, 0.04123440012335777, -0.15271541476249695, -0.049447569996118546, 0.010534401051700115, -0.05350370705127716, -0.076170913875103, -0.016100507229566574, -0.03173848241567612, -0.023366235196590424 },
			{ 0.02355455979704857, 0.026627300307154655, -0.07223434746265411, 0.03267960995435715, -0.03235512971878052, -0.03640766069293022, -0.014368640258908272, -0.07404014468193054, -0.1691598892211914, 0.05777880921959877 },
			{ -0.19447828829288483, -0.06643247604370117, -0.21776165068149567, 0.03813216835260391, -0.17879438400268555, -0.07399896532297134, -0.0625128224492073, 0.09222123771905899, -0.16046981513500214, 0.033042747527360916 },
			{ -0.10509257018566132, -0.001058553927578032, -0.3360491693019867, -0.25753307342529297, -0.20131179690361023, -0.191229909658432, -0.0428125374019146, 0.22189940512180328, -0.43198978900909424, 0.24771402776241302 },
			{ -0.10540158301591873, 0.1177518293261528, -0.2120053619146347, -0.48145583271980286, -0.005137535743415356, -0.3496673107147217, -0.09587430208921432, 0.14655663073062897, -0.6621926426887512, 0.36761608719825745 },
			{ -0.2900358736515045, 0.3547249436378479, -0.6427834033966064, -0.49875152111053467, -0.036362361162900925, -0.4971805512905121, -0.18158036470413208, 0.3388565480709076, -0.5279847979545593, 0.21809238195419312 },
			{ -0.5342576503753662, 0.125289648771286, -0.8501808047294617, -0.2524726390838623, 0.15343555808067322, -0.4817635118961334, -0.2951962947845459, 0.2062477171421051, -0.6410155296325684, 0.28619349002838135 },
			{ -0.5897194147109985, 0.19470863044261932, -0.7765018343925476, -0.2497042864561081, 0.1247132271528244, -0.33442550897598267, -0.5011592507362366, 0.3228248655796051, -0.6953896880149841, 0.32882654666900635 },
			{ -0.6429697871208191, 0.02301904559135437, -0.5050199031829834, -0.23388728499412537, 0.031363941729068756, -0.31752899289131165, -0.25065717101097107, 0.27682754397392273, -0.4329417049884796, 0.1654626429080963 },
			{ -0.44307956099510193, 0.037467919290065765, -0.05358220636844635, -0.017160218209028244, 0.06067391112446785, -0.24536944925785065, -0.36273959279060364, 0.1584860235452652, -0.14017373323440552, 0.10158862918615341 },
			{ -0.48856136202812195, 0.12490272521972656, -0.13439954817295074, 0.11693837493658066, 0.11985933780670166, -0.00832776166498661, -0.15641909837722778, -0.011579690501093864, -0.2433101385831833, -0.020700592547655106 },
			{ -0.31623509526252747, 0.040749285370111465, -0.2055129110813141, 0.09748416393995285, -0.047688622027635574, 0.004082865547388792, -0.1521926075220108, 0.1147007867693901, -0.44480013847351074, 0.16820335388183594 },
			{ -0.09846237301826477, -0.3844779431819916, -0.15403184294700623, -0.18402127921581268, 0.03974852338433266, 0.1559176743030548, -0.20658259093761444, 0.05262374132871628, -0.36526209115982056, 0.045464932918548584 },
			{ -0.08218121528625488, -0.06453081965446472, 0.14565134048461914, 0.005697804503142834, 0.1124802827835083, 0.0565369613468647, -0.016417773440480232, -0.026914121583104134, -0.2148815244436264, -0.10330995917320251 },
			{ 0.13126890361309052, 0.18112146854400635, -0.05980237200856209, 0.03945263847708702, -0.04234682768583298, -0.1367761790752411, 0.027711035683751106, -0.015480926260352135, -0.07606921344995499, 0.05630280822515488 },
			{ -0.06840599328279495, 0.006876600906252861, -0.2080696076154709, 0.15425187349319458, -0.0421614907681942, -0.21297593414783478, 0.07042382657527924, -0.14973166584968567, -0.1302785873413086, 0.02781532146036625 },
			{ -0.06965295970439911, -0.18109442293643951, -0.14177840948104858, 0.1280413419008255, -0.12358283996582031, 0.05261365324258804, 0.20015430450439453, -0.3101605772972107, 0.004166424740105867, -0.030793240293860435 },
			{ -0.04542124643921852, 0.13450227677822113, 0.004520941060036421, 0.11492285877466202, -0.0802772268652916, -0.0777537152171135, 0.08571770787239075, -0.3354085385799408, -0.10501323640346527, -0.3149440884590149 },
			{ -0.1360146552324295, -0.022953514009714127, 0.08188391476869583, 0.07890181243419647, -0.11588195711374283, -0.10818649083375931, 0.160164475440979, -0.3525767922401428, 0.014632020145654678, -0.19495290517807007 },
			{ -0.11519920080900192, 0.0357978492975235, 0.026417022570967674, -0.015428280457854271, -0.19579525291919708, -0.020661240443587303, 0.19821494817733765, -0.25535884499549866, 0.03764205798506737, -0.0168638713657856 },
			{ -0.1832389533519745, 0.03366943076252937, -0.08865498006343842, -0.020923789590597153, -0.14393268525600433, -0.08155736327171326, 0.14985322952270508, -0.2397909313440323, 0.02630010060966015, 0.06212163344025612 },
			{ -0.0005669532110914588, 0.10474877804517746, -0.006713035982102156, -0.1308699995279312, -0.09880414605140686, -0.0892072468996048, 0.16815154254436493, -0.2916991710662842, -0.01440231129527092, -0.19178754091262817 },
			{ -0.017174147069454193, 0.19707880914211273, -0.17323988676071167, -0.07919268310070038, -0.16867436468601227, 0.08023601025342941, -0.0057797497138381, -0.40333884954452515, -0.012414711527526379, -0.27818602323532104 },
			{ -0.17686890065670013, 0.01700596697628498, -0.18900969624519348, -0.11559715121984482, -0.11805388331413269, 0.11400426179170609, 0.10304370522499084, -0.07924250513315201, 0.021380631253123283, -0.22711730003356934 },
			{ -0.1351986676454544, 0.05703508108854294, -0.34977400302886963, -0.12158173322677612, -0.009834006428718567, -0.06003868207335472, 0.20888076722621918, -0.016001423820853233, 0.08850271254777908, -0.30600491166114807 },
			{ -0.20306706428527832, -0.22025907039642334, -0.2031518816947937, -0.2607095539569855, 0.013288863003253937, -0.10340861231088638, 0.06150280684232712, 0.12232883274555206, 0.1516258716583252, -0.29748713970184326 },
			{ -0.1115957722067833, -0.25263312458992004, -0.07336776703596115, -0.30597984790802, -0.038144271820783615, 0.07082628458738327, 0.05390354245901108, -0.02552078478038311, 0.16220282018184662, -0.07791728526353836 },
			{ -0.10647039860486984, -0.16399213671684265, 0.017459316179156303, -0.09930925071239471, -0.009897529147565365, 0.08526608347892761, 0.04949701204895973, -0.06149740889668465, -0.1154005378484726, 0.027302302420139313 },
			{ 0.11986781656742096, -0.05911543592810631, -0.07277297228574753, 0.033201344311237335, -0.07603311538696289, 0.07102897018194199, -0.05023878440260887, 0.008144167251884937, -0.17882350087165833, 0.046267688274383545 },
			{ -0.0035709498915821314, 0.013118244707584381, -0.16280195116996765, 0.07326298207044601, -0.0251788180321455, -0.030257461592555046, 0.05271533131599426, 0.09619629383087158, -0.2616002857685089, -0.2851022183895111 },
			{ -0.19579212367534637, 0.022447241470217705, -0.16124451160430908, 0.06364137679338455, -0.01282479427754879, -0.03315471485257149, 0.10699713975191116, 0.018336812034249306, -0.08436226099729538, -0.27704060077667236 },
			{ -0.07925187051296234, -0.03497263789176941, 0.028478624299168587, 0.08541008085012436, -0.048307791352272034, 0.008904168382287025, 0.025516364723443985, 0.027425793930888176, 0.02262633852660656, -0.19204799830913544 },
			{ -0.043001286685466766, 0.06112770736217499, 0.04982815310359001, 0.05274871364235878, -0.03441428020596504, -0.0590352788567543, 0.18851573765277863, -0.013327598571777344, -0.1319042593240738, -0.037572335451841354 },
			{ 0.052531998604536057, 0.005301595665514469, 0.059522196650505066, 0.03436773270368576, 0.0016286852769553661, -0.08168957382440567, -0.046332940459251404, -0.002062520943582058, -0.11537933349609375, 0.035041168332099915 },
			{ 0.02636541612446308, 0.17042505741119385, 0.005273464135825634, 0.048809964209795, 0.10957879573106766, -0.06838560849428177, 0.10674293339252472, -0.07770221680402756, -0.028979703783988953, 0.01180574856698513 },
			{ 0.019023699685931206, 0.10404325276613235, -0.00841730646789074, 0.016815191134810448, 0.04290104657411575, -0.07716897875070572, -0.00039821595419198275, -0.05294414237141609, -0.01190781407058239, -0.10587754100561142 },
			{ -0.06299843639135361, 0.1313799023628235, 0.013832854107022285, 0.02305307611823082, 0.0727386400103569, 0.03789813816547394, -0.027361877262592316, -0.17499250173568726, 0.012534032575786114, -0.13580268621444702 },
			{ 0.03375456854701042, -0.030131911858916283, -0.06366410851478577, -0.11542542278766632, 0.24017645418643951, 0.0308468509465456, 0.08061955124139786, -0.18961402773857117, 0.043873969465494156, -0.21401038765907288 },
			{ 0.003083315212279558, 0.090461865067482, -0.04809565842151642, -0.0584309883415699, 0.32059037685394287, -0.10432999581098557, 0.12348570674657822, -0.23489736020565033, 0.02182191237807274, -0.2351006120443344 },
			{ -0.13291709125041962, -0.029372410848736763, -0.06430548429489136, -0.09885759651660919, 0.22680343687534332, 0.014337791129946709, 0.015880702063441277, -0.09920233488082886, -0.03975486010313034, -0.23902340233325958 },
			{ -0.3083849549293518, -0.07816015183925629, -0.16423651576042175, 0.022386983036994934, 0.21262840926647186, 0.051787711679935455, 0.08325754851102829, -0.2260773479938507, 0.12828387320041656, -0.5381434559822083 },
			{ -0.09646108001470566, -0.13605177402496338, -0.17867709696292877, -0.08232919871807098, -0.013951935805380344, -0.019566528499126434, 0.08277422189712524, -0.13483990728855133, 0.12597762048244476, -0.20639434456825256 },
			{ 0.06940869241952896, -0.17925584316253662, -0.07498703896999359, -0.11862728744745255, -0.03599804267287254, 0.006500988733023405, 0.007614873815327883, 0.18318992853164673, -0.029536981135606766, -0.27133503556251526 },
			{ -0.17437346279621124, -0.04022539034485817, -0.07740042358636856, 0.03838648274540901, -0.030936801806092262, -0.18064039945602417, 0.007215396501123905, -0.04440726712346077, -0.033385422080755234, -0.3152964413166046 },
			{ -0.07118910551071167, -0.03481699898838997, -0.016349196434020996, 0.014810099266469479, -0.006001352798193693, -0.06329524517059326, 0.0866842120885849, 0.09620840847492218, -0.07390351593494415, -0.2798977494239807 },
			{ -0.15565285086631775, -0.06447284668684006, -0.053460583090782166, 0.0053160893730819225, 0.014424924738705158, -0.002138327807188034, 0.1412195861339569, 0.08812208473682404, -0.018800435587763786, -0.04345979914069176 },
			{ -0.03719068691134453, -0.06158047541975975, -0.08180259168148041, -0.026201432570815086, 0.07925917208194733, 0.0831703320145607, 0.17963677644729614, 0.1088971495628357, -0.14080142974853516, -0.10766322910785675 },
			{ 0.0266068484634161, 0.1515204757452011, -0.02467881701886654, -0.06647422909736633, 0.12195296585559845, 0.04229319095611572, 0.07817020267248154, 0.02210073173046112, 0.021104304119944572, -0.04032699763774872 },
			{ 0.01243672613054514, 0.19683809578418732, -0.0761672705411911, 0.05296148732304573, 0.12113665044307709, 0.01203649677336216, 0.004970464389771223, 0.048538487404584885, -0.1431606262922287, -0.05324173718690872 },
			{ -0.09897791594266891, 0.11132658272981644, -0.07096244394779205, -0.016292469576001167, 0.103276327252388, -0.0015431930078193545, -0.009644456207752228, -0.06981119513511658, 0.002647574758157134, 0.002194085856899619 },
			{ 0.01983470469713211, -0.02535618655383587, -0.024733012542128563, -0.07079777866601944, 0.02528810128569603, 0.06084480136632919, -0.009868325665593147, -0.08042924106121063, 0.11395268142223358, 0.08616974204778671 },
			{ 0.0005360208451747894, 0.0636998638510704, -0.09963074326515198, 0.08836988359689713, 0.10214712470769882, 0.05980329588055611, 0.03401386737823486, 0.04098276048898697, 0.07584530860185623, 0.11642030626535416 },
			{ -0.07420220226049423, -0.06785932928323746, -0.04027588292956352, -0.08086691051721573, 0.14545269310474396, -0.015404670499265194, -0.013675365597009659, -0.004754350055009127, 0.04838913306593895, -0.009542014449834824 },
			{ -0.054535821080207825, 0.056174177676439285, -0.006094696000218391, -0.09205862879753113, 0.13455593585968018, 0.07151876389980316, -0.05578043684363365, -0.18925970792770386, -0.024243807420134544, -0.1031087189912796 },
			{ 0.11402646452188492, -0.23579631745815277, -0.039437927305698395, -0.03874742239713669, 0.06983047723770142, -0.01937972754240036, -0.08361829817295074, -0.06140420585870743, 0.12762029469013214, -0.24808485805988312 },
			{ -0.07988796383142471, -0.12677210569381714, -0.17181365191936493, -0.15226967632770538, 0.09196700155735016, 0.17103064060211182, -0.05576866865158081, -0.19006980955600739, 0.04917529597878456, -0.267456591129303 },
			{ 0.01827075518667698, -0.27458706498146057, -0.0008766133105382323, 0.003025432350113988, -0.31991851329803467, -0.08675774931907654, -0.10610494762659073, 0.21017354726791382, -0.3480369448661804, -0.4158715009689331 },
			{ -0.22161640226840973, 0.04567119851708412, -0.018199538812041283, 0.0912185087800026, 0.029753774404525757, -0.06156056001782417, 0.04351835697889328, -0.10007238388061523, -0.010847484692931175, -0.13444016873836517 },
			{ -0.060891807079315186, 0.0114051578566432, -0.09865376353263855, -0.04452339932322502, 0.021217193454504013, 0.04950455576181412, 0.001753245946019888, -0.02719421684741974, 0.04956185072660446, 0.0017647685017436743 },
			{ -0.13003748655319214, -0.20210067927837372, -0.14954552054405212, -0.019398797303438187, 0.16333967447280884, 0.007558345794677734, 0.12157395482063293, 0.01049861405044794, -0.04064677283167839, -0.0672421082854271 },
			{ -0.12121916562318802, 0.027834076434373856, -0.05120092257857323, -0.1014542207121849, 0.253958135843277, 0.05333155021071434, 0.1257697343826294, 0.11510495096445084, -0.12348265945911407, -0.0311552956700325 },
			{ -0.06260275095701218, -0.028636015951633453, -0.04086805880069733, -0.06443601101636887, 0.22054418921470642, 0.06960202008485794, -0.004391053691506386, 0.18006861209869385, -0.006759703159332275, -0.12264738231897354 },
			{ -0.05078524351119995, 0.15359696745872498, -0.10434426367282867, -0.06261013448238373, 0.12146690487861633, 0.012534324079751968, 0.01815287582576275, 0.025642957538366318, -0.020912032574415207, -0.16059830784797668 },
			{ 0.020373860374093056, 0.1063026711344719, -0.11410773545503616, 0.08189251273870468, 0.1514456570148468, -0.1619240641593933, -0.07915477454662323, -0.005324556492269039, -0.05267421156167984, -0.04285076633095741 },
			{ 0.012843219563364983, 0.11784297972917557, -0.12662386894226074, -0.006303673144429922, 0.09894230961799622, -0.226204976439476, -0.1879751831293106, 0.03741211071610451, -0.06217493116855621, -0.017410771921277046 },
			{ -0.08140309154987335, 0.05760960653424263, -0.09055417776107788, 0.07450848817825317, 0.10829710960388184, -0.21619535982608795, 0.01059690024703741, 0.0018864066805690527, 0.10409661382436752, -0.00011890193854924291 },
			{ 0.14473320543766022, -0.0588664785027504, 0.03215208277106285, -0.01847626268863678, 0.13044416904449463, -0.22915026545524597, -0.16999207437038422, 0.0657816007733345, 0.10014262795448303, -0.06265223026275635 },
			{ 0.02904236875474453, -0.03755851835012436, 0.053099676966667175, 0.005827159155160189, 0.035817135125398636, 0.07754393666982651, -0.19305120408535004, 0.007916978560388088, 0.04169529303908348, -0.15405966341495514 },
			{ 0.10303153842687607, -0.16684550046920776, -0.011120196431875229, -0.18754801154136658, 0.003746730275452137, -0.004172912798821926, -0.20061711966991425, -0.1561165750026703, 0.19190916419029236, -0.16604375839233398 },
			{ -0.14482931792736053, -0.18052908778190613, -0.1284875124692917, -0.1445217877626419, 0.006233374588191509, 0.155380517244339, -0.09850241243839264, -0.0606006383895874, 0.01305233221501112, -0.15802745521068573 },
			{ 0.032739680260419846, -0.10818696022033691, -0.15000835061073303, 0.10077973455190659, -0.15246562659740448, -0.03171483799815178, -0.12150386720895767, 0.11443322151899338, -0.31069234013557434, -0.3351482152938843 },
			{ -0.19813711941242218, -0.043805934488773346, 0.011163855902850628, 0.10573141276836395, -0.20241978764533997, -0.08632976561784744, 0.026086682453751564, -0.18303276598453522, 0.04689819738268852, -0.08799731731414795 },
			{ -0.013238081708550453, -0.06044527143239975, -0.10944762825965881, -0.1245606541633606, 0.07533885538578033, 0.01792929880321026, 0.04157552495598793, 0.06130388006567955, 0.04417816177010536, 0.11877366900444031 },
			{ 0.10651461780071259, -0.20795786380767822, -0.059212833642959595, -0.15117034316062927, 0.11086329817771912, 0.0293534304946661, 0.22094769775867462, -0.04068900644779205, 0.025370432063937187, 0.11572062969207764 },
			{ 0.10968217998743057, -0.16144652664661407, 0.005497985053807497, -0.2660215497016907, 0.1984104961156845, 0.020650997757911682, 0.08885208517313004, 0.0639427900314331, 0.044600293040275574, -0.08410734683275223 },
			{ -0.03152456134557724, -0.04426860436797142, -0.029468730092048645, -0.16712342202663422, 0.18098585307598114, 0.1324029117822647, 0.007816600613296032, 0.1067136898636818, -0.010794239118695259, -0.021960975602269173 },
			{ -0.01767685078084469, 0.07224629074335098, -0.08011587709188461, -0.061202310025691986, 0.15527169406414032, 0.0694049820303917, -0.04157961159944534, 0.02824762836098671, 0.008443172089755535, -0.10137244313955307 },
			{ 0.024240540340542793, 0.08797512948513031, -0.10123386979103088, 0.0042860000394284725, 0.06195041164755821, -0.14777152240276337, -0.07958342880010605, -0.03452350199222565, -0.10071652382612228, -0.051511604338884354 },
			{ -0.10291808098554611, 0.07744868844747543, 0.019464552402496338, 0.056781936436891556, 0.10760318487882614, -0.24709725379943848, -0.31643885374069214, 0.16896359622478485, 0.022531501948833466, 0.047235824167728424 },
			{ 0.0744362324476242, -0.09354276210069656, 0.09937988221645355, -0.04571659490466118, 0.18646682798862457, -0.2894117832183838, -0.24752669036388397, 0.11364912241697311, 0.11211655288934708, -0.027992097660899162 },
			{ 0.011382019147276878, -0.009228809736669064, 0.078090600669384, -0.02637626603245735, 0.09863486886024475, -0.3258684277534485, -0.15289166569709778, 0.04966340959072113, 0.13350121676921844, -0.017052240669727325 },
			{ 0.17800869047641754, -0.07751145213842392, 0.060939591377973557, -0.11610237509012222, -0.1252891570329666, -0.12002820521593094, -0.061608608812093735, -0.081513911485672, 0.14730486273765564, 0.001272230176255107 },
			{ 0.12430129945278168, 0.08942412585020065, 0.11542749404907227, -0.10655581951141357, -0.2428712397813797, 0.034206390380859375, -0.13495145738124847, -0.2206532210111618, 0.08256062120199203, 0.026621509343385696 },
			{ 0.07246103882789612, -0.25216561555862427, -0.03395933657884598, -0.23982974886894226, 0.005572827532887459, 0.2834254801273346, -0.30678901076316833, -0.18303054571151733, -0.10396335273981094, -0.1399765908718109 },
			{ 0.14906178414821625, -0.3168480098247528, -0.10192699730396271, 0.13851669430732727, -0.024517614394426346, -0.44452595710754395, -0.24935421347618103, 0.1210232675075531, -0.1946554332971573, -0.2697126567363739 },
			{ -0.10092800110578537, 0.0042501590214669704, 0.00367480656132102, 0.04258772358298302, -0.14678660035133362, -0.08726540207862854, 0.0469018816947937, -0.10947392135858536, 0.008922920562326908, 0.15998756885528564 },
			{ 0.052553147077560425, -0.1925991177558899, -0.10941728204488754, -0.12345956265926361, -0.019015401601791382, -0.16958442330360413, 0.033145103603601456, -0.05685993656516075, 0.10312525928020477, 0.1544196605682373 },
			{ 0.07928816974163055, -0.1947467178106308, -0.10044611245393753, -0.22478267550468445, 0.10533361881971359, -0.02899186871945858, 0.19183525443077087, -0.09323516488075256, -0.000676228606607765, 0.0605483278632164 },
			{ 0.008671825751662254, -0.2915269136428833, 0.039627555757761, -0.28784871101379395, 0.1397334486246109, -0.03420841693878174, 0.10373789817094803, 0.0910826101899147, 0.04847603663802147, 0.09977161884307861 },
			{ -0.02227204665541649, -0.11161527782678604, -0.13381437957286835, -0.16689613461494446, 0.2402474284172058, 0.09657429903745651, 0.11984649300575256, -0.08208415657281876, -0.016071567311882973, 0.0068109058775007725 },
			{ -0.07828035950660706, 0.1402268260717392, -0.1038949191570282, -0.057808972895145416, 0.06614477932453156, 0.02976112812757492, 0.018266214057803154, 0.0006283135735429823, -0.020182710140943527, 0.009544787928462029 },
			{ -0.11302059143781662, 0.15185339748859406, -0.11039968580007553, -0.00674468046054244, 0.1669449508190155, -0.19752582907676697, -0.17202693223953247, 0.10074403136968613, 0.0453806109726429, 0.02736375294625759 },
			{ 0.04135635122656822, 0.02437654510140419, -0.0780099555850029, -0.005041205324232578, 0.19100135564804077, -0.22351069748401642, -0.14386770129203796, 0.08800135552883148, 0.020625324919819832, 0.016910316422581673 },
			{ -0.00813529547303915, -0.13067379593849182, 0.1392766237258911, -0.05637897551059723, 0.09038329124450684, -0.32141831517219543, -0.12199182063341141, 0.052977871149778366, 0.12234591692686081, -0.04042870178818703 },
			{ 0.200448676943779, -0.10901772230863571, 0.04058488830924034, -0.07582197338342667, 0.046859096735715866, -0.3634412884712219, -0.19872795045375824, 0.06930053234100342, 0.038091991096735, -0.1148495003581047 },
			{ 0.13932925462722778, -0.18680496513843536, 0.01810297556221485, -0.07757808268070221, -0.08370433002710342, -0.13712868094444275, -0.13048230111598969, -0.011991561390459538, 0.21737812459468842, -0.024451857432723045 },
			{ 0.16878196597099304, -0.040443360805511475, 0.18966573476791382, -0.016160668805241585, -0.2464582771062851, -0.03174683824181557, 0.0636603832244873, -0.052286140620708466, 0.020806163549423218, -0.10247281193733215 },
			{ 0.1030459776520729, -0.0924089327454567, 0.05418448522686958, -0.31506937742233276, -0.31281453371047974, 0.22829197347164154, -0.04929135739803314, -0.177885964512825, 0.09606590121984482, -0.1301669329404831 },
			{ -0.0211662445217371, -0.1723947674036026, 0.029982930049300194, 0.20534591376781464, -0.15083275735378265, -0.2012535035610199, -0.209124356508255, 0.0793163925409317, -0.15518026053905487, -0.19058004021644592 },
			{ -0.17551714181900024, 0.020833129063248634, -0.06449132412672043, 0.027166306972503662, -0.2136181741952896, 0.014385780319571495, 0.06035110354423523, 0.001657991437241435, -0.0441565178334713, 0.18427002429962158 },
			{ 0.15760958194732666, -0.07191917300224304, -0.19299136102199554, -0.09950617700815201, -0.10237017273902893, -0.18577329814434052, 0.2497420758008957, -0.0037421188317239285, -0.030062703415751457, 0.14457881450653076 },
			{ 0.024371884763240814, -0.028947418555617332, -0.11163033545017242, -0.08492438495159149, 0.017182227224111557, -0.026058347895741463, 0.18265682458877563, -0.019930919632315636, 0.007752079050987959, 0.09155578166246414 },
			{ 0.06365279853343964, -0.22646474838256836, -0.1781114637851715, -0.1945626437664032, 0.09510114789009094, -0.010843785479664803, 0.08337476849555969, 0.08794242888689041, 0.03549598902463913, 0.07599043101072311 },
			{ 0.10014275461435318, -0.20062156021595, -0.22925658524036407, -0.2938931882381439, 0.15613199770450592, 0.0238865464925766, 0.1291881948709488, -0.031539250165224075, -0.07492763549089432, -0.05755644291639328 },
			{ -0.12530815601348877, 0.18881642818450928, -0.12064466625452042, 0.039940446615219116, -0.029702555388212204, -0.09280281513929367, 0.07025855034589767, 0.02534230425953865, 0.007247086148709059, -0.08654975146055222 },
			{ -0.16287948191165924, 0.1165628582239151, 0.002396530006080866, 0.02823839709162712, 0.1748948097229004, -0.20904619991779327, -0.07105284184217453, 0.09657291322946548, -0.004672127775847912, 0.04914247244596481 },
			{ 0.004469840321689844, 0.05236819013953209, 0.08994761854410172, 0.013984370045363903, 0.100065216422081, -0.26652663946151733, -0.15256747603416443, 0.09488234668970108, -0.03641433268785477, 0.06042651832103729 },
			{ 0.11468833684921265, -0.1347377747297287, 0.05682115629315376, -0.06381076574325562, 0.12454446405172348, -0.29681506752967834, -0.1315082460641861, 0.040458131581544876, -0.15099817514419556, 0.042678140103816986 },
			{ 0.12664175033569336, -0.036662761121988297, 0.08210942149162292, -0.09461849927902222, 0.009072959423065186, -0.2896694540977478, -0.04489247500896454, 0.06595216691493988, -0.029541093856096268, -0.05779892951250076 },
			{ 0.15151609480381012, -0.07294075936079025, 0.08481722325086594, -0.09165050834417343, -0.08477148413658142, -0.09272528439760208, 0.07761915028095245, -0.0927036926150322, 0.11306311190128326, -0.037676453590393066 },
			{ 0.15379895269870758, -0.003904135664924979, -0.024783853441476822, -0.1385745406150818, -0.14758339524269104, -0.0197376050055027, 0.13285104930400848, -0.18849635124206543, -0.028980134055018425, -0.18265081942081451 },
			{ 0.15944387018680573, 0.06417900323867798, 0.09603001922369003, -0.43330007791519165, -0.25744473934173584, -0.0811493918299675, 0.16498258709907532, -0.04792470484972, 0.02771548368036747, -0.20016498863697052 },
			{ -0.2142764925956726, 0.05650915950536728, 0.06517933309078217, 0.1763075739145279, -0.34886133670806885, -0.16311126947402954, -0.05356741324067116, 0.29052919149398804, -0.031709250062704086, -0.15521101653575897 },
			{ -0.05242128297686577, -0.011077577248215675, 0.020977530628442764, -0.03986293077468872, -0.04945344477891922, 0.015315993689000607, 0.02736850269138813, -0.06365543603897095, -0.13310621678829193, 0.07079200446605682 },
			{ 0.23997659981250763, -0.25078558921813965, -0.09247925132513046, -0.06387229263782501, -0.07125917077064514, -0.03548990935087204, 0.15467716753482819, 0.06311584264039993, -0.10782433301210403, -0.02779383212327957 },
			{ 0.1802617758512497, 0.0434742271900177, -0.14939218759536743, -0.1616688370704651, 0.09586761891841888, -0.1682893931865692, 0.016519514843821526, 0.12762510776519775, 0.0388021320104599, 0.018839111551642418 },
			{ 0.12231703102588654, -0.2943871021270752, -0.12297271192073822, -0.12800486385822296, 0.032460711896419525, -0.0540725477039814, 0.18902216851711273, 0.14878325164318085, -0.018541717901825905, -0.059364862740039825 },
			{ 0.15021176636219025, 0.09655816853046417, -0.08463136851787567, -0.07933790236711502, 0.07888489216566086, -0.052324239164590836, 0.1177285835146904, -0.16385546326637268, 0.045887574553489685, -0.05370264872908592 },
			{ -0.24822492897510529, 0.14999617636203766, 0.006140233017504215, 0.0714431181550026, -0.027392610907554626, -0.0924527570605278, 0.1033814400434494, -0.03270163759589195, 0.06572355329990387, 0.03467055782675743 },
			{ -0.2835981845855713, 0.11717934161424637, 0.028524333611130714, -0.1080479845404625, 0.14696362614631653, -0.20504172146320343, -0.029126640409231186, 0.00844715815037489, -0.007527427282184362, -0.009495219215750694 },
			{ 0.17024067044258118, -0.06086574122309685, 0.15196016430854797, -0.017539052292704582, 0.15469780564308167, -0.15655873715877533, -0.10004264861345291, 0.07010344415903091, -0.06530218571424484, -0.014669905416667461 },
			{ -0.02974752150475979, -0.13806113600730896, 0.14219671487808228, -0.1435844749212265, 0.10498478263616562, -0.15637733042240143, -0.09290966391563416, 0.19387319684028625, -0.19952191412448883, 0.04563850909471512 },
			{ 0.15485721826553345, -0.1946461945772171, 0.025427039712667465, -0.11865946650505066, 0.03200140967965126, -0.07629760354757309, 0.014691405929625034, 0.20812223851680756, -0.11231683194637299, 0.05835743248462677 },
			{ 0.06806102395057678, -0.10459260642528534, 0.0015729276929050684, -0.07268127053976059, -0.11715710163116455, -0.05287376418709755, 0.16039082407951355, 0.017539937049150467, -0.004679782781749964, -0.08715134859085083 },
			{ -0.009353477507829666, -0.04495844617486, -0.0508602038025856, -0.1499561220407486, 0.07376819849014282, 0.06915939599275589, 0.14973044395446777, -0.14067143201828003, -0.002929206471890211, -0.008571836166083813 },
			{ 0.16701023280620575, -0.01838010922074318, 0.22788316011428833, -0.13912096619606018, -0.2026555985212326, -0.11218541115522385, 0.11954202502965927, -0.2719857394695282, -0.16041478514671326, -0.2029394805431366 },
			{ -0.11993198096752167, 0.18120811879634857, 0.08412805944681168, -0.006857245694845915, -0.17953728139400482, -0.18303009867668152, -0.1007218211889267, 0.2744816839694977, -0.002154787303879857, -0.01960889808833599 },
			{ 0.10264766216278076, -0.15133099257946014, 0.08932104706764221, -0.03986459970474243, -0.09294436126947403, -0.034617628902196884, -0.06666454672813416, 0.018316734582185745, -0.14661291241645813, 0.08767899125814438 },
			{ 0.0888652354478836, -0.29077374935150146, -0.049513377249240875, -0.0827278345823288, -0.06913963705301285, -0.015130313113331795, 0.03006438910961151, 0.07329510897397995, 0.05295690521597862, -0.04093346744775772 },
			{ 0.1342504918575287, -0.0002754598390311003, -0.036170702427625656, -0.2690076231956482, 0.09928145259618759, -0.07087375223636627, 0.014167231507599354, 0.17112892866134644, 0.1480179876089096, -0.012401356361806393 },
			{ 0.1268351972103119, 0.012389779090881348, 0.05295766517519951, -0.22063922882080078, -0.022852560505270958, -0.08720269799232483, 0.06644406169652939, 0.034378502517938614, 0.10060369223356247, -0.05517105758190155 },
			{ 0.14215488731861115, 0.0230401698499918, 0.10786588490009308, -0.10012413561344147, 0.05771704763174057, -0.11877205967903137, 0.09026996046304703, -0.08865915983915329, 0.08533737063407898, -0.02014533430337906 },
			{ -0.1766906976699829, 0.27486738562583923, -0.008948488160967827, -0.2277067005634308, 0.07282287627458572, -0.1914895474910736, 0.09497725963592529, -0.024293800815939903, -0.03341645002365112, 0.0027883374132215977 },
			{ 0.03477450832724571, 0.11627589166164398, -0.027481622993946075, -0.1538463979959488, 0.12009323388338089, -0.08996428549289703, 0.05446987971663475, 0.014951452612876892, -0.04608876630663872, 0.09738980978727341 },
			{ -0.07612191885709763, 0.03182235360145569, 0.03933221474289894, -0.011972295120358467, 0.013759048655629158, -0.01778666116297245, 0.0019088243134319782, 0.12711268663406372, -0.08540912717580795, -0.0823606476187706 },
			{ -0.0047745308838784695, -0.07094519585371017, 0.010712409391999245, -0.009617256000638008, 0.12702275812625885, -0.004415477160364389, 0.08870524913072586, -0.014574630185961723, -0.14646221697330475, 0.10694750398397446 },
			{ 0.09641558676958084, -0.18563535809516907, -0.07569888234138489, 0.10697128623723984, -0.04778660833835602, -0.0008085948647931218, 0.014446449466049671, 0.051128193736076355, -0.09506815671920776, -0.08002191036939621 },
			{ 0.052241306751966476, -0.022079525515437126, -0.17202523350715637, 0.10428495705127716, -0.15519189834594727, 0.14312143623828888, -0.05846298113465309, 0.0912666767835617, 0.01137745101004839, -0.17065958678722382 },
			{ -0.023509562015533447, 0.15258683264255524, 0.005621488206088543, -0.11464729905128479, -0.005432209465652704, -0.08823377639055252, 0.1431863009929657, 0.022355856373906136, -0.012060806155204773, 0.014119709841907024 },
			{ 0.0032431313302367926, -0.0039141918532550335, 0.018246883526444435, -0.17541754245758057, -0.03524576127529144, 0.13686366379261017, 0.10572335869073868, -0.06226033344864845, 0.005158426705747843, -0.3835310637950897 },
			{ -0.0901249572634697, 0.09974731504917145, 0.1336963027715683, -0.18399018049240112, 0.12540826201438904, 0.019583284854888916, -0.20733171701431274, -0.07588864117860794, -0.27032706141471863, -0.1053871363401413 },
			{ 0.07958266884088516, -0.16024290025234222, 0.020922567695379257, -0.10459110140800476, -0.03816606104373932, -0.1593266874551773, -0.004793074913322926, 0.02668336220085621, -0.06996213644742966, -0.15124014019966125 },
			{ 0.025108803063631058, -0.24462494254112244, 0.07579516619443893, -0.17698128521442413, 0.005495162680745125, -0.03405986353754997, 0.002425222424790263, 0.15670756995677948, 0.18438056111335754, -0.0801917240023613 },
			{ 0.17619101703166962, -0.09630973637104034, -0.018641918897628784, -0.11376408487558365, -0.03301214426755905, -0.1963883340358734, 0.0828733965754509, 0.18026289343833923, 0.08105553686618805, -0.20080773532390594 },
			{ 0.0752360075712204, -0.049983780831098557, 0.061987150460481644, -0.21721163392066956, -0.056465115398168564, -0.024939363822340965, 0.14389576017856598, 0.038741692900657654, 0.07560625672340393, -0.1347058266401291 },
			{ 0.022172648459672928, 0.057357706129550934, 0.01755364052951336, -0.1998806744813919, 0.09296336024999619, -0.15443292260169983, 0.03561916574835777, -0.09405305236577988, 0.004160999320447445, -0.20710717141628265 },
			{ -0.012307549826800823, 0.1300080567598343, 0.10494372248649597, -0.19638948142528534, -0.001298649120144546, -0.146571546792984, 0.10820598155260086, -0.040253110229969025, -0.027275852859020233, -0.012932023033499718 },
			{ 0.002318411134183407, -0.037561528384685516, 0.015549703501164913, -0.18002966046333313, 0.10958544909954071, -0.08431793749332428, 0.19153845310211182, 0.04596823453903198, -0.05593575909733772, 0.0398244708776474 },
			{ 0.03376312181353569, -0.0873715877532959, -0.058830127120018005, 0.056010615080595016, 0.033535730093717575, 0.018423156812787056, 0.08812731504440308, 0.011290883645415306, 0.00734873628243804, -0.014063138514757156 },
			{ 0.05175439268350601, -0.060452669858932495, -0.10972786694765091, -0.03523797541856766, -0.07476750761270523, -0.032053109258413315, 0.005202643573284149, -0.05528823286294937, 0.06254583597183228, -0.014200584962964058 },
			{ 0.02941497229039669, -0.08936186134815216, -0.07720838487148285, 0.13417470455169678, 0.0064174337312579155, 0.04216562956571579, 0.003421847242861986, 0.056367259472608566, -0.004025910049676895, -0.17382410168647766 },
			{ -0.0038829215336591005, 0.09836399555206299, -0.11064641922712326, -0.10168005526065826, -0.0951204001903534, 0.16815243661403656, -0.17135082185268402, -0.13123364746570587, 0.18716850876808167, 0.01320093683898449 },
			{ -0.10868532210588455, 0.0680118203163147, 0.13695232570171356, -0.09351631999015808, -0.11391405016183853, -0.036288365721702576, 0.1258516013622284, -0.14366978406906128, 0.04385187849402428, -0.06304790079593658 },
			{ -0.07938273996114731, 0.06269775331020355, 0.0004024415393359959, -0.14993077516555786, 0.04590757563710213, 0.1729055941104889, 0.0009585698135197163, -0.1599409282207489, 0.08976192027330399, -0.07657220214605331 },
			{ 0.05851464346051216, -0.20656727254390717, 0.32634079456329346, -0.03554929792881012, -0.010359303094446659, 0.08816763013601303, -0.26799505949020386, 0.020632324740290642, -0.36795663833618164, -0.2044920027256012 },
			{ 0.06878768652677536, -0.09896794706583023, 0.07563668489456177, 0.03576825559139252, -0.13835673034191132, -0.07820668816566467, -0.06004545837640762, -0.1081429123878479, 0.035161085426807404, -0.019934743642807007 },
			{ 0.095594622194767, 0.06716103106737137, 0.0387490876019001, -0.09140114486217499, -0.1096089631319046, -0.09562553465366364, -0.009932702407240868, 0.014144854620099068, 0.15197332203388214, 0.013287004083395004 },
			{ 0.14804446697235107, -0.02883266843855381, 0.14370867609977722, -0.17226487398147583, 0.01741058938205242, -0.20797887444496155, -0.019376816228032112, 0.1825234591960907, 0.09471757709980011, -0.16300846636295319 },
			{ 0.11366364359855652, -0.08036961406469345, 0.19555966556072235, -0.31221598386764526, -0.014399879612028599, -0.13484987616539001, 0.02767971344292164, -0.03924783691763878, 0.19199180603027344, -0.18269363045692444 },
			{ 0.07711271941661835, 0.04026303440332413, 0.05554081127047539, -0.21905161440372467, 0.0013640453107655048, -0.15166446566581726, 0.0479726642370224, 0.12276265770196915, 0.14884380996227264, 0.023852534592151642 },
			{ -0.04801284521818161, -0.018280360847711563, -0.09760378301143646, -0.10783576220273972, 0.06966222822666168, -0.06145992875099182, 0.03366342559456825, 0.13504615426063538, 0.1265544593334198, 0.06029690429568291 },
			{ 0.11385109275579453, -0.12234004586935043, -0.12153620272874832, -0.06355299800634384, -0.0187184177339077, 0.001686247531324625, 0.03389333188533783, 0.028345871716737747, 0.038434743881225586, 0.027347764000296593 },
			{ 0.024982459843158722, -0.19602365791797638, -0.14414113759994507, -0.022807160392403603, -0.03518661484122276, 0.08695723116397858, 0.053748153150081635, 0.006689175963401794, 0.0398484505712986, -0.059837862849235535 },
			{ 0.05812729150056839, -0.02006450667977333, -0.044382449239492416, 0.03791094943881035, -0.07878158241510391, 0.04292892664670944, 0.005693814717233181, -0.08299656957387924, 0.01625232957303524, -0.02801448293030262 },
			{ -0.060564376413822174, -0.13474100828170776, -0.013905730098485947, -0.009965895675122738, -0.04528885334730148, 0.1194319874048233, 0.06133934110403061, -0.1206190213561058, 0.03851098567247391, -0.18822158873081207 },
			{ -0.11997748911380768, 0.07855156809091568, 0.07026056200265884, -0.10993485897779465, 0.01624368503689766, 0.052806414663791656, -0.17488637566566467, -0.13271136581897736, 0.04029695317149162, 0.019736945629119873 },
			{ -0.17603546380996704, -0.1362455040216446, 0.11222334206104279, -0.18100154399871826, -0.07156319916248322, 0.2383141815662384, 0.0046102977357804775, -0.3585977256298065, -0.038203440606594086, 0.11906683444976807 },
			{ -0.18540504574775696, 0.17749884724617004, 0.11354798078536987, -0.19913868606090546, -0.006028813309967518, 0.0015746649587526917, -0.16301943361759186, -0.045413900166749954, -0.0917462632060051, 0.15356522798538208 },
			{ -0.049821700900793076, -0.060417793691158295, 0.12625466287136078, 0.0849907249212265, 0.05521612614393234, -0.20460081100463867, -0.003014723537489772, -0.07172784209251404, -0.06050495058298111, -0.3177909553050995 },
			{ 0.11204870045185089, -0.1301850974559784, 0.1508684754371643, -0.11346375197172165, -0.14754290878772736, -0.06343483179807663, -0.0009873360395431519, -0.10547077655792236, -0.07946719229221344, -0.12433751672506332 },
			{ 0.13317880034446716, 0.043817367404699326, 0.07840605825185776, -0.0483158603310585, 0.04843742027878761, -0.1050102710723877, -0.11554030328989029, 0.13585281372070312, 0.1245533674955368, -0.12156418710947037 },
			{ 0.13538508117198944, 0.025406435132026672, 0.0615554079413414, -0.15163591504096985, -0.003920965828001499, -0.14013159275054932, -0.03206002339720726, -0.04458387568593025, 0.08533135801553726, 0.09063273668289185 },
			{ -0.040497470647096634, -0.045652639120817184, 0.012570426799356937, -0.27821436524391174, 0.05646879971027374, -0.2272554486989975, 0.05680760368704796, 0.0825321227312088, 0.11034735292196274, -0.01865316368639469 },
			{ -0.1316545158624649, -0.006021083332598209, -0.008946181274950504, -0.09723979979753494, 0.0995573103427887, -0.11021247506141663, -0.05633511394262314, 0.08044660091400146, 0.1313183754682541, 0.024154582992196083 },
			{ -0.2081071436405182, -0.03394113853573799, -0.15561175346374512, 0.01211461704224348, -0.013192967511713505, -0.05423510819673538, -0.015920015051960945, 0.013433235697448254, 0.026844311505556107, -0.07361418008804321 },
			{ -0.11829857528209686, -0.12765716016292572, -0.11321209371089935, -0.07474759966135025, 0.08141101151704788, 0.08189961314201355, -0.0001763471373124048, -0.009103666990995407, 0.02780693583190441, -0.003078593173995614 },
			{ -0.048693254590034485, -0.08027931302785873, 0.03359631076455116, 0.01582619547843933, 0.006684068124741316, 0.06776019185781479, 0.01874084584414959, -0.00672293221578002, 0.09329847991466522, 0.0018245476530864835 },
			{ -0.228124737739563, 0.15892310440540314, -0.08093671500682831, 0.04687095433473587, -0.014094322919845581, 0.04841562733054161, 0.05400381609797478, -0.009675076231360435, 0.04608514904975891, 0.028745802119374275 },
			{ 0.01101729553192854, 0.12467507272958755, -0.058272287249565125, -0.03122686594724655, 0.030589209869503975, -0.03965550288558006, 0.018484070897102356, -0.19644217193126678, 0.006249230820685625, -0.042936284095048904 },
			{ -0.18334248661994934, 0.2643830478191376, 0.1592033952474594, -0.16488289833068848, 0.13291344046592712, 0.03955342248082161, -0.027205564081668854, -0.23046937584877014, -0.09281038492918015, 0.0635049045085907 },
			{ -0.25862836837768555, 0.0417591854929924, 0.14473676681518555, -0.1499643474817276, 0.048664823174476624, 0.06570383161306381, -0.2275978922843933, -0.24980051815509796, 0.05363820493221283, 0.11538223177194595 },
			{ -0.11639707535505295, -0.05126198008656502, 0.1983197033405304, -0.1644705981016159, 0.05916661024093628, 0.04678202420473099, -0.2927350401878357, -0.12862005829811096, -0.23685896396636963, 0.06743569672107697 },
			{ 0.14502468705177307, -0.08102937787771225, 0.24353238940238953, 0.015375254675745964, -0.0806393176317215, -0.15725362300872803, -0.132013738155365, -0.27903518080711365, -0.15089331567287445, 0.011022456921637058 },
			{ 0.042721617966890335, -0.07738698273897171, 0.07330761849880219, 0.007257094606757164, -0.179742693901062, -0.0814204216003418, -0.18557259440422058, 0.12832771241664886, -0.0213462021201849, -0.04569678381085396 },
			{ -0.09953508526086807, -0.024555006995797157, 0.004453859757632017, -0.06736553460359573, -0.08004005253314972, -0.17041932046413422, -0.047089584171772, 0.20207716524600983, -0.09726902842521667, -0.03572854772210121 },
			{ 5.449639866128564e-05, 0.09734155237674713, 0.013641925528645515, -0.13656947016716003, -0.02007068134844303, -0.01748526096343994, 0.025993183255195618, 0.03503219783306122, -0.09886300563812256, 0.025762047618627548 },
			{ -0.1387878656387329, 0.06621366739273071, 0.06738457083702087, 0.011457168497145176, 0.04628010466694832, -0.15077662467956543, -0.020724602043628693, -0.0006973408162593842, -0.10743997991085052, 0.04780793562531471 },
			{ -0.05745913088321686, -0.08300553262233734, -0.1497686505317688, -0.031999021768569946, 0.08599912375211716, -0.04664231836795807, -0.004446100443601608, 0.045623958110809326, -0.08479177951812744, 0.0927591547369957 },
			{ -0.20956896245479584, 0.06914505362510681, -0.18876539170742035, 0.061423663049936295, 0.0298714991658926, -0.09581848233938217, -0.10895272344350815, 0.09855509549379349, -0.08105029165744781, 0.08866475522518158 },
			{ -0.13083136081695557, 0.001924303942359984, -0.10751764476299286, -0.013469419442117214, 0.06679116189479828, 0.0057499525137245655, -0.15024004876613617, 0.1617305874824524, -0.12953326106071472, 0.030381429940462112 },
			{ -0.40586191415786743, 0.13067564368247986, -0.11438034474849701, 0.16053910553455353, 0.11357169598340988, 0.02522520162165165, -0.10609421133995056, 0.056082118302583694, -0.10519692301750183, 0.059881214052438736 },
			{ -0.3425563871860504, 0.16539587080478668, -0.2635965347290039, -0.0798439085483551, 0.10513617843389511, -0.03203437849879265, -0.09142377972602844, 0.061312124133110046, 0.00340066640637815, 0.0749296247959137 },
			{ -0.16524744033813477, 0.21995793282985687, 0.08504711836576462, 0.006820470094680786, 0.17088356614112854, 0.08872869610786438, -0.17594850063323975, -0.1228821873664856, 0.025164291262626648, 0.0036438098177313805 },
			{ -0.32834330201148987, 0.17966897785663605, 0.09091227501630783, -0.20496129989624023, -0.10693356394767761, -0.002496090019121766, 0.004269206430763006, -0.10205887258052826, -0.2588368058204651, 0.14882983267307281 },
			{ -0.16603712737560272, -0.07736730575561523, 0.09856788069009781, -0.30855250358581543, 0.030276188626885414, -0.02246776781976223, -0.20837317407131195, -0.06899852305650711, -0.030965879559516907, 0.19691167771816254 },
			{ -0.13194990158081055, -0.23578767478466034, 0.18134528398513794, -0.09942575544118881, 0.004770593252032995, 0.03395898640155792, -0.39792370796203613, -0.14854420721530914, -0.21558736264705658, 0.050861045718193054 },
			{ -0.2348853051662445, -0.18803903460502625, -0.11438082158565521, -0.02875414490699768, -0.21494223177433014, 0.05312637239694595, 0.018397856503725052, 0.04798019304871559, 0.11274011433124542, -0.05647872015833855 },
			{ 0.04450888931751251, 0.001660413108766079, -0.027142617851495743, -0.1429031640291214, -0.14684629440307617, -0.04457877576351166, -0.2972356379032135, 0.24335725605487823, -0.03321389481425285, -0.014942541718482971 },
			{ 0.024492280557751656, -0.06859859824180603, 0.06800399720668793, 0.017301613464951515, 0.04738862067461014, -0.1679171621799469, -0.09316041320562363, 0.10803794860839844, -0.008549096062779427, 0.13466167449951172 },
			{ -0.010802838951349258, 0.06992755085229874, -0.006484721787273884, 0.04870983585715294, -0.01400720328092575, -0.05150553584098816, -0.1261187493801117, 0.08810634911060333, -0.06707937270402908, 0.12808258831501007 },
			{ -0.1278645545244217, 0.007317633833736181, -0.15356473624706268, 0.22681523859500885, 0.062039900571107864, -0.09595554322004318, -0.09503660351037979, 0.036052290350198746, -0.22603832185268402, 0.03888976201415062 },
			{ 0.035456087440252304, -0.007976923137903214, -0.24486464262008667, 0.20666883885860443, -0.1163339838385582, -0.0629100501537323, -0.08281050622463226, 0.014645587652921677, -0.11113182455301285, 0.1146979033946991 },
			{ -0.18142595887184143, -0.0012987115187570453, -0.297179251909256, 0.06288345158100128, 0.06296784430742264, 0.05348987132310867, -0.15218780934810638, 0.07633183896541595, -0.2041410505771637, 0.11843716353178024 },
			{ -0.29928579926490784, -0.020078131929039955, -0.2531254291534424, 0.04154091700911522, -0.07837224006652832, -0.017083069309592247, -0.11131300032138824, 0.18623574078083038, -0.02711690030992031, 0.06169712916016579 },
			{ -0.4800031781196594, 0.05034951493144035, -0.29349589347839355, 0.11798923462629318, 0.07936836034059525, 0.09762030839920044, -0.10827291756868362, 0.1394926905632019, -0.1029495820403099, -0.015309938229620457 },
			{ -0.38705360889434814, -0.11896544694900513, -0.2044794112443924, -0.01705930009484291, -0.15707986056804657, -0.01737838052213192, -0.20745617151260376, 0.11032839864492416, -0.08760270476341248, 0.2971020042896271 },
			{ -0.3940315246582031, -0.38666266202926636, 0.12860006093978882, -0.17163926362991333, -0.0699026882648468, 0.0710909366607666, -0.33960217237472534, 0.10717782378196716, -0.2457076907157898, 0.23732374608516693 },
			{ -0.37248021364212036, -0.12903828918933868, -0.2215694785118103, 0.17699378728866577, -0.3289192020893097, 0.0992569550871849, -0.25146040320396423, 0.008041851222515106, -0.42624297738075256, 0.2271125465631485 },
			{ -0.2015264928340912, 0.2745058238506317, -0.02828175202012062, -0.1497289389371872, -0.07572094351053238, 0.03965477645397186, -0.07741902023553848, -0.008744915947318077, -0.5404000282287598, 0.15380357205867767 },
			{ -0.007538740988820791, 0.08432019501924515, -0.1609734743833542, -0.07816918194293976, 0.09363103657960892, 0.11523468047380447, -0.035985998809337616, -0.02128506265580654, -0.42961132526397705, -0.1262405514717102 },
			{ 0.0883522629737854, 0.3797891139984131, -0.1391635239124298, -0.1367703229188919, -0.12750686705112457, -0.11964293569326401, -0.005594306625425816, 0.16719353199005127, -0.5380371809005737, 0.2996710240840912 },
			{ 0.17942047119140625, 0.37596967816352844, -0.1674516797065735, -0.07395526766777039, -0.19227983057498932, -0.2997346520423889, 0.1704588234424591, 0.22313377261161804, -0.4143252372741699, 0.14001496136188507 },
			{ -0.24538740515708923, 0.23377449810504913, -0.13347721099853516, 0.17459283769130707, -0.2616356909275055, -0.28732508420944214, 0.32083457708358765, -0.12273865938186646, -0.37632280588150024, 0.148436039686203 },
			{ -0.1785283386707306, -0.011749478988349438, -0.02301199920475483, 0.018330920487642288, -0.034500714391469955, -0.062066078186035156, 0.08012758195400238, -0.21809805929660797, -0.2077890932559967, -0.012816427275538445 },
			{ -0.15204308927059174, 0.19626234471797943, 0.02934389002621174, 0.012363755144178867, -0.09600552171468735, 0.015059573575854301, 0.1267392486333847, -0.48545753955841064, -0.19823545217514038, -0.48180264234542847 },
			{ 0.04174642637372017, 0.024358447641134262, 0.09931167215108871, 0.04708942025899887, -0.10938029736280441, -0.10835326462984085, 0.16978515684604645, -0.38117003440856934, -0.024993978440761566, -0.08554617315530777 },
			{ 0.03557143360376358, -0.10733120143413544, -0.015462501905858517, -0.002998159034177661, -0.05403005704283714, -0.17739373445510864, 0.03691689297556877, -0.2069275677204132, 0.033688705414533615, 0.17532165348529816 },
			{ -0.007247977424412966, 0.06828495860099792, -0.06348206102848053, -0.04932105168700218, 0.01513697113841772, -0.044837795197963715, 0.08187595754861832, -0.07516241818666458, 0.0515609011054039, 0.14107561111450195 },
			{ 0.08566056191921234, 0.03744104877114296, 0.029286447912454605, -0.14890752732753754, 0.013311676681041718, 0.04104090854525566, 0.04714176431298256, -0.2355104237794876, 0.13766151666641235, -0.09179409593343735 },
			{ 0.020344501361250877, 0.18547265231609344, -0.038538698107004166, -0.037273380905389786, -0.10114188492298126, 0.0413324311375618, 0.023583561182022095, -0.3805083632469177, -0.08093702048063278, -0.07896354049444199 },
			{ -0.07049423456192017, 0.13788549602031708, -0.21750301122665405, -0.14735367894172668, 0.03353850916028023, -0.03368481993675232, 0.2737751603126526, -0.005905570462346077, -0.06859633326530457, -0.09461139887571335 },
			{ -0.09236112982034683, -0.1003914400935173, -0.22000625729560852, -0.19626936316490173, 0.19688984751701355, -0.11609587073326111, 0.2361176759004593, 0.04590156674385071, 0.04115387797355652, -0.27719104290008545 },
			{ -0.038927603513002396, -0.20944781601428986, -0.22838476300239563, -0.2238118052482605, 0.19143730401992798, 0.0829070657491684, 0.057948995381593704, 0.016000784933567047, 0.05971965938806534, -0.051522206515073776 },
			{ -0.08297566324472427, -0.3380753695964813, -0.008621909655630589, -0.20692619681358337, -0.005864271428436041, 0.17318002879619598, -0.02804577723145485, 0.08680907636880875, 0.1199360340833664, 0.2219347208738327 },
			{ 0.18097397685050964, 0.26180365681648254, -0.06316959857940674, -0.10100343078374863, -0.07301442325115204, 0.038148365914821625, 0.06826723366975784, 0.17393065989017487, -0.5566046833992004, 0.14377442002296448 },
			{ 0.0249800942838192, -0.01870027557015419, -0.28735092282295227, 0.21437755227088928, -0.30334392189979553, -0.10506986826658249, 0.22475582361221313, 0.15388108789920807, -0.4495607018470764, 0.02462553046643734 },
			{ -0.08519325405359268, 0.08284559845924377, -0.19142788648605347, 0.06992369145154953, -0.09606729447841644, -0.058087512850761414, 0.19414645433425903, 0.1885974109172821, -0.5379347801208496, -0.48674899339675903 },
			{ -0.09426146745681763, -0.014800650998950005, 0.010885913856327534, -0.030731499195098877, 0.18387119472026825, -0.06410200148820877, 0.1335218846797943, 0.04215389862656593, -0.18857140839099884, -0.578034520149231 },
			{ -0.15092085301876068, 0.1764366775751114, -0.05934562906622887, 0.07079093903303146, 0.25284144282341003, -0.1846584528684616, 0.12677422165870667, -0.11560110002756119, -0.22971847653388977, -0.3401910662651062 },
			{ -0.11684300750494003, 0.16654275357723236, -0.008479352109134197, 0.09821364283561707, 0.18747633695602417, -0.11934588104486465, -0.06604999303817749, -0.03528868779540062, -0.1170547679066658, -0.11956703662872314 },
			{ 0.04364274442195892, 0.07499329745769501, -0.01470655295997858, -0.010951819829642773, 0.10477661341428757, -0.1556544154882431, -0.27923110127449036, 0.0147461649030447, -0.05311335623264313, -0.10023588687181473 },
			{ 0.0007643803837709129, 0.01278471015393734, 0.10354297608137131, -0.014141679741442204, 0.06720683723688126, -0.14278075098991394, -0.06254972517490387, -0.057812489569187164, -0.0805557519197464, -0.01717802882194519 },
			{ -0.034959517419338226, 0.047530416399240494, 0.033944692462682724, -0.1171485185623169, 0.12115176767110825, 0.004303535912185907, -0.05316459387540817, -0.009547708556056023, -0.08738306164741516, -0.016250936314463615 },
			{ -0.05703242868185043, 0.018527239561080933, 0.031579386442899704, -0.12268766015768051, 0.13372886180877686, -0.0242866612970829, -0.04678593575954437, -0.1240454614162445, -0.0010557578643783927, 0.08272488415241241 },
			{ -0.07308704406023026, 0.05228118598461151, 0.022118717432022095, -0.07919503003358841, 0.13212747871875763, 0.02146354503929615, 0.06805617362260818, -0.11823577433824539, 0.023994170129299164, -0.10423844307661057 },
			{ 0.0018747340654954314, -0.016727644950151443, -0.14961926639080048, -0.03590366244316101, 0.21174418926239014, -0.0965467244386673, 0.04303257167339325, -0.037215325981378555, 0.014019274152815342, -0.171917125582695 },
			{ -0.11284969747066498, -0.14496544003486633, -0.21483798325061798, -0.06921203434467316, 0.15984928607940674, 0.1460873782634735, 0.010903412476181984, -0.2368863970041275, -0.08615262806415558, -0.25822341442108154 },
			{ -0.07168029248714447, -0.3335682451725006, -0.06007184460759163, -0.38036873936653137, -0.06799633800983429, -0.0064585087820887566, -0.046637486666440964, -0.23104825615882874, 0.26944032311439514, -0.1877550184726715 },
			{ 0.000738808885216713, 0.14493824541568756, -0.006533147767186165, 0.20226649940013885, -0.2110983282327652, -0.2508276104927063, 0.114773690700531, 0.027583444491028786, -0.5851903557777405, -0.08908723294734955 },
			{ -0.18570342659950256, 0.1739800125360489, -0.03810784965753555, 0.04965963959693909, -0.06818153709173203, -0.1481061428785324, 0.002434742171317339, 0.12453258782625198, -0.3071329593658447, -0.30800962448120117 },
			{ -0.2936153709888458, 0.1607692837715149, -0.07050152868032455, 0.12420100718736649, 0.06689514219760895, -0.2648945748806, -0.040339551866054535, 0.3524242341518402, -0.4229258894920349, -0.6335113048553467 },
			{ -0.27570733428001404, 0.10391385853290558, 0.009628789499402046, 0.00013503717491403222, 0.11320479214191437, -0.12605427205562592, -0.04785560443997383, 0.35743919014930725, -0.16116267442703247, -0.6609895825386047 },
			{ -0.19895228743553162, 0.27571722865104675, -0.0019022350898012519, 0.20360144972801208, 0.4124673008918762, -0.1580391675233841, -0.31443050503730774, 0.45278865098953247, -0.15135428309440613, -0.5858998894691467 },
			{ -0.2556396424770355, 0.1891591101884842, 0.09585929661989212, 0.2868157625198364, 0.3002319931983948, -0.11717922985553741, -0.16883136332035065, 0.32198482751846313, -0.16626736521720886, -0.5367091298103333 },
			{ -0.12609870731830597, 0.07334228605031967, 0.16636620461940765, 0.2312689572572708, 0.16874641180038452, -0.1613786518573761, -0.39894741773605347, 0.19947481155395508, -0.1732928305864334, -0.32833555340766907 },
			{ 0.06966139376163483, -0.05388939380645752, 0.2091519981622696, 0.246005579829216, 0.11120082437992096, -0.23784786462783813, -0.3912172317504883, 0.015140488743782043, -0.18370044231414795, 0.09969618916511536 },
			{ 0.2695036232471466, -0.08913931995630264, 0.12078350782394409, -0.0037286512088030577, -0.007160021923482418, -0.3976229727268219, -0.22513847053050995, 0.038526471704244614, 0.10752440243959427, 0.1540389508008957 },
			{ 0.05856717750430107, -0.2693387567996979, 0.02416527085006237, -0.06152122840285301, 0.07418602705001831, -0.24498514831066132, -0.14999765157699585, 0.027693260461091995, 0.194880872964859, 0.019923320040106773 },
			{ 0.037112459540367126, -0.24882492423057556, 0.008031322620809078, -0.10116302967071533, 0.09487836807966232, -0.09252719581127167, 0.06513027846813202, -0.053812094032764435, 0.133039653301239, 0.05651910975575447 },
			{ 0.07600121200084686, -0.08059737831354141, -0.013083803467452526, -0.12511658668518066, 0.1923755556344986, -0.2555631101131439, 0.12382245063781738, -0.1280294954776764, 0.1777045726776123, -0.21097514033317566 },
			{ 0.07728854566812515, -0.16090409457683563, -0.10726460814476013, -0.18312311172485352, 0.12337826192378998, -0.14331497251987457, -0.12866711616516113, -0.07961678504943848, 0.12208840250968933, -0.2743517756462097 },
			{ -0.27217990159988403, -0.17350971698760986, 0.06873484700918198, -0.24511227011680603, 0.27406033873558044, -0.015452313236892223, -0.038105495274066925, -0.2553410530090332, 0.16934460401535034, -0.4386773705482483 },
			{ -0.25220316648483276, -0.026674166321754456, 0.03833441808819771, 0.25413304567337036, -0.05997028946876526, -0.238769993185997, 0.09824509918689728, -0.0709744542837143, -0.04204870015382767, -0.35177600383758545 },
			{ 0.061305612325668335, 0.024203231558203697, -0.10745357722043991, 0.1690659373998642, -0.060009635984897614, -0.054596833884716034, -0.25701195001602173, 0.2606821358203888, -0.11729490011930466, -0.4921792447566986 },
			{ -0.3044169247150421, 0.01195495668798685, 0.06894613057374954, 0.1303575038909912, 0.16319963335990906, -0.08396730571985245, -0.19582009315490723, 0.5518413782119751, -0.009817286394536495, -0.769999623298645 },
			{ -0.3119655251502991, 0.21040165424346924, -0.11016060411930084, 0.13464860618114471, 0.27237367630004883, -0.020294252783060074, -0.3303038477897644, 0.7555825710296631, -0.23852130770683289, -0.8198919296264648 },
			{ -0.26583805680274963, 0.12340550869703293, -0.06872855126857758, 0.033674098551273346, 0.2104484736919403, 0.06558175384998322, -0.3220630884170532, 0.7299994826316833, -0.228617861866951, -0.6142989993095398 },
			{ -0.048331666737794876, -0.2536933422088623, 0.04187581688165665, 0.011523005552589893, 0.11968466639518738, -0.03805277496576309, -0.26582062244415283, 0.3953838348388672, 0.08200140297412872, -0.26818743348121643 },
			{ 0.002664681989699602, -0.37468165159225464, 0.11063289642333984, 0.006460424978286028, -0.2116829752922058, 0.02829582616686821, -0.3207290470600128, 0.2157420814037323, -0.0072092413902282715, -0.04595087468624115 },
			{ 0.06683533638715744, -0.31101515889167786, 0.1054772362112999, 0.013088508509099483, -0.30021247267723083, 0.04626847058534622, -0.18418757617473602, 0.016826607286930084, 0.027159636840224266, 0.2522713840007782 },
			{ 0.22888900339603424, -0.3403414189815521, 0.2785487771034241, -0.006367559544742107, -0.3054957389831543, -0.1661963313817978, -0.11712537705898285, -0.040194179862737656, 0.155979186296463, 0.4131928086280823 },
			{ 0.2572188079357147, -0.40688201785087585, 0.1673755943775177, -0.07144902646541595, -0.325435608625412, -0.1300392746925354, -0.11599267274141312, -0.09190021455287933, 0.14224189519882202, 0.27749332785606384 },
			{ 0.1547137349843979, -0.297176331281662, -0.0932631567120552, -0.1368369162082672, -0.16938257217407227, -0.13554148375988007, 0.0211856197565794, -0.10286234319210052, 0.26673629879951477, 0.09982024133205414 },
			{ 0.13473819196224213, -0.06741271167993546, -0.10953733325004578, -0.1024472787976265, -0.04073697328567505, -0.14572525024414062, 0.05348452553153038, -0.07312057167291641, 0.17951378226280212, -0.07160191237926483 },
			{ 0.10445959120988846, 0.07781094312667847, 0.03294675052165985, -0.1366691291332245, 0.08316338062286377, -0.035628512501716614, -0.13512641191482544, -0.11427421867847443, 0.06834588199853897, -0.027348294854164124 },
