/*
 * This file is auto-generated by train.ipynb
 */

#pragma once

#include "definitions.h"


// Conv layer weights.
float conv_weights [FILTERS][KRN_ROWS][KRN_COLS]
	= {
			{
				{ 0.20359444618225098, -0.0030726247932761908, 0.0642099678516388, -0.3058823049068451, 0.12406432628631592, 0.7463652491569519, 0.6738579273223877 },
				{ 0.07199300825595856, -0.04078177362680435, -0.5954083204269409, -0.7250674962997437, -0.5962086915969849, 0.044958457350730896, 0.6120288968086243 },
				{ 0.03073103167116642, -0.43326544761657715, -0.22601079940795898, -0.8695952296257019, -0.9261069297790527, -0.5777223110198975, 0.3398931324481964 },
				{ 0.38283970952033997, -0.026305627077817917, -0.4922758936882019, -0.3985878527164459, -0.6685923933982849, -0.8440030813217163, -0.5562201738357544 },
				{ 0.540876030921936, 0.34194979071617126, -0.1397475004196167, -0.06428167968988419, -0.31096601486206055, -0.6924020051956177, -0.26880207657814026 },
				{ 0.3204610347747803, 0.41974854469299316, 0.693793773651123, 0.29926612973213196, 0.4326015114784241, -0.3871985375881195, -0.5316503047943115 },
				{ 0.2768334746360779, 0.2968207895755768, 0.01352172251790762, 0.303520530462265, 0.5353953838348389, 0.43518000841140747, -0.010864922776818275 }
			},
			{
				{ -0.23127654194831848, -0.2927950322628021, 0.0667676255106926, -0.536424994468689, -0.34465306997299194, 0.32844144105911255, 0.07786903530359268 },
				{ 0.31994616985321045, -0.2576162815093994, -0.3260744512081146, -0.3855341076850891, 0.4095430076122284, 0.5529763698577881, -0.013642719946801662 },
				{ 0.19977961480617523, -0.2582024037837982, 0.30875495076179504, 0.18188154697418213, 0.19315055012702942, -0.0260222889482975, -0.15727810561656952 },
				{ 0.3233642876148224, -0.14970733225345612, 0.1909898966550827, 0.19977261126041412, 0.4031261205673218, -0.5107128024101257, 0.09816358983516693 },
				{ 0.10352986305952072, 0.18297135829925537, 0.3720773458480835, 0.15931247174739838, 0.1505909264087677, -0.3569960296154022, 0.3773309290409088 },
				{ -0.19902364909648895, 0.30233174562454224, -0.2486434280872345, 0.3657994568347931, 0.35982757806777954, 0.3730432689189911, -0.1691494733095169 },
				{ 0.29402774572372437, -0.03740830719470978, 0.06145166978240013, 0.047085609287023544, -0.17014850676059723, 0.36790716648101807, 0.022966701537370682 }
			},
			{
				{ 0.2679942548274994, 0.3222615718841553, 0.064509317278862, 0.27420300245285034, -0.07474932074546814, -0.35745370388031006, -0.10612157732248306 },
				{ -0.14966480433940887, 0.141625314950943, 0.09865013509988785, -0.019915178418159485, -0.34832146763801575, -0.049257662147283554, -0.13613523542881012 },
				{ -0.3636905550956726, 0.5055753588676453, 0.36597418785095215, 0.3959333896636963, -0.3669309914112091, -0.3027562201023102, -0.34578633308410645 },
				{ -0.3956402838230133, 0.09327533096075058, 0.5311898589134216, -0.03805740922689438, 0.05275372788310051, -0.10694488883018494, 0.31983333826065063 },
				{ -0.6346963047981262, -0.1794815957546234, 0.4713290333747864, 0.4458828866481781, 0.3923778235912323, 0.09123027324676514, 0.03289048373699188 },
				{ -1.0027333498001099, -0.6224753856658936, 0.4717845916748047, 0.6594498753547668, 0.05634179711341858, -0.2335491180419922, -0.10744842886924744 },
				{ -0.25047847628593445, -0.21868494153022766, 0.32187795639038086, 0.25224626064300537, -0.19556300342082977, -0.0021779616363346577, -0.4656566083431244 }
			},
			{
				{ -0.1403384506702423, 0.3221297264099121, 0.303148090839386, 0.3082846999168396, -0.5571296215057373, -0.5220903754234314, -0.7928779125213623 },
				{ 0.20241926610469818, -0.027863167226314545, -0.396189421415329, -0.9496504068374634, -0.6149284243583679, -0.29549112915992737, -0.4724438488483429 },
				{ -0.3352945148944855, -0.3499320447444916, -0.2714874744415283, -0.16417749226093292, -0.06209831312298775, 0.45943376421928406, 0.35953381657600403 },
				{ 0.12730608880519867, 0.09499974548816681, 0.1747867912054062, 0.48533275723457336, 0.5450924038887024, 0.25640928745269775, 0.5379605293273926 },
				{ 0.21841567754745483, 0.2129395455121994, 0.37515538930892944, 0.5971316695213318, 0.6801300048828125, 0.3249516487121582, 0.15471099317073822 },
				{ -0.21598809957504272, 0.2902836501598358, -0.09478576481342316, 0.08880615234375, 0.022436849772930145, 0.017703279852867126, 0.28402793407440186 },
				{ -0.13717691600322723, -0.4670347273349762, -0.18815577030181885, -0.7785958051681519, -0.8864772319793701, -0.6715432405471802, -0.42159906029701233 }
			}
		};

// Conv layer biases.
float conv_biases [FILTERS] = { 0.18612346053123474, -0.17712560296058655, -0.20553380250930786, -0.0012017089175060391 };
