/*
 * This file is auto-generated by train.ipynb
 */

#pragma once

#include "definitions.h"


// Dense layer weights.
float dense_weights[FLAT_SIZE][DENSE_SIZE]
	 = {
			{ 0.06492637097835541, 0.36387917399406433, -0.03779473155736923, -0.15671102702617645, 0.12599609792232513, -0.05499367043375969, 0.07966513931751251, 0.1244836300611496, -0.21451178193092346, -0.10060011595487595 },
			{ 0.016010096296668053, 0.3563455641269684, -0.06951592862606049, -0.1953384429216385, 0.020620524883270264, -0.06569598615169525, 0.04181019216775894, 0.16859391331672668, -0.16832789778709412, -0.0301213376224041 },
			{ 0.06516387313604355, 0.21085907518863678, 0.07623878121376038, -0.1621573120355606, 0.05263649672269821, -0.04641314595937729, 0.1435326486825943, 0.08984711021184921, -0.17485707998275757, -0.15790458023548126 },
			{ 0.061589550226926804, 0.15427610278129578, 0.09572011232376099, -0.03850588575005531, -0.05865684151649475, -0.05082292854785919, 0.1421690732240677, 0.13243317604064941, -0.18572044372558594, -0.08526468276977539 },
			{ 0.012736937031149864, 0.1596514731645584, 0.0027181259356439114, 0.007973210886120796, -0.20513559877872467, 0.04472579434514046, 0.1775493174791336, -0.003822119440883398, -0.1101064383983612, -0.04645773768424988 },
			{ -0.06645908951759338, -0.09815428406000137, 0.014859560877084732, 0.02649988792836666, -0.04450780153274536, -0.07442811131477356, 0.022742869332432747, -0.012582454830408096, -0.006724403239786625, -0.045623779296875 },
			{ -0.03791200742125511, 0.019912198185920715, -0.03622253239154816, 0.03225088119506836, -0.011526791378855705, 0.06693337112665176, 0.10387498885393143, -0.0455501563847065, 0.037837378680706024, -0.09277116507291794 },
			{ -0.037102874368429184, -0.015915118157863617, 0.08754530549049377, -0.06317300349473953, -0.12173691391944885, 0.05574806034564972, -0.039989616721868515, -0.08867906033992767, -0.03127092495560646, -0.03824713081121445 },
			{ -0.09941209107637405, 0.13588790595531464, 0.020235683768987656, 0.0012731699971482158, -0.13170771300792694, 0.06306123733520508, -0.017117656767368317, -0.07532772421836853, -0.11392483860254288, -0.00579585088416934 },
			{ -0.02812439762055874, 0.03109140694141388, -0.009075076319277287, 0.09493573755025864, -0.04970899224281311, 0.05131275951862335, -0.02497839368879795, -0.05008717253804207, -0.0258482675999403, -0.0456593781709671 },
			{ -0.01338179875165224, 0.006094171199947596, 0.07624068111181259, 0.07797887921333313, -0.14441710710525513, 0.0691482424736023, 0.05491365119814873, -0.043909210711717606, -0.11508127301931381, -0.19039727747440338 },
			{ -0.08202609419822693, 0.020200395956635475, -0.06292053312063217, -0.07606253772974014, -0.05925264582037926, 0.04763360321521759, 0.20188415050506592, 0.09092152118682861, -0.10083498805761337, -0.12355329841375351 },
			{ -0.011362497694790363, 0.011784877628087997, 0.0039431010372936726, -0.10221435129642487, 0.050671789795160294, -0.034740619361400604, 0.12812599539756775, 0.07915052771568298, -0.08666881173849106, -0.21290896832942963 },
			{ 0.05467428267002106, 0.1720706671476364, 0.027300115674734116, -0.22745175659656525, 0.06709623336791992, -0.05569611117243767, 0.03214411064982414, 0.08746973425149918, -0.2641172707080841, -0.001963603775948286 },
			{ 0.09148586541414261, 0.2285061627626419, -0.056705184280872345, -0.18272921442985535, 0.010094542056322098, -0.08625826984643936, -0.020431825891137123, 0.12064450979232788, -0.18873310089111328, -0.024114342406392097 },
			{ 0.05039866268634796, 0.29869526624679565, -0.004230007994920015, -0.1812804937362671, -0.0204424187541008, -0.03780023381114006, 0.12723034620285034, 0.17234624922275543, -0.28298428654670715, -0.11920147389173508 },
			{ 0.029795924201607704, 0.21645349264144897, -0.056458763778209686, -0.07935520261526108, -0.01640298031270504, -0.008450695313513279, 0.042400576174259186, 0.10616844892501831, -0.2211155742406845, -0.06148365139961243 },
			{ -0.10221797972917557, 0.24548108875751495, -0.02956816554069519, -0.0007632231572642922, 0.15604540705680847, -0.014312608167529106, -0.11729633063077927, -0.04341302067041397, -0.259621798992157, -0.08781261742115021 },
			{ 0.019734052941203117, 0.04961160197854042, -0.0567353330552578, 0.12227652966976166, 0.03871452063322067, 0.06751660257577896, -0.058211859315633774, 0.0059695737436413765, -0.16967712342739105, -0.08205093443393707 },
			{ -0.0597156397998333, -0.0897180512547493, 0.07850701361894608, -0.025736698880791664, 0.1306244432926178, 0.022482644766569138, -0.16174080967903137, 0.03958196938037872, -0.08339603990316391, -0.09869764745235443 },
			{ 0.006379907950758934, -0.13655421137809753, 0.046859100461006165, 0.07767403870820999, 0.06859265267848969, -0.09833287447690964, -0.10355875641107559, 0.023567037656903267, -0.05587583780288696, 0.013445354998111725 },
			{ -0.008052625693380833, -0.10994815826416016, 0.05460122600197792, 0.10044904053211212, -0.03242091089487076, -0.02922459878027439, -0.09384233504533768, 0.07100294530391693, -0.02218487299978733, -0.14729689061641693 },
			{ 0.07220129668712616, 0.0648074671626091, 0.08691340684890747, 0.08069182187318802, 0.10125629603862762, -0.11689383536577225, -0.1660313904285431, -0.005173731129616499, -0.009360119700431824, -0.06733307242393494 },
			{ 0.07574740052223206, -0.014171271584928036, -0.021076254546642303, 0.11566342413425446, -0.06483139842748642, -0.029320470988750458, -0.006093908101320267, -0.025482621043920517, -0.0007404022617265582, 0.0319809690117836 },
			{ -0.022150898352265358, 0.016169903799891472, 0.0480852946639061, 0.0657757893204689, -0.10879983752965927, -0.029346657916903496, -0.02649836428463459, -0.05640411749482155, -0.018635839223861694, 0.028314903378486633 },
			{ -0.06629523634910583, 0.03320720046758652, -0.009943529963493347, 0.09720569103956223, -0.13105171918869019, -0.04853462800383568, 0.006153743248432875, -0.15884725749492645, -0.04778158292174339, -0.05178261920809746 },
			{ -0.048550765961408615, -0.025631701573729515, 0.06641194224357605, -0.06082847714424133, 0.0206161942332983, -0.07263565808534622, 0.12234683334827423, -0.07015004754066467, -0.024622879922389984, -0.23355087637901306 },
			{ -0.02716725319623947, 0.013514951802790165, 0.030614973977208138, -0.14007839560508728, 0.1526014357805252, 0.11979872733354568, 0.12474153190851212, -0.0921635627746582, -0.13500431180000305, -0.30259668827056885 },
			{ 0.11776451766490936, 0.20167164504528046, -0.04226091131567955, -0.16157662868499756, 0.1062060296535492, -0.028519945219159126, 0.049583226442337036, 0.26955777406692505, -0.288505882024765, -0.007981613278388977 },
			{ 0.07726261764764786, 0.30790960788726807, -0.021718813106417656, -0.023313460871577263, 0.09073461592197418, -0.0574847087264061, 0.07075080275535583, 0.20214886963367462, -0.1800953596830368, -0.19747240841388702 },
			{ -0.08770576119422913, 0.1600712090730667, -0.08994436264038086, -0.10557595640420914, 0.023988012224435806, -0.012724468484520912, -0.16884765028953552, 0.1239410787820816, -0.10189278423786163, -0.2150087058544159 },
			{ -0.020946646109223366, 0.17548812925815582, -0.014287100173532963, 0.014348030090332031, 0.16399013996124268, 0.005663623102009296, -0.1515796184539795, 0.23417434096336365, -0.3311290144920349, -0.20292219519615173 },
			{ -0.07559888809919357, 0.0196381863206625, -0.025663180276751518, 0.09927890449762344, 0.20729443430900574, 0.0083723533898592, -0.19660216569900513, 0.18293100595474243, -0.3025988042354584, -0.2363162636756897 },
			{ -0.10944738239049911, -0.16386643052101135, -0.04001805931329727, 0.11201434582471848, 0.029820099472999573, -0.05394391715526581, -0.06106610596179962, 0.2649904489517212, -0.1349206566810608, -0.15324392914772034 },
			{ -0.04487668722867966, -0.2643342912197113, 0.13394828140735626, 0.17555829882621765, -0.046691544353961945, -0.016294710338115692, -0.2328301966190338, 0.12061339616775513, -0.0035836936440318823, 0.009079132229089737 },
			{ 0.045468661934137344, -0.20931310951709747, 0.046109046787023544, 0.1408701241016388, -0.1143784373998642, -0.14159297943115234, -0.19086293876171112, 0.1125507652759552, -0.058048222213983536, 0.16711528599262238 },
			{ 0.05326113849878311, -0.05252551659941673, -0.05546048283576965, 0.1453714817762375, -0.11697088181972504, -0.13394224643707275, -0.30521297454833984, 0.07185592502355576, -0.040416419506073, 0.10885641723871231 },
			{ -0.0998542308807373, -0.11040816456079483, 0.04691224917769432, 0.08317221701145172, -0.0886656790971756, -0.04336416348814964, -0.16594083607196808, 0.03188357129693031, -0.0656987652182579, 0.050626374781131744 },
			{ 0.08805122971534729, 0.01563309319317341, 0.033844493329524994, 0.09488274902105331, -0.1335984468460083, -0.10150540620088577, -0.17917628586292267, 0.06880152225494385, 0.11074255406856537, 0.032143015414476395 },
			{ 0.10434923321008682, 0.10399595648050308, -0.013240600936114788, -0.02168431133031845, -0.04100450873374939, -0.13944114744663239, -0.0825725793838501, -0.06234774738550186, -0.0017651017988100648, -0.015911515802145004 },
			{ 0.18162678182125092, 0.06518102437257767, 0.053917281329631805, -0.011836638674139977, -0.08926758170127869, -0.09533564746379852, -0.04864741861820221, -0.005175348836928606, -0.01875794492661953, -0.018666941672563553 },
			{ 0.08489298075437546, -0.04981796070933342, 0.04333903640508652, -0.08318740129470825, 0.03811350464820862, -0.06289326399564743, 0.03927072882652283, -0.12400250136852264, -0.07568533718585968, -0.12618032097816467 },
			{ 0.09035154432058334, 0.25131282210350037, 0.05349832773208618, -0.0959172248840332, 0.11205264925956726, -0.09848539531230927, -0.04610980302095413, 0.20632462203502655, -0.17712895572185516, -0.061319902539253235 },
			{ 0.03864170238375664, 0.21891362965106964, 0.0820273607969284, -0.07988277822732925, 0.016952363774180412, -0.15805873274803162, -0.08976291865110397, 0.31692391633987427, -0.21388380229473114, -0.1701422929763794 },
			{ -0.03212931007146835, 0.23079834878444672, 0.058966994285583496, -0.07890170812606812, -0.045034259557724, -0.0908496230840683, -0.3228001594543457, 0.42449554800987244, -0.36087566614151, -0.25537464022636414 },
			{ -0.0012194255832582712, 0.38351863622665405, -0.06307950615882874, -0.007757022976875305, 0.0637507513165474, -0.20841549336910248, -0.2330782115459442, 0.33110859990119934, -0.17831622064113617, -0.5391750931739807 },
			{ -0.11923177540302277, 0.17762549221515656, -0.027062024921178818, 0.05092410370707512, -0.0638660117983818, -0.276172012090683, -0.344463050365448, 0.4061298668384552, -0.07538116723299026, -0.46710196137428284 },
			{ -0.15725994110107422, -0.008838880807161331, 0.07580964267253876, 0.15397867560386658, -0.01713310182094574, -0.13681890070438385, -0.15720799565315247, 0.3209550976753235, 0.027438614517450333, -0.26253294944763184 },
			{ 0.003943354822695255, -0.07461871206760406, 0.10047699511051178, 0.14713573455810547, 0.013070954009890556, -0.12200812250375748, -0.18460796773433685, 0.14302785694599152, -0.08623412251472473, -0.2674194872379303 },
			{ 0.10798238217830658, -0.037848085165023804, 0.17620813846588135, 0.1166122704744339, -0.025040462613105774, -0.04736020416021347, -0.368485689163208, 0.1413668841123581, -0.15529029071331024, -0.09020921587944031 },
			{ 0.13091842830181122, 0.11856874078512192, 0.10042427480220795, 0.07576851546764374, -0.10536454617977142, -0.19460847973823547, -0.21003058552742004, 0.06985202431678772, -0.25065985321998596, 0.05398271977901459 },
			{ 0.021079732105135918, 0.00360420742072165, -0.022435050457715988, -0.03886798024177551, -0.1432035118341446, -0.17614993453025818, -0.22976505756378174, 0.13353534042835236, 0.09969022870063782, 0.11510264873504639 },
			{ 0.11716601252555847, 0.023857783526182175, -0.034421633929014206, -0.06771353632211685, -0.061511553823947906, -0.11703252792358398, -0.18040546774864197, 0.10373173654079437, 0.026105057448148727, 0.07264144718647003 },
			{ -0.020656343549489975, -0.024803457781672478, -0.014718153513967991, -0.047664109617471695, -0.03515707701444626, -0.24306173622608185, 0.020287996158003807, -0.0015440755523741245, 0.001790350885130465, 0.09328802675008774 },
			{ 0.02010459639132023, -0.061390217393636703, 0.08359681069850922, 0.10139042139053345, 0.0035572098568081856, -0.2056274712085724, -0.13576623797416687, 0.006610828451812267, 0.00498251523822546, 0.039724186062812805 },
			{ 0.12550002336502075, 0.04745493829250336, -0.04844340309500694, -0.0854635015130043, -0.016540564596652985, -0.06506986916065216, -0.2820504307746887, 0.017561305314302444, -0.05303946137428284, -0.005227241665124893 },
			{ 0.1265874207019806, 0.22195559740066528, 0.06368011236190796, -0.05418650433421135, -0.006622611545026302, -0.13183848559856415, -0.024127542972564697, 0.10509148240089417, -0.29100993275642395, -0.18564662337303162 },
			{ 0.09004572778940201, 0.1622733324766159, 0.06120208650827408, 0.1485283523797989, -0.03340339660644531, -0.24069903790950775, -0.18464075028896332, 0.18785491585731506, -0.13983777165412903, -0.26632994413375854 },
			{ -0.12996840476989746, 0.11341667175292969, 0.10958826541900635, 0.04623838886618614, -0.10055560618638992, -0.3145013749599457, -0.37716126441955566, 0.34519410133361816, 0.015412095002830029, -0.3868473172187805 },
			{ -0.23478400707244873, 0.16807030141353607, 0.10275472700595856, 0.241095170378685, -0.19507211446762085, -0.2823580801486969, -0.2772395610809326, 0.5163798332214355, -0.18723370134830475, -0.698570728302002 },
			{ -0.08293013274669647, -0.005000002216547728, 0.08156965672969818, 0.12504245340824127, -0.06282206624746323, -0.03275882452726364, -0.19875572621822357, 0.4741150736808777, -0.06660793721675873, -0.46070218086242676 },
			{ -0.10183419287204742, -0.26486679911613464, -0.07913968712091446, -0.1301562488079071, 0.07146993279457092, 0.033122479915618896, -0.12926320731639862, 0.40320077538490295, 0.0480947382748127, -0.37584128975868225 },
			{ -0.012862649746239185, 0.031242065131664276, 0.064710833132267, -0.23598968982696533, -0.1486351191997528, 0.08539281040430069, -0.17920702695846558, 0.2317076474428177, -0.006846421863883734, -0.2233758419752121 },
			{ 0.00942556094378233, 0.049509380012750626, 0.07940655201673508, -0.14754870533943176, -0.2486029714345932, 0.17168951034545898, -0.2609712481498718, 0.15604399144649506, 0.0023929309099912643, -0.00035353211569599807 },
			{ -0.018507573753595352, 0.08203791081905365, 0.12504732608795166, -0.09230530261993408, -0.23714396357536316, 0.04571135342121124, -0.0071694208309054375, -0.010142719373106956, -0.009222641587257385, 0.06914578378200531 },
			{ -0.05422429367899895, 0.08855901658535004, 0.04347296804189682, -0.09571606665849686, -0.04756495729088783, -0.03567004203796387, -0.08283314108848572, 0.07553546875715256, -0.03839600831270218, 0.174782395362854 },
			{ 0.1232074722647667, -0.020817985758185387, 0.03716973960399628, -0.1645122915506363, -0.05320309102535248, -0.019592413678765297, -0.09268449246883392, -0.02677316404879093, -0.035216957330703735, 0.11589677631855011 },
			{ 0.13163042068481445, -0.11280429363250732, -0.03483063727617264, -0.14596593379974365, -0.03959154710173607, -0.1371578872203827, -0.023299602791666985, -0.00843226071447134, 0.027392620220780373, 0.04411027580499649 },
			{ 0.0955461636185646, 0.0530647337436676, -0.0019228020682930946, -0.04867829009890556, -0.015674740076065063, -0.28568336367607117, -0.015573667362332344, 0.07676925510168076, 0.10098525136709213, -0.002601221203804016 },
			{ 0.14392614364624023, 0.1389486938714981, 0.029330920428037643, -0.08965075761079788, -0.1286565363407135, -0.05878106504678726, 0.0012045459588989615, -0.10840994119644165, 0.10704562067985535, -0.03689106926321983 },
			{ -0.008912795223295689, 0.21433542668819427, 0.09731480479240417, -0.052992917597293854, 0.01771063171327114, -0.08017916232347488, 0.017076648771762848, 0.013148359023034573, -0.21548816561698914, -0.20072057843208313 },
			{ 0.06343143433332443, 0.0897250771522522, 0.14118103682994843, 0.09023761749267578, -0.02136077731847763, -0.24905581772327423, -0.2683926522731781, 0.12518681585788727, -0.07134737074375153, -0.14769282937049866 },
			{ -0.26275745034217834, 0.09418945014476776, 0.18605540692806244, 0.20721326768398285, -0.3309350907802582, -0.28151512145996094, -0.3524668514728546, 0.35219165682792664, -0.06528005748987198, -0.5619084239006042 },
			{ -0.17204022407531738, 0.2020612508058548, 0.36521872878074646, 0.030477533116936684, -0.3176591992378235, -0.02786184474825859, -0.4056910276412964, 0.14230553805828094, 0.03449558839201927, -0.2342153638601303 },
			{ -0.13208068907260895, 0.009495139122009277, 0.18296335637569427, -0.0527491420507431, -0.17125748097896576, 0.027074048295617104, -0.04461762309074402, 0.07543600350618362, 0.25478991866111755, 0.11453945934772491 },
			{ -0.007605419028550386, -0.3893270194530487, 0.2196662724018097, -0.32648441195487976, -0.08049647510051727, 0.16003665328025818, -0.17384427785873413, 0.0032071638852357864, 0.21257615089416504, 0.03579890727996826 },
			{ -0.02157656103372574, -0.33430373668670654, 0.16899098455905914, -0.29989832639694214, -0.008031622506678104, 0.17806293070316315, -0.09082968533039093, 0.02484159916639328, 0.08728108555078506, -0.032492492347955704 },
			{ -0.04298703372478485, 0.0677364319562912, -0.06975815445184708, -0.25775545835494995, -0.13241201639175415, 0.2457406371831894, 0.07511699944734573, -0.06947972625494003, 0.08179189264774323, -0.14405378699302673 },
			{ -0.013216119259595871, 0.14680840075016022, -0.1562805026769638, -0.18748870491981506, -0.17043143510818481, 0.22153140604496002, 0.10782001167535782, -0.207458034157753, -0.14321668446063995, -0.0294632688164711 },
			{ -0.13730613887310028, 0.017272720113396645, -0.10585806518793106, -0.14692479372024536, -0.03452669456601143, 0.3081972599029541, 0.1238308995962143, -0.004440007731318474, -0.17636874318122864, 0.07712534815073013 },
			{ 0.11061396449804306, -0.04439600184559822, -0.031006021425127983, -0.06937702745199203, 0.05233297124505043, 0.09383735060691833, -0.014874966815114021, 0.07859694212675095, -0.14590100944042206, 0.04139336571097374 },
			{ 0.02472035400569439, -0.02325444668531418, -0.018219534307718277, -0.1943996697664261, 0.024556687101721764, 0.14370368421077728, 0.045202355831861496, 0.019209889695048332, -0.11913622915744781, -0.04077518358826637 },
			{ 0.09595069289207458, 0.08243902027606964, 0.00888010859489441, -0.2080131471157074, 0.03363483399152756, -0.22080101072788239, 0.06884315609931946, 0.10376248508691788, -0.043753769248723984, 0.0059295883402228355 },
			{ 0.22642256319522858, 0.09009934961795807, -0.0360412523150444, -0.1553238183259964, -0.1908278465270996, -0.08104617893695831, 0.10123661905527115, -0.10789211094379425, -0.0329880528151989, 0.03596799448132515 },
			{ -0.0406290702521801, 0.19495950639247894, 0.039693716913461685, 0.04031655192375183, 0.08333329856395721, -0.06326079368591309, -0.014477166347205639, -0.018665805459022522, -0.11813347041606903, -0.06999994814395905 },
			{ -0.1467793583869934, -0.015788618475198746, 0.18376970291137695, 0.13710173964500427, -0.07152218371629715, -0.04219524562358856, -0.3639145493507385, -0.07122769206762314, 0.027249479666352272, -0.10135777294635773 },
			{ -0.44656604528427124, 0.13289281725883484, 0.15456858277320862, 0.0705842599272728, -0.17198026180267334, 0.10136422514915466, -0.4051506221294403, -0.08709172159433365, 0.10325931757688522, -0.09495287388563156 },
			{ -0.502758800983429, 0.20979925990104675, 0.23577220737934113, 0.07359538227319717, -0.09356370568275452, 0.015321321785449982, -0.4139680862426758, -0.1659797579050064, 0.11830662935972214, 0.11236729472875595 },
			{ -0.20077769458293915, -0.16817955672740936, -0.055068474262952805, -0.09116587042808533, 0.013891134411096573, 0.045038800686597824, -0.1506418138742447, -0.19634142518043518, 0.1633613258600235, 0.26614949107170105 },
			{ -6.399550329660997e-05, -0.46175986528396606, -0.10592472553253174, -0.19170747697353363, 0.07305625826120377, 0.02487020380795002, -0.11313541233539581, -0.12208127230405807, 0.24020802974700928, 0.1438346952199936 },
			{ 0.11737503111362457, -0.6537198424339294, -0.020532991737127304, -0.3755026161670685, 0.053276754915714264, 0.004617248196154833, 0.005922264885157347, -0.020849088206887245, 0.21957555413246155, -0.10631542652845383 },
			{ 0.06888139247894287, -0.19424395263195038, 0.02318301983177662, -0.17328302562236786, -0.027062445878982544, 0.2521745562553406, 0.0628853589296341, -0.3729866147041321, -0.034676555544137955, -0.13256065547466278 },
			{ -0.12545131146907806, 0.08367336541414261, 0.0384083092212677, -0.11675436794757843, -0.19272208213806152, 0.25259602069854736, 0.16864153742790222, -0.1059381291270256, -0.2118443250656128, -0.17463669180870056 },
			{ -0.044152792543172836, 0.07493378967046738, -0.05171969160437584, -0.055003125220537186, 0.051286857575178146, 0.22445343434810638, 0.07964559644460678, -0.03476583585143089, -0.15778572857379913, -0.086356021463871 },
			{ 0.004142786376178265, -0.09031219035387039, -0.11854371428489685, 0.03096664510667324, 0.06213545426726341, 0.10038415342569351, -0.012032794766128063, 0.1056329533457756, -0.12108870595693588, -0.020659232512116432 },
			{ -0.003810955211520195, -0.029847418889403343, -0.023210087791085243, -0.00031722302082926035, 0.03186759725213051, 0.15774433314800262, 0.04470569267868996, 0.06227419152855873, -0.16168473660945892, 0.005598593968898058 },
			{ 0.16737355291843414, -0.03389807417988777, -0.085584856569767, -0.11129553616046906, 0.027477500960230827, -0.03068007156252861, 0.01609511487185955, 0.1109146699309349, -0.16825547814369202, -0.02950984425842762 },
			{ 0.1715286374092102, 0.02219657227396965, -0.07485713809728622, -0.11628856509923935, -0.05771595612168312, -0.0351027175784111, 0.156156525015831, -0.14845848083496094, -0.1268356740474701, -0.20811647176742554 },
			{ 0.007511126808822155, 0.3122485280036926, -0.19534741342067719, -0.00041583707206882536, -0.0035673792008310556, -0.09247850626707077, 0.008121062070131302, 0.05313417688012123, -0.026294851675629616, 0.056179847568273544 },
			{ -0.1831708401441574, 0.0893770083785057, -0.046804070472717285, 0.026303289458155632, -0.045918215066194534, 0.2129090428352356, -0.21266485750675201, -0.17229488492012024, 0.07025952637195587, 0.023937275633215904 },
			{ -0.5203150510787964, -0.11128021031618118, 0.0867580696940422, -0.02321750484406948, -0.13547758758068085, 0.20575681328773499, -0.38812920451164246, -0.26488354802131653, 0.09795867651700974, -0.028598729521036148 },
			{ -0.37031713128089905, -0.2134159803390503, -0.12767024338245392, 0.06924062967300415, -0.05262957885861397, 0.22038917243480682, -0.44157275557518005, -0.09374938160181046, 0.1408546268939972, 0.2182062715291977 },
			{ -0.0766792893409729, -0.3385277986526489, -0.3009291887283325, 0.19355301558971405, 0.09465338289737701, 0.12920905649662018, -0.1612274944782257, -0.3042154014110565, -0.07088837027549744, 0.2756613790988922 },
			{ -0.07569502294063568, -0.3835854232311249, -0.24451689422130585, 0.19276781380176544, 0.12751784920692444, 0.05576986446976662, -0.13787253201007843, -0.12684306502342224, -0.07604475319385529, 0.17823565006256104 },
			{ 0.07327450066804886, -0.40497082471847534, -0.2994844317436218, 0.01389364618808031, 0.13746561110019684, -0.028199218213558197, -0.05631190538406372, -0.12600906193256378, -0.13095973432064056, 0.06286852061748505 },
			{ 0.17553392052650452, -0.18298973143100739, -0.08086807280778885, 0.1105320006608963, -0.032642971724271774, 0.2957157492637634, 0.0802563801407814, -0.36490291357040405, -0.05213242769241333, -0.3381470739841461 },
			{ -0.29312366247177124, 0.15593495965003967, -0.033457234501838684, 0.019763341173529625, -0.16466429829597473, 0.2784819006919861, 0.13870157301425934, -0.017125483602285385, -0.03994274511933327, -0.44626596570014954 },
			{ -0.10003098845481873, 0.10264497995376587, -0.12626874446868896, -0.005334352608770132, 0.07024935632944107, 0.0066721877083182335, 0.061363279819488525, 0.07955430448055267, 0.04010554403066635, -0.04737645760178566 },
			{ 0.014537161216139793, -0.1169520691037178, -0.028157860040664673, 0.16752400994300842, 0.06807541847229004, 0.03616354987025261, 0.04914412274956703, 0.08233149349689484, 0.08554979413747787, -0.12960396707057953 },
			{ -0.025863246992230415, -0.009435063228011131, -0.029406826943159103, 0.010771776549518108, 0.009825639426708221, -0.01114282663911581, -0.07208526134490967, 0.029586827382445335, -0.08532648533582687, -0.02025475725531578 },
			{ 0.08201491087675095, 0.05666828155517578, -0.05857580527663231, -0.09462697803974152, 0.007565044332295656, -0.062422554939985275, 0.14434251189231873, 0.11403021216392517, -0.007719997316598892, 0.07030090689659119 },
			{ 0.04623391106724739, -0.01910359226167202, -0.05168945714831352, 0.030483579263091087, -0.0949118435382843, 0.13469885289669037, 0.12177328765392303, -0.05561726912856102, -0.0561889223754406, -0.19019579887390137 },
			{ 0.048277467489242554, 0.3109144866466522, -0.10471949726343155, -0.27169927954673767, 0.11400850862264633, -0.007849163375794888, -0.008276651613414288, -0.02963058464229107, -0.3155052661895752, 0.0818895623087883 },
			{ -0.0708334892988205, 0.21986056864261627, -0.35964006185531616, -0.12207045406103134, 0.06063424050807953, 0.25743943452835083, 0.005512155592441559, -0.047063279896974564, -0.15055011212825775, 0.03157469630241394 },
			{ -0.3806977868080139, 0.14021675288677216, -0.396498441696167, 0.20343957841396332, 0.10049815475940704, 0.4322068691253662, -0.13890546560287476, -0.11283527314662933, -0.018313731998205185, 0.14487023651599884 },
			{ -0.1367102563381195, -0.19629210233688354, -0.45264482498168945, 0.21008983254432678, -0.028821691870689392, 0.10768505930900574, -0.345413476228714, -0.1481844037771225, -0.16315187513828278, 0.20517979562282562 },
			{ 0.016054382547736168, -0.40783512592315674, -0.40042492747306824, 0.25759172439575195, 0.07513674348592758, 0.17069058120250702, 0.016814302653074265, -0.1604476422071457, -0.307264119386673, 0.28139692544937134 },
			{ -0.12300299108028412, -0.01409186515957117, -0.312400758266449, 0.23480632901191711, 0.2225710153579712, 0.06504728645086288, -0.09810133278369904, -0.12874963879585266, -0.2874464690685272, 0.1499699354171753 },
			{ -0.024563828483223915, -0.11805438995361328, -0.12568099796772003, 0.22786587476730347, 0.11900758743286133, -0.009529204107820988, -0.12690475583076477, -0.061028312891721725, -0.08519375324249268, -0.08254962414503098 },
			{ 0.004897754173725843, -0.03355933353304863, 0.0700356587767601, 0.18217532336711884, -0.02265477553009987, 0.10725967586040497, 0.054216839373111725, -0.3847178816795349, -0.00021518295397982, -0.3575076162815094 },
			{ -0.21897684037685394, 0.04192546382546425, -0.060211554169654846, 0.04173228517174721, -0.17143233120441437, 0.1284259706735611, 0.05618136376142502, -0.1061023622751236, 0.17247624695301056, -0.39359796047210693 },
			{ -0.1052541583776474, 0.014535278081893921, -0.07080458849668503, 0.09259553253650665, -0.010517234914004803, 0.03833895921707153, 0.08112213015556335, -0.03552137315273285, 0.10281812399625778, -0.13622894883155823 },
			{ 0.02818288840353489, 0.028650939464569092, 0.016008805483579636, 0.07386656850576401, 0.11749862879514694, 0.06745595484972, -0.10138449817895889, 0.01776876300573349, 0.20240166783332825, -0.09163600206375122 },
			{ -0.05444158986210823, 0.08239151537418365, 0.029845014214515686, -0.046853143721818924, 0.002708085346966982, 0.005897914990782738, -0.1312112808227539, 0.03275637701153755, 0.03962128609418869, -0.023124996572732925 },
			{ -0.0375286228954792, 0.04193968325853348, 0.03070802241563797, 0.0014806219842284918, 0.030453044921159744, -0.008320610038936138, -0.03129567205905914, 0.003421449102461338, 0.008892622776329517, 0.019099339842796326 },
			{ -0.007271470967680216, 0.15610632300376892, -0.17013882100582123, -0.09211477637290955, -0.04710221663117409, 0.06213067099452019, 0.07327645272016525, -0.14634382724761963, 0.006189773324877024, -0.061745498329401016 },
			{ 0.013683876022696495, 0.2330123782157898, -0.03142412751913071, -0.04840940609574318, 0.02669421024620533, 0.0035865353420376778, -0.08363393694162369, -0.044684913009405136, -0.3195093870162964, -0.004733153618872166 },
			{ 0.031591836363077164, 0.11261897534132004, -0.1923675537109375, 0.06913375109434128, 0.05003839731216431, 0.2146586775779724, 0.07934737950563431, -0.08175266534090042, -0.3089407682418823, 0.09308162331581116 },
			{ -0.08595328778028488, 0.2116919308900833, -0.38897648453712463, 0.33537212014198303, -0.023193299770355225, 0.14715680480003357, -0.02514791674911976, -0.037766046822071075, -0.2612246870994568, 0.1652359813451767 },
			{ -0.07911655306816101, 0.017989374697208405, -0.40413251519203186, 0.2734581232070923, -0.05496508255600929, 0.350471168756485, -0.007455548737198114, -0.12478996068239212, -0.5586928129196167, 0.2763764262199402 },
			{ -0.14304645359516144, -0.10627922415733337, -0.3270101845264435, 0.15103964507579803, -0.11440524458885193, 0.09753336012363434, 0.12161433696746826, -0.2318260669708252, -0.21608148515224457, 0.3182692229747772 },
			{ -0.07410963624715805, 0.1490342617034912, -0.2530099153518677, 0.14215734601020813, -0.04988633841276169, -0.05129681155085564, -0.008752768859267235, -0.020813940092921257, -0.15577073395252228, 0.06510881334543228 },
			{ 0.12731336057186127, 0.208644300699234, -0.1626577377319336, 0.08859458565711975, -0.09916722774505615, 0.056051865220069885, 0.028122708201408386, -0.07846427708864212, -0.017509328201413155, -0.04616706818342209 },
			{ 0.07826903462409973, 0.1230863556265831, -0.037123993039131165, 0.027677014470100403, -0.11426080763339996, -0.013450552709400654, 0.002016903832554817, -0.026256069540977478, -0.022314149886369705, -0.1411508023738861 },
			{ -0.2627342641353607, 0.16928265988826752, 0.08171956986188889, -0.04564221575856209, -0.030431464314460754, -0.02564576268196106, -0.04482874646782875, -0.024828428402543068, 0.030885959044098854, -0.1409602016210556 },
			{ -0.08984439074993134, 0.10076314210891724, 0.11229218542575836, -0.09279900044202805, 0.07719335705041885, -0.045274753123521805, -0.07355765998363495, -0.1330248862504959, 0.048945922404527664, -0.08438561111688614 },
			{ 0.05436700955033302, 0.02120893821120262, 0.19931644201278687, -0.010472613386809826, -0.047211792320013046, -0.1506233811378479, -0.005051019601523876, -0.0794530138373375, 0.03459051996469498, -0.06034965440630913 },
			{ -0.14280274510383606, 0.15026241540908813, 0.15029166638851166, -0.08361504971981049, 0.03199826553463936, -0.06779758632183075, -0.14854788780212402, -0.016528388485312462, -0.047255031764507294, -0.021706731989979744 },
			{ -0.0377807579934597, 0.06044558063149452, 0.06953653693199158, -0.0049379002302885056, 0.1006036028265953, 0.021545128896832466, -0.08434130251407623, -0.0993354320526123, -0.07031366974115372, 0.02385939471423626 },
			{ -0.013138353824615479, 0.07416971027851105, -0.09609834104776382, -0.09419606626033783, -0.024674175307154655, 0.13424131274223328, -0.059137023985385895, -0.12317536771297455, -0.05486571043729782, 0.07422315329313278 },
			{ 0.07778345793485641, 0.21315857768058777, 0.0556538850069046, 0.017636030912399292, -0.027681095525622368, -0.10711303353309631, 0.0791671946644783, 0.009961520321667194, -0.23184043169021606, -0.11304439604282379 },
			{ 0.02693025954067707, 0.1262626200914383, -0.056065186858177185, 0.032905325293540955, -0.06409044563770294, 0.12309874594211578, 0.016234779730439186, -0.09258145093917847, -0.38564926385879517, -0.04379485547542572 },
			{ 0.03761325776576996, -0.16224327683448792, 0.026937920600175858, 0.20910561084747314, -0.006555038504302502, 0.14417363703250885, 0.12885016202926636, -0.07402962446212769, -0.265408992767334, 0.24131309986114502 },
			{ 0.2879924476146698, -0.2564070224761963, -0.1840190589427948, 0.16226041316986084, -0.15430304408073425, 0.15416653454303741, 0.1536242812871933, -0.23976731300354004, -0.18845497071743011, 0.17396192252635956 },
			{ 0.18540166318416595, -0.4849259555339813, -0.07262545078992844, 0.167006716132164, -0.2704935669898987, 0.0006421816069632769, 0.30787715315818787, -0.4023694097995758, -0.10701417177915573, 0.06178737059235573 },
			{ 0.15416841208934784, 0.06458733230829239, -0.11239642649888992, 0.11672434210777283, -0.261439710855484, -0.04111810773611069, 0.1531745195388794, -0.2329334020614624, 0.10590751469135284, -0.03584512323141098 },
			{ 0.21250580251216888, 0.225969135761261, 0.030259190127253532, -0.018294474110007286, -0.31116169691085815, -0.07174649834632874, 0.15172740817070007, -0.11163752526044846, 0.01100931502878666, -0.06637390702962875 },
			{ -0.14460623264312744, 0.3806097209453583, 0.01949331723153591, -0.2853530943393707, -0.13214686512947083, -0.15039516985416412, 0.031390976160764694, 0.1385793834924698, -0.09634705632925034, 0.01252756081521511 },
			{ -0.23387135565280914, 0.28607308864593506, 0.08847964555025101, -0.22074931859970093, 0.11848916858434677, -0.15079089999198914, -0.03254535421729088, 0.15703868865966797, -0.14936724305152893, 0.08223127573728561 },
			{ -0.08061505109071732, -0.06581718474626541, 0.2209041267633438, -0.14134575426578522, 0.11327807605266571, -0.048308998346328735, 0.024170847609639168, -0.07586745172739029, -0.09554477035999298, -0.04176521673798561 },
			{ -0.059774983674287796, 0.15786103904247284, 0.29335612058639526, -0.21877548098564148, 0.12453048676252365, -0.10546362400054932, 0.025304578244686127, -0.004101029597222805, -0.04230695962905884, -0.038212332874536514 },
			{ -0.16718636453151703, 0.035861652344465256, 0.11789760738611221, -0.09770499914884567, 0.07377349585294724, -0.04417281970381737, -0.005116466898471117, -0.008357822895050049, -0.11658082157373428, -0.019999822601675987 },
			{ -0.05490709841251373, 0.0220966637134552, -0.07578165084123611, -0.03972550109028816, 0.14081507921218872, 0.08265511691570282, -0.0885138139128685, -0.09119033813476562, 0.07262325286865234, -0.03779054060578346 },
			{ -0.10117556154727936, 0.13827908039093018, 0.0047301240265369415, -0.11374998837709427, -0.043274104595184326, 0.13088849186897278, -0.20688506960868835, -0.16965782642364502, 0.039169613271951675, 0.062132325023412704 },
			{ 0.1082000583410263, 0.11189034581184387, 0.18995191156864166, 0.022619541734457016, 0.05969388410449028, -0.3278416693210602, -0.042546581476926804, 0.1113346591591835, -0.22712741792201996, -0.1881876140832901 },
			{ 0.09548644721508026, -0.03267565369606018, -0.02800794132053852, 0.14496226608753204, 0.07970789819955826, -0.09841667860746384, 0.0656530037522316, 0.03307279944419861, -0.09262949973344803, -0.22979427874088287 },
			{ 0.041008733212947845, -0.1101236417889595, 0.02276432514190674, 0.2467556893825531, -0.09255006164312363, -0.03155617043375969, -0.006684066262096167, -0.2608271837234497, -0.10317220538854599, -0.08628477901220322 },
			{ 0.0428556427359581, -0.1530839502811432, -0.002336605917662382, 0.041163209825754166, -0.2831690013408661, 0.03480230271816254, 0.056046485900878906, -0.36096519231796265, 0.03783932328224182, -0.013244654051959515 },
			{ 0.4181051552295685, -0.3355830907821655, 0.16876579821109772, -0.01263292133808136, -0.3674893379211426, 0.06468658894300461, 0.22020162642002106, -0.45193150639533997, 0.12383335083723068, -0.19211848080158234 },
			{ 0.28305888175964355, 0.2433517724275589, -0.018544096499681473, -0.048697128891944885, -0.18812066316604614, -0.0700141191482544, 0.25461670756340027, -0.353538453578949, 0.1021338552236557, -0.2891443371772766 },
			{ 0.020218022167682648, 0.5124273896217346, 0.1389508694410324, -0.30374839901924133, -0.018935123458504677, -0.16367901861667633, 0.15120024979114532, -0.007760991808027029, -0.06066809967160225, -0.3141593039035797 },
			{ -0.08726707100868225, 0.26780271530151367, 0.16317184269428253, -0.6637077331542969, 0.21941839158535004, -0.27446064352989197, -0.07610691338777542, 0.21724462509155273, -0.2569721043109894, 0.02456570789217949 },
			{ -0.2666957378387451, 0.04787009581923485, 0.21775302290916443, -0.42992162704467773, 0.2294744998216629, -0.23190073668956757, -0.1454046070575714, 0.2094215601682663, -0.15055952966213226, 0.18324241042137146 },
			{ -0.1911706179380417, -0.0870770663022995, 0.2844042479991913, -0.2897023558616638, 0.10177018493413925, -0.1531132161617279, 0.014285850338637829, 0.03241197019815445, -0.11087866127490997, 0.12539106607437134 },
			{ -0.2525627017021179, 0.14855660498142242, 0.2606157958507538, -0.18408948183059692, 0.09742148965597153, -0.10063070803880692, 0.014263891614973545, -0.08302523195743561, -0.17235027253627777, 0.14203442633152008 },
			{ -0.24976739287376404, 0.07676340639591217, 0.029401319101452827, -0.055398669093847275, -0.021524325013160706, -0.020867623388767242, -0.020035358145833015, 0.06816831976175308, -0.05910736694931984, 0.12153822183609009 },
			{ -0.023555630818009377, -0.07963906228542328, -0.08314014971256256, -0.11026862263679504, -0.02253722958266735, -0.022938018664717674, -0.07763190567493439, -0.14622101187705994, 0.08147366344928741, 0.033125147223472595 },
			{ -0.06911401450634003, 0.06999228894710541, 0.039196811616420746, -0.2139316350221634, -0.013715052045881748, 0.13785766065120697, -0.1124797984957695, -0.10438752174377441, -0.09007404744625092, 0.13358499109745026 },
			{ 0.09168215841054916, 0.098844975233078, 0.1795005351305008, -0.235975444316864, -0.06241924315690994, -0.2032904326915741, 0.015248033218085766, 0.08095576614141464, -0.04494728520512581, -0.21985922753810883 },
			{ 0.12448268383741379, 0.13225454092025757, 0.15469439327716827, -0.11353554576635361, -0.05212831124663353, -0.09463746845722198, -0.05883391201496124, -0.01873200014233589, 0.14477045834064484, -0.19295278191566467 },
			{ 0.058112647384405136, -0.11718150228261948, -0.0077403998002409935, -0.029512077569961548, -0.06325981765985489, -0.043124862015247345, 0.20146813988685608, -0.20185935497283936, 0.05608639866113663, -0.17569155991077423 },
			{ 0.05787048116326332, 0.04856404662132263, 0.03464075177907944, 0.0547480434179306, -0.09325756877660751, -0.039967235177755356, 0.23324733972549438, -0.31419140100479126, 0.17580807209014893, -0.2012648731470108 },
			{ 0.16107647120952606, 0.1376407891511917, -0.16808009147644043, -0.08255010098218918, -0.15650637447834015, 0.011945843696594238, 0.1865411102771759, -0.09486047178506851, 0.07317596673965454, -0.3966720402240753 },
			{ -0.01977233774960041, 0.2831967771053314, -0.2085632085800171, -0.30537790060043335, 0.039436932653188705, -0.13277918100357056, 0.21196483075618744, 0.10962355881929398, -0.006998961325734854, -0.2182009220123291 },
			{ -0.016453498974442482, 0.2480037808418274, -0.1614355444908142, -0.3293612599372864, 0.18851338326931, -0.14777064323425293, 0.12582606077194214, 0.24352192878723145, -0.04048416391015053, -0.007497666869312525 },
			{ -0.09615294635295868, -0.058049071580171585, -0.07080993801355362, -0.21042588353157043, 0.29045018553733826, -0.2705300450325012, 0.04615285247564316, 0.2625221014022827, -0.19520583748817444, 0.12340669333934784 },
			{ -0.1575174480676651, 0.04652867093682289, -0.07886683195829391, -0.2821917235851288, 0.22891727089881897, -0.1222943589091301, 0.05492880940437317, 0.13675227761268616, -0.17162863910198212, 0.05891774594783783 },
			{ -0.12147239595651627, 0.07648130506277084, -0.034870147705078125, -0.22903235256671906, 0.11410285532474518, -0.0888790413737297, -0.11684989184141159, 0.0645061507821083, -0.09098178148269653, 0.1569625586271286 },
			{ -0.11610546708106995, 0.14130286872386932, 0.11450270563364029, 0.03271428495645523, -0.0416005440056324, -0.04804182052612305, -0.1568983793258667, 0.039690691977739334, -0.022709820419549942, 0.12659525871276855 },
			{ -0.10066806524991989, 0.15798789262771606, -0.007224396336823702, 0.09745269268751144, -0.1910170018672943, 0.0016244762809947133, -0.03787350282073021, 0.10288567841053009, -0.08469019085168839, -0.005229935981333256 },
			{ 0.0406738817691803, 0.15645982325077057, -0.01478809118270874, -0.15278899669647217, 0.028329020366072655, 0.13939736783504486, -0.04968581721186638, 0.04992265999317169, 0.02203201688826084, 0.09145468473434448 },
			{ 0.10032397508621216, 0.24041102826595306, -0.08695413172245026, -0.17613300681114197, 0.06556020677089691, 0.09810025990009308, -0.08234081417322159, -0.05246572941541672, -0.17781013250350952, 0.0771501213312149 },
			{ -0.07026142627000809, 0.13928121328353882, -0.025564294308423996, -0.11882654577493668, -0.020616471767425537, -0.04967957362532616, 0.008864632807672024, 0.10009823739528656, -0.12207064032554626, -0.03569240868091583 },
			{ 0.14280536770820618, 0.05070027709007263, 0.06041191890835762, -0.10314708203077316, -0.02271854132413864, -0.05330340191721916, -0.08469588309526443, 0.08506551384925842, -0.10393781214952469, -0.20419903099536896 },
			{ 0.09651098400354385, 0.04099841043353081, 0.0592634342610836, -0.02246110886335373, -0.01311908382922411, -0.06818445771932602, -0.09166370332241058, -0.09220311790704727, 0.10532631725072861, -0.07653111964464188 },
			{ 0.17282681167125702, 0.20216763019561768, 0.016127662733197212, -0.17675240337848663, 0.08185678720474243, 0.07466533035039902, -0.10280675441026688, -0.2012309581041336, 0.01602821983397007, -0.1309860199689865 },
			{ 0.046872060745954514, 0.2241673618555069, -0.0791105329990387, -0.11420383304357529, 0.06822873651981354, -0.10592508316040039, -0.12316151708364487, -0.03272201493382454, -0.051821619272232056, -0.1559528261423111 },
			{ -0.018664037808775902, 0.20024962723255157, -0.05466825142502785, -0.19975848495960236, 0.1679261028766632, -0.13275092840194702, -0.07225479185581207, 0.1849047839641571, -0.013177399523556232, -0.061515212059020996 },
			{ -0.13692329823970795, 0.10397925972938538, -0.10818684101104736, -0.2131483256816864, 0.25795742869377136, -0.029979294165968895, -0.05115630850195885, 0.14048069715499878, -0.03884879872202873, 0.06600853055715561 },
			{ 0.028105206787586212, 0.060453593730926514, -0.1451966017484665, -0.05622673034667969, 0.2651178240776062, -0.07228173315525055, -0.1911252737045288, 0.08011902868747711, 0.07597871869802475, 0.14183449745178223 },
			{ -0.13272146880626678, 0.044495951384305954, -0.19412493705749512, 0.028138669207692146, 0.1462119221687317, -0.11495868116617203, -0.09005596488714218, 0.016545778140425682, 0.08211002498865128, -0.034830242395401 },
			{ -0.08960306644439697, 0.16025425493717194, -0.055625855922698975, -0.11719021201133728, 0.116977758705616, -0.07351475954055786, -0.027155866846442223, 0.10906641185283661, -0.02536545693874359, 0.07349666208028793 },
			{ 0.021795742213726044, 0.1487913280725479, 0.04414774104952812, -0.03291098773479462, 0.11254695802927017, -0.06803248077630997, -0.08876314014196396, -0.03118186630308628, 0.023729797452688217, 0.031790345907211304 },
			{ -0.1978483945131302, 0.15946803987026215, 0.06162727624177933, -0.08909653127193451, -0.06095878407359123, 0.0607161670923233, -0.06549782305955887, 0.0604214183986187, 0.005013980902731419, 0.04125970974564552 },
			{ 0.0053028203547000885, 0.19281645119190216, 0.01701148971915245, -0.24108000099658966, 0.061860278248786926, -0.033132921904325485, -0.011970221996307373, 0.14689861238002777, -0.03479910269379616, 0.01856299862265587 },
			{ 0.002112790709361434, 0.21117988228797913, 0.08972150832414627, -0.16992753744125366, 0.018502458930015564, -0.08792197704315186, -0.05589169263839722, 0.09177723526954651, -0.24565809965133667, 0.07071518898010254 },
			{ -0.07730309665203094, 0.15979164838790894, 0.05632486194372177, -0.10328394174575806, 0.08493172377347946, -0.04477320611476898, 0.05195312574505806, 0.029881292954087257, -0.12727901339530945, 0.027126019820570946 },
			{ -0.20897532999515533, -0.09786934405565262, -0.06666945666074753, 0.18332798779010773, -0.00423029251396656, -0.1798156350851059, 0.10444021224975586, -0.025220084935426712, -0.05809452012181282, -0.08296269178390503 },
			{ 0.06073180213570595, -0.062157005071640015, 0.04160691425204277, -0.08354687690734863, -0.09101376682519913, 0.028655078262090683, 0.03787272050976753, -0.20858155190944672, -0.10953560471534729, -0.12750397622585297 },
			{ -0.13984714448451996, -0.11783527582883835, 0.15999333560466766, -0.112201027572155, -0.22215881943702698, -0.07624790072441101, 0.17541493475437164, -0.392763614654541, -0.11353491246700287, -0.3387349545955658 },
			{ -0.15954765677452087, -0.1838509887456894, 0.08064517378807068, -0.06308619678020477, -0.48352593183517456, 0.07527327537536621, 0.21328133344650269, -0.32378607988357544, -0.09170030802488327, -0.08794742822647095 },
			{ -0.010385666973888874, -0.07648729532957077, 0.028543643653392792, -0.014850493520498276, -0.3594931960105896, -0.048586759716272354, 0.11881235986948013, -0.4102022349834442, -0.0064355977810919285, -0.03950987383723259 },
			{ -0.003202396910637617, -0.01568658836185932, 0.012146756052970886, -0.029687918722629547, -0.19156189262866974, 0.09412174671888351, 0.10166944563388824, -0.36976364254951477, -0.09917134046554565, -0.1515510380268097 },
			{ -0.12929899990558624, -0.08206499367952347, 0.12214206159114838, 0.039235856384038925, -0.18655355274677277, 0.08577131479978561, 0.07382632046937943, -0.15588997304439545, -0.04922880604863167, -0.1445842683315277 },
			{ -0.17188039422035217, 0.025041701272130013, -0.03461534157395363, 0.11983854323625565, -0.18761807680130005, 0.06376278400421143, 0.08879947662353516, -0.26066648960113525, -0.0951327383518219, -0.10378812253475189 },
			{ -0.2043645679950714, 0.06263598054647446, -0.13021983206272125, 0.024506496265530586, -0.1430998146533966, -0.03562413901090622, 0.1839456558227539, -0.13090530037879944, -0.07211028039455414, -0.10944509506225586 },
			{ -0.13053208589553833, -0.018725866451859474, 0.013591844588518143, -0.039140284061431885, -0.1986682415008545, 0.05985115468502045, 0.13323545455932617, -0.1962621510028839, 0.052826423197984695, -0.10204844921827316 },
			{ -0.10900960117578506, 0.019370611757040024, -0.05997934564948082, -0.07466894388198853, -0.07026690244674683, 0.005104634910821915, 0.1815601885318756, -0.0783720538020134, -0.011596507392823696, -0.14677579700946808 },
			{ -0.006866457872092724, -0.0015122644836083055, 0.03559543564915657, -0.12974263727664948, 0.019125008955597878, -0.05647144839167595, 0.22203446924686432, -0.015077333897352219, -0.1033080518245697, -0.29719623923301697 },
			{ -0.12264646589756012, 0.08612889796495438, -0.19492876529693604, -0.22557267546653748, -0.07876715064048767, 0.05295829474925995, 0.1196436733007431, 0.03549845144152641, -0.05563851445913315, -0.11898490786552429 },
			{ -0.10324881225824356, -0.015250025317072868, -0.1032467857003212, 0.13357043266296387, 0.07845021784305573, -0.030689066275954247, 0.07454148679971695, -0.015590976923704147, -0.10948708653450012, 0.06212405115365982 },
			{ -0.0830654725432396, 0.023807918652892113, -0.1838139444589615, -0.16593199968338013, -0.05668492987751961, 0.06873968988656998, 0.15288464725017548, 0.0432138666510582, -0.08843574672937393, -0.19556789100170135 },
			{ 0.043114736676216125, -0.006437903735786676, -0.10174593329429626, 0.009225442074239254, -0.05046605318784714, -0.0027713379822671413, 0.10911459475755692, -0.03902079910039902, -0.05963655933737755, -0.18652567267417908 },
			{ -0.052666425704956055, 0.01090755220502615, 0.009630711749196053, -0.04363502934575081, -0.13467665016651154, -0.016646461561322212, 0.21838189661502838, -0.18272213637828827, 0.06936626881361008, -0.024200739338994026 },
			{ -0.10861656069755554, -0.115742027759552, -0.04769885540008545, -0.036118507385253906, -0.027221335098147392, 0.06380853801965714, 0.005196455866098404, -0.17712250351905823, -0.03170078247785568, -0.03769221901893616 },
			{ 0.005006209947168827, -0.018921956419944763, 0.049058616161346436, 0.06624649465084076, -0.021265599876642227, 0.04783531650900841, -0.06252983957529068, -0.204631507396698, 0.06028548255562782, -0.003508554771542549 },
			{ -0.0025309408083558083, 0.06155947595834732, 0.01571267656981945, 0.05474209040403366, -0.01781504414975643, -0.05972202494740486, -0.0137048764154315, -0.05768173560500145, -0.018000515177845955, -0.07069747149944305 },
			{ -0.029139867052435875, -0.023820890113711357, 0.08234535157680511, 0.032524947077035904, -0.006589083932340145, -0.019425656646490097, 0.031433600932359695, -0.012123370543122292, 0.05486171692609787, -0.04686885327100754 },
			{ 0.006255018059164286, 0.018637342378497124, 0.0614975243806839, 0.12529857456684113, -0.05855224281549454, 0.08847165107727051, 0.014845085330307484, 0.041733238846063614, 0.08963972330093384, -0.11717946082353592 },
			{ -0.027567576617002487, -0.08517695963382721, 0.048619918525218964, 0.007795797660946846, -0.08556640148162842, 0.08650624752044678, 0.020894117653369904, -0.13860811293125153, -0.04553753510117531, -0.06487348675727844 },
			{ -0.10285637527704239, -0.10564539581537247, 0.014495615847408772, 0.049609262496232986, -0.09118123352527618, 0.04660656303167343, 0.015382405370473862, -0.06756600737571716, 0.006011494901031256, -0.04948275163769722 },
			{ -0.03985786437988281, -0.09627462923526764, -0.03171119466423988, -0.04589112102985382, -0.023755721747875214, 0.04159458354115486, 0.13279381394386292, -0.10158055275678635, -0.14850367605686188, -0.11175814270973206 },
			{ -0.05541115626692772, -0.2078992873430252, 0.17009469866752625, -0.024101320654153824, 0.10271820425987244, 0.07918762415647507, 0.07337123155593872, 0.05178267881274223, -0.020196354016661644, -0.19065015017986298 },
			{ -0.05726379156112671, 0.0471804104745388, -0.08850117772817612, -0.05694572627544403, 0.13866744935512543, 0.13350257277488708, -0.010284658521413803, -0.21091195940971375, -0.007461932487785816, -0.2284596860408783 },
			{ -0.05182630196213722, -0.03862689062952995, -0.0648055374622345, -0.02485949546098709, -0.02147258073091507, -0.18254892528057098, 0.0036761253140866756, 0.0003873273963108659, -0.025720462203025818, -0.2410435825586319 },
			{ 0.04498796910047531, 0.08197833597660065, -0.07324855774641037, -0.032165735960006714, 0.051064249128103256, -0.11834488809108734, 0.1509556919336319, -0.08322098851203918, -7.651010673725978e-05, -0.20309986174106598 },
			{ -0.04963942989706993, -0.10005251318216324, -0.06008147820830345, 0.07479044049978256, -0.03311804309487343, 0.027799636125564575, 0.16906093060970306, 0.025119801983237267, 0.06103821098804474, 0.008905898779630661 },
			{ -0.028592761605978012, -0.023020779713988304, -0.07545281946659088, 0.0887165442109108, -0.0045409733429551125, 0.046834856271743774, 0.08800019323825836, -0.05449296161532402, -0.032522495836019516, -0.0231477040797472 },
			{ -0.036546025425195694, -0.11574655771255493, -0.04553276672959328, 0.030524715781211853, 0.033287327736616135, 0.06507430970668793, 0.1010163426399231, -0.04175129532814026, -0.050734743475914, -0.1412043273448944 },
			{ -0.09738917648792267, 0.04012272506952286, 0.10378812253475189, 0.038769789040088654, -0.11108824610710144, -0.04908403381705284, 0.01774059608578682, 0.07174840569496155, -0.04200006276369095, -0.14768698811531067 },
			{ -0.009453442879021168, -0.11741110682487488, 0.08022592961788177, 0.07021882385015488, -0.1268724501132965, -0.03751284256577492, -0.12382200360298157, -0.044768303632736206, 0.016040675342082977, 0.047321613878011703 },
			{ -0.06699738651514053, -0.043232645839452744, 0.06507258862257004, 0.14220412075519562, -0.10067187994718552, 0.11046168208122253, -0.09727485477924347, 0.07329076528549194, 0.04550863802433014, 0.034734081476926804 },
			{ -0.027998533099889755, -0.022364836186170578, 0.03892834484577179, 0.06944235414266586, -0.09251803159713745, 0.1399364173412323, -0.11547026038169861, 0.024194691330194473, 0.07426323741674423, 0.015418886207044125 },
			{ 0.06258337199687958, -0.07567904889583588, -0.10090496391057968, 0.009678655304014683, -0.16490136086940765, 0.10163667052984238, -0.10226532816886902, 0.032433539628982544, 0.028989283367991447, 0.1026071310043335 },
			{ -0.056714754551649094, -0.025860797613859177, 0.025538016110658646, 0.1024974137544632, -0.19502127170562744, -0.04295937344431877, 0.03485489636659622, 0.022864388301968575, -0.04977921023964882, -0.0020784095395356417 },
			{ -0.01565023884177208, 0.019601255655288696, -0.00503065250813961, 0.11838328093290329, 0.058389339596033096, -0.013221856206655502, 0.0442940816283226, -0.06588014215230942, 0.04458189383149147, 0.04576778784394264 },
			{ 0.06023645028471947, -0.12864243984222412, 0.052845925092697144, -0.05618695169687271, 0.01346838753670454, -0.05405271798372269, 0.08372046798467636, -0.10765191167593002, -0.024302441626787186, -0.15279614925384521 },
			{ -0.0166606642305851, -0.07704814523458481, 0.0798659548163414, 0.09774084389209747, 0.09424640983343124, 0.04840423911809921, -0.02670750953257084, -0.19356189668178558, -0.019920645281672478, -0.15285247564315796 },
			{ -0.20572517812252045, -0.03741182014346123, 0.027704747393727303, 0.12705661356449127, 0.003494717413559556, -0.18196409940719604, 0.11860530823469162, 0.024937929585576057, 0.02668794058263302, 0.08598842471837997 },
			{ -0.23802000284194946, -0.14890168607234955, -0.07717960327863693, -0.08134303241968155, -0.04048388451337814, -0.19185173511505127, 0.06367319077253342, -0.02860729582607746, 0.11455095559358597, -0.04132098704576492 },
			{ 0.05396367609500885, -0.11351665109395981, -0.042331017553806305, -0.036681149154901505, 0.018987031653523445, -0.08525379747152328, -0.070317842066288, -0.02688540518283844, 0.03613322228193283, 0.13310027122497559 },
			{ -0.06990180164575577, -0.08360093832015991, -0.016619455069303513, 0.012088265269994736, -0.10845846682786942, 0.0799933522939682, -0.003954923711717129, 0.12553466856479645, 0.022191422060132027, -0.023044737055897713 },
			{ 0.06045309826731682, -0.03423694521188736, 0.0027466968167573214, 0.0013687111204490066, 0.055057916790246964, 0.11481674760580063, -0.07391830533742905, 0.0881543755531311, 0.10264641791582108, -0.09525521099567413 },
			{ -0.08702751994132996, -0.015774978324770927, -0.05129634588956833, -0.004962821025401354, 0.0533624067902565, -0.05424533411860466, -0.017947647720575333, 0.0731702521443367, 0.08655931800603867, -0.06150013208389282 },
			{ 0.0772462710738182, -0.034142687916755676, -0.031097181141376495, 0.03476906567811966, -0.03940286114811897, 0.11308617889881134, -0.16417662799358368, 0.0974583700299263, -0.03048819489777088, -0.02558220364153385 },
			{ 0.09192784130573273, 0.009284996427595615, 0.0018379654502496123, 0.09670000523328781, -0.15472686290740967, 0.09409451484680176, -0.05507006123661995, 0.004645198583602905, 0.03495705872774124, -0.021104294806718826 },
			{ 0.02663269080221653, 0.013345301151275635, 0.010271337814629078, -0.024201683700084686, -0.05000719055533409, 0.03892846405506134, -0.056064728647470474, 0.053041476756334305, -0.026946790516376495, 0.09674321115016937 },
			{ -0.0022352435626089573, 0.05215676128864288, -0.1498747020959854, -0.026406073942780495, -0.04769987240433693, 0.057224761694669724, -0.1090327575802803, -0.002629851223900914, -0.03538280725479126, 0.01922431029379368 },
			{ 0.005146430339664221, -0.02793327532708645, -0.11976585537195206, 0.09497062861919403, 0.043848082423210144, -0.013772597536444664, -0.07760678231716156, -0.005696715787053108, -0.06556563079357147, 0.05794137343764305 },
			{ -0.06410559266805649, 0.03465889021754265, 0.030871281400322914, 0.02585308812558651, 0.025081109255552292, -0.07120385020971298, -0.19597981870174408, 0.015300577506422997, 0.04057560861110687, -0.07763055711984634 },
			{ -0.03037499636411667, -0.01264557521790266, 0.03713354468345642, -0.006661614403128624, 0.020410681143403053, 0.04207669198513031, -0.2085578888654709, -0.02281557209789753, 0.003946930170059204, -0.06486549973487854 },
			{ -0.02250029146671295, -0.037575721740722656, 0.03358613699674606, -0.11875607818365097, 0.09071967750787735, 0.007763499394059181, -0.15838658809661865, -0.09493337571620941, 0.05009094253182411, -0.13264772295951843 },
			{ -0.1907271295785904, -0.12055265158414841, -0.009231059812009335, 0.023152310401201248, -0.0385475754737854, -0.03215780854225159, 0.05080876126885414, -0.09563051909208298, 0.014359358698129654, 0.01243875827640295 },
			{ -0.18457895517349243, -0.05991354212164879, -0.10384386032819748, -0.003873501205816865, -0.0987904965877533, 0.1474236100912094, 0.07238242775201797, -0.08918747305870056, 0.11920584738254547, 0.03281275928020477 },
			{ 0.010407020337879658, -0.03671139478683472, -0.1470760703086853, -0.14088574051856995, -0.08235160261392593, -0.08634742349386215, 0.0497700572013855, 0.05918388068675995, 0.025889802724123, 0.10601974278688431 },
			{ -0.015406978316605091, -0.2090023159980774, -0.05516507849097252, -0.22528737783432007, 0.08696351200342178, -0.004565859213471413, 0.05159779638051987, -0.023526858538389206, 0.14331834018230438, 0.11348561942577362 },
			{ -0.05824517458677292, -0.21676205098628998, -0.11430131644010544, -0.25585100054740906, 0.138881653547287, 0.010479675605893135, -0.07257255911827087, 0.06098302826285362, 0.08990433067083359, 0.06900027394294739 },
			{ 0.014769470319151878, -0.18218688666820526, -0.07411546260118484, -0.11796165257692337, 0.07435870915651321, 0.07792727649211884, -0.09709269553422928, 0.027145422995090485, 0.08635567873716354, 0.0008942743297666311 },
			{ -0.04246066138148308, -0.044016774743795395, -0.11252105981111526, -0.1437065452337265, -0.06764329969882965, 0.023400546982884407, -0.03829282522201538, 0.0855831503868103, 0.11809280514717102, 0.15837518870830536 },
			{ -0.055039841681718826, -0.051651742309331894, -0.18212997913360596, -0.11391081660985947, -0.004752899520099163, -0.05318434536457062, -0.10229797661304474, 0.005953377112746239, 0.041696932166814804, 0.1522389054298401 },
			{ -0.026840506121516228, 0.014899475499987602, -0.16448673605918884, -0.0076544275507330894, -0.07926081866025925, -0.04196576774120331, -0.19143912196159363, 0.16455833613872528, 0.009820284321904182, 0.030523918569087982 },
			{ -0.01097096223384142, 0.1561134308576584, -0.031541284173727036, 0.0166073776781559, 0.010143660940229893, -0.03238856792449951, -0.1733560413122177, 0.026814350858330727, -0.0256924107670784, -0.011856785044074059 },
			{ 0.1389666348695755, 0.10236375778913498, -0.07917128503322601, -0.05427500978112221, 0.0921163335442543, -0.15806739032268524, -0.12308021634817123, 0.18521015346050262, -0.08176916837692261, 0.0058701857924461365 },
			{ 0.07346910238265991, 0.0347561314702034, 0.024672426283359528, 0.02824568748474121, -0.055442776530981064, -0.030529135838150978, -0.01622050628066063, -0.0059617990627884865, 0.09905210882425308, -0.018656350672245026 },
			{ 0.064943328499794, -0.12932685017585754, -0.005472882650792599, -0.08837161958217621, -0.045749835669994354, -0.023319602012634277, -0.11171840876340866, -0.0277762059122324, 0.11670397222042084, 0.11922794580459595 },
			{ 0.10326509177684784, -0.15665678679943085, -0.027312131598591805, -0.06291001290082932, -0.026474200189113617, -0.01676846481859684, -0.13503700494766235, -0.17221304774284363, 0.025087716057896614, 0.09592942893505096 },
			{ -0.1110483780503273, 0.04432728886604309, -0.14121294021606445, -0.1494784951210022, -0.09669728577136993, 0.0499228909611702, -0.04917163774371147, 0.02825741097331047, 0.1689237803220749, -0.020798465237021446 },
			{ 0.0033224245999008417, -0.01882520504295826, -0.24829022586345673, -0.18715964257717133, 0.05549542233347893, 0.08893436938524246, -0.018561823293566704, -0.11705750226974487, 0.03485085442662239, 0.19402457773685455 },
			{ -0.04066178947687149, -0.17713119089603424, -0.2513381540775299, -0.1548449844121933, 0.007543876301497221, 0.03283088281750679, 0.0629967674612999, -0.06773252040147781, 0.1509423702955246, 0.17851220071315765 },
			{ -0.018989624455571175, -0.18789970874786377, -0.1952735185623169, -0.16893792152404785, 0.13134600222110748, -0.0133970333263278, 0.06711841374635696, -0.06955542415380478, 0.07070298492908478, 0.1373520791530609 },
			{ -0.005132015328854322, -0.20932069420814514, -0.10977646708488464, -0.19739662110805511, 0.1748785674571991, -0.06672725081443787, 0.17221960425376892, -0.08105649799108505, 0.10168353468179703, 0.02796725183725357 },
			{ 0.04285559430718422, -0.06965611129999161, -0.1675969362258911, -0.2956586480140686, 0.13289935886859894, -0.08539897948503494, -0.08385434746742249, -0.12101073563098907, 0.048157110810279846, 0.1596747189760208 },
			{ -0.09026315063238144, -0.008255437947809696, -0.25572630763053894, -0.0074213771149516106, 0.09102204442024231, -0.05876987800002098, -0.0233534574508667, -0.08369510620832443, 0.1256384253501892, 0.21703004837036133 },
			{ -0.09055023640394211, 0.1191638708114624, -0.20732758939266205, 0.02025071159005165, -0.031769245862960815, -0.15391920506954193, 0.01736997254192829, -0.12261322885751724, 0.022732991725206375, 0.15661685168743134 },
			{ -0.14437134563922882, 0.07846399396657944, -0.14981819689273834, 0.06124525144696236, 0.09600277990102768, -0.12055674195289612, -0.10269772261381149, -0.07241687178611755, 0.04344119504094124, 0.029679011553525925 },
			{ -0.03658810257911682, 0.13465489447116852, -0.05905700847506523, 0.002727826125919819, 0.2080880105495453, -0.1801316738128662, -0.031610582023859024, 0.08392849564552307, 0.07726291567087173, 0.1375633180141449 },
			{ 0.08605463802814484, 0.025732235983014107, -0.05675266310572624, -0.011793744750320911, 0.09534348547458649, -0.050628505647182465, -0.05782207474112511, 0.06486331671476364, -0.008169637061655521, -0.04167131334543228 },
			{ -0.002552283462136984, -0.1251358985900879, 0.06577255576848984, -0.2182779461145401, 0.0612206906080246, -0.05798138678073883, -0.053460463881492615, 0.04378044232726097, 0.01794426701962948, -0.014257088303565979 },
			{ 0.09486987441778183, -0.07269306480884552, -0.05328000709414482, -0.258750319480896, -0.09272588789463043, 0.03906082734465599, 0.11510500311851501, -0.06057701259851456, -0.02610074169933796, -0.05063115060329437 },
			{ 0.014534088782966137, -0.018618056550621986, -0.03806532919406891, -0.008731672540307045, -0.23484130203723907, -0.02584311179816723, 0.08830041438341141, -0.10297176986932755, 0.10656105726957321, 0.15088777244091034 },
			{ -0.1286308914422989, 0.08614577353000641, -0.25121816992759705, -0.09150206297636032, 0.03765478730201721, -0.07936089485883713, -0.021656403318047523, 0.1039537638425827, -0.07441489398479462, 0.16666750609874725 },
			{ 0.18514327704906464, -0.052286043763160706, -0.12822523713111877, -0.25490474700927734, -0.0284565556794405, 0.05143115669488907, 0.09177904576063156, 0.005285478197038174, -0.08167404681444168, 0.11115650832653046 },
			{ 0.12575073540210724, 0.04628980532288551, -0.1874094307422638, -0.21255572140216827, 0.10633736848831177, -0.034389711916446686, 0.1448371261358261, -0.07858984917402267, -0.029008446261286736, 0.03747718036174774 },
			{ 0.01585523970425129, -0.13671033084392548, -0.18657591938972473, -0.1955566704273224, 0.17453579604625702, -0.023447364568710327, 0.01833852007985115, -0.16366034746170044, -0.011745546013116837, 0.0518389455974102 },
			{ 0.023383447900414467, -0.007966231554746628, -0.1353624165058136, -0.2585313320159912, 0.17400573194026947, 0.018220337107777596, 0.011009030975401402, -0.10806608200073242, 0.05721601843833923, 0.12913624942302704 },
			{ -0.008860205300152302, -0.11290399730205536, -0.33111220598220825, -0.08130284398794174, 0.22861535847187042, -0.04187677055597305, 0.12263496965169907, -0.11402173340320587, 0.023741157725453377, 0.05663057044148445 },
			{ -0.06972789764404297, 0.10158198326826096, -0.1366766095161438, 0.08680231124162674, 0.051695097237825394, -0.10204584151506424, -0.023504285141825676, -0.28824394941329956, 0.03429333120584488, 0.16133220493793488 },
			{ -0.23342175781726837, -0.03728272020816803, -0.05589384213089943, 0.20373433828353882, 0.10676272213459015, -0.10231892764568329, -0.03863214701414108, -0.08730588853359222, 0.1324947029352188, 0.0669965073466301 },
			{ -0.2847016453742981, 0.057552795857191086, -0.078395776450634, 0.004059372004121542, 0.08726190030574799, -0.18146787583827972, 0.15290752053260803, -0.007622553966939449, 0.09209850430488586, 0.04978561028838158 },
			{ -0.11309342086315155, -0.06258520483970642, -0.07514398545026779, 0.0331694670021534, 0.11564867198467255, -0.21455705165863037, -0.024868104606866837, 0.04284527152776718, 0.07040928304195404, 0.05658058077096939 },
			{ -0.042680688202381134, -0.01779010519385338, -0.029072673991322517, 0.020668277516961098, 0.09550868719816208, -0.11639896780252457, 0.08273477852344513, -0.07923257350921631, 0.05101717635989189, 0.07436645776033401 },
			{ 0.0524742491543293, -0.039580442011356354, -0.1277291476726532, -0.1098124235868454, 0.0064440155401825905, 0.06867212057113647, 0.1024223268032074, -0.0347888357937336, -0.07369254529476166, 0.062158335000276566 },
			{ 0.02767110802233219, -0.06710628420114517, 0.0334714874625206, -0.13763843476772308, -0.12379203736782074, 0.0040044644847512245, 0.21432897448539734, -0.15023615956306458, -0.19709189236164093, 0.08179181814193726 },
			{ 0.15134234726428986, -0.1045081838965416, 0.04923433065414429, -0.04405214264988899, -0.1986982226371765, -0.12434141337871552, 0.08621662110090256, -0.15713682770729065, -0.10250916332006454, -0.05325672775506973 },
			{ 0.0502188578248024, 0.05756642296910286, -0.13728664815425873, 0.00040313618956133723, -0.034054215997457504, -0.07555383443832397, -0.28538209199905396, -0.09398525208234787, -0.15745925903320312, 0.09565390646457672 },
			{ -0.00938912108540535, -0.04738960787653923, -0.04678228497505188, -0.006744537968188524, 0.09550441801548004, -0.011768418364226818, 0.05384388193488121, -0.08805884420871735, -0.04031923785805702, 0.060970909893512726 },
			{ 0.19830285012722015, -0.1106027290225029, -0.03571325168013573, -0.21022070944309235, 0.02907131053507328, 0.004762329161167145, 0.09370581805706024, -0.1809299886226654, -0.04351498931646347, 0.15209317207336426 },
			{ 0.15204350650310516, -0.04640421271324158, -0.0695493072271347, -0.1545284390449524, 0.017946531996130943, -0.13546055555343628, 0.05174940824508667, 0.010124897584319115, -0.015145424753427505, 0.06471571326255798 },
			{ 0.15723642706871033, -0.13876348733901978, -0.009469904005527496, -0.10141996294260025, 0.10498519986867905, -0.051724161952733994, 0.06239902600646019, -0.0012805782025679946, -0.0385177917778492, 0.018970556557178497 },
			{ 0.16091381013393402, -0.08850276470184326, -0.04191390797495842, 0.0955333262681961, 0.05770379304885864, -0.204633429646492, 0.054423633962869644, -0.18115490674972534, 0.015103391371667385, -0.06018827110528946 },
			{ -0.1557803750038147, 0.06154690310359001, 0.07426562905311584, 0.10916747152805328, 0.0037869622465223074, -0.20726417005062103, 0.07048364728689194, -0.17833538353443146, 0.02562262862920761, 0.08513133227825165 },
			{ -0.19318173825740814, 0.032864708453416824, 0.07428164035081863, 0.03408503532409668, -0.045220836997032166, -0.3031092882156372, 0.14665959775447845, -0.08577965945005417, 0.03520812839269638, -0.07867836207151413 },
			{ -0.01833825372159481, 0.009655855596065521, 0.0446944460272789, 0.08706215023994446, 0.09080607444047928, -0.14930292963981628, 0.10478023439645767, -0.09899729490280151, 0.07393105328083038, 0.016691043972969055 },
			{ 0.08470531553030014, -0.137140691280365, 0.03567209094762802, -0.010341710411012173, 0.12617433071136475, -0.06335422396659851, 0.10669703781604767, 0.045170992612838745, -0.09756654500961304, -0.013041266240179539 },
			{ 0.06372867524623871, -0.16113905608654022, -0.047261036932468414, -0.01000676304101944, 0.06720834225416183, 0.04487382620573044, 0.15609245002269745, -0.044616296887397766, -0.006657520774751902, 0.025066616013646126 },
			{ -0.010392393916845322, -0.10528083145618439, -0.06895366311073303, -0.0335250198841095, -0.1257181316614151, 0.04346209391951561, 0.18890731036663055, -0.03636734187602997, -0.00451701832935214, -0.05865709111094475 },
			{ 0.09613078832626343, -0.17838464677333832, 0.06008074805140495, 0.1698634773492813, -0.13335229456424713, 0.10666490346193314, 0.022570721805095673, -0.008841931819915771, -0.1365947276353836, -0.19996535778045654 },
			{ 0.025221778079867363, -0.11427394300699234, 0.027120213955640793, -0.007582825608551502, -0.018951453268527985, 0.22684946656227112, -0.0024495788384228945, -0.09579115360975266, 0.025529073551297188, -0.2690010666847229 },
			{ 0.05544944480061531, -0.07695472240447998, 0.12466050684452057, -0.10793257504701614, 0.11296048015356064, -0.0971066951751709, -0.14129109680652618, -0.003999360837042332, -0.13254612684249878, -0.05610613524913788 },
			{ 0.07670606672763824, -0.22856993973255157, 0.055999886244535446, -0.017024826258420944, 0.1475096046924591, -0.13954538106918335, 0.004290473647415638, -0.034352242946624756, 0.030055223032832146, -0.07294371724128723 },
			{ 0.0289546437561512, -0.11415655165910721, 0.15061283111572266, -0.10360885411500931, -0.002911872696131468, 0.005723244976252317, 0.03407355025410652, -0.09016620367765427, 0.06703535467386246, -0.016184654086828232 },
			{ -0.022639766335487366, -0.09477221965789795, 0.04910019412636757, -0.09008242189884186, -0.11141788959503174, -0.14957192540168762, 0.0755385309457779, -0.04083768278360367, -0.0564228892326355, -0.11185383051633835 },
			{ 0.0658886730670929, -0.04299973323941231, 0.16371923685073853, -0.10995805263519287, -0.10564029961824417, -0.12087143212556839, 0.037707604467868805, 0.07731479406356812, -0.02123224176466465, -0.11877544224262238 },
			{ 0.0009006827021948993, 0.08348618447780609, 0.12625814974308014, -0.04025831073522568, -0.18552467226982117, -0.2001427710056305, 0.08160194754600525, -0.18808840215206146, 0.0020134667865931988, -0.15892358124256134 },
			{ -0.05050556734204292, 0.04133833572268486, 0.15359191596508026, -0.030103951692581177, -0.0036784436088055372, -0.17843079566955566, 0.06913772225379944, -0.11564357578754425, -0.07718149572610855, -0.02330746501684189 },
			{ -0.08794426918029785, 0.04361536353826523, 0.12568427622318268, 0.004311228170990944, 2.3960310500115156e-06, -0.11128944903612137, 0.31338441371917725, 0.07851073145866394, -0.11706763505935669, -0.17833751440048218 },
			{ 0.0349884107708931, -0.09691020846366882, 0.17009395360946655, -0.046823423355817795, -0.03176894038915634, -0.05834484472870827, 0.15589003264904022, 0.09966196119785309, -0.06180684641003609, -0.09417099505662918 },
			{ -0.006196138449013233, -0.15177223086357117, 0.039739299565553665, 0.08208877593278885, 0.07253748923540115, -0.06392565369606018, 0.09544128179550171, 0.02795196883380413, -0.10222729295492172, -0.12946853041648865 },
			{ 0.04483592137694359, -0.10591905564069748, 0.05700404569506645, 0.00272704497911036, 0.00438795518130064, 0.12234509736299515, 0.10475704818964005, -0.05022823065519333, -0.0986652821302414, -0.1497465968132019 },
			{ 0.027649784460663795, 0.029937220737338066, -0.05682023614645004, 0.10499754548072815, -0.1618133783340454, 0.06613758206367493, -0.0008090324117802083, 0.006362572778016329, 0.0031575378961861134, -0.14439445734024048 },
			{ -0.0076880911365151405, -0.015935953706502914, 0.06109192967414856, 0.1381787359714508, -0.10862110555171967, 0.047975149005651474, -0.003009646199643612, -0.1638118475675583, 0.013941673561930656, -0.23454679548740387 },
			{ -0.031160952523350716, 0.07625600695610046, -0.17058932781219482, -0.05806291475892067, -0.042638372629880905, 0.27585160732269287, -0.02513362467288971, -0.08138791471719742, 0.09791094809770584, -0.15237730741500854 },
			{ 0.053379710763692856, 0.03179401159286499, 0.16533562541007996, -0.12977494299411774, 0.05576328933238983, -0.3430194556713104, 0.07176601141691208, -0.03484174981713295, -0.025215547531843185, -0.1902039796113968 },
			{ 0.17417700588703156, 0.0986669734120369, 0.03077758476138115, -0.025134505704045296, -0.046230725944042206, -0.18670077621936798, 0.024590449407696724, -0.13810521364212036, -0.03984299302101135, -0.0024363340344280005 },
			{ 0.10402088612318039, -0.016917405650019646, 0.15873472392559052, 0.01985669508576393, -0.06208229437470436, 0.0074799745343625546, 0.05726277828216553, -0.016413135454058647, 0.14093005657196045, -0.08781927078962326 },
			{ 0.07127793878316879, -0.06479943543672562, 0.06821470707654953, -0.0869244933128357, -0.14146070182323456, -0.06817828118801117, 0.11574860662221909, -0.00805825088173151, -0.005253128707408905, -0.16177275776863098 },
			{ 0.03992399945855141, -0.07244397699832916, 0.1230778694152832, -0.09662140905857086, -0.15271420776844025, -0.05356113985180855, -0.01558674406260252, 0.07391975820064545, 0.06830345094203949, -0.16431358456611633 },
			{ 0.07100723683834076, 0.006889672018587589, 0.1725318431854248, -0.00045514098019339144, -0.07837718725204468, -0.08634504675865173, 0.17471668124198914, -0.0762527734041214, 0.008787761442363262, -0.23839116096496582 },
			{ -0.00428537605330348, 0.08118049055337906, 0.09311217069625854, -0.0175433661788702, 0.025654634460806847, -0.08920041471719742, 0.10418879985809326, -0.08398085087537766, -0.06853355467319489, -0.11584421992301941 },
			{ 0.014140610583126545, -0.07517240941524506, 0.12082302570343018, -0.131203755736351, -0.04753750190138817, 0.027066204696893692, 0.0930323526263237, -0.027883144095540047, -0.06572815030813217, -0.092635877430439 },
			{ 0.03377604857087135, -0.10570582002401352, 0.09671313315629959, -0.0013595435302704573, -0.05224180594086647, 0.0795111209154129, 0.16258345544338226, -0.01734720915555954, -0.15521715581417084, -0.13380971550941467 },
			{ -0.07295140624046326, 0.010043207556009293, 0.07961729913949966, 0.12711425125598907, -0.09097404032945633, 0.08607006818056107, 0.029415907338261604, 0.06303131580352783, -0.027427397668361664, -0.13147445023059845 },
			{ 0.021368393674492836, -0.0720842182636261, -0.04818078875541687, 0.1948387771844864, -0.08895805478096008, 0.06345397233963013, 0.07623866200447083, -0.000708642415702343, 0.03644983097910881, -0.17336232960224152 },
			{ -0.14183089137077332, -0.018910646438598633, 0.019796526059508324, 0.19758613407611847, -0.19992798566818237, 0.1258123517036438, -0.1017952635884285, -0.2858676314353943, 0.04025833308696747, -0.211734339594841 },
			{ -0.20661765336990356, -0.011407224461436272, -0.014707845635712147, -0.057997655123472214, -0.11722695082426071, 0.17300602793693542, -0.03767743334174156, -0.14751198887825012, -0.011561932042241096, -0.17078740894794464 },
			{ -0.20270328223705292, -0.004802815616130829, -0.0066915350034832954, -0.04337678477168083, -0.11944391578435898, 0.08793099969625473, -0.2117389440536499, -0.22422637045383453, 0.13858547806739807, 0.1493290662765503 },
			{ 0.13016924262046814, -0.0021432479843497276, 0.2545488774776459, 0.11235581338405609, -0.13411840796470642, -0.28936702013015747, -0.12726572155952454, -0.23192304372787476, -0.11741854250431061, -0.08991190791130066 },
			{ 0.06668110191822052, -0.04528911039233208, 0.07390542328357697, -0.0377657487988472, -0.04168408364057541, -0.0917462557554245, 0.051369816064834595, -0.014799391850829124, 0.16634106636047363, -0.2922027111053467 },
			{ 0.008569130674004555, 0.046124476939439774, 0.11390377581119537, -0.03739462047815323, 0.004296057391911745, -0.04282597452402115, -0.05207065865397453, -0.0128314895555377, 0.04397573322057724, -0.10266834497451782 },
			{ 0.1493319869041443, 0.07726777344942093, 0.05841846019029617, -0.01800820603966713, 0.0034432734828442335, -0.08863265812397003, 0.008328177966177464, 0.05898671969771385, 0.0194074884057045, -0.17323672771453857 },
			{ 0.02601330168545246, -0.06363702565431595, 0.14749234914779663, -0.049378637224435806, -0.04026272892951965, -0.14495542645454407, -0.00558327604085207, 0.011153659783303738, 0.1072409451007843, -0.16004261374473572 },
			{ 0.04437769204378128, -0.0829189270734787, 0.02101082354784012, -0.08384282886981964, -0.10475334525108337, 0.08287828415632248, 0.07134020328521729, 0.002056920900940895, -0.02018468827009201, -0.12387724220752716 },
			{ 0.06867032498121262, 0.025382524356245995, 0.11804116517305374, -0.05156652256846428, -0.05274561792612076, 0.03961024433374405, 0.06649024039506912, -0.033285319805145264, -0.10637199878692627, -0.0002974565722979605 },
			{ 0.04081796482205391, -0.09446875005960464, -0.0264265276491642, 0.05450330674648285, -0.142542764544487, 0.14893576502799988, 0.061943769454956055, -0.13028092682361603, -0.08935005217790604, -0.19953200221061707 },
			{ -0.040346357971429825, -0.12298472970724106, 0.050053659826517105, 0.10072609037160873, -0.10342848300933838, 0.1221233606338501, -0.0280710831284523, -0.050375744700431824, -0.045318540185689926, -0.20168909430503845 },
			{ 0.06652627885341644, 0.04352516308426857, 0.060484111309051514, 0.04612446203827858, -0.06078312173485756, 0.012349726632237434, -0.07480413466691971, -0.041856784373521805, 0.0851566269993782, -0.16424603760242462 },
			{ -0.05029420554637909, 0.040039122104644775, 0.04736393317580223, 0.09656383842229843, -0.13707081973552704, 0.0755450651049614, -0.08964863419532776, 0.010842718183994293, 0.15899527072906494, -0.1941794604063034 },
			{ -0.00356880109757185, 0.009690076112747192, -0.005784463137388229, -0.004506026394665241, -0.055588725954294205, 0.049370795488357544, -0.10407298058271408, -0.23147286474704742, 0.19015805423259735, -0.03697165474295616 },
			{ -0.04613126814365387, -0.04912072792649269, 0.16530585289001465, -0.1653563231229782, 0.024206817150115967, 0.05670507624745369, -0.20401164889335632, -0.25960463285446167, 0.031535156071186066, 0.05473080649971962 },
			{ -0.28712987899780273, 0.07389961183071136, -0.027476103976368904, -0.10679396986961365, 0.010104726068675518, 0.03221671283245087, -0.1298239529132843, -0.38848239183425903, -0.02461690828204155, 0.20174375176429749 },
			{ -0.07136666029691696, 0.05389600619673729, 0.12093643099069595, 0.002337744692340493, 0.11060899496078491, -0.23535962402820587, -0.08882719278335571, -0.0697394534945488, -0.14211341738700867, -0.30516159534454346 },
			{ 0.02098439633846283, -0.0892971009016037, 0.10888064652681351, -0.01340589951723814, 0.062294892966747284, -0.15142077207565308, 0.04550023749470711, 0.08701251447200775, 0.0361977182328701, -0.06121823564171791 },
			{ 0.09033481776714325, 0.09442507475614548, 0.030794454738497734, 0.08114887773990631, -0.028726540505886078, -0.03176835551857948, 0.01372611802071333, -0.10388221591711044, 0.0922844335436821, -0.1013418659567833 },
			{ 0.030935965478420258, 0.058503419160842896, 0.1249525249004364, -0.022690823301672935, 0.024012519046664238, -0.0809013694524765, 0.037553709000349045, -0.06364122033119202, 0.060550540685653687, -0.016811436042189598 },
			{ 0.039076488465070724, 0.09761712700128555, 0.011657352559268475, -0.00906305480748415, 0.04318297654390335, 0.0032451802399009466, -0.08898759633302689, 0.022868365049362183, 0.07265055924654007, -0.09145841747522354 },
			{ -0.02958655171096325, -0.01980120874941349, 0.024758093059062958, -0.009478936903178692, 0.03277093172073364, 0.04238850623369217, -0.1360025405883789, 0.08399175107479095, 0.07919877022504807, -0.03233618661761284 },
			{ -0.056524306535720825, -0.12026102840900421, -0.12019611150026321, -0.009350157342851162, 0.02200566977262497, 0.1638338714838028, -0.09163962304592133, 0.03655586764216423, 0.012556269764900208, 0.03905697539448738 },
			{ 0.057256218045949936, -0.08138992637395859, -0.02187752164900303, 0.07371830940246582, -0.06694221496582031, 0.09891272336244583, -0.07021205872297287, 0.007550329435616732, 0.04840295761823654, -0.02754099853336811 },
			{ -0.10211358219385147, -0.11982667446136475, -0.10891614854335785, 0.034072812646627426, -0.171327143907547, 0.09963636100292206, -0.09956316649913788, -0.03813916817307472, 0.13900215923786163, -0.013943038880825043 },
			{ -0.021696271374821663, -0.08907786756753922, -0.014608997851610184, 0.006018366198986769, -0.1272304803133011, -0.01059640385210514, -0.009934713132679462, -0.029567649587988853, 0.06965190172195435, -0.011666720733046532 },
			{ -0.06487762182950974, 0.04109610617160797, -0.09083976596593857, 0.05564545840024948, -0.05361500382423401, 0.13039682805538177, -0.08000016212463379, -0.04397056996822357, 0.09931961447000504, -0.024357736110687256 },
			{ -0.046479422599077225, 0.024998128414154053, 0.04730147495865822, -0.14911940693855286, 0.03859907388687134, 0.054356932640075684, -0.13980256021022797, -0.06145457550883293, 0.013065949082374573, -0.03900081291794777 },
			{ -0.17350730299949646, -0.147295743227005, 0.08285880833864212, -0.3369308114051819, 0.028552958741784096, -0.00620582140982151, -0.21752125024795532, -0.04481944069266319, 0.013789535500109196, 0.06249365955591202 },
			{ -0.11889281868934631, -0.11326055973768234, 0.10364887863397598, -0.026735669001936913, 0.16578461229801178, -0.017170598730444908, -0.17088286578655243, -0.2699090242385864, 0.03176746517419815, 0.10809896886348724 },
			{ 0.009735655970871449, 0.12380184978246689, 0.08787449449300766, -0.0718056708574295, -0.07127910107374191, -0.13780902326107025, -0.026259440928697586, 0.04046431928873062, -0.18684621155261993, -5.548200715566054e-05 },
			{ 0.08678411692380905, 0.11824757605791092, 0.10610727220773697, -0.09492921829223633, -0.07678703963756561, -0.09965366870164871, -0.4698633551597595, 0.1186995804309845, 0.0713510736823082, 0.02751832827925682 },
			{ 0.18825112283229828, -0.01970183290541172, 0.08359561860561371, -0.011721247807145119, -0.2518540024757385, -0.198518306016922, -0.15396180748939514, 0.06533868610858917, -0.09027819335460663, -0.023008106276392937 },
			{ -0.05283036082983017, 0.03734136372804642, 0.08845777064561844, 0.003673942293971777, -0.11588776856660843, -0.15425024926662445, 0.13904884457588196, 0.14888784289360046, -0.18094366788864136, 0.06731835007667542 },
			{ -0.2923024594783783, -0.004872752819210291, -0.10672193020582199, 0.039022766053676605, 0.043192874640226364, -0.025433851405978203, -0.10737311094999313, 0.16802674531936646, -0.2725793123245239, 0.03633200749754906 },
			{ -0.29528817534446716, -0.081287682056427, -0.28146788477897644, 0.06617288291454315, 0.052594296634197235, 0.008403060957789421, -0.13831232488155365, 0.14393429458141327, 0.05247693508863449, 0.07689031958580017 },
			{ -0.23992861807346344, -0.2186330258846283, -0.2947362959384918, 0.06700712442398071, -0.08314346522092819, 0.06807678937911987, -0.38015657663345337, 0.047897033393383026, 0.04402078688144684, 0.06342072039842606 },
			{ -0.17643187940120697, -0.16375845670700073, -0.42197340726852417, 0.16971701383590698, -0.07890188694000244, 0.1038258820772171, -0.39516481757164, 0.028368689119815826, 0.14378878474235535, 0.09083019196987152 },
			{ -0.3009551167488098, -0.25861603021621704, -0.2142825424671173, 0.20313221216201782, -0.16169996559619904, 0.1559530794620514, -0.16859599947929382, 0.09481310844421387, 0.022993138059973717, 0.0441039577126503 },
			{ -0.2473706603050232, -0.012282158248126507, -0.18710967898368835, -0.015928687527775764, -0.009973342530429363, 0.1312229186296463, -0.03853337839245796, 0.08547466993331909, -0.11787886917591095, 0.0734512060880661 },
			{ -0.21956872940063477, -0.13015930354595184, 0.06854145228862762, -0.08995132893323898, -0.16279545426368713, 0.12330861389636993, -0.2872940003871918, 0.0734957680106163, -0.047506555914878845, 0.1522127389907837 },
			{ -0.4244143068790436, -0.03915304318070412, 0.054289303719997406, -0.05354877933859825, -0.09731337428092957, 0.06184527650475502, -0.34796342253685, 0.009541885927319527, -0.2655339539051056, 0.12451862543821335 },
			{ -0.1909327208995819, 0.05186484009027481, 0.009358858689665794, -0.20862039923667908, -0.1460237354040146, -0.10521518439054489, -0.17285390198230743, 0.08078723400831223, -0.3216884732246399, 0.1054496243596077 },
			{ -0.20360489189624786, -0.03888395056128502, -0.23743878304958344, -0.028560569509863853, 0.0906115174293518, 0.1884719729423523, -0.18409626185894012, -0.29667776823043823, -0.1879088431596756, 0.03950266167521477 },
			{ -0.0009793031495064497, 0.03481781855225563, -0.08937454968690872, -0.08021636307239532, 0.003809893038123846, -0.023947544395923615, -0.08400638401508331, 0.13236171007156372, -0.20396769046783447, -0.08712532371282578 },
			{ -0.06004291772842407, 0.04895554110407829, -0.1739896684885025, 0.18196216225624084, -0.3156239986419678, -0.04433107003569603, -0.030538568273186684, 0.146050825715065, -0.07628127932548523, -0.01016341894865036 },
			{ -0.07643872499465942, -0.09120656549930573, -0.19860444962978363, 0.09493959695100784, -0.0395628958940506, -0.09894587099552155, -0.32799145579338074, 0.14520587027072906, -0.031770266592502594, 0.11090093106031418 },
			{ -0.37330520153045654, 0.07389617711305618, -0.17772550880908966, -0.0030930982902646065, -0.015410102903842926, 0.04445900768041611, -0.28148818016052246, 0.07794081419706345, -0.16297730803489685, 0.010300428606569767 },
			{ -0.42643240094184875, -0.02204011008143425, -0.24454733729362488, 0.006884944625198841, 0.09137377887964249, -0.2628287374973297, -0.46377211809158325, 0.14802977442741394, -0.17217768728733063, 0.2095252126455307 },
			{ -0.399739533662796, 0.1259612888097763, -0.4199940860271454, 0.11871074140071869, 0.05750361084938049, -0.04673387110233307, -0.3878491222858429, 0.1353427618741989, -0.1194266676902771, 0.07788588106632233 },
			{ -0.40585970878601074, 0.1381167471408844, -0.521986722946167, 0.10122769325971603, 0.08261363208293915, -0.051587752997875214, -0.49900633096694946, 0.1886042207479477, -0.25042060017585754, -0.008234267123043537 },
			{ -0.6114126443862915, -0.02987445704638958, -0.5249649286270142, -0.061977263540029526, 0.04450192302465439, 0.1398870050907135, -0.3601306080818176, 0.2811127305030823, -0.08980104327201843, 0.053869690746068954 },
			{ -0.40459543466567993, 0.04015682265162468, -0.3455168604850769, 0.22404947876930237, 0.10287193953990936, 0.07922974228858948, -0.28698769211769104, 0.15474696457386017, -0.17076922953128815, -0.020928213372826576 },
			{ -0.4281104505062103, -0.035822585225105286, -0.15490980446338654, 0.1606382578611374, -0.122127465903759, 0.24248656630516052, -0.2084737867116928, 0.09560985863208771, -0.2851239740848541, -0.02661183476448059 },
			{ -0.2788219451904297, -0.051887549459934235, 0.11803821474313736, -0.3284843862056732, -0.0778086856007576, 0.0712992399930954, -0.1982710361480713, -0.03930911794304848, -0.3891490399837494, 0.027049753814935684 },
			{ -0.10215719789266586, -0.13175183534622192, 0.09106259047985077, -0.14602310955524445, -0.2509150207042694, -0.005998296197503805, -0.04824770241975784, 0.25464123487472534, -0.35909101366996765, -0.0026487463619560003 },
			{ -0.18710128962993622, 0.06913711875677109, -0.13448116183280945, -0.1610967367887497, -0.14715105295181274, -0.17973706126213074, 0.022455520927906036, 0.12847594916820526, -0.33207154273986816, 0.07752203196287155 },
			{ -0.03650295361876488, -0.001755276694893837, -0.07189788669347763, -0.009896869771182537, 0.13331259787082672, 0.05397019535303116, 0.07312973588705063, 0.0403933972120285, -0.11794590204954147, 0.16702044010162354 },
			{ 0.0013707256875932217, -0.044085755944252014, 0.060211751610040665, 0.054138462990522385, -0.06387729942798615, -0.016689952462911606, 0.08848372846841812, 0.0308226365596056, 0.05903198942542076, -0.08019525557756424 },
			{ 0.07998915016651154, -0.0010706174653023481, 0.010621842928230762, 0.031124362722039223, -0.11467969417572021, 0.067009337246418, 0.041167132556438446, -0.10039064288139343, 0.05301428213715553, -0.0644676685333252 },
			{ -0.13069377839565277, -0.04335055127739906, -0.01271869894117117, -0.0385710708796978, -0.22841572761535645, 0.016091560944914818, 0.25094109773635864, -0.08514181524515152, 0.05922165513038635, -0.12218575924634933 },
			{ -0.1984839290380478, -0.1542014330625534, 0.04209157079458237, -0.05484558641910553, -0.2308441549539566, -0.2017369121313095, 0.25466910004615784, -0.21131105720996857, 0.049068670719861984, -0.06703434884548187 },
			{ -0.2054058313369751, -0.19941459596157074, 0.19999174773693085, -0.16179850697517395, -0.26065993309020996, -0.02754594013094902, 0.27439069747924805, -0.30121463537216187, -0.35126984119415283, -0.3503541946411133 },
			{ -0.16428036987781525, -0.20162269473075867, 0.255856454372406, -0.21580132842063904, -0.36643707752227783, -0.0419340655207634, 0.43278053402900696, -0.39467450976371765, -0.6673092246055603, -0.3529185354709625 },
			{ -0.24816733598709106, 0.1693003624677658, -0.017569003626704216, -0.01836029812693596, -0.34263718128204346, -0.0845361202955246, 0.3562089502811432, -0.41171687841415405, -0.4104987680912018, -0.3519452214241028 },
			{ -0.0893724262714386, 0.18567734956741333, -0.06447144597768784, -0.08848808705806732, -0.2270040661096573, -0.017838766798377037, 0.33572450280189514, -0.3876945674419403, -0.34014323353767395, -0.4409085810184479 },
			{ -0.14735829830169678, 0.16378407180309296, -0.1389785259962082, -0.11595303565263748, -0.29893743991851807, 0.011073826812207699, 0.17322733998298645, -0.21583150327205658, 0.12829813361167908, -0.36387765407562256 },
			{ -0.17690715193748474, 0.10205778479576111, -0.11628509312868118, -0.1302386075258255, -0.19266386330127716, 0.05476248264312744, 0.2613646388053894, -0.22113776206970215, 0.07372759282588959, -0.26961877942085266 },
			{ -0.10954312980175018, 0.016580378636717796, -0.23353885114192963, -0.3076964318752289, 0.0396900549530983, -0.03532979637384415, 0.2871133089065552, -0.1252625733613968, -0.08463956415653229, -0.32815229892730713 },
			{ -0.011618058197200298, -0.09023765474557877, -0.08587432652711868, -0.22767314314842224, -0.12834537029266357, -0.15700002014636993, 0.2183580994606018, 0.061821624636650085, -0.10706110298633575, -0.20644839107990265 },
			{ 0.02405812405049801, 0.07484616339206696, 0.060457974672317505, -0.16335922479629517, -0.0516442134976387, 0.002004529582336545, 0.10720235854387283, -0.09895610809326172, -0.1734975427389145, 0.0006595628219656646 },
			{ 0.0270436592400074, -0.05624691769480705, -0.01066264882683754, -0.1754883974790573, -0.004392367321997881, 0.08106774836778641, 0.09303951263427734, 0.051291048526763916, 0.056749481707811356, 0.010798278264701366 },
			{ 0.07219280302524567, -0.054445426911115646, 0.02582422085106373, -0.039509281516075134, 0.07424633204936981, -0.03547069430351257, 0.09656178951263428, 0.009858299978077412, -0.12379128485918045, 0.027121417224407196 },
			{ -0.06844865530729294, 0.04644160345196724, -0.00498395087197423, 0.1257234811782837, 0.08319137990474701, -0.08134318143129349, 0.10320999473333359, -0.04834519699215889, -0.13150249421596527, 0.00989315565675497 },
			{ -0.11840805411338806, -0.158771812915802, -0.051288533955812454, 0.0915321558713913, -0.2265058159828186, -0.13013212382793427, 0.254578560590744, -0.12397293746471405, -0.11370331048965454, -0.22729146480560303 },
			{ 0.028464963659644127, 0.0017537814565002918, -0.007231503259390593, 0.044025760143995285, 0.004359342157840729, -0.12866704165935516, 0.06538770347833633, -0.23957005143165588, 0.0533350333571434, -0.49125832319259644 },
			{ -0.19157305359840393, -0.11555762588977814, -0.05028396099805832, 0.044872403144836426, -0.15190166234970093, 0.05794566869735718, 0.1940132975578308, -0.3190111517906189, 0.06277456134557724, -0.43983587622642517 },
			{ -0.06043862923979759, -0.03946062922477722, -0.024618061259388924, -0.004321710206568241, -0.013055125251412392, -0.04662111774086952, 0.20347486436367035, -0.2722802758216858, -0.1903303563594818, -0.07011927664279938 },
			{ -0.11111437529325485, 0.06572125852108002, -0.09608198702335358, -0.010180246084928513, 0.17952920496463776, -0.09435123950242996, 0.01396217755973339, -0.22783270478248596, -0.04335552081465721, -0.17328773438930511 },
			{ -0.06091073900461197, 0.25763270258903503, -0.06829256564378738, -0.14668062329292297, 0.4603338837623596, -0.13147936761379242, 0.08198925107717514, -0.31156647205352783, -0.07004625350236893, -0.38316282629966736 },
			{ 0.03256890922784805, 0.19406795501708984, 0.008471744135022163, -0.0658978745341301, 0.19955642521381378, -0.07939404994249344, 0.034226637333631516, -0.34783607721328735, 0.011126435361802578, -0.5361624956130981 },
			{ -0.03135484457015991, 0.22786028683185577, -0.18903766572475433, -0.1666628122329712, 0.1490117907524109, -0.011514744721353054, 0.034564245492219925, -0.31284675002098083, -0.03321381285786629, -0.27657052874565125 },
			{ -0.06428341567516327, 0.27967819571495056, -0.28774863481521606, -0.23136018216609955, 0.3081492781639099, -0.04507814720273018, 0.08025529235601425, -0.20250138640403748, 0.03073175996541977, -0.32120105624198914 },
			{ 0.011302145197987556, 0.2556930482387543, -0.22418934106826782, -0.3742092549800873, 0.18174970149993896, 0.008543359115719795, 0.031267181038856506, -0.06906823068857193, 0.08840342611074448, -0.3801291286945343 },
			{ -0.16709502041339874, 0.10628761351108551, -0.014866161160171032, -0.16740043461322784, 0.15970557928085327, 0.007679471280425787, -0.05337996035814285, -0.1366749256849289, 0.1477803885936737, -0.26149216294288635 },
			{ -0.04484798386693001, 0.015553434379398823, 0.050363823771476746, -0.1865607053041458, -0.14275404810905457, 0.024367282167077065, -0.09123861789703369, -0.12577521800994873, 0.09893826395273209, -0.11094507575035095 },
			{ -0.1249079555273056, -0.040236376225948334, -0.08789516240358353, 0.207859069108963, -0.026145655661821365, -0.15019717812538147, -0.07148709148168564, 0.05472615733742714, -0.16088660061359406, -0.18018987774848938 },
			{ -0.08286727964878082, 0.11511746793985367, -0.1296561062335968, 0.06500420719385147, -0.10438879579305649, -0.11926660686731339, -0.09797598421573639, -0.019622348248958588, -0.09588370472192764, -0.251618355512619 },
			{ -0.07828537374734879, -0.05883224681019783, 0.00843097548931837, 0.11157480627298355, -0.046923547983169556, 0.008075341582298279, 0.09861166030168533, -0.06929494440555573, 0.028490308672189713, -0.10744025558233261 },
			{ 0.04664826765656471, -0.1278102695941925, 0.047200996428728104, -0.02799176052212715, 0.014424704946577549, -0.09934021532535553, -0.08965467661619186, -0.11153507977724075, -0.029839906841516495, 0.14442910254001617 },
			{ -0.06218305975198746, -0.2113499790430069, -0.09764554351568222, -0.0021537255961447954, 0.04172603040933609, -0.03044292889535427, -0.009763626381754875, -0.12025649100542068, 0.008905496448278427, -0.012458519078791142 },
			{ -0.0004513916210271418, -0.060058798640966415, -0.04752153903245926, 0.008208191953599453, 0.06671708822250366, -0.010206594131886959, 0.07292106747627258, 0.06829123198986053, -0.0040933722630143166, -0.09161163121461868 },
			{ -0.10465427488088608, 0.043016500771045685, 0.01824307255446911, 0.04048267751932144, 0.2812490463256836, -0.07540018856525421, -0.04374023526906967, 0.0977059081196785, -0.05946042761206627, -0.1848800629377365 },
			{ -0.06715869158506393, -0.08096397668123245, -0.00913098081946373, 0.13116997480392456, 0.36033493280410767, -0.005029028747230768, 0.045593518763780594, -0.15524819493293762, -0.04695185646414757, -0.06544681638479233 },
			{ -0.013352357782423496, 0.04586275294423103, 0.15164898335933685, 0.012020721100270748, 0.39969733357429504, -0.16354060173034668, -0.07633163034915924, -0.08553313463926315, -0.032479871064424515, -0.13025768101215363 },
			{ 0.04710913076996803, 0.09105609357357025, 0.09950060397386551, -0.1368761658668518, 0.495282918214798, -0.24674344062805176, -0.033059824258089066, -0.014594818465411663, -0.12235728651285172, -0.2404073178768158 },
			{ -0.010871414095163345, 0.11844784021377563, 0.1455090194940567, -0.07835499197244644, 0.39856135845184326, -0.3505540192127228, -0.027198869735002518, -0.22821356356143951, 0.13734197616577148, -0.23936690390110016 },
			{ 0.006021259352564812, 0.18058227002620697, 0.09227745234966278, -0.0764135792851448, 0.3472643792629242, -0.36186113953590393, -0.189468652009964, 0.026309166103601456, 0.0425548255443573, -0.40610310435295105 },
			{ -0.20502489805221558, -0.1830236315727234, 0.017297469079494476, 0.041588664054870605, 0.14877969026565552, -0.14251086115837097, 0.06807125359773636, -0.09596674144268036, 0.05820967257022858, -0.40806904435157776 },
			{ -0.031044412404298782, -0.12071248143911362, -0.0689840242266655, -0.11140135675668716, -0.010460620746016502, -0.07707477360963821, -0.025428982451558113, -0.11530539393424988, 0.19109393656253815, -0.1850070208311081 },
			{ -0.1542377918958664, -0.05578907951712608, 0.03032248094677925, 0.12849342823028564, -0.039686113595962524, -0.27754873037338257, -0.0653330460190773, 0.02636583149433136, -0.029566071927547455, -0.14810830354690552 },
			{ -0.10484836250543594, -0.17686520516872406, 0.02876117080450058, 0.08823807537555695, 0.14447681605815887, -0.12203779071569443, -0.05680399388074875, -0.13708098232746124, -0.0030078734271228313, 0.0489656887948513 },
			{ -0.21134865283966064, -0.029232207685709, 0.037261269986629486, -0.024431154131889343, -0.00022391011589206755, -0.15250542759895325, -0.012505851686000824, -0.17771005630493164, 0.06421531736850739, 0.07126273959875107 },
			{ -0.04082906246185303, 0.015245147980749607, -0.09472335129976273, -0.011487008072435856, -0.08315670490264893, -0.053044214844703674, 0.0054817781783640385, 0.0326567105948925, 0.05405951291322708, 0.10624371469020844 },
			{ -0.055514466017484665, 0.006527766585350037, -0.07539310306310654, -0.05305333435535431, 0.06927261501550674, -0.03924214839935303, 0.10978218168020248, 0.050886042416095734, 0.0668628141283989, 0.05672566592693329 },
			{ -0.1250239610671997, -0.10860536247491837, -0.07461744546890259, -0.12553028762340546, 0.07439947128295898, -0.034948185086250305, -0.09540299326181412, 0.1075325459241867, 0.016408298164606094, -0.03190164268016815 },
			{ -0.12915436923503876, 0.022467320784926414, -0.022455327212810516, -0.029946550726890564, 0.15847066044807434, -0.014926803298294544, -0.07439219206571579, -0.05047348141670227, -0.038127217441797256, 0.05943048745393753 },
			{ 0.08699232339859009, -0.03846213221549988, -0.04047660157084465, -0.0514739565551281, 0.1443086564540863, -0.13965089619159698, -0.07160115242004395, 0.04021824896335602, -0.10477162152528763, 0.11635372042655945 },
			{ 0.05903313308954239, -0.033262573182582855, 0.07373318076133728, 0.0632845088839531, 0.048483796417713165, -0.23484832048416138, -0.1065363883972168, 0.012250957079231739, -0.1319671869277954, 0.025145210325717926 },
			{ 0.03186877816915512, -0.08991654217243195, -0.01675538532435894, 0.0375993549823761, 0.19774794578552246, -0.317850798368454, -0.21071599423885345, 0.17826706171035767, 0.04772932454943657, 0.10732332617044449 },
			{ 0.21846137940883636, -0.29677504301071167, 0.0906083807349205, 0.035958077758550644, 0.1550324410200119, -0.35661303997039795, -0.20586955547332764, 0.06645207107067108, 0.16032975912094116, -0.017113104462623596 },
			{ 0.19374823570251465, -0.23441840708255768, 0.208989217877388, -0.01960751786828041, 0.058831196278333664, -0.3720266819000244, -0.12146356701850891, -0.09184451401233673, 0.10443903505802155, -0.18628346920013428 },
			{ 0.10317853093147278, -0.2725411653518677, 0.010116142220795155, -0.08762763440608978, 0.1590380072593689, -0.11399366706609726, 0.008268828503787518, -0.22413666546344757, 0.14352060854434967, -0.12904758751392365 },
