/*
 * This file is auto-generated by train.ipynb
 */

#pragma once

#include "definitions.h"


// Dense layer weights.
fixed_point_t dense_weights[FLAT_SIZE][DENSE_SIZE]
	 = {
			{ 0.029532182961702347, 0.11184188723564148, -0.06180691346526146, 0.062368858605623245, -0.040298886597156525, -0.03645044565200806, 0.07035133987665176, 0.09576470404863358, -0.05055056884884834, -0.0349615216255188 },
			{ -0.06148247793316841, -0.0640449970960617, -0.11976241320371628, 0.0005539411213248968, -0.2202075719833374, 0.019336482509970665, 0.09711776673793793, -0.13101668655872345, -0.020855961367487907, 0.05397763475775719 },
			{ -0.1052277684211731, -0.05499305948615074, -0.05407864227890968, 0.12337449193000793, -0.3112151324748993, -0.19717861711978912, 0.346283495426178, -0.1688067764043808, -0.10572103410959244, -0.08394760638475418 },
			{ -0.02765807881951332, 0.08025495707988739, -0.132193922996521, 0.04991584271192551, -0.23987960815429688, -0.09345153719186783, 0.27640435099601746, -0.3258778750896454, -0.01317827869206667, -0.12083649635314941 },
			{ -0.08489742130041122, 0.1925613284111023, -0.017240317538380623, -0.20681224763393402, -0.2657085061073303, 0.04629972577095032, 0.4108410179615021, -0.4225253462791443, -0.255092054605484, -0.3338879942893982 },
			{ -0.13011635839939117, 0.1453160047531128, 0.04673554748296738, -0.0235272329300642, -0.3059086203575134, -0.1685488075017929, 0.4414784908294678, -0.5829343795776367, -0.1818688064813614, -0.3297671675682068 },
			{ -0.22252558171749115, 0.23129332065582275, -0.1900942027568817, 0.04641010984778404, -0.09107623249292374, -0.2189028114080429, 0.3123306334018707, -0.2790643572807312, -0.00020587681501638144, -0.17089863121509552 },
			{ -0.2918105721473694, 0.10535677522420883, -0.14417225122451782, -0.009874457493424416, -0.17271701991558075, -0.0009558356832712889, 0.24504400789737701, -0.1333097368478775, 0.07779371738433838, -0.2932279706001282 },
			{ -0.1391935497522354, 0.07495148479938507, 0.015091512352228165, -0.05274232104420662, -0.18126296997070312, 0.07088155299425125, 0.11899066716432571, -0.7316393256187439, 0.03965802490711212, -0.27812474966049194 },
			{ -0.05774306505918503, 0.1296727955341339, -0.12176167219877243, 0.018606431782245636, -0.11280490458011627, 0.12409867346286774, 0.12840287387371063, -0.5434155464172363, -0.10094188153743744, -0.25579455494880676 },
			{ -0.1725957840681076, 0.061631496995687485, -0.20136913657188416, -0.05445757508277893, 0.0376189686357975, -0.1320871263742447, 0.21587084233760834, -0.15177398920059204, -0.09209346026182175, -0.25182825326919556 },
			{ -0.00020785804372280836, -0.28353023529052734, 0.04273725673556328, -0.037609897553920746, -0.033387716859579086, -0.026081163436174393, 0.1823229193687439, 0.048000581562519073, 0.04700598493218422, -0.45869699120521545 },
			{ -0.10986634343862534, -0.13970847427845, -0.017414705827832222, -0.3038296699523926, -0.024011148139834404, 0.08335630595684052, -0.04673551023006439, -0.19479872286319733, -0.062357328832149506, -0.1865958869457245 },
			{ -0.16275905072689056, -0.17720338702201843, -0.012225783430039883, -0.12300179153680801, 0.05277872458100319, 0.062431514263153076, 0.09891599416732788, -0.03897765278816223, -0.10394377261400223, 0.008473961614072323 },
			{ 0.07813427597284317, 0.09263560175895691, 0.0037462294567376375, -0.09726458042860031, -0.10101664811372757, 0.07318578660488129, -0.04647258669137955, 0.030229004099965096, -0.02710343524813652, -0.009641733020544052 },
			{ -0.07322271168231964, 0.05686626583337784, -0.29102471470832825, 0.021914174780249596, -0.09913524240255356, 0.09035979956388474, 0.11024143546819687, -0.1393335461616516, -0.2241426259279251, -0.15135538578033447 },
			{ -0.1499732881784439, 0.0641692578792572, -0.0914430171251297, -0.12322249263525009, -0.07323484867811203, -0.05133293569087982, 0.3706408143043518, -0.08682244271039963, -0.18032771348953247, -0.2699272334575653 },
			{ -0.04957360401749611, -0.12933319807052612, -0.06541164964437485, -0.07494998723268509, -0.0855463370680809, -0.1163124218583107, 0.28776293992996216, -0.11726576834917068, 0.09124362468719482, -0.6789553165435791 },
			{ -0.0821785181760788, 0.03376782312989235, -0.09825960546731949, -0.13371522724628448, 0.07405772060155869, -0.024683911353349686, 0.303684800863266, -0.31651821732521057, -0.055560946464538574, -0.4032436013221741 },
			{ -0.057595144957304, 0.22870555520057678, -0.1508840173482895, 0.019367631524801254, 0.10238412022590637, -0.18067176640033722, 0.20081916451454163, -0.3170316219329834, -0.16679328680038452, -0.165872722864151 },
			{ -0.06571419537067413, 0.2375331073999405, -0.2645144462585449, -0.1407511979341507, 0.3686475455760956, -0.0636090338230133, 0.2433776557445526, -0.11149848252534866, 0.051698002964258194, -0.18209616839885712 },
			{ 0.027286676689982414, 0.3021106421947479, -0.3429044783115387, -0.08431213349103928, 0.2823067307472229, -0.07034783810377121, 0.17705270648002625, -0.033431198447942734, -0.07131968438625336, -0.4076123833656311 },
			{ -0.07985616475343704, 0.17235538363456726, -0.2105707973241806, -0.16542962193489075, 0.17275017499923706, 0.05447446182370186, 0.02426406927406788, 0.04757881909608841, -0.02044508047401905, -0.20067262649536133 },
			{ -0.198580801486969, 0.22078612446784973, -0.20103032886981964, -0.29145076870918274, 0.09484758228063583, 0.17009858787059784, 0.1709064245223999, -0.21762824058532715, 0.07470650970935822, -0.0730060413479805 },
			{ -0.09310266375541687, 0.16135229170322418, -0.047418829053640366, -0.3968082070350647, 0.03689126670360565, 0.09815753251314163, 0.0019127161940559745, -0.2396787405014038, -0.0033545016776770353, -0.03491235896945 },
			{ 0.10202998667955399, 0.1861387938261032, -0.2182915359735489, -0.3532381057739258, 0.1307229995727539, 0.21928085386753082, 0.04069964587688446, -0.16834156215190887, -0.07346901297569275, -0.26211434602737427 },
			{ -0.3364819884300232, -0.13873635232448578, -0.13401658833026886, -0.3550601303577423, 0.03576013445854187, 0.16212962567806244, 0.09252970665693283, -0.31180939078330994, 0.150343120098114, -0.4016556143760681 },
			{ -0.24270319938659668, -0.21523050963878632, -0.10879842191934586, -0.13880784809589386, -0.04219380393624306, 0.10169122368097305, 0.08517294377088547, -0.24977071583271027, 0.14491838216781616, -0.1536540985107422 },
			{ 0.14730606973171234, -0.10058018565177917, -0.05051746591925621, 0.12421312183141708, -0.2075839638710022, -0.05853785201907158, -0.022992711514234543, 0.06948880106210709, -0.3560933470726013, -0.2622472047805786 },
			{ -0.20003676414489746, 0.035245802253484726, -0.12214541435241699, 0.06812822073698044, -0.0775877982378006, -0.17593789100646973, 0.08215432614088058, -0.17551183700561523, -0.049128953367471695, -0.3444056212902069 },
			{ 0.08908326923847198, -0.006442518904805183, -0.034085314720869064, -0.0505303218960762, 0.12858733534812927, -0.16756434738636017, 0.04983849078416824, -0.3285510540008545, 0.009689190424978733, -0.005175385624170303 },
			{ -0.040285516530275345, -0.1802975833415985, -0.05054262652993202, -0.01748749613761902, 0.13658106327056885, 0.03084976226091385, 0.28331637382507324, -0.2339930236339569, 0.09525603801012039, 0.1721029281616211 },
			{ -0.12312197685241699, -0.16067463159561157, -0.08000211417675018, -0.08253902941942215, 0.2049081027507782, 0.035306595265865326, 0.15932390093803406, -0.028372373431921005, 0.05843673273921013, 0.028967812657356262 },
			{ -0.022639619186520576, -0.10700856149196625, -0.0665830597281456, -0.0583810955286026, 0.1647857427597046, -0.04581431299448013, 0.061799056828022, -0.1951543241739273, 0.12702932953834534, 0.02417556568980217 },
			{ -0.065700963139534, 0.10763739794492722, 0.019328072667121887, -0.13042642176151276, 0.3054352402687073, -0.16623854637145996, 0.1791960895061493, -0.0901237204670906, -0.014815657399594784, -0.09063120186328888 },
			{ -0.11849826574325562, 0.05119610205292702, -0.0795559510588646, -0.1504688858985901, 0.38968876004219055, -0.1259533315896988, 0.12349981814622879, -0.2553316652774811, -0.014339407905936241, -0.08003662526607513 },
			{ 0.0068358164280653, 0.15767337381839752, -0.24400651454925537, -0.26558151841163635, 0.4066963791847229, -0.12790152430534363, 0.06837659329175949, -0.09325417876243591, -0.13977323472499847, -0.08860956877470016 },
			{ -0.312447726726532, 0.4006973206996918, -0.3407033085823059, 0.015279430896043777, 0.4623714089393616, 0.03227968141436577, 0.047362733632326126, -0.05821046605706215, -0.14328165352344513, -0.22917240858078003 },
			{ -0.2462112158536911, 0.21813015639781952, -0.27830958366394043, -0.467668741941452, 0.3312080204486847, 0.15442834794521332, 0.054341793060302734, -0.06405524164438248, -0.18219265341758728, -0.38862133026123047 },
			{ -0.0834551751613617, 0.19717156887054443, -0.4594443738460541, -0.631701648235321, 0.34171873331069946, 0.3573920428752899, -0.15499292314052582, 0.05154058709740639, -0.17186832427978516, -0.3410993218421936 },
			{ -0.38291260600090027, -0.41193726658821106, -0.04752778261899948, -0.7271296977996826, 0.11994335800409317, 0.27314871549606323, -0.16573995351791382, -0.11075238883495331, -0.08823423087596893, -0.40155476331710815 },
			{ -0.25912559032440186, -0.1177939847111702, -0.03233792260289192, -0.32093900442123413, 0.10248006135225296, 0.23241102695465088, -0.2307986319065094, -0.1753581166267395, 0.07606661319732666, -0.33686989545822144 },
			{ -0.1230398416519165, 0.06942768394947052, -0.12175757437944412, 0.213706836104393, -0.22814655303955078, -0.215103417634964, -0.14853879809379578, 0.16102251410484314, -0.19490359723567963, -0.34803804755210876 },
			{ -0.0815034806728363, 0.07939845323562622, -0.020241064950823784, 0.006546057760715485, -0.16933272778987885, -0.16571716964244843, 0.24214603006839752, -0.29597365856170654, -0.12869836390018463, 0.16148962080478668 },
			{ -0.05679354816675186, -0.07976862788200378, -0.055850960314273834, 0.05809837952256203, -0.13198645412921906, -0.08017442375421524, 0.2236592173576355, -0.021036138758063316, -0.04709896817803383, 0.07268500328063965 },
			{ -0.06735698878765106, -0.08589587360620499, -0.1586979329586029, 0.007931742817163467, 0.0038164090365171432, -0.04752631112933159, 0.08200403302907944, -0.0966532826423645, 0.031375300139188766, 0.1672656536102295 },
			{ -0.031475335359573364, -0.2331467866897583, 0.04011213779449463, -0.11136168986558914, 0.07007437944412231, -0.16894222795963287, 0.1729515641927719, -0.13362091779708862, 0.09072514623403549, 0.12523284554481506 },
			{ -0.10121345520019531, -0.20914959907531738, 0.09570986777544022, -0.03601706027984619, 0.1709994226694107, -0.09143632650375366, 0.08070449531078339, -0.08007863909006119, 0.09679874777793884, 0.0573795922100544 },
			{ -0.06285692006349564, -0.16008304059505463, -0.05022281035780907, -0.033574771136045456, 0.14542970061302185, -0.13004910945892334, 0.05879418924450874, -0.2058897614479065, -0.01906273141503334, 0.05238945037126541 },
			{ -0.07369547337293625, 0.043733466416597366, 0.04172321408987045, 0.11638811230659485, 0.2470259964466095, -0.2837417721748352, 0.1101282387971878, -0.2461930215358734, -0.04625573009252548, -0.05139962211251259 },
			{ -0.05910660699009895, 0.1748735010623932, 0.15436872839927673, 0.08648431301116943, 0.4066028594970703, -0.43182507157325745, -0.11848103255033493, 0.013918066397309303, -0.23543791472911835, -0.2269285023212433 },
			{ -0.13338583707809448, 0.19773973524570465, 0.1340390294790268, 0.05646374821662903, 0.4635036587715149, -0.5984465479850769, -0.1236896961927414, 0.05610433593392372, -0.1504281908273697, -0.388184517621994 },
			{ -0.030467798933386803, 0.10604534298181534, 0.17515958845615387, 0.07226376235485077, 0.41545262932777405, -0.40612152218818665, -0.1336216777563095, 0.2322426736354828, -0.08912374824285507, -0.42237693071365356 },
			{ 0.010033098980784416, -0.09284576773643494, 0.11356237530708313, -0.03659416362643242, 0.2781129479408264, -0.06239474564790726, -0.1717056930065155, 0.20826506614685059, -0.02162417583167553, -0.5451735854148865 },
			{ -0.5484628081321716, -0.17505069077014923, 0.03882583603262901, -0.5213910341262817, 0.24758538603782654, 0.34711554646492004, -0.22757361829280853, 0.0013204109854996204, -0.07031133025884628, -0.4028792381286621 },
			{ -0.3593732714653015, -0.07536163181066513, 0.0005528184701688588, -0.14260953664779663, -0.24655382335186005, 0.08286549896001816, -0.24980893731117249, 0.024207258597016335, -0.062309060245752335, -0.38492003083229065 },
			{ -0.043263088911771774, -0.39974379539489746, 0.003917831927537918, -0.012302592396736145, -0.10022204369306564, -0.6375585198402405, -0.249538853764534, 0.06044965237379074, 0.006806943099945784, -0.19798976182937622 },
			{ -0.01618291065096855, -0.10233426839113235, 0.09367306530475616, 0.12175513058900833, -0.10520026087760925, -0.20667555928230286, 0.09005347639322281, -0.1477859616279602, -0.0169224813580513, 0.09096582233905792 },
			{ 0.0345863439142704, 0.007484987378120422, -0.06413007527589798, -0.02787928283214569, -0.21036972105503082, -0.23234708607196808, 0.19872739911079407, 0.06120453402400017, -0.10049622505903244, 0.14776015281677246 },
			{ 0.07363858073949814, 0.11703719198703766, -0.15687252581119537, 0.019899100065231323, 0.049001529812812805, -0.15129542350769043, 0.07932855933904648, 0.03319144994020462, -0.1289503425359726, 0.0520099438726902 },
			{ 0.017592698335647583, -0.14074645936489105, -0.10583963990211487, 0.039030615240335464, -0.04189201444387436, -0.18421407043933868, 0.14267271757125854, 0.03227142617106438, -0.09190969169139862, 0.079546719789505 },
			{ -0.03642648831009865, -0.06888264417648315, -0.025335773825645447, 0.015955230221152306, 0.15347924828529358, -0.15097858011722565, -0.08085459470748901, 0.09679549932479858, -0.0649217814207077, 0.0396001935005188 },
			{ 0.20937123894691467, -0.07306861877441406, -0.08386891335248947, 0.16820506751537323, 0.07483770698308945, -0.08508044481277466, -0.023415595293045044, 0.033656973391771317, -0.17054080963134766, -0.038272686302661896 },
			{ -0.0721985474228859, 0.03117736242711544, 0.04672292247414589, 0.06342916935682297, 0.04775700718164444, -0.2275700867176056, -0.004791829269379377, 0.07957284152507782, -0.11289912462234497, 0.01811547763645649 },
			{ -0.051790278404951096, 0.10653666406869888, 0.18400821089744568, 0.11017701774835587, 0.11505275964736938, -0.48343315720558167, -0.19950328767299652, 0.1349547654390335, -0.1138351559638977, 0.05068078264594078 },
			{ -0.031450334936380386, -0.17896339297294617, 0.23693712055683136, 0.008084366098046303, 0.1567675769329071, -0.6903337240219116, -0.21046631038188934, 0.13699860870838165, 0.05389588698744774, -0.037793196737766266 },
			{ 0.06393804401159286, -0.3018662631511688, 0.2759651243686676, 0.007431423291563988, 0.0856638103723526, -0.646946132183075, -0.29684653878211975, 0.012537654489278793, 0.11373978853225708, -0.06938035786151886 },
			{ 0.18436074256896973, -0.19867642223834991, 0.02927371859550476, -0.21361705660820007, 0.10029291361570358, -0.4060269892215729, -0.18244798481464386, 0.11260508745908737, 0.22872672975063324, -0.2290230095386505 },
			{ -0.007445930037647486, -0.3013729155063629, 0.16187961399555206, -0.36349013447761536, -0.11402104049921036, 0.019345952197909355, 0.13764452934265137, -0.026263263076543808, 0.08272954821586609, -0.09536872804164886 },
			{ -0.30960986018180847, -0.12859539687633514, 0.20388081669807434, -0.26353058218955994, -0.1203375831246376, 0.10613658279180527, 0.18436002731323242, -0.12464645504951477, -0.09107417613267899, -0.41900917887687683 },
			{ 0.02534286491572857, -0.24375399947166443, -0.08989042788743973, 0.1293928623199463, -0.2736380994319916, -0.22422021627426147, -0.313558965921402, 0.17584727704524994, -0.025891738012433052, -0.16647092998027802 },
			{ 0.02604835294187069, 0.01432396937161684, 0.13181351125240326, -0.047384653240442276, -0.25217291712760925, -0.19666515290737152, -0.10631999373435974, -0.014218113385140896, 0.04292474314570427, -0.02497955970466137 },
			{ 0.14447638392448425, 0.004874125123023987, -0.08025599271059036, -0.051219139248132706, -0.09423276782035828, -0.24734868109226227, 0.1446477770805359, 0.016189685091376305, -0.12458294630050659, -0.014297875575721264 },
			{ 0.08007888495922089, 0.06258885562419891, -0.155726358294487, -0.05030751973390579, 0.16848303377628326, -0.05697288364171982, 0.028294820338487625, -0.09968684613704681, -0.06544192135334015, 0.030821310356259346 },
			{ 0.08026851713657379, 0.05609956756234169, -0.12259059399366379, 0.0013037038734182715, 0.05271296948194504, -0.15475504100322723, -0.021934768185019493, 0.031731586903333664, 0.031395114958286285, -0.056252580136060715 },
			{ 0.08781784027814865, -0.002929178299382329, -0.24541638791561127, 0.004165529739111662, 0.09370459616184235, 0.012062781490385532, 0.03594042360782623, -0.06100081652402878, -0.06855037063360214, -0.058740220963954926 },
			{ 0.10050927102565765, 0.10237917304039001, -0.06424001604318619, 0.13093756139278412, -0.2853121757507324, 0.00231509143486619, -0.18550890684127808, -0.02551165595650673, -0.06673824042081833, -0.1958150714635849 },
			{ -0.06795687228441238, 0.07633139193058014, 0.1119718924164772, 0.02539246156811714, -0.2759172320365906, -0.24336346983909607, -0.05742889270186424, 0.1592431217432022, -0.04276983439922333, 0.1265711486339569 },
			{ 0.1145772635936737, 0.094859778881073, 0.226089209318161, 0.02908414602279663, -0.06303054094314575, -0.40720003843307495, -0.1835756152868271, 0.19152358174324036, -0.045615460723638535, -0.10376272350549698 },
			{ 0.10428044945001602, -0.2917889356613159, 0.09967542439699173, -0.11540389060974121, 0.0741715207695961, -0.4895026385784149, -0.3083966374397278, 0.08432386815547943, 0.03812939673662186, 0.07224768400192261 },
			{ 0.17035621404647827, -0.10057732462882996, 0.1887434422969818, -0.2748754918575287, 0.09615608304738998, -0.47181928157806396, -0.25089314579963684, -0.1128854900598526, 0.13319501280784607, 0.09861698746681213 },
			{ 0.24816222488880157, -0.22600263357162476, 0.21292024850845337, -0.6859890222549438, 0.03568529710173607, -0.2479119896888733, -0.05726196616888046, -0.061004891991615295, 0.29880499839782715, 0.049698155373334885 },
			{ 0.09236389398574829, -0.1151779517531395, 0.31409546732902527, -0.6621990203857422, 0.003932975698262453, 0.07683546841144562, -0.24217252433300018, -0.07447332888841629, -0.19666753709316254, -0.03598691523075104 },
			{ -0.22083118557929993, -0.23729613423347473, 0.23247846961021423, -0.23409850895404816, -0.12648604810237885, 0.33076584339141846, -0.034326814115047455, -0.03608467057347298, -0.11091630905866623, -0.31797710061073303 },
			{ -0.05906275287270546, 0.15048421919345856, -0.017356231808662415, 0.06687971204519272, -0.15910451114177704, -0.1302570402622223, -0.2590184211730957, 0.26477742195129395, 0.10582725703716278, -0.44353413581848145 },
			{ 0.03582952916622162, 0.2093154639005661, 0.08613330125808716, -0.13095612823963165, -0.051251351833343506, -0.11027704924345016, -0.21704797446727753, -0.05845053121447563, -0.02161654271185398, -0.08844168484210968 },
			{ 0.1882975995540619, -0.03436499461531639, 0.055434875190258026, -0.28263863921165466, -0.013078073970973492, -0.09246949851512909, 0.0672253966331482, 0.032606758177280426, -0.02684807777404785, -0.1529434472322464 },
			{ 0.11500399559736252, -0.018167883157730103, -0.011812384240329266, -0.30017930269241333, 0.1392027735710144, -0.12204856425523758, 0.11807146668434143, -0.031103987246751785, 0.04348887503147125, -0.03684554249048233 },
			{ 0.02072148025035858, -0.1535286009311676, -0.015583190135657787, -0.10816118866205215, 0.035715218633413315, -0.028067832812666893, 0.016083354130387306, -0.1594293862581253, 0.15560035407543182, -0.034512247890233994 },
			{ 0.10192342102527618, 0.0004888474941253662, -0.1119089126586914, -0.1140616163611412, -0.019499341025948524, -0.012924080714583397, 0.059137050062417984, -0.20139627158641815, 0.011285151354968548, 0.09936058521270752 },
			{ -0.040053483098745346, 0.04735643416643143, -0.03482523187994957, 0.05384891480207443, -0.38731899857521057, 0.07117479294538498, -0.042133450508117676, 0.03256572037935257, 0.1699836701154709, -0.06808727979660034 },
			{ -0.14671975374221802, 0.15999272465705872, 0.058436617255210876, -0.08620495349168777, -0.19199320673942566, -0.14173352718353271, -0.15823036432266235, 0.0651022270321846, 0.0468815416097641, 0.039097972214221954 },
			{ 0.09886538982391357, 0.10555504262447357, 0.11565052717924118, -0.2976284325122833, -0.026195349171757698, -0.13785916566848755, -0.09704706817865372, 0.11793466657400131, -0.1174132451415062, -0.06477782875299454 },
			{ 0.20963545143604279, 0.05617797002196312, 0.09951294958591461, -0.3722969889640808, 0.10151064395904541, -0.12876248359680176, -0.14889265596866608, 0.0004527380224317312, -0.1839306503534317, 0.14691811800003052 },
			{ 0.16449245810508728, -0.05076231807470322, 0.07498884201049805, -0.3711802661418915, 0.018577439710497856, -0.18596258759498596, -0.07394129782915115, -0.1126304417848587, -0.3566173315048218, 0.27485179901123047 },
			{ 0.17555397748947144, -0.13592226803302765, 0.05407235398888588, -0.3846452534198761, -0.24057990312576294, -0.06284868717193604, 0.06697700917720795, -0.047066859900951385, -0.24874836206436157, 0.00017535097140353173 },
			{ 0.21717502176761627, -0.14739049971103668, 0.4236851632595062, -0.3536236882209778, -0.04714508354663849, 0.28765761852264404, -0.4517279863357544, -0.4937649369239807, -0.25093701481819153, -0.011031725443899632 },
			{ -0.36747294664382935, 0.027325889095664024, 0.2926255464553833, -0.17979863286018372, -0.11471368372440338, 0.49750927090644836, -0.4717443287372589, -0.13567447662353516, -0.19689103960990906, -0.1827649027109146 },
			{ -0.036792654544115067, 0.2520154118537903, 0.19547796249389648, -0.19154970347881317, 0.2062487155199051, -0.20103560388088226, -0.35968610644340515, 0.10492543876171112, -0.3394642472267151, -0.169437974691391 },
			{ 0.003209085203707218, 0.02558174915611744, 0.13499251008033752, -0.12069380283355713, 0.2219361513853073, -0.19752410054206848, -0.2698730230331421, 0.03722761198878288, 0.022014252841472626, -0.11400458216667175 },
			{ -0.021896984428167343, -0.08764881640672684, 0.16850924491882324, -0.2925686538219452, 0.03901617228984833, -0.09265941381454468, -0.014581498689949512, 0.03360409662127495, 0.23647727072238922, -0.10957705974578857 },
			{ 0.13650602102279663, -0.22609709203243256, 0.14625124633312225, -0.3542211949825287, -0.02257424220442772, -0.17259638011455536, -0.07975950837135315, -0.016939494758844376, 0.2644297182559967, -0.042810555547475815 },
			{ 0.09057386964559555, -0.27413666248321533, 0.042320601642131805, -0.2933564782142639, 0.007260318845510483, -0.09716083854436874, 0.05550747364759445, -0.12831152975559235, 0.10687452554702759, 0.06173526868224144 },
			{ 0.13943731784820557, -0.04497858136892319, 0.03845996409654617, -0.19019275903701782, -0.033962346613407135, -0.02009814977645874, 0.02934376522898674, -0.059878651052713394, 0.14331203699111938, 0.04600634053349495 },
			{ -0.24099549651145935, 0.04456467553973198, -0.03511051833629608, -0.12273557484149933, -0.1113712266087532, -0.04371180385351181, -0.004696541465818882, -0.09236007928848267, 0.1367689073085785, -0.16893868148326874 },
			{ -0.1969955861568451, 0.03826235234737396, -0.08747924864292145, -0.10972589999437332, 0.07163716107606888, 0.06815829128026962, 0.001744345179758966, -0.010580053552985191, -0.08427213877439499, 0.07660450786352158 },
			{ 0.05506075546145439, -0.048324503004550934, -0.13106361031532288, -0.1874656230211258, 0.011872956529259682, 0.05178198963403702, -0.04356483370065689, 0.20555955171585083, -0.20758603513240814, 0.062260858714580536 },
			{ 0.11191664636135101, -0.007705239113420248, -0.1937941163778305, -0.0433652400970459, -0.024847419932484627, 0.10002610087394714, -0.029136231169104576, 0.08954137563705444, -0.325564444065094, 0.13277198374271393 },
			{ 0.12784217298030853, -0.040502455085515976, -0.06966423988342285, -0.04066116362810135, 0.06549805402755737, 0.15018108487129211, -0.010656461119651794, 0.13017283380031586, -0.4042205810546875, 0.21099990606307983 },
			{ 0.17047733068466187, -0.0025366656482219696, -0.20617392659187317, -0.12180794775485992, -0.03435477241873741, 0.0581040233373642, 0.12210827320814133, -0.0475308820605278, -0.17146547138690948, 0.032833728939294815 },
			{ -0.032160259783267975, 0.11053318530321121, 0.25110307335853577, -0.4490148723125458, 0.14977844059467316, -0.10372734069824219, -0.09530311822891235, -0.2525826394557953, -0.029273629188537598, 0.04616403579711914 },
			{ -0.098691426217556, 0.17180289328098297, 0.3086192309856415, -0.31471753120422363, -0.07278942316770554, 0.20726634562015533, -0.4065130352973938, -0.1969217211008072, -0.04970671236515045, 0.03430463746190071 },
			{ -0.06712125986814499, -0.017659619450569153, 0.22131860256195068, 0.14960338175296783, -0.07078272849321365, -0.10369985550642014, -0.16111916303634644, -0.022495616227388382, -0.3973737955093384, -0.38285699486732483 },
			{ -0.16165076196193695, -0.08202183246612549, 0.035853635519742966, -0.23423543572425842, 0.01106481533497572, 0.0778689831495285, -0.36231347918510437, -0.12060411274433136, -0.007552110590040684, 0.014755923300981522 },
			{ -0.06499401479959488, -0.3190687298774719, 0.13585545122623444, -0.2314606010913849, 0.11243732273578644, -0.08467070758342743, -0.0805303081870079, -0.05179270729422569, 0.2356182187795639, 0.008367827162146568 },
			{ -0.024149654433131218, -0.20307618379592896, 0.011119437403976917, -0.2981092929840088, 0.0949283018708229, -0.20139789581298828, -0.010818122886121273, 0.017718294635415077, 0.1931563913822174, -0.0076283724047243595 },
			{ 0.0500146709382534, -0.21768629550933838, 0.03996717184782028, -0.22105838358402252, -0.0434795506298542, -0.11019276827573776, -0.05460125207901001, 0.08269970118999481, 0.2549724578857422, 0.12614089250564575 },
			{ 0.0057014767080545425, -0.23337213695049286, 0.061901822686195374, -0.11626207828521729, -0.07355262339115143, -0.0681670531630516, 0.024893108755350113, -0.12458273768424988, 0.18150971829891205, -0.10699022561311722 },
			{ 0.06397074460983276, -7.044829544611275e-06, -0.03365470468997955, -0.06668811291456223, -0.056880321353673935, -0.046829015016555786, -0.15437348186969757, -0.03465541824698448, 0.1268821507692337, -0.10220550000667572 },
			{ 0.05829400569200516, 0.030594337731599808, -0.049211565405130386, -0.009387262165546417, 0.01343416515737772, 0.13200293481349945, -0.06345608085393906, 0.03127950429916382, -0.14707499742507935, -0.032040782272815704 },
			{ 0.10460102558135986, -0.15525005757808685, -0.15807802975177765, 0.1126120314002037, 0.028835197910666466, 0.10371728241443634, 0.08546310663223267, 0.04275702312588692, -0.16262200474739075, 0.07924909889698029 },
			{ -0.0038971826434135437, -0.3948286473751068, -0.3503812849521637, 0.0773165300488472, -0.17302177846431732, 0.08034591376781464, 0.02092066965997219, -0.00622977502644062, 0.004719583783298731, -0.03776891157031059 },
			{ 0.1720191240310669, -0.29290512204170227, -0.2024284452199936, 0.032926637679338455, 0.05572914332151413, 0.09606416523456573, 0.028927013278007507, -0.0654779002070427, 0.03172391280531883, -0.1583065688610077 },
			{ 0.049950893968343735, -0.013694006018340588, -0.24240893125534058, -0.11166580021381378, 0.08480949699878693, 0.253074586391449, 0.023356154561042786, -0.16814477741718292, -0.03444541618227959, -0.04743642359972 },
			{ -0.1257966011762619, 0.08111559599637985, 0.28338709473609924, -0.5171269774436951, 0.202155202627182, -0.1392669677734375, -0.18017591536045074, -0.10298094153404236, -0.012521211057901382, -0.12050404399633408 },
			{ -0.029257122427225113, 0.05518454685807228, 0.27706873416900635, -0.3230392038822174, 0.1522434949874878, -0.3354075849056244, -0.24252884089946747, 0.1295871138572693, -0.17518819868564606, -0.23082910478115082 },
			{ -0.1874687373638153, -0.12270919978618622, 0.170298233628273, 0.0836169421672821, 0.09070295840501785, -0.07566185295581818, -0.03397586569190025, -0.15195082128047943, -0.14107021689414978, -0.35590872168540955 },
			{ -0.18831804394721985, -0.0011243681656196713, 0.05095221847295761, -0.015961164608597755, 0.07968597114086151, 0.16681794822216034, -0.2869500517845154, -0.2477196604013443, -0.1969747394323349, -0.1571337878704071 },
			{ -0.03912536799907684, 0.062213219702243805, 0.10040227323770523, -0.11767542362213135, -0.013944655656814575, 0.22239916026592255, -0.10875028371810913, -0.15443988144397736, -0.01689985953271389, 0.2253388911485672 },
			{ -0.10586532950401306, -0.04548713564872742, -0.008711921982467175, -0.13257640600204468, 0.009084822610020638, -0.010695689357817173, -0.018151821568608284, 0.019148563966155052, 0.06504769623279572, 0.1283460110425949 },
			{ -0.09092722833156586, -0.17115488648414612, -0.021908704191446304, -0.15247179567813873, -0.040354594588279724, -0.05347602441906929, -0.03576384857296944, -0.10244698077440262, 0.12530730664730072, 0.09675667434930801 },
			{ 0.006246325094252825, -0.11122719943523407, -0.009345597587525845, -0.19954684376716614, -0.06832792609930038, -0.0855167806148529, 0.11027863621711731, 0.09673761576414108, 0.019432632252573967, 0.04636213183403015 },
			{ -0.04008554294705391, -0.04724124073982239, -0.1435149610042572, 0.06802422553300858, -0.03548285365104675, -0.002451638225466013, 0.11398911476135254, -0.037426840513944626, 0.050343144685029984, 0.03745885565876961 },
			{ -0.14048181474208832, 0.03991467505693436, -0.18385906517505646, 0.0007790849194861948, 0.006374706979840994, 0.011145050637423992, -0.037663672119379044, -0.007518455386161804, 0.0933908149600029, 0.05416710302233696 },
			{ -0.0789446160197258, -0.30642828345298767, -0.2376163750886917, 0.1323382556438446, 0.06191329285502434, 0.04078724607825279, 0.03997344151139259, -0.06179548799991608, 0.08592825382947922, 0.012276113964617252 },
			{ -0.03312617540359497, -0.5342040657997131, -0.26244527101516724, 0.08363021910190582, -0.10669953376054764, 0.03444874659180641, -0.016145212575793266, -0.0955280214548111, 0.04975138604640961, -0.0580473393201828 },
			{ 0.05428554117679596, -0.46046677231788635, -0.3242494463920593, 0.04325611889362335, 0.032895371317863464, 0.02905997261404991, 0.03246714547276497, 0.02663450874388218, 0.18016943335533142, -0.2591252624988556 },
			{ -0.02385728806257248, 0.013922307640314102, -0.10589151084423065, 0.13881853222846985, 0.061948262155056, 0.16457907855510712, -0.2587050795555115, -0.08470779657363892, 0.14953184127807617, -0.1719701588153839 },
			{ -0.1441594660282135, 0.10635045170783997, 0.33362090587615967, -0.44196972250938416, -0.09892883151769638, -0.02120884321630001, -0.20925025641918182, -0.1808008998632431, -0.2545839846134186, -0.32085299491882324 },
			{ 0.15637686848640442, -0.09120631217956543, 0.3781719505786896, -0.14480862021446228, -0.1402793675661087, -0.1662428081035614, -0.223683163523674, -0.22929105162620544, -0.4338197112083435, -0.41085001826286316 },
			{ -0.16047462821006775, 0.11734805256128311, 0.13923951983451843, -0.016175735741853714, 0.023859074339270592, -0.07657533884048462, -0.0744219720363617, -0.28986304998397827, -0.19545680284500122, -0.41442951560020447 },
			{ -0.2505645453929901, 0.005133640021085739, -0.01314813643693924, 0.03073444776237011, 0.06923704594373703, -0.013368941843509674, -0.14259804785251617, -0.3017798662185669, -0.12871304154396057, 0.10096336156129837 },
			{ -0.055255018174648285, 0.11503224074840546, -0.10719043761491776, 0.08959075063467026, -0.15745340287685394, 0.1620289385318756, -0.021537592634558678, -0.14476434886455536, -0.13456125557422638, 0.06440704315900803 },
			{ 0.012853624299168587, -0.004738273564726114, -0.029949994757771492, 0.02668735943734646, -0.1509358286857605, 0.1980360895395279, 0.0667588859796524, 0.025276314467191696, -0.11941095441579819, 0.14064167439937592 },
			{ 0.01825398951768875, -0.008517775684595108, -0.03162284940481186, -0.08903846144676208, -0.0810706689953804, 0.02092166058719158, 0.16449697315692902, -0.04503075033426285, -0.22230678796768188, 0.08421731740236282 },
			{ 0.10889480262994766, -0.19371356070041656, 0.030638601630926132, 0.13706539571285248, -0.09176019579172134, -0.023526377975940704, 0.1339968740940094, -0.03644954040646553, -0.13819517195224762, 0.05018290504813194 },
			{ -0.08655601739883423, -0.028850210830569267, -0.06406716257333755, 0.06278891861438751, -0.09552224725484848, -0.05406343564391136, 0.08253241330385208, -0.030859407037496567, -0.017027579247951508, -0.09070254862308502 },
			{ -0.34824034571647644, 0.17782524228096008, -0.1481928527355194, 0.08499501645565033, -0.05448354408144951, 0.10616245120763779, -0.12097027152776718, 0.09913406521081924, -0.027931084856390953, -0.058217618614435196 },
			{ -0.18413789570331573, -0.06898315995931625, -0.11690608412027359, 0.11472996324300766, -0.04400866478681564, 0.018108529970049858, -0.14779505133628845, 0.005067532882094383, -0.008453999646008015, -0.07702711224555969 },
			{ -0.3136637508869171, 0.02890734001994133, -0.0764617770910263, 0.06754645705223083, 0.15075907111167908, 0.10365694761276245, 0.0027555774431675673, 0.0947597548365593, 0.12039881199598312, -0.16291449964046478 },
			{ -0.14295785129070282, 0.037269894033670425, -0.15662628412246704, 0.0778096616268158, 0.13510295748710632, 0.020943976938724518, -0.03883341699838638, -0.15061578154563904, 0.016222650185227394, -0.036129120737314224 },
			{ -0.10561777651309967, -0.021828144788742065, 0.3108241856098175, -0.17029161751270294, 0.09340925514698029, -0.019629059359431267, -0.3334656059741974, -0.2091982215642929, 0.06210466846823692, 0.02543255314230919 },
			{ -0.19775068759918213, 0.09289663285017014, 0.1794251799583435, -0.22663292288780212, 0.06498171389102936, -0.05403967201709747, -0.09619889408349991, 0.0023598887491971254, -0.15420560538768768, -0.09404376149177551 },
			{ -0.041018400341272354, 0.09932961314916611, 0.2726469933986664, -0.13378310203552246, -0.06094617396593094, -0.07817220687866211, 0.04570797458291054, 0.009571665897965431, -0.32817211747169495, -0.2966340482234955 },
			{ -0.29823529720306396, 0.12697185575962067, -0.11336858570575714, 0.1274033784866333, -0.3399793803691864, -0.023169727995991707, -0.2398630827665329, -0.0909605622291565, -0.01307977456599474, -0.11848077923059464 },
			{ -0.07269184291362762, 0.1962943822145462, -0.0537475161254406, 0.0396965891122818, -0.12214057892560959, 0.1042909324169159, -0.3335007131099701, -0.046620924025774, -0.21892477571964264, 0.005914092529565096 },
			{ 0.05011523514986038, -0.06173781305551529, -0.03999020904302597, 0.018937883898615837, -0.0788734033703804, 0.10213737189769745, -0.2305937558412552, 0.08784539997577667, -0.0004516136250458658, 0.08887309581041336 },
			{ 0.043113257735967636, -0.12849736213684082, -0.013854348100721836, 0.08036573231220245, -0.09199880808591843, -0.027081944048404694, 0.14947925508022308, -0.08151895552873611, -0.010486188344657421, 0.11591118574142456 },
			{ -0.10483470559120178, -0.2641834318637848, 0.035328689962625504, 0.17367768287658691, -0.18102385103702545, 0.06395617872476578, 0.05886420980095863, -0.20111976563930511, 0.019291914999485016, 0.03486026078462601 },
			{ 0.11646135151386261, -0.2406187653541565, -0.05241580307483673, -0.01261595543473959, -0.2462664097547531, 0.12842196226119995, 0.09715131670236588, -0.1450551450252533, 0.08178561925888062, -0.039917100220918655 },
			{ 0.11438506096601486, -0.15375171601772308, -0.06324466317892075, 0.0643850564956665, -0.19223710894584656, -0.02980877086520195, 0.23416316509246826, -0.03184380754828453, 0.09916605800390244, -0.152878537774086 },
			{ -0.12043813616037369, 0.02571394480764866, -0.027167392894625664, -0.1062765121459961, -0.0380331426858902, -0.15211012959480286, 0.0934784933924675, 0.1023474931716919, 0.14882110059261322, -0.08479789644479752 },
			{ -0.4252513349056244, 0.09782460331916809, 0.07149187475442886, -0.041932448744773865, 0.12280058115720749, -0.07100119441747665, -0.0062454272992908955, 0.11839552968740463, 0.017194831743836403, -0.053923241794109344 },
			{ -0.4362865388393402, 0.22157078981399536, 0.18747709691524506, -0.07197996973991394, 0.06875711679458618, -0.19592462480068207, -0.13270163536071777, 0.01910954900085926, -0.06579486280679703, 0.042763032019138336 },
			{ -0.26965293288230896, 0.19569553434848785, 0.25302040576934814, -0.21554698050022125, 0.21816779673099518, -0.12522847950458527, -0.32946035265922546, -0.08809347450733185, -0.12258894741535187, 0.14727328717708588 },
			{ -0.29888811707496643, 0.13133801519870758, 0.39418449997901917, -0.5195622444152832, 0.06770221143960953, 0.00488493125885725, -0.16645511984825134, -0.24513493478298187, -0.13020572066307068, 0.07549537718296051 },
			{ -0.23131154477596283, 0.14736120402812958, 0.17460273206233978, -0.3009219765663147, -0.1770477294921875, 0.03392133489251137, -0.07887624949216843, -0.19488735496997833, -0.02080938220024109, 0.2547197937965393 },
			{ -0.1456277072429657, 0.05751940980553627, 0.09317003190517426, -0.22250115871429443, -0.36832141876220703, -0.1244354248046875, -0.0989660769701004, -0.29489877820014954, -0.14243686199188232, 0.03265242278575897 },
			{ -0.2049323320388794, -0.20194581151008606, -0.2776431441307068, 0.20033910870552063, -0.2159239947795868, -0.022334612905979156, 0.06218285486102104, 0.18706917762756348, -0.29549551010131836, -0.17667342722415924 },
			{ -0.17203693091869354, -0.3222382068634033, -0.30042898654937744, 0.28775274753570557, -0.07433713972568512, -0.12102479487657547, -0.1826760470867157, 0.1326063573360443, -0.24578188359737396, 0.043420564383268356 },
			{ 0.023489920422434807, -0.013508912175893784, -0.11191201955080032, 0.04664161428809166, -0.3335014879703522, -0.0018725103000178933, -0.3890775442123413, -0.014418707229197025, 0.03585581108927727, 0.017504524439573288 },
			{ 0.10569564998149872, -0.18196141719818115, 0.04023890942335129, -0.048607002943754196, -0.10061120986938477, -0.0019861760083585978, -0.09491908550262451, -0.06783590465784073, 0.1684877574443817, -0.11552116274833679 },
			{ 0.10946487635374069, -0.10356184095144272, 0.06957826763391495, -0.018533464521169662, -0.17718607187271118, 0.0445014052093029, 0.06616438180208206, -0.17638728022575378, 0.16333645582199097, -0.20325255393981934 },
			{ 0.10276319831609726, -0.06029855087399483, -0.04407670721411705, 0.032684773206710815, -0.1325020045042038, 0.01035311445593834, 0.02391956001520157, -0.21218836307525635, 0.045655541121959686, -0.24521343410015106 },
			{ 0.167588010430336, -0.0696459710597992, -0.02824692241847515, -0.12891605496406555, -0.08370097726583481, -0.07991717010736465, 0.11419329792261124, -0.11994365602731705, 0.061038654297590256, -0.14416050910949707 },
			{ -0.185241237282753, 0.12425956130027771, -0.02216424234211445, -0.25103458762168884, 0.03562486171722412, -0.21949388086795807, 0.1929522603750229, -0.04445819929242134, 0.035764943808317184, 0.03285015746951103 },
			{ -0.15010742843151093, 0.10935728996992111, -0.04950426518917084, -0.1797359138727188, 0.0542239248752594, -0.08752826601266861, -0.07257166504859924, 0.02585909143090248, -0.0028127513360232115, 0.029892193153500557 },
			{ -0.27738019824028015, 0.13002470135688782, 0.16852308809757233, -0.18495866656303406, 0.20082050561904907, -0.18389403820037842, -0.005307844374328852, -0.08439134061336517, -0.11605401337146759, 0.10352978855371475 },
			{ -0.24589359760284424, 0.09012386202812195, 0.22563239932060242, -0.2708525061607361, 0.20094749331474304, -0.07037702947854996, 0.08160755783319473, -0.155923992395401, -0.1020163744688034, 0.08314754068851471 },
			{ -0.06672269850969315, -0.10846353322267532, 0.2490035742521286, -0.22697307169437408, 0.19122835993766785, -0.054897841066122055, -0.10171230882406235, -0.27171561121940613, -0.0565488263964653, 0.05724859982728958 },
			{ -0.19527564942836761, 0.08742514997720718, 0.13734549283981323, -0.17062579095363617, -0.0627182126045227, -0.01613984815776348, -0.2280939221382141, -0.1704065203666687, -0.08861841261386871, 0.20856264233589172 },
			{ -0.01525656133890152, 0.16502384841442108, 0.14451545476913452, -0.3024621307849884, -0.1538374274969101, -0.06666498631238937, -0.07741785794496536, -0.10345885157585144, -0.05944891273975372, 0.001685936818830669 },
			{ -0.03333787992596626, -0.021328531205654144, -0.179607555270195, -0.1057385504245758, -0.07871509343385696, 0.1059308722615242, -0.08583670854568481, 0.3179055154323578, -0.13949085772037506, -0.16233432292938232 },
			{ -0.24013389647006989, -0.08624428510665894, -0.05276064947247505, 0.22207169234752655, -0.1666335165500641, 0.00950618926435709, -0.059991560876369476, -0.18684762716293335, -0.36945927143096924, 0.01865927129983902 },
			{ -0.17715226113796234, 0.038798488676548004, -0.26501309871673584, 0.11758004128932953, -0.35268354415893555, -0.07552357017993927, -0.10578916221857071, 0.09310586005449295, 0.1988069713115692, -0.01383298635482788 },
			{ -0.13097961246967316, 0.08589795231819153, 0.0651269480586052, 0.09714905917644501, 0.0315856970846653, -0.10582635551691055, -0.4903027415275574, 0.0941658690571785, -0.17134006321430206, -0.01188521459698677 },
			{ 0.15522360801696777, 0.19769954681396484, -0.17828907072544098, -0.06906380504369736, 0.08064120262861252, -0.14325980842113495, -0.4932301938533783, 0.07643537223339081, 0.053552161902189255, -0.09303613752126694 },
			{ -0.00047040614299476147, -0.0007684830343350768, -0.07591935247182846, -0.12315263599157333, 0.07694139331579208, -0.004572886507958174, -0.24473217129707336, 0.04140092432498932, -0.04284251853823662, -0.08818940818309784 },
			{ -0.019416920840740204, 0.21723715960979462, -0.07640913873910904, -0.05242316797375679, 0.04093903303146362, -0.09779495745897293, -0.24692408740520477, 0.09659642726182938, -0.009655279107391834, 0.08106788247823715 },
			{ -0.10366698354482651, 0.06311053037643433, -0.04930184781551361, -0.25420528650283813, 0.13573166728019714, 0.007507478818297386, -0.2081897109746933, 0.15363872051239014, -0.03160573169589043, 0.16752316057682037 },
			{ -0.11883368343114853, 0.13217881321907043, 0.024403037503361702, -0.12262759357690811, 0.041209448128938675, -0.01570284552872181, -0.12514488399028778, 0.07724303007125854, -0.029588639736175537, 0.03306930139660835 },
			{ -0.07296492904424667, 0.17797687649726868, -0.04429572448134422, -0.10533694177865982, 0.08388414233922958, -0.02932741865515709, -0.19310849905014038, 0.011184889823198318, -0.1128973439335823, 0.17662888765335083 },
			{ -0.1685350239276886, 0.025212667882442474, 0.004494505934417248, -0.05550992488861084, -0.02026372402906418, -0.1650974601507187, 0.041631799191236496, -0.007703912444412708, 0.09243585914373398, 0.2197745442390442 },
			{ -0.019684309139847755, -0.04683936387300491, 0.01923341676592827, -0.16779346764087677, 0.061895787715911865, -0.026124583557248116, 0.031159261241555214, -0.0799056887626648, -0.011385619640350342, 0.03890062868595123 },
			{ -0.17551343142986298, -0.1857566237449646, 0.07124906778335571, -0.06381877511739731, 0.018423356115818024, 0.16294048726558685, -0.15830715000629425, -0.36174914240837097, 0.07459001243114471, -0.08867689967155457 },
			{ -0.1839275062084198, -0.12322745472192764, 0.025544272735714912, 0.007088761311024427, 0.01182172168046236, 0.1255032867193222, -0.19896303117275238, -0.14355942606925964, -0.003964971750974655, 0.026918163523077965 },
			{ 0.16203126311302185, 0.13566429913043976, 0.03456910699605942, 0.028601547703146935, -0.1875552535057068, 0.03250757232308388, -0.0389435812830925, 0.06574816256761551, -0.25958842039108276, 0.03518989682197571 },
			{ 0.14952361583709717, 0.1860804408788681, 0.045359618961811066, 0.04309440404176712, -0.21512705087661743, -0.03689262270927429, -0.03918122500181198, 0.03785483166575432, -0.289726585149765, -0.020946187898516655 },
			{ 0.11077281087636948, 0.04981432110071182, -0.01644628681242466, 0.0008803700329735875, -0.14274422824382782, 0.0836484506726265, 0.01795792393386364, 0.10010217130184174, -0.2380136400461197, -0.07137691974639893 },
			{ 0.0597679577767849, 0.17704743146896362, 0.12521491944789886, 0.0008615202968940139, -0.18038968741893768, 0.07301583141088486, 0.10021044313907623, 0.043734822422266006, -0.31630274653434753, 0.041824035346508026 },
			{ 0.05739334970712662, 0.05894411355257034, 0.1498263031244278, 0.1390838474035263, -0.16536147892475128, -0.16876420378684998, -0.16757938265800476, 0.10660910606384277, -0.1660776436328888, -0.07402384281158447 },
			{ 0.14381086826324463, -0.044244781136512756, 0.21412433683872223, -0.013826725073158741, -0.1611497700214386, -0.02324056625366211, -0.22543427348136902, 0.05168195068836212, -0.3357895016670227, -0.045409172773361206 },
			{ 0.20149283111095428, 0.10358645021915436, 0.4023493826389313, 0.010889407247304916, -0.23248949646949768, -0.13670167326927185, -0.14006288349628448, -0.04868206009268761, -0.16688482463359833, -0.16007351875305176 },
			{ 0.15657784044742584, 0.04309113323688507, 0.1388154923915863, 0.01828007400035858, -0.20401549339294434, -0.013401101343333721, -0.11801201105117798, -0.033609479665756226, -0.14957450330257416, -0.04808281734585762 },
			{ 0.15116707980632782, 0.22396476566791534, 0.07350748777389526, -0.1295478194952011, -0.10998932272195816, -0.03148018568754196, 0.05723777785897255, 0.021330155432224274, -0.1872364729642868, -0.09536668658256531 },
			{ 0.16751916706562042, 0.0813276618719101, 0.00938431080430746, -0.17329712212085724, 0.043333735316991806, -0.03433417156338692, 0.042882632464170456, 0.026292460039258003, -0.22518926858901978, -0.06056804955005646 },
			{ 0.05352671816945076, 0.20195123553276062, -0.10306690633296967, -0.17448832094669342, 0.00034861351014114916, -0.04699324816465378, 0.07423365861177444, 0.022935941815376282, -0.20875388383865356, -0.0889064222574234 },
			{ 0.09205824136734009, 0.2137565165758133, -0.0007152023026719689, -0.2039014995098114, -0.1640089601278305, -0.030242737382650375, 0.03540335223078728, 0.13963189721107483, -0.28395530581474304, 0.006433987058699131 },
			{ -0.02658788673579693, 0.17680419981479645, -0.06475736200809479, -0.14206789433956146, -0.1720357984304428, 0.045696038752794266, 0.017077717930078506, 0.14765071868896484, -0.28521883487701416, 0.06220891326665878 },
			{ 0.024407897144556046, 0.19086191058158875, 0.038960784673690796, -0.057136889547109604, -0.10745380073785782, 0.06645282357931137, -0.037531137466430664, 0.13035936653614044, -0.3254847526550293, 0.05099721625447273 },
			{ 0.05561834201216698, 0.11647286266088486, -0.07675831764936447, 0.07855524122714996, -0.11922839283943176, -0.07585223764181137, -0.019109606742858887, 0.1343419849872589, -0.22087326645851135, 0.02200283668935299 },
			{ 0.011855076998472214, 0.13911862671375275, 0.03615492954850197, 0.17513778805732727, -0.17027798295021057, -0.13202564418315887, 0.024620812386274338, 0.06606685370206833, -0.27924835681915283, 0.04239531233906746 },
			{ 0.0349096804857254, 0.137831911444664, 0.18042533099651337, 0.15263867378234863, -0.20034515857696533, -0.1905471682548523, -0.0234401635825634, 0.05763687193393707, -0.41191256046295166, -0.12520737946033478 },
			{ 0.03466365486383438, 0.14978578686714172, 0.41018015146255493, 0.14313584566116333, -0.2537117600440979, -0.3497212827205658, -0.13877597451210022, -0.02317582443356514, -0.28602492809295654, -0.11195569485425949 },
			{ -0.1270526647567749, -0.105430968105793, 0.3581170439720154, 0.28055304288864136, -0.039734601974487305, -0.3010128438472748, -0.3116261065006256, 0.11557289958000183, -0.24522072076797485, -0.2379125952720642 },
			{ -0.19519203901290894, -0.06590140610933304, 0.2829664647579193, 0.18414457142353058, -0.22716274857521057, -0.28123950958251953, -0.45161983370780945, -0.06449835747480392, -0.04501604288816452, -0.07160021364688873 },
			{ 0.019859325140714645, -0.17002467811107635, 0.2248556911945343, 0.38345977663993835, -0.42290160059928894, -0.3720065653324127, -0.468031108379364, -0.09341950714588165, 0.13619133830070496, -0.007663216907531023 },
			{ -0.009038756601512432, -0.17190884053707123, 0.1978628784418106, 0.2651877999305725, -0.4829057455062866, -0.03663395717740059, -0.2873309254646301, -0.04372793808579445, 0.04789761081337929, 0.06083856523036957 },
			{ 0.07774264365434647, -0.2810952067375183, 0.10287833958864212, 0.17672109603881836, -0.4243733286857605, -0.05367415398359299, -0.12145423889160156, -0.06656146049499512, -0.09980056434869766, -0.024230843409895897 },
			{ 0.1000625416636467, -0.014826006256043911, 0.06953603774309158, -0.11447340995073318, 0.08646615594625473, 0.1336793154478073, -0.11557896435260773, 0.058644432574510574, -0.0023729915264993906, -0.15072189271450043 },
			{ 0.08071507513523102, 0.10428775101900101, -0.022198952734470367, -0.2196386456489563, 0.16005639731884003, 0.09509379416704178, -0.11153532564640045, -0.018451906740665436, 0.031090276315808296, -0.1169634461402893 },
			{ -0.07933454215526581, 0.16122880578041077, 0.0035208486951887608, -0.16635087132453918, 0.009131338447332382, 0.08277039974927902, -0.008696213364601135, 0.007359329145401716, 0.05174098163843155, -0.14869815111160278 },
			{ -0.04414350166916847, 0.042495112866163254, -0.04344185069203377, -0.06761645525693893, -0.02298242785036564, 0.1177593320608139, -0.026296917349100113, 0.12098229676485062, -0.09138724952936172, -0.07773188501596451 },
			{ 0.033319927752017975, 0.21056662499904633, 0.021501168608665466, -0.14192037284374237, -0.031267497688531876, 0.007892660796642303, -0.08067604154348373, 0.05207899585366249, -0.20258954167366028, -0.024571973830461502 },
			{ -0.008505677804350853, 0.221806138753891, -0.08703160285949707, 0.17634913325309753, 0.004668015521019697, -0.10334265977144241, -0.020754558965563774, -0.07402453571557999, -0.3042854070663452, -0.011911080218851566 },
			{ 0.11264459043741226, 0.10390246659517288, -0.08931700140237808, 0.045533787459135056, -0.1261470913887024, -0.05312829464673996, -0.10685428231954575, 0.25833839178085327, -0.39627698063850403, -0.13562673330307007 },
			{ -0.13489001989364624, 0.055324144661426544, 0.060632094740867615, 0.05976913124322891, -0.16689209640026093, -0.2415381669998169, -0.11151961982250214, 0.19713370501995087, -0.057705044746398926, -0.3989869952201843 },
			{ -0.21967275440692902, 0.0685279592871666, 0.1266220062971115, 0.08551379293203354, -0.2481735795736313, -0.12974758446216583, -0.11689409613609314, 0.290204256772995, -0.1436479389667511, -0.31307172775268555 },
			{ -0.39146071672439575, 0.10259450227022171, 0.16812632977962494, 0.22051607072353363, -0.14877964556217194, -0.24767452478408813, -0.43654829263687134, 0.3202378749847412, -0.06394506245851517, -0.25663307309150696 },
			{ -0.38266944885253906, -0.1314254254102707, 0.09237762540578842, 0.24321983754634857, -0.18776032328605652, -0.0326557420194149, -0.44855618476867676, 0.326997309923172, -0.1418820321559906, -0.12789344787597656 },
			{ -0.21757979691028595, -0.16261862218379974, 0.06268733739852905, 0.33825334906578064, -0.24128030240535736, 0.029497237876057625, -0.42779743671417236, 0.24458657205104828, 0.12357968091964722, -0.12127243727445602 },
			{ 0.023343097418546677, -0.16549260914325714, 0.13711686432361603, 0.14234623312950134, -0.7228251695632935, 0.19498422741889954, -0.27214935421943665, 0.2453494369983673, -0.04492991417646408, 0.13676570355892181 },
			{ -0.02851051464676857, -0.24154233932495117, 0.021464403718709946, 0.03529193997383118, -0.5295339822769165, 0.2449922114610672, -0.16454394161701202, 0.1914615035057068, -0.1240721195936203, 0.20963142812252045 },
			{ -0.0522126741707325, -0.21426421403884888, 0.0632953941822052, -0.10707229375839233, -0.3496290147304535, 0.2622106969356537, 0.06453263014554977, -0.008936744183301926, -0.046904306858778, 0.16078394651412964 },
			{ -0.08103086799383163, -0.36931112408638, -0.11341065913438797, -0.3655277490615845, -0.24377624690532684, 0.22157534956932068, 0.23621705174446106, -0.09025372564792633, 0.18683576583862305, -0.007701801601797342 },
			{ -0.12075206637382507, -0.3650689125061035, -0.289940744638443, -0.40786439180374146, -0.204128697514534, 0.15813930332660675, 0.19379684329032898, -0.03334757685661316, 0.21801860630512238, -0.016118858009576797 },
			{ -0.18180875480175018, -0.34259986877441406, -0.2023737132549286, -0.39557525515556335, -0.016416579484939575, 0.1851440668106079, 0.12491432577371597, -0.0991491749882698, 0.12062008678913116, -0.22795239090919495 },
			{ -0.1712767332792282, 0.02309011109173298, -0.06515994668006897, -0.0883922129869461, -0.016021164134144783, 0.11616667360067368, 0.044736843556165695, 0.07784679532051086, -0.0367729477584362, -0.04491928592324257 },
			{ 0.01281862985342741, 0.1564916968345642, 0.09655725210905075, -0.05735638737678528, -0.12814268469810486, -0.13498808443546295, 0.053491994738578796, -0.010881178081035614, -0.14108556509017944, -0.15245792269706726 },
			{ 0.0749397873878479, 0.060251105576753616, -0.02615266665816307, 0.057494308799505234, 0.036120928823947906, -0.09414661675691605, -0.029386179521679878, -0.03925306349992752, 0.02642844244837761, -0.05143904685974121 },
			{ -0.07645835727453232, -0.1417633444070816, -0.010446048341691494, 0.11545523256063461, -0.05942598730325699, -0.12468092888593674, -0.07737845182418823, 0.15496183931827545, 0.07498345524072647, -0.27802610397338867 },
			{ -0.03519899770617485, -0.06137412413954735, 0.0937085971236229, 0.12910039722919464, -0.2773224115371704, -0.16202636063098907, -0.21611398458480835, 0.16849923133850098, -0.043630581349134445, -0.11318474262952805 },
			{ -0.1726256161928177, 0.10759153217077255, 0.18097355961799622, 0.27499982714653015, -0.3351042568683624, -0.11728958040475845, -0.3854494094848633, 0.1704687625169754, -0.08328047394752502, -0.2747928202152252 },
			{ -0.06830815970897675, -0.13383257389068604, 0.23229534924030304, 0.1111394539475441, -0.30727002024650574, -0.06400918960571289, -0.4565807580947876, 0.18817801773548126, -0.07455278187990189, -0.12006422877311707 },
			{ -0.04854744300246239, -0.1566065400838852, 0.10506507754325867, 0.2481580376625061, -0.3448752164840698, 0.018510030582547188, -0.33199915289878845, 0.1127433031797409, -0.02059880457818508, -0.16072531044483185 },
			{ -0.04342855140566826, -0.053591933101415634, 0.14069098234176636, 0.1759466528892517, -0.6477516889572144, 0.29168787598609924, -0.15868383646011353, 0.13100813329219818, -0.08990068733692169, -0.06167640537023544 },
			{ -0.0510961078107357, -0.1116543710231781, 0.09431954473257065, -0.10937672108411789, -0.6839240193367004, 0.3696901202201843, 0.13294574618339539, 0.24228696525096893, -0.19186188280582428, -0.05688342824578285 },
			{ -0.040460873395204544, -0.4402230381965637, 0.011108881793916225, -0.18647432327270508, -0.7087901830673218, 0.45665109157562256, 0.17134763300418854, -0.027221929281949997, -0.06701800227165222, 0.09381555020809174 },
			{ -0.004901527427136898, -0.459240585565567, -0.17062309384346008, -0.4438436031341553, -0.4479181170463562, 0.39283663034439087, 0.30254805088043213, -0.2966082990169525, 0.05415148288011551, 0.09622452408075333 },
			{ -0.22236268222332, -0.11598240584135056, -0.5098884105682373, -0.5662226676940918, -0.16734814643859863, 0.362513929605484, 0.42981377243995667, -0.30211004614830017, -0.0025589768774807453, 0.030914483591914177 },
			{ -0.21147294342517853, -0.2864377200603485, -0.3081291913986206, -0.44236916303634644, -0.03251110389828682, 0.39114809036254883, 0.21330620348453522, -0.2685687243938446, -0.23653502762317657, -0.1443484127521515 },
			{ -0.07433851808309555, -0.2760769724845886, -0.16050487756729126, -0.16791918873786926, -0.08886905014514923, 0.20121724903583527, 0.11047525703907013, -0.18777009844779968, -0.16525334119796753, -0.21810060739517212 },
			{ -0.07284354418516159, 0.03170245140790939, -0.11564123630523682, -0.009650320746004581, -0.082206130027771, -0.03295524790883064, 0.10007684677839279, 0.057868801057338715, -0.06926043331623077, -0.06584305316209793 },
			{ -0.058477696031332016, -0.005656703375279903, 0.06750307977199554, 0.14099518954753876, -0.07651311159133911, -0.10709065198898315, -0.07635419815778732, 0.029302377253770828, -0.054895538836717606, -0.07433251291513443 },
			{ -0.12245012074708939, 0.001023262506350875, 0.057705558836460114, 0.05039180815219879, -0.12819598615169525, -0.11164578050374985, -0.02762788161635399, 0.05123505741357803, -0.04602792486548424, -0.0883840024471283 },
			{ 0.02511749602854252, 0.009192273952066898, 0.068853460252285, 0.08097930252552032, -0.2752436101436615, -0.002619016682729125, -0.403198778629303, 0.08995780348777771, -0.08333274722099304, -0.08497153967618942 },
			{ -0.13894283771514893, 0.03414720296859741, 0.019938647747039795, 0.1370014101266861, -0.3928886353969574, -0.05919893831014633, -0.5180927515029907, 0.24621252715587616, -0.0710349828004837, -0.22602947056293488 },
			{ -0.09414306282997131, -0.04998390004038811, 0.07085464894771576, 0.04912713170051575, -0.29471683502197266, 0.15392912924289703, -0.48334643244743347, 0.12505730986595154, -0.05987125635147095, -0.1442154496908188 },
			{ -0.04467524588108063, -0.08729472011327744, 0.19978758692741394, 0.12119177728891373, -0.356057345867157, 0.102068692445755, -0.24601538479328156, -0.0023953800555318594, -0.07933846861124039, -0.11548082530498505 },
			{ -0.07973742485046387, 0.06788310408592224, 0.13581711053848267, 0.13598014414310455, -0.25467970967292786, 0.22774463891983032, -0.12379961460828781, 0.16376210749149323, 0.015879463404417038, -0.1021551862359047 },
			{ -0.03675442934036255, -0.15541382133960724, 0.14660416543483734, -0.02753284201025963, -0.2303425520658493, 0.24715857207775116, 0.0488273985683918, 0.12810878455638885, -0.11473101377487183, -0.03779678791761398 },
			{ -0.06592146307229996, -0.4587312936782837, 0.12166330963373184, -0.12279610335826874, -0.4546732008457184, 0.2743026912212372, 0.20339903235435486, 0.050192564725875854, 0.03632202744483948, 0.00829912256449461 },
			{ -0.06327127665281296, -0.21098345518112183, -0.12327244132757187, -0.04024543985724449, -0.28410637378692627, 0.31298208236694336, 0.26421108841896057, -0.08846976608037949, -0.020956847816705704, -0.023868538439273834 },
			{ -0.1298292726278305, -0.07815227657556534, -0.23524609208106995, -0.25484469532966614, -0.20909658074378967, 0.25716885924339294, 0.18428409099578857, -0.28238993883132935, 0.04853286221623421, -0.21995237469673157 },
			{ -0.1440976858139038, -0.09294344484806061, -0.19586896896362305, -0.08840619772672653, -0.15339212119579315, 0.2854502201080322, 0.008224696852266788, -0.3169409930706024, -0.11667624861001968, -0.09684357792139053 },
			{ -0.5034454464912415, -0.2679632902145386, -0.1939188688993454, -0.14016249775886536, 0.03640768676996231, 0.25686919689178467, -0.0287795290350914, -0.137001171708107, -0.135405033826828, -0.2217339426279068 },
			{ 0.08650434017181396, 0.08738807588815689, -0.18696598708629608, 0.05823761597275734, -0.07553726434707642, -0.11602738499641418, 0.04655207321047783, -0.06587032973766327, -0.03789012134075165, 0.054685790091753006 },
			{ -0.1562565714120865, -0.12786172330379486, -0.06273280829191208, 0.03901348263025284, -0.1562158763408661, 0.039892081171274185, -0.09801279008388519, 0.05029391124844551, -0.06054520979523659, -0.01736554317176342 },
			{ -0.1172739565372467, -0.0012993565760552883, 0.05933582782745361, 0.16419462859630585, -0.14278361201286316, -0.02602127008140087, -0.15004439651966095, 0.13608914613723755, 0.06653925031423569, -0.026065202429890633 },
			{ -0.10584226250648499, -0.06747999042272568, 0.08788711577653885, 0.03931211307644844, -0.1585749238729477, 0.09190623462200165, -0.2869512736797333, 0.25281772017478943, 0.07052367925643921, -0.25608381628990173 },
			{ -0.18441757559776306, -0.007498407736420631, 0.1940002590417862, 0.07658125460147858, -0.22019760310649872, 0.07901956140995026, -0.38962846994400024, 0.22342348098754883, -0.00445167813450098, -0.02315804548561573 },
			{ -0.13085390627384186, -0.051557473838329315, 0.10569678246974945, 0.11214757710695267, -0.16572968661785126, 0.07076269388198853, -0.4373131990432739, 0.10216236859560013, -0.0051172650419175625, 0.0426563024520874 },
			{ -0.10423658043146133, -0.06701770424842834, 0.1536990851163864, 0.09077484905719757, -0.1731591671705246, 0.06788231432437897, -0.36268720030784607, 0.002454363973811269, -0.08506127446889877, 0.12262838333845139 },
			{ -0.09088533371686935, -0.057001419365406036, 0.007686085999011993, 0.06124641373753548, -0.2215540111064911, 0.16030387580394745, -0.18544155359268188, 0.014172840863466263, 0.057917606085538864, 0.0694991871714592 },
			{ 0.03379199653863907, -0.1282326877117157, -0.026374755427241325, 0.055405642837285995, -0.16770651936531067, 0.2078251987695694, 0.02031322568655014, 0.202863410115242, -0.18767932057380676, -0.04421982914209366 },
			{ 0.13589376211166382, -0.37958887219429016, -0.03985410928726196, 0.07191101461648941, -0.18033120036125183, 0.18012835085391998, 0.07999874651432037, 0.1617557555437088, -0.0938446968793869, -0.21111419796943665 },
			{ -0.042179182171821594, -0.09258326143026352, -0.10518575459718704, 0.0044669415801763535, -0.1551520973443985, 0.17943669855594635, 0.036451082676649094, 0.028405772522091866, -0.022798195481300354, -0.22682221233844757 },
			{ -0.14235001802444458, -0.030509615316987038, -0.1788080930709839, -0.020064327865839005, -0.07495073229074478, 0.26432162523269653, 0.13439801335334778, -0.03223976865410805, 0.03245680034160614, -0.23304244875907898 },
			{ -0.16172660887241364, -0.026624640449881554, -0.03156346455216408, 0.023187201470136642, -0.15606911480426788, 0.3018142879009247, -0.11240381002426147, -0.08688481897115707, -0.12001293152570724, -0.12037306278944016 },
			{ -0.38673102855682373, -0.2616381347179413, -0.1844039410352707, -0.40181055665016174, -0.02038947120308876, 0.400599867105484, -0.3532721996307373, -0.19993704557418823, -0.11039961129426956, -0.21915891766548157 },
			{ 0.03281964734196663, 0.12021052837371826, -0.17362724244594574, -0.16976073384284973, 0.025464117527008057, -0.07617315649986267, -0.040214404463768005, -0.04180596023797989, -0.051966648548841476, -0.027539068832993507 },
			{ -0.06321483105421066, 0.03560609742999077, -0.13031846284866333, -0.09338343143463135, 0.03909691795706749, 0.13820083439350128, -0.01850592903792858, 0.09532653540372849, 0.07286537438631058, -0.0290224552154541 },
			{ -0.058316826820373535, 0.047545842826366425, -0.23361769318580627, -0.0024628222454339266, -0.05378085374832153, 0.26646187901496887, -0.12463870644569397, 0.030805276706814766, -0.09868783503770828, 0.06182686239480972 },
			{ -0.16348977386951447, 0.0923973098397255, -0.11833897233009338, -0.059337567538022995, 0.06020956486463547, 0.29837852716445923, -0.15656065940856934, 0.14987051486968994, 0.004937588237226009, -0.06772356480360031 },
			{ -0.2070111483335495, -0.0440947450697422, -0.03684414178133011, 0.09515460580587387, 0.017374718561768532, 0.13958531618118286, -0.2957611083984375, 0.10427797585725784, -0.13125644624233246, 0.074602872133255 },
			{ -0.22632214426994324, -0.10729829221963882, 0.010154001414775848, 0.03319814056158066, 0.08605194836854935, 0.171719491481781, -0.28609758615493774, 0.028259044513106346, 0.008549615740776062, 0.1521463245153427 },
			{ -0.332103967666626, -0.16322466731071472, -0.14254429936408997, 0.08390279114246368, 0.20451220870018005, 0.1255127340555191, -0.31480488181114197, -0.1073446273803711, 0.09487424045801163, 0.35821160674095154 },
			{ -0.15109527111053467, -0.1010960042476654, -0.28353625535964966, 0.10383253544569016, 0.040600717067718506, 0.022671367973089218, -0.170501708984375, -0.06567882001399994, -0.02109367400407791, 0.2213352620601654 },
			{ -0.028223885223269463, 0.0801897644996643, -0.034012820571660995, 0.07691340893507004, -0.14861588180065155, 0.16400758922100067, -0.09860976040363312, 0.041810356080532074, -0.05887408182024956, 0.03899966925382614 },
			{ -0.030598590150475502, -0.13759829103946686, -0.02570643275976181, 0.13442808389663696, 0.1528727412223816, 0.08767108619213104, -0.16131731867790222, 0.06802371889352798, -0.07597985118627548, -0.19159702956676483 },
			{ -0.06021621450781822, 0.0016797005664557219, -0.17944733798503876, 0.15488651394844055, 0.03359619155526161, 0.107202909886837, -0.10902483761310577, -0.0748419389128685, 0.1257404088973999, -0.2163448929786682 },
			{ -0.12511390447616577, 0.023764435201883316, 0.00744387973099947, 0.027566084638237953, 0.06140689551830292, 0.10891678184270859, -0.1423136442899704, -0.10391438752412796, 0.09065666794776917, -0.26675155758857727 },
			{ -0.12315167486667633, 0.03083641827106476, 0.11084040999412537, 0.08962196111679077, -0.014978889375925064, 0.08145865797996521, -0.18808114528656006, -0.22397840023040771, 0.01874738745391369, -0.06073537841439247 },
			{ -0.1559906303882599, -0.1132584735751152, 0.20260459184646606, -0.38400784134864807, -0.07425229251384735, 0.3098089098930359, -0.3210625946521759, -0.23051534593105316, 0.015419348143041134, -0.1433185636997223 },
			{ 0.1507941037416458, 0.05225482955574989, -0.08065428584814072, -0.31042641401290894, 0.04498817399144173, -0.0786052867770195, -0.011496433056890965, 0.0781036913394928, -0.08983178436756134, 0.15255531668663025 },
			{ 0.07399331033229828, 0.056037578731775284, -0.07661265879869461, -0.27250486612319946, 0.10622315853834152, 0.025005841627717018, -0.07358160614967346, 0.09839951246976852, 0.10626457631587982, 0.0687151849269867 },
			{ -0.04323216900229454, 0.08260148763656616, -0.05407017096877098, -0.21790266036987305, 0.046134836971759796, 0.1867140531539917, 0.02359183132648468, 0.05756077170372009, 0.07689253985881805, -0.08553200215101242 },
			{ -0.08745750784873962, 0.05817502737045288, -0.21614788472652435, -0.07845448702573776, 0.025008320808410645, 0.09362082183361053, -0.10222898423671722, 0.007718067150563002, -0.03167812153697014, -0.030106928199529648 },
			{ -0.26295146346092224, 0.006513483822345734, -0.271971732378006, -0.004440765827894211, 0.18549849092960358, 0.26060590147972107, -0.12711074948310852, 0.07919024676084518, -0.1405944973230362, 0.03572027012705803 },
			{ -0.20673801004886627, 0.1168268695473671, -0.35784173011779785, 0.1461562216281891, 0.026585066691040993, 0.1642911583185196, -0.19345791637897491, -0.031055551022291183, -0.09938343614339828, 0.2151826024055481 },
			{ -0.3901354968547821, -0.10206320881843567, -0.16430658102035522, 0.15189023315906525, 0.19222502410411835, 0.09388555586338043, -0.1503293812274933, -0.17841064929962158, -0.03210624307394028, 0.34750744700431824 },
			{ -0.41720089316368103, 0.10380365699529648, -0.10213762521743774, 0.11978913098573685, 0.023787017911672592, 0.02424260787665844, -0.03299823775887489, -0.17632631957530975, -0.007733316160738468, 0.1799994856119156 },
			{ -0.28311532735824585, 0.019862303510308266, -0.07392963767051697, 0.059965476393699646, 0.07334166020154953, 0.008261173963546753, -0.05276241526007652, -0.036131493747234344, 0.023180488497018814, 0.06541073322296143 },
			{ -0.07084014266729355, -0.027061359956860542, 0.0715959444642067, 0.10674330592155457, 0.031044716015458107, -0.019608166068792343, -0.1187552958726883, 0.07218072563409805, 0.05664036422967911, -0.06500205397605896 },
			{ -0.01582835428416729, -0.06147395819425583, 0.0042383200488984585, -0.039621997624635696, -0.0005294724251143634, -0.017108876258134842, -0.13697683811187744, 0.03402356803417206, 0.12562942504882812, -0.06731044501066208 },
			{ -0.0051739998161792755, -0.01005120761692524, 0.14606130123138428, -0.19922932982444763, -0.04815870150923729, -0.1832212209701538, -0.07530088722705841, -0.10494378209114075, 0.10579045116901398, -0.18850384652614594 },
			{ -0.04034189507365227, 0.10096768289804459, 0.24894140660762787, -0.3610718846321106, -0.07091926783323288, -0.26292186975479126, 0.03892508149147034, -0.1512002795934677, 0.08725392818450928, -0.10072237253189087 },
			{ -0.019356440752744675, 0.0067897215485572815, 0.5167150497436523, -0.3855384886264801, -0.1915619969367981, -0.029458485543727875, -0.09145405143499374, -0.2454243153333664, 0.012528453022241592, -0.42537909746170044 },
			{ 0.11255187541246414, 0.11055073887109756, -0.03152382746338844, -0.019267041236162186, 0.05284825712442398, -0.2096906155347824, -0.1516168713569641, -0.0064400541596114635, -0.18606515228748322, 0.09457744657993317 },
			{ -0.005091024562716484, 0.073148213326931, 0.09351223707199097, -0.06335427612066269, -0.03520243987441063, 0.1370736062526703, 0.024072598665952682, -0.10296154022216797, -0.11633814871311188, 0.10893569141626358 },
			{ 0.0706104263663292, -0.045395564287900925, -0.038778483867645264, -0.08281660825014114, -0.0621032677590847, 0.06437797844409943, -0.025274256244301796, 0.01759236678481102, -0.05646999552845955, 0.1090673953294754 },
			{ 0.09961748868227005, -0.010498851537704468, -0.03218389302492142, -0.09604033082723618, -0.02338244765996933, 0.17417515814304352, -0.07570072263479233, 0.010140993632376194, -0.11143981665372849, 0.06454024463891983 },
			{ 0.00010141648817807436, -0.07750015705823898, -0.18990306556224823, 0.0808095633983612, -0.048990823328495026, 0.18437248468399048, 0.008722144179046154, -0.1718846559524536, -0.03846701234579086, 0.04424114525318146 },
			{ -0.05582050234079361, 0.02983006462454796, -0.126665860414505, 0.1675155758857727, -0.02001045271754265, 0.20207497477531433, -0.15152472257614136, -0.2041170746088028, -0.14392443001270294, 0.19256742298603058 },
			{ -0.25978636741638184, -0.06803766638040543, -0.06778331100940704, 0.19076046347618103, 0.10488452762365341, 0.0642523542046547, -0.011028376407921314, -0.2685895562171936, -0.07938386499881744, 0.20379191637039185 },
			{ -0.24322836101055145, 0.044352561235427856, 0.048902835696935654, 0.07771393656730652, 0.0010594186605885625, -0.019150719046592712, -0.01317507866770029, -0.10303568094968796, -0.0014549917541444302, 0.1467835158109665 },
			{ -0.06128126010298729, 0.06761854887008667, -0.005575860384851694, -0.02135559916496277, 0.06734314560890198, 0.03449491783976555, 0.08796579390764236, -0.052221376448869705, -0.037398844957351685, -0.0401499979197979 },
			{ -0.05824436992406845, -0.09617707133293152, 0.10242673754692078, -0.04756970331072807, -0.028398336842656136, -0.09255356341600418, 0.15418176352977753, 0.03274795785546303, -0.06978997588157654, -0.043650560081005096 },
			{ -0.021181805059313774, -0.2070850431919098, 0.12599053978919983, -0.046804819256067276, 0.1501522809267044, -0.23659732937812805, 0.13159267604351044, 0.09553437680006027, 0.016369428485631943, -0.17709416151046753 },
			{ 0.08529612421989441, -0.049741167575120926, 0.26232418417930603, -0.16503983736038208, 0.11216918379068375, -0.13420715928077698, 0.0751129612326622, -0.00998229905962944, -0.1397922933101654, -0.24145036935806274 },
			{ 0.021226055920124054, -0.10654979199171066, 0.23198513686656952, -0.35695186257362366, -0.0047467793338000774, -0.3732655346393585, 0.17544487118721008, 0.033675067126750946, -0.16461537778377533, -0.1864129900932312 },
			{ 0.029952397570014, 0.021008562296628952, 0.3788267970085144, -0.0707579180598259, -0.14466135203838348, -0.2659955322742462, -0.08938124030828476, 0.02365761809051037, -0.31734499335289, -0.5157485604286194 },
			{ 0.050035394728183746, 0.10754052549600601, 0.012948011048138142, -0.03631039336323738, 0.07488132268190384, -0.22060127556324005, 0.00252483319491148, -0.06648658961057663, -0.07323668152093887, 0.13010111451148987 },
			{ 0.08271058648824692, -0.30974307656288147, -0.027474479749798775, 0.004212808795273304, 0.11346755921840668, 0.056151799857616425, 0.11092794686555862, -0.04412298649549484, 0.01288833748549223, -0.011875449679791927 },
			{ -0.08543989807367325, 0.0041693407110869884, -0.07737860083580017, 0.1855975240468979, 0.14404146373271942, 0.07909323275089264, 0.012117289006710052, -0.10144113749265671, -0.08776809275150299, 0.0059784394688904285 },
			{ 0.03144465386867523, 0.04077772796154022, -0.09043693542480469, 0.09755529463291168, -0.016875864937901497, 0.052326664328575134, 0.07110913097858429, -0.07972914725542068, -0.04112434759736061, 0.0679396241903305 },
			{ 0.01758052036166191, 0.04261920601129532, -0.04126077517867088, 0.005857523996382952, 0.05118798464536667, 0.13554377853870392, 0.07336057722568512, -0.16485103964805603, -0.2320479303598404, 0.11856508255004883 },
			{ 0.08000799268484116, -0.05045274272561073, 0.00625394843518734, 0.1005251407623291, 0.036927662789821625, 0.17105978727340698, -0.06126441806554794, -0.295576274394989, -0.0655905231833458, 0.17081227898597717 },
			{ 0.10744784027338028, -0.07693473994731903, 0.04804232716560364, 0.0808950886130333, 0.05460639297962189, -0.0244912039488554, 0.05451619625091553, -0.21585223078727722, -0.18991853296756744, 0.0847507193684578 },
			{ -0.04049202427268028, 0.03432996943593025, -0.036188412457704544, 0.11423745006322861, 0.0018404158763587475, -0.08501596748828888, 0.2654666304588318, -0.1452578753232956, -0.008237216621637344, -0.13330240547657013 },
			{ -0.024888161569833755, 0.02694655768573284, 0.06973675638437271, -0.02668609470129013, -0.0021183553617447615, -0.1989993155002594, 0.08978822082281113, -0.013084044679999352, -0.11638106405735016, -0.05716443434357643 },
			{ 0.06286099553108215, -0.07572490721940994, 0.1676023155450821, -0.1095605120062828, -0.0014801000943407416, -0.051987458020448685, 0.1601046472787857, 0.13537004590034485, -0.2053164839744568, -0.10648889094591141 },
			{ 0.06078334152698517, 0.10077672451734543, 0.19847853481769562, -0.12142763286828995, 0.0598757229745388, -0.07112022489309311, 0.014152002520859241, 0.06287557631731033, -0.26448991894721985, -0.27678829431533813 },
			{ 0.004536219406872988, 0.18285690248012543, 0.290171355009079, -0.24040073156356812, 0.006482425145804882, -0.05378952994942665, 0.05688495188951492, 0.04621940478682518, -0.16300205886363983, -0.21652546525001526 },
			{ 0.009974914602935314, 0.11090853065252304, 0.19142206013202667, -0.17151573300361633, -0.04466236010193825, -0.1636868417263031, 0.09014097601175308, 0.011027670465409756, -0.20605352520942688, -0.08943800628185272 },
			{ 0.07486622780561447, 0.07181962579488754, 0.2690806984901428, -0.15270663797855377, -0.07464925944805145, -0.056807149201631546, -0.12765169143676758, -0.1934128999710083, -0.22270673513412476, -0.3277515172958374 },
			{ 0.01252816617488861, 0.05952915549278259, 0.15068888664245605, -0.11753705888986588, -0.04598328471183777, -0.08574554324150085, -0.10090161859989166, -0.17553062736988068, -0.08388461917638779, 0.06833037734031677 },
			{ 0.07605912536382675, -0.03218365088105202, 0.18387216329574585, -0.08261718600988388, -0.024286741390824318, -0.10032251477241516, -0.07723787426948547, -0.07677632570266724, 0.02827981859445572, 0.09301786124706268 },
			{ 0.1264745444059372, 0.06996851414442062, 0.022540336474776268, 0.069176584482193, -0.03349287435412407, -0.004712148103863001, -0.03635247424244881, -0.22802606225013733, -0.09467528760433197, 0.03963164985179901 },
			{ 0.06259885430335999, -0.04209546744823456, -0.09275970607995987, 0.06764578819274902, 0.009905865415930748, -0.06641315668821335, -0.03165028989315033, -0.11020820587873459, -0.00596924964338541, -0.04187741503119469 },
			{ 0.005454289726912975, -0.0267447791993618, 0.026502862572669983, 0.11974839866161346, -0.05556587129831314, 0.06729523092508316, 0.07980982959270477, -0.20071828365325928, -0.017543034628033638, -0.05006768926978111 },
			{ -0.017507195472717285, -0.07593632489442825, 0.0071808649227023125, 0.06406664103269577, -0.19739221036434174, -0.09013725072145462, 0.14377425611019135, -0.24001413583755493, -0.02069614827632904, 0.08619213849306107 },
			{ 0.010737418197095394, 0.017992254346609116, -0.0931691899895668, 0.04162096232175827, -0.09325635433197021, 0.058393530547618866, 0.1237572431564331, -0.18180789053440094, 0.10393653810024261, -0.015002532862126827 },
			{ 0.07227066904306412, 0.10196384787559509, 0.02865646220743656, 0.017921267077326775, -0.07941672205924988, -0.04582520201802254, 0.09203437715768814, -0.049686696380376816, 0.05019110441207886, -0.07741494476795197 },
			{ -0.06074020639061928, -0.003229007590562105, 0.1083441823720932, -0.059202782809734344, 0.04509396478533745, -0.048196904361248016, 0.04656950756907463, -0.1353577971458435, 0.09939758479595184, -0.012085999362170696 },
			{ 0.039823826402425766, 0.05192985758185387, 0.1501305252313614, 0.06379056721925735, 0.053828392177820206, 0.027274800464510918, 0.0027372308541089296, -0.11500731110572815, -0.10880083590745926, -0.20874638855457306 },
			{ 0.020911136642098427, 0.17484073340892792, 0.12465211749076843, -0.06731016933917999, 0.012723613530397415, -0.029131531715393066, -0.017626240849494934, -0.13016730546951294, -0.09961707144975662, -0.09973225742578506 },
			{ -0.06277428567409515, 0.2183525711297989, 0.13709253072738647, -0.1510736346244812, 0.14081676304340363, -0.024404829367995262, 0.0010658189421519637, -0.04393623024225235, -0.06291104108095169, -0.08488189429044724 },
			{ -0.1080441102385521, 0.139603853225708, -0.021996241062879562, -0.0319199338555336, -0.037427425384521484, -0.04037407413125038, -0.09563175588846207, -0.08910003304481506, -0.0011968114413321018, 0.02173490636050701 },
			{ -0.09622747451066971, 0.15401074290275574, 0.0487704798579216, -0.3304777145385742, -0.2706719636917114, -0.0729440450668335, -0.0020688490476459265, 0.08324366807937622, -0.08143721520900726, 0.046692803502082825 },
			{ -0.0263866875320673, 0.08221934735774994, 0.11835648119449615, 0.033195942640304565, -0.0930580273270607, -0.04983256757259369, -0.005829690955579281, 0.05286416411399841, 0.012536336667835712, -0.06164562329649925 },
			{ 0.12032842636108398, 0.1446296125650406, 0.059679098427295685, -0.07717430591583252, -0.08303367346525192, 0.05230751633644104, -0.05879281461238861, 0.01707994006574154, -0.011205557733774185, -0.042338237166404724 },
			{ 0.018048258498311043, -0.02128695696592331, 0.08511529862880707, 0.08819828927516937, -0.09490492939949036, -0.045586004853248596, -0.10588735342025757, -0.04189472272992134, 0.013672152534127235, 0.03742703050374985 },
			{ 0.14610160887241364, -0.02449098974466324, 0.04844208434224129, 0.07461407780647278, 0.010580114088952541, -0.05721060559153557, 0.010454623028635979, -0.16443689167499542, 0.07908818870782852, -0.15255557000637054 },
			{ 0.05389515683054924, 0.08134657889604568, 0.03152955695986748, 0.07400244474411011, -0.11551880091428757, -0.0352315828204155, 0.04850861802697182, -0.16508276760578156, 0.07549484819173813, -0.13558349013328552 },
			{ 0.10010989010334015, 0.07342667132616043, 0.015394574962556362, -0.047898661345243454, -0.13494347035884857, 0.03900298476219177, 0.13489854335784912, -0.12044519931077957, -0.004516974091529846, -0.15481814742088318 },
			{ -0.016282033175230026, 0.09868262708187103, 0.07228976488113403, -0.058337196707725525, -0.1328718513250351, 0.01974741369485855, 0.08440405130386353, -0.09141102433204651, 0.015730099752545357, -0.15561264753341675 },
			{ 0.011211623437702656, 0.013537151739001274, 0.01957678608596325, 0.011635811068117619, 0.019399767741560936, -0.03357721492648125, 0.02600967511534691, -0.061123088002204895, 0.0657159835100174, -0.10063519328832626 },
			{ 0.07825945317745209, 0.028454281389713287, 0.08173113316297531, 0.02151198498904705, 0.02118110843002796, -0.07089196145534515, 0.05187644809484482, -0.09256968647241592, 0.04091638699173927, -0.08303354680538177 },
			{ 0.09328071773052216, 0.060786906629800797, 0.10603062808513641, -0.045182421803474426, 0.008009669370949268, -0.01947825588285923, 0.0027012061327695847, -0.13951356709003448, 0.0700269490480423, -0.07657847553491592 },
			{ 0.05039519816637039, 0.19493339955806732, 0.024767836555838585, -0.03372197970747948, -0.10221336781978607, 0.05690562725067139, 0.05891924723982811, -0.21282516419887543, 0.06294672191143036, -0.07541878521442413 },
			{ -0.010863369330763817, 0.12110759317874908, 0.0005627672653645277, -0.05949331074953079, -0.06477397680282593, 0.0639123022556305, 0.08312903344631195, -0.20735915005207062, 0.01868485100567341, -0.03482610359787941 },
			{ -0.00891359057277441, 0.04422100633382797, 0.07243144512176514, -0.10500653088092804, -0.18886929750442505, 0.09826216846704483, -0.01204397901892662, -0.3581782579421997, 0.03640122711658478, -0.01008578110486269 },
			{ -0.09846757352352142, 0.06051017716526985, -0.06000204384326935, -0.15503796935081482, -0.22663182020187378, -0.15395420789718628, -0.11202598363161087, -0.1331028789281845, -0.09195011854171753, 0.056678447872400284 },
			{ 0.04993769899010658, 0.10112322121858597, -0.0011667630169540644, -0.02582196518778801, -0.18778567016124725, 0.004867834039032459, -0.16584888100624084, -0.005572279915213585, -0.15184859931468964, -0.008865087293088436 },
			{ 0.060651782900094986, 0.07045803964138031, -0.01579694263637066, -0.03130780905485153, -0.11765068024396896, -0.09392593801021576, -0.14520962536334991, 0.08105310797691345, 0.10983722656965256, -0.042110342532396317 },
			{ 0.09346727281808853, 0.12028346955776215, 0.02494337037205696, 0.08219288289546967, -0.010194129310548306, -0.03302799165248871, -0.06518673896789551, -0.04647301509976387, -0.023837709799408913, 0.034837763756513596 },
			{ -0.042030539363622665, 0.06936120241880417, -0.0027602585032582283, 0.07551383972167969, -0.07558943331241608, -0.031657107174396515, -0.02153436839580536, -0.05282258614897728, -0.04658589884638786, -0.14224348962306976 },
			{ -0.03171278536319733, 0.11715105175971985, 0.013262969441711903, 0.11475624889135361, -0.1096004992723465, 0.05043637380003929, 0.1386728584766388, 0.03469445928931236, 0.06667852401733398, -0.04310247674584389 },
			{ -0.021289056167006493, 0.12022291123867035, 0.027254732325673103, 0.06439255177974701, -0.06308262050151825, 0.012901844456791878, -0.002447509905323386, -0.06544420123100281, 0.0016876619774848223, -0.016764355823397636 },
			{ -0.06532126665115356, 0.007583249360322952, -0.03364116698503494, -0.023087216541171074, -0.04311814531683922, 0.09547172486782074, 0.00994960404932499, -0.07162805646657944, 0.05177871882915497, 0.018094686791300774 },
			{ -0.11442147195339203, 0.015925705432891846, 0.007944795303046703, -0.06427279859781265, -0.11379653215408325, 0.005086224526166916, 0.011044066399335861, -0.09480118006467819, 0.008607637137174606, -0.07987707108259201 },
			{ -0.06660901755094528, 0.04679341986775398, -0.0020860687363892794, 0.0397924929857254, -0.014114368706941605, 0.04407130181789398, 0.0193462111055851, -0.0390949547290802, -0.0724545419216156, -0.09443847835063934 },
			{ -0.107635498046875, 0.09669218957424164, 0.17883527278900146, 0.08665371686220169, -0.06961571425199509, 0.06628718227148056, -0.05417546629905701, -0.06035139039158821, -0.016909077763557434, 0.011415109969675541 },
			{ -0.09369099885225296, -0.000577883212827146, 0.007448950782418251, 0.029112020507454872, -0.12007153034210205, 0.04728804901242256, 0.012288340367376804, -0.05158109962940216, 0.021012892946600914, -0.11568796634674072 },
			{ -0.13446173071861267, 0.013074819929897785, -0.04703931137919426, 0.014591347426176071, 0.015904802829027176, 0.14146408438682556, -0.004569028038531542, -0.08861319720745087, 0.03691508620977402, -0.026381967589259148 },
			{ -0.05625331774353981, -0.18322938680648804, -0.08002074807882309, -0.022866761311888695, -0.013916946947574615, 0.13585367798805237, -0.12611596286296844, -0.1975618451833725, -0.09369077533483505, 0.08714018017053604 },
			{ -0.10560987144708633, 0.09086541831493378, 0.09980340301990509, -0.14132773876190186, -0.08812557905912399, 0.05381627380847931, -0.17312702536582947, -0.017013616859912872, -0.3356931507587433, 0.12722493708133698 },
			{ 0.008990252390503883, 0.09422040730714798, -0.019579915329813957, -0.06396185606718063, -0.1999143362045288, 0.08288076519966125, -0.006125622894614935, 0.13982224464416504, -0.16553625464439392, -0.07641350477933884 },
			{ 0.08887901157140732, 0.0819120705127716, -0.06271214038133621, -0.031505730003118515, -0.12578235566616058, -0.06776262819766998, -0.08378197252750397, 0.05324474722146988, -0.10322293639183044, -0.020500680431723595 },
			{ 0.11499782651662827, 0.09902239590883255, 0.06676383316516876, 0.04411618784070015, -0.12502199411392212, -0.025223320350050926, -0.11462155729532242, -0.04436023160815239, -0.016110803931951523, 0.029296616092324257 },
			{ 0.04262896627187729, 0.07993148267269135, 0.04202308878302574, 0.10469888150691986, 0.06063489615917206, -0.06764092296361923, -0.10829257220029831, 0.0383487306535244, 0.03340373933315277, 0.0367111973464489 },
			{ 0.06589016318321228, -0.0548798032104969, 0.010357387363910675, 0.07432778179645538, -0.05831566080451012, 0.02190166711807251, -0.12451224029064178, -0.015564766712486744, 0.031758327037096024, -0.025330089032649994 },
			{ -0.00853801891207695, 0.09816580265760422, -0.0029586555901914835, 0.13089780509471893, -0.025438034906983376, -0.017661580815911293, -0.11451245844364166, -0.08980578184127808, -0.021789520978927612, -0.02364584058523178 },
			{ -0.012151422910392284, -0.00043323004501871765, 0.05716237053275108, -0.03748296573758125, -0.060849256813526154, -0.011312511749565601, -0.045585643500089645, -0.04695182293653488, -0.03822704032063484, 0.005233330652117729 },
			{ 0.007738158106803894, 0.09506840258836746, -0.06963244825601578, 0.029487837105989456, -0.006157944910228252, 0.01645699143409729, -0.09554734826087952, -0.08101098239421844, 0.08744500577449799, 0.1129690557718277 },
			{ -0.010400842875242233, 0.04748263210058212, -0.023975074291229248, 0.014197567477822304, -0.04098309576511383, 0.1251911222934723, -0.08954014629125595, -0.028536995872855186, 0.05638417229056358, 0.08873339742422104 },
			{ -0.03872566670179367, 0.0359460823237896, -0.020745474845170975, 0.08468553423881531, -0.14510129392147064, 0.047943685203790665, -0.10883568227291107, -0.0555860809981823, -0.024903059005737305, 0.06569599360227585 },
			{ -0.07108603417873383, -0.019084278494119644, 0.06010394170880318, -0.007199149578809738, 0.0302593931555748, -0.003276282688602805, 0.007945694029331207, -0.10149990767240524, 0.09212084859609604, -0.05308530107140541 },
			{ -0.1740906983613968, -0.09811785072088242, 0.03424534946680069, -0.13684386014938354, -0.06636751443147659, -0.08718722313642502, -0.013400831259787083, 0.02321956679224968, 0.023377470672130585, 0.07773252576589584 },
			{ 0.05687309429049492, -0.07906882464885712, -0.10340160876512527, -0.1230354905128479, -0.09182209521532059, 0.10581723600625992, -0.14784552156925201, 0.01853261888027191, -0.07994753867387772, 0.044581975787878036 },
			{ 0.028127266094088554, 0.12687823176383972, 0.0889880359172821, 0.0035451436415314674, -0.05704467371106148, 0.08006761223077774, -0.09989412128925323, -0.018254317343235016, -0.2790941894054413, 0.060126855969429016 },
			{ 0.06147642433643341, 0.12229559570550919, 0.1419268250465393, -0.07702825218439102, -0.09701915085315704, 0.07027816027402878, 0.0710466280579567, 0.021210072562098503, -0.2419651448726654, 0.09496381878852844 },
			{ 0.006776902358978987, 0.14345884323120117, 0.04520469158887863, -0.011285979300737381, -0.09282583743333817, 0.05819515138864517, -0.0011840652441605926, 0.002558979671448469, -0.2810698449611664, -0.020516287535429 },
			{ -0.11562494933605194, 0.041905228048563004, 0.043148983269929886, -0.047059156000614166, -0.25121650099754333, -0.1229797974228859, 0.18709544837474823, -0.14260873198509216, -0.2457704395055771, 0.03333975002169609 },
			{ 0.09064087271690369, 0.04099133983254433, -0.046166591346263885, 0.1120472177863121, -0.21670757234096527, -0.15809090435504913, 0.17999933660030365, -0.33654463291168213, -0.09163423627614975, -0.09048228710889816 },
			{ 0.041977208107709885, 0.24591746926307678, 0.10503358393907547, 0.08726802468299866, -0.2644599974155426, -0.031022826209664345, 0.217546746134758, -0.4562963545322418, -0.02935350313782692, -0.18530771136283875 },
			{ -0.07024390995502472, 0.11933109164237976, 0.029757184907794, 0.03468671441078186, -0.38214269280433655, -0.06842377781867981, 0.14248345792293549, -0.320233017206192, -0.009734292514622211, 0.043052755296230316 },
			{ -0.07934857159852982, -0.0536610372364521, 0.13682514429092407, -0.025675375014543533, -0.10820741206407547, 0.046048469841480255, -0.04673737287521362, -0.23878274857997894, 0.050165556371212006, -0.07139727473258972 },
			{ -0.049803897738456726, 0.03547864779829979, 0.04811650887131691, 0.020295776426792145, -0.11572379618883133, 0.04474416747689247, 0.09605016559362411, -0.1905641257762909, 0.07942233234643936, -0.13386622071266174 },
			{ -0.14017505943775177, -0.09756552428007126, 0.1856902688741684, 0.10309889167547226, -0.07612995058298111, 0.0732756182551384, -0.10773954540491104, -0.4109277129173279, -0.08807995170354843, -0.3011217415332794 },
			{ -0.028846919536590576, -0.06848384439945221, 0.2229999601840973, 0.1761915236711502, -0.20474329590797424, -0.06869484484195709, -0.023870181292295456, -0.22560110688209534, -0.0500824861228466, -0.1925186663866043 },
			{ -0.14407110214233398, -0.13865359127521515, -0.07534193247556686, 0.15433157980442047, -0.25716543197631836, -0.1008274033665657, 0.04417702183127403, -0.10720272362232208, -0.0999760627746582, -0.17889219522476196 },
			{ -0.13002879917621613, -0.19177183508872986, -0.17418316006660461, 0.10858236998319626, -0.010689927265048027, 0.11194013804197311, 0.16623163223266602, -0.09463129937648773, -0.05174659937620163, -0.21844084560871124 },
			{ -0.1469418853521347, -0.3128727078437805, 0.08856493979692459, -0.16631530225276947, -0.163308247923851, -0.07678119093179703, 0.10295499861240387, 0.014657807536423206, 0.022875582799315453, -0.0182697381824255 },
			{ 0.11142860352993011, -0.04486394673585892, 0.08530484884977341, -0.18083234131336212, -0.1791180819272995, 0.0438232421875, 0.01220867969095707, 0.1375095695257187, -0.28074631094932556, 0.032608672976493835 },
			{ 0.16936622560024261, 0.04710329696536064, -0.007546843960881233, -0.14234204590320587, -0.2004472017288208, 0.06069488823413849, 0.06086481735110283, 0.07144175469875336, -0.15990619361400604, -0.022033633664250374 },
			{ 0.08533254265785217, 0.13944603502750397, -0.18922638893127441, 0.00317805795930326, 0.022064682096242905, 0.04915302246809006, 0.08292461186647415, -0.08432561904191971, -0.22637377679347992, -0.01611221767961979 },
			{ 0.04565548524260521, 0.0400029718875885, -0.10613363236188889, -0.038726598024368286, -0.014068607240915298, 0.05176708474755287, 0.13742321729660034, -0.03273938223719597, -0.18194401264190674, -0.0877213105559349 },
			{ -0.04264869540929794, 0.07198800146579742, -0.16260842978954315, -0.029586466029286385, 0.11505845189094543, 0.11390504986047745, 0.09179596602916718, -0.025321008637547493, -0.09249567985534668, -0.10161744058132172 },
			{ -0.10869624465703964, 0.05643628165125847, -0.12852269411087036, -0.10677243769168854, 0.09421563148498535, 0.12645289301872253, 0.12568826973438263, -0.04569413512945175, -0.03406143933534622, -0.06153440847992897 },
			{ -0.0313170924782753, 0.08236805349588394, 0.022026345133781433, 0.03552473336458206, 0.1838236153125763, -0.03872053325176239, -0.10868862271308899, 0.07542264461517334, 0.04902138561010361, -0.09465770423412323 },
			{ 0.02396460436284542, -0.060619454830884933, 0.04188128933310509, 0.0855197012424469, 0.05612946301698685, -0.17216269671916962, -0.18137644231319427, -0.0004785008495673537, 0.04772714152932167, -0.012479925528168678 },
			{ 0.14065781235694885, -0.07639182358980179, 0.08243682980537415, 0.024784749373793602, -0.021740661934018135, -0.14522972702980042, -0.1289835423231125, -0.02657168172299862, 0.10628454387187958, -0.08809557557106018 },
			{ 0.009504837915301323, 0.024488888680934906, -0.048768457025289536, 0.09887190908193588, -0.009265758097171783, -0.04317714646458626, -0.08228282630443573, 0.0564814917743206, 0.06414026767015457, 0.019439736381173134 },
			{ 0.0868217721581459, 0.03619859367609024, 0.0944095179438591, 0.05056023597717285, -0.08246077597141266, 0.03841724619269371, -0.09408484399318695, -0.009193217381834984, 0.12543374300003052, -0.08585307002067566 },
			{ 0.07198858261108398, -0.10295999050140381, 0.0451456755399704, 0.1269647181034088, -0.13026967644691467, -0.06229385733604431, 0.008267768658697605, -0.2627561092376709, 0.04065925255417824, 0.07117167115211487 },
			{ -0.030546970665454865, -0.05167659744620323, 0.0569840669631958, 0.052177853882312775, -0.12054678052663803, -0.10476721823215485, 0.020305993035435677, -0.403888463973999, 0.10339926183223724, -0.08260208368301392 },
			{ -0.14112845063209534, -0.011154094710946083, 0.18827126920223236, 0.11848220229148865, -0.11484004557132721, -0.04561470076441765, 0.08223225176334381, -0.29169365763664246, -0.008183905854821205, -0.27571818232536316 },
			{ -0.13541200757026672, -0.1829456239938736, 0.1706782430410385, -0.07144840061664581, -0.029414130374789238, -0.055307090282440186, 0.2237960547208786, -0.21668978035449982, -0.11184880882501602, -0.13000455498695374 },
			{ 0.07958178967237473, 0.08337549865245819, -0.007033420726656914, -0.1051640659570694, -0.05554625764489174, 0.06634785234928131, -0.12493426352739334, 0.12265181541442871, -0.33134859800338745, -0.00018565777281764895 },
			{ -0.10717321187257767, 0.17012202739715576, -0.054377973079681396, 0.021184900775551796, -0.002683408325538039, -0.30441561341285706, -0.05468270927667618, 0.03362758457660675, -0.0966431051492691, -0.12381033599376678 },
			{ 0.0180068239569664, 0.05127035081386566, 0.02044740878045559, -0.0015619306359440088, 0.2060147076845169, -0.060906726866960526, -0.1730034202337265, 0.13177204132080078, -0.2670581340789795, -0.2594947814941406 },
			{ -0.10388188064098358, 0.0969587191939354, -0.0777643695473671, -0.047524407505989075, 0.15385355055332184, 0.012881999835371971, -0.028414534404873848, 0.3693142831325531, -0.33293455839157104, -0.4107586443424225 },
			{ -0.2041192352771759, 0.07103168219327927, -0.07235933840274811, 0.10112065076828003, 0.23233026266098022, -0.030267201364040375, -0.20371349155902863, 0.3303055465221405, -0.21603865921497345, -0.3890865743160248 },
			{ -0.15385164320468903, -0.07964063435792923, 0.032923728227615356, 0.05513066425919533, 0.1340067833662033, 0.02962348237633705, -0.10480871051549911, 0.19515666365623474, -0.16359259188175201, -0.265275239944458 },
			{ 0.05658198893070221, -0.11413396149873734, 0.08445379137992859, 0.23974007368087769, -0.0290481336414814, -0.12820737063884735, -0.1355729103088379, 0.15509377419948578, -0.09179864078760147, -0.10061139613389969 },
			{ 0.08841600269079208, -0.006035925820469856, -0.06474928557872772, 0.02441820688545704, -0.13067446649074554, -0.09547322243452072, -0.16516661643981934, 0.10329602658748627, -0.05720232427120209, 0.09054066985845566 },
			{ 0.08294090628623962, -0.034204743802547455, -0.11427846550941467, -0.0717678889632225, -0.23859205842018127, -0.10774987936019897, -0.18672361969947815, -0.04393013194203377, 0.055776629596948624, 0.14672386646270752 },
			{ 0.030993657186627388, -0.1287960708141327, -0.05604352429509163, -0.016427427530288696, -0.17597933113574982, -0.03103521466255188, -0.16738036274909973, -0.02514123171567917, 0.09201827645301819, 0.1786075383424759 },
			{ -0.04974527284502983, -0.011152171529829502, -0.1315883994102478, -0.05297030508518219, -0.21197418868541718, 0.053788553923368454, -0.07023653388023376, 0.025745807215571404, 0.1452493965625763, 0.13640287518501282 },
			{ -0.011982548981904984, 0.07277652621269226, 0.00958654098212719, 0.13321922719478607, -0.10589107125997543, -0.1271621286869049, 0.007267095148563385, -0.10307704657316208, 0.04024665802717209, 0.0989537239074707 },
			{ 0.019616587087512016, -0.07864368706941605, 0.10927462577819824, -0.005381074268370867, 0.01567532680928707, -0.1432182639837265, -0.1129387691617012, -0.05298735573887825, 0.10578422248363495, 0.0466807559132576 },
			{ 0.1047142744064331, -0.06743186712265015, -0.15501941740512848, -0.06864752620458603, 0.08316535502672195, -0.0034712764900177717, 0.07845000177621841, -0.3381999135017395, 0.009548842906951904, -0.0046639833599328995 },
			{ 0.032637711614370346, 0.21105647087097168, 0.042860496789216995, 0.15654534101486206, -0.07759781181812286, -0.11694805324077606, -0.0468842014670372, 0.057906702160835266, -0.1905020773410797, -0.04821937903761864 },
			{ 0.10632894933223724, -0.04852926731109619, 0.18787935376167297, 0.02495366707444191, -0.07529369741678238, -0.25135281682014465, -0.1852749139070511, 0.2753927409648895, -0.2761850655078888, -0.31996509432792664 },
			{ -0.41916516423225403, 0.05884513258934021, 0.021908216178417206, -0.034522999078035355, 0.15266449749469757, -0.2864086925983429, -0.25749471783638, 0.3015429377555847, -0.07017181068658829, -0.5032626986503601 },
			{ -0.2366980016231537, 0.25315454602241516, -0.0774369016289711, 0.059909798204898834, 0.013355937786400318, -0.05681772530078888, -0.09502790123224258, 0.5707721710205078, -0.153347909450531, -0.5773536562919617 },
			{ -0.21520176529884338, 0.0355866402387619, -0.11771243810653687, -0.01259561162441969, 0.09121650457382202, -0.08733788132667542, -0.1107320487499237, 0.4949498772621155, 0.14256645739078522, -0.6165395379066467 },
			{ -0.11221518367528915, -0.004357891157269478, -0.09094209223985672, -0.022150594741106033, 0.021695854142308235, 0.12567411363124847, -0.01872464083135128, 0.28247299790382385, 0.24847844243049622, -0.5468032360076904 },
			{ 0.08541930466890335, 0.12718743085861206, 0.024653678759932518, -0.01803545653820038, -0.06909266114234924, 0.1199994906783104, -0.11105652153491974, 0.1532553881406784, 0.06437194347381592, -0.13261908292770386 },
			{ 0.10874776542186737, 0.18147647380828857, 0.07569418102502823, -0.010954361408948898, -0.0074131241999566555, -0.046695563942193985, -0.17503157258033752, -0.02221088670194149, 0.0062772962264716625, -0.07560057938098907 },
			{ 0.07841141521930695, 0.14841149747371674, 0.0039182184264063835, -0.04364604502916336, 0.1341046690940857, -0.03713520988821983, -0.14545635879039764, 0.018886417150497437, -0.07097762078046799, 0.08780556917190552 },
			{ 0.12353838235139847, 0.07323983311653137, -0.06088629737496376, -0.041058532893657684, -0.01805260218679905, -0.09719888865947723, -0.15542708337306976, -0.03519453480839729, -0.019252097234129906, 0.039551954716444016 },
			{ 0.04488657787442207, 0.07823806256055832, -0.15017859637737274, -0.03940057009458542, -0.05568890646100044, 0.01733442023396492, -0.16968335211277008, -0.036122798919677734, 0.16118188202381134, 0.0032887354027479887 },
			{ 0.06990073621273041, -0.004564149305224419, -0.020166993141174316, 0.010294046252965927, -0.05747303366661072, -0.09724344313144684, -0.1233750581741333, 0.04839995503425598, 0.021443987265229225, 0.09430310875177383 },
			{ -0.01795865222811699, -0.0669407993555069, -0.07931751012802124, 0.09672177582979202, -0.0008526144083589315, -0.04297388345003128, -0.08576326817274094, -0.0545446015894413, 0.005358821712434292, -0.007730335928499699 },
			{ -0.12444919347763062, -0.10863201320171356, -0.08704868704080582, 0.06097983941435814, -0.04339662194252014, 0.11791212856769562, -0.08218225836753845, -0.19499392807483673, 0.08206731826066971, -0.06431563943624496 },
