/*
 * This file is auto-generated by gen-weights.py
 */

#pragma once

#include "definitions.h"


// Dense layer weights.
float dense_weights[FLAT_SIZE][DENSE_SIZE]
	 = {
			{ 0.23622576892375946, 0.1409735083580017, -0.2656395137310028, -0.14959923923015594, -0.13695774972438812, -0.07409712672233582, 0.10218334197998047, 0.03112131543457508, 0.011073748581111431, 0.26168468594551086 },
			{ 0.09625799208879471, 0.07444564998149872, -0.20266246795654297, -0.0486563965678215, -0.05562196671962738, -0.021214203909039497, 0.04001614823937416, 0.02500453218817711, 0.038296133279800415, 0.2924140691757202 },
			{ 0.015203630551695824, -0.05121434107422829, -0.10385371744632721, -0.12068266421556473, -0.036573994904756546, -0.04921837896108627, -0.06712546199560165, 0.007413795217871666, -0.04277540370821953, 0.15481100976467133 },
			{ 0.06712488830089569, -0.06167004257440567, 0.031258635222911835, -0.06404776126146317, -0.13367141783237457, -0.1400616616010666, -0.019155258312821388, -0.04816720262169838, 0.08522351086139679, 0.18788856267929077 },
			{ -0.047099769115448, 0.0787375345826149, -0.05032600089907646, -0.08261732757091522, -0.11000996083021164, -0.015096080489456654, 0.005919520277529955, -0.13525675237178802, -0.10883733630180359, 0.09598066657781601 },
			{ -0.07005350291728973, 0.12327365577220917, 0.03105444833636284, -0.052052658051252365, -0.1520932912826538, -0.13925541937351227, 0.034319594502449036, -0.06349010765552521, 0.021884506568312645, -0.012769567780196667 },
			{ 0.037133052945137024, 0.1467689573764801, 0.04740781709551811, -0.10860858857631683, -0.1186351627111435, -0.14352601766586304, -0.052441615611314774, -0.07474308460950851, -0.039517782628536224, -0.17529021203517914 },
			{ 0.08061867207288742, -0.03274282440543175, -0.07371919602155685, -0.017191629856824875, -0.07988225668668747, -0.04089152440428734, 0.13359470665454865, -0.08137035369873047, 0.05997541919350624, -0.07822620868682861 },
			{ 0.0749758780002594, 0.01194422971457243, -0.027853475883603096, -0.0958840623497963, -0.11010363698005676, -0.03712736442685127, 0.182999387383461, -0.03146190568804741, -0.0009231276344507933, -0.03968651965260506 },
			{ 0.023608986288309097, 0.02835257165133953, -0.07336260378360748, -0.2185286581516266, -0.08745594322681427, -0.179329052567482, 0.1140270084142685, -0.0655180960893631, 0.013101262040436268, -0.14268748462200165 },
			{ 0.11728298664093018, 0.02140275575220585, -0.1581469625234604, -0.29838329553604126, -0.061705026775598526, -0.022490471601486206, 0.1535002440214157, 0.03445879742503166, -0.0067666396498680115, -0.008293479681015015 },
			{ 0.1539723128080368, -0.027778934687376022, -0.16816973686218262, -0.33558031916618347, -0.09402112662792206, -0.10659827291965485, 0.11972621083259583, 0.026691436767578125, 0.06618502736091614, 0.1665492057800293 },
			{ 0.11988318711519241, -0.05000044032931328, -0.2158076912164688, -0.24191567301750183, -0.11399222165346146, -0.03370122238993645, 0.13825540244579315, -0.034470781683921814, 0.1313326507806778, 0.1845080554485321 },
			{ 0.1534317582845688, 0.021413112059235573, -0.20322075486183167, -0.24470160901546478, -0.09416027367115021, -0.029198620468378067, 0.16206413507461548, 0.12559127807617188, 0.14749348163604736, 0.28530704975128174 },
			{ 0.24233146011829376, 0.008694518357515335, -0.24107438325881958, -0.024482008069753647, -0.12956355512142181, -0.17154869437217712, 0.021851876750588417, -0.02236339822411537, -0.03366639092564583, 0.1897268444299698 },
			{ 0.1365206092596054, 0.027728836983442307, -0.03860096633434296, -0.0012022556038573384, -0.0846720039844513, -0.14720091223716736, 0.06425543874502182, -0.06188235804438591, -0.03959021344780922, 0.08034967631101608 },
			{ 0.11791067570447922, -0.1331615149974823, 0.04701058939099312, -0.02211332879960537, -0.1324843466281891, -0.1033371314406395, 0.044903311878442764, 0.022148024290800095, 0.03714718669652939, -0.08428221195936203 },
			{ 0.061908259987831116, -0.21165700256824493, 0.22747193276882172, -0.07895467430353165, -0.16989505290985107, -0.04365098103880882, -0.055291883647441864, -0.11437100172042847, 0.03608414903283119, -0.09606118500232697 },
			{ 0.05644938349723816, -0.14566823840141296, 0.06690213084220886, 0.06912433356046677, -0.028748231008648872, -0.01895579695701599, -0.10545085370540619, -0.07496780902147293, -0.1101035624742508, -0.09378199279308319 },
			{ 0.01924927905201912, -0.09558013081550598, 0.2648397386074066, 0.11288795620203018, -0.02093430608510971, -0.18630190193653107, -0.05749490112066269, -0.1758548468351364, 0.1093578189611435, -0.12442773580551147 },
			{ -0.10647258907556534, -0.1578710824251175, 0.2918704152107239, 0.015361391939222813, -0.30035075545310974, -0.19143785536289215, 0.16335178911685944, -0.07108906656503677, 0.055293094366788864, -0.25693708658218384 },
			{ 0.08051935583353043, -0.18491992354393005, 0.2738758623600006, -0.04299011081457138, -0.31164586544036865, -0.11271625012159348, 0.045276984572410583, -0.05654803290963173, 0.1630300134420395, -0.12015767395496368 },
			{ -0.11276896297931671, -0.054684896022081375, 0.1325364112854004, -0.24041493237018585, -0.16077372431755066, -0.1316280961036682, 0.34583738446235657, -0.13559553027153015, -0.19742906093597412, -0.16546247899532318 },
			{ -0.025515802204608917, -0.04317140951752663, -0.3573247790336609, -0.39107584953308105, 0.32675668597221375, 0.15820355713367462, 0.1480800360441208, -0.14298070967197418, -0.23445133864879608, -0.14812834560871124 },
			{ -0.10525723546743393, -0.06887113302946091, -0.3272857964038849, -0.4308958649635315, 0.18880394101142883, 0.3290267586708069, 0.013422396034002304, -0.08756919205188751, -0.15175260603427887, -0.17431586980819702 },
			{ -0.2353443205356598, 0.003370628459379077, -0.38982704281806946, -0.2752542197704315, -0.0603611133992672, 0.19177336990833282, 0.2172357738018036, -0.03292086347937584, -0.10141834616661072, 0.06410562992095947 },
			{ -0.06617459654808044, -0.20097032189369202, -0.35675475001335144, -0.28238990902900696, -0.17628881335258484, -0.01701398752629757, 0.24211503565311432, -0.06179012730717659, 0.04671507701277733, 0.14804354310035706 },
			{ 0.11997167766094208, -0.04405983164906502, 0.05577538162469864, -0.2722066342830658, -0.18790435791015625, -0.03204662352800369, -0.07859382778406143, -0.014529404230415821, 0.03355948626995087, 0.1409561038017273 },
			{ 0.0372556634247303, 0.13288895785808563, -0.12812374532222748, 0.19012688100337982, -0.2560691237449646, -0.2517034709453583, 0.05233646184206009, 0.02523375302553177, -0.028500642627477646, 0.03519532456994057 },
			{ -0.09524539858102798, 0.20347803831100464, 0.01392926275730133, -0.014540143311023712, -0.24726296961307526, -0.19927960634231567, 0.05865408107638359, 0.1691385805606842, -0.13993529975414276, -0.04996908828616142 },
			{ -0.03491998091340065, 0.003949740435928106, 0.04317222535610199, 0.07906544953584671, -0.11722300201654434, -0.2106063961982727, 0.04102085903286934, 0.09583725035190582, 0.06600942462682724, -0.05824819952249527 },
			{ 0.009762229397892952, -0.02642776630818844, 0.2287384420633316, 0.2246130108833313, -0.13397349417209625, -0.11060584336519241, -0.07738076150417328, -0.0312120970338583, -0.25823792815208435, -0.2478300780057907 },
			{ -0.2990124225616455, -0.09302618354558945, 0.33400213718414307, 0.21173813939094543, -0.050743468105793, -0.315083771944046, -0.08199991285800934, 0.05367879942059517, -0.18082909286022186, -0.3988009989261627 },
			{ -0.3276081681251526, -0.15049462020397186, 0.1512078493833542, 0.22911551594734192, 0.04758555814623833, -0.3060145676136017, -0.30454692244529724, -0.024708153679966927, -0.06463036686182022, -0.39214298129081726 },
			{ -0.11614740639925003, -0.11682241410017014, 0.07873112708330154, 0.30918896198272705, -0.22439515590667725, -0.05763377621769905, -0.09467330574989319, -0.11515036225318909, -0.14930382370948792, 0.1578768491744995 },
			{ -0.015542003326117992, -0.017639392986893654, 0.04479842633008957, 0.11818141490221024, -0.27862098813056946, 0.008482965640723705, -0.13136102259159088, 0.09511325508356094, -0.0813550353050232, 0.27447569370269775 },
			{ -0.09561844915151596, 0.03891120105981827, -0.04880024492740631, -0.10391687601804733, 0.031226711347699165, 0.06902825832366943, 0.08871866762638092, 0.0002732981229200959, -0.010053722187876701, 0.01895434595644474 },
			{ -0.21051347255706787, -0.08332252502441406, -0.008096353150904179, -0.23039963841438293, 0.15926648676395416, 0.13762539625167847, 0.005904914811253548, -0.3399600088596344, -0.0273615512996912, -0.05840257555246353 },
			{ -0.34957846999168396, -0.03110342100262642, -0.047902192920446396, -0.3212093114852905, 0.14900830388069153, 0.24515725672245026, 0.1796167939901352, -0.30696484446525574, 0.12294583022594452, -0.06875396519899368 },
			{ -0.23160579800605774, 0.0643794909119606, -0.4936388432979584, -0.4706118702888489, 0.28721556067466736, 0.18345129489898682, 0.04080595076084137, -0.11442653089761734, 0.06487810611724854, -0.4914878308773041 },
			{ -0.16860738396644592, -0.019397981464862823, -0.38945698738098145, -0.32474613189697266, 0.2448338121175766, 0.08898737281560898, -0.07330510020256042, -0.2948976457118988, 0.1782556027173996, -0.5301946401596069 },
			{ -0.13125458359718323, -0.0019245764706283808, -0.11737018078565598, -0.37414616346359253, 0.24338525533676147, 0.048097915947437286, -0.03937466815114021, -0.4072391390800476, -0.012470202520489693, -0.0032779453322291374 },
			{ -0.11968376487493515, 0.014757361263036728, -0.09841639548540115, 0.17234711349010468, -0.08250752836465836, -0.44966739416122437, 0.10317804664373398, 0.013804823160171509, -0.007176271639764309, -0.12721723318099976 },
			{ -0.0014950199984014034, 0.05491362512111664, -0.0013793326215818524, 0.13348890841007233, -0.03117448277771473, -0.061018262058496475, 0.025228045880794525, 0.08162172138690948, -0.11177236586809158, -0.17078973352909088 },
			{ -0.04880722239613533, 0.03708246722817421, 0.042870402336120605, 0.07453516125679016, -0.1771204024553299, -0.05772615969181061, 0.013142989948391914, 0.17284376919269562, -0.05824756249785423, -0.22371287643909454 },
			{ -0.1306133270263672, -0.04654592275619507, 0.17983394861221313, 0.22296102344989777, -0.031422652304172516, -0.1785510778427124, -0.1228807121515274, 0.21873164176940918, -0.10424613952636719, -0.5580072999000549 },
			{ -0.1563202142715454, 0.06512434780597687, 0.3138415515422821, 0.24291333556175232, -0.08307363837957382, -0.21363303065299988, -0.16564834117889404, 0.16111421585083008, -0.28643181920051575, -0.3044416904449463 },
			{ -0.22621405124664307, -0.0764308050274849, 0.17279909551143646, 0.15280835330486298, -0.22455550730228424, -0.241827130317688, -0.15935757756233215, 0.15301378071308136, -0.07826197147369385, 0.07160503417253494 },
			{ -0.14698025584220886, -0.13925673067569733, 0.03305460885167122, 0.1303935945034027, -0.422072172164917, -0.0977531373500824, -0.2351134717464447, 0.17420551180839539, -0.08208981156349182, 0.02803647331893444 },
			{ -0.016305092722177505, -0.18055053055286407, 0.1290990114212036, 0.10249540954828262, -0.5813837051391602, 0.1742258369922638, -0.10151664912700653, 0.09645365178585052, -0.10282785445451736, 0.01639355532824993 },
			{ -0.024694668129086494, -0.18741755187511444, 0.09225934743881226, -0.058937035501003265, -0.4450196623802185, 0.27679452300071716, 0.10964369028806686, 0.004069132264703512, -0.097236767411232, 0.03328258544206619 },
			{ -0.10895396023988724, -0.35297542810440063, -0.056617990136146545, -0.05598679929971695, -0.29411056637763977, 0.23618720471858978, 0.26762545108795166, -0.08253032714128494, -0.14135034382343292, 0.06404109299182892 },
			{ -0.1130349412560463, -0.27426227927207947, -0.16188140213489532, -0.17611177265644073, -0.13393595814704895, 0.30350297689437866, 0.09740502387285233, 0.024464784190058708, 0.05393962934613228, -0.14045463502407074 },
			{ -0.18413062393665314, -0.10160474479198456, -0.3899632394313812, -0.2768673002719879, 0.2778247594833374, 0.2903768718242645, 0.14252814650535583, -0.08269385993480682, 0.020343026146292686, -0.28444167971611023 },
			{ -0.07497590780258179, -0.10375800728797913, -0.13905549049377441, -0.2464589774608612, 0.1877414584159851, 0.1449243724346161, 0.13852277398109436, 0.1213240697979927, -0.036772239953279495, -0.2117752581834793 },
			{ -0.1660839319229126, -0.007818394340574741, -0.10314761102199554, -0.05701615661382675, 0.0433058962225914, 0.039315227419137955, 0.12277720123529434, -0.1924043446779251, -0.13843631744384766, -0.5209426283836365 },
			{ -0.20907218754291534, 0.00917663425207138, 0.006566726136952639, 0.023920897394418716, 0.01697041280567646, -0.32202112674713135, 0.17293059825897217, 0.09764742851257324, 0.08123309910297394, -0.1699565052986145 },
			{ -0.054855771362781525, 0.04058091714978218, -0.12382832914590836, 0.016336197033524513, 0.1173044815659523, -0.17308801412582397, -0.13125202059745789, 0.0700981393456459, 0.0732780322432518, -0.1353348344564438 },
			{ 0.0025303466245532036, 0.051771845668554306, -0.05883993208408356, 0.11515213549137115, 0.13559271395206451, -0.16027162969112396, -0.00992938969284296, -0.035093944519758224, -0.0008406202541664243, -0.09659803658723831 },
			{ -0.17748844623565674, -0.0669126808643341, 0.20085568726062775, 0.04484584927558899, 0.005304944701492786, -0.09551211446523666, -0.2730882167816162, 0.1254243701696396, -0.15488587319850922, -0.2010480910539627 },
			{ -0.12577316164970398, -0.05918797850608826, 0.152943953871727, 0.22403383255004883, -0.32703468203544617, -0.12333299219608307, -0.278099924325943, 0.18131746351718903, -0.13632869720458984, -0.15404871106147766 },
			{ -0.08455382287502289, 0.06524410098791122, 0.1734643131494522, 0.20800726115703583, -0.39391300082206726, -0.17046606540679932, -0.19787611067295074, 0.17967823147773743, -0.08988332003355026, -0.013766773976385593 },
			{ -0.0025324602611362934, 0.019656386226415634, 0.03917688503861427, 0.17595383524894714, -0.31145334243774414, -0.05462351441383362, -0.14218276739120483, 0.12452664226293564, -0.1556345522403717, -0.06560652703046799 },
			{ -0.07522106915712357, -0.18678006529808044, 0.06126797944307327, 0.019815949723124504, -0.1313198357820511, 0.09036508947610855, -0.008395565673708916, 0.20708000659942627, -0.07085996121168137, -0.03705429285764694 },
			{ -0.013031954877078533, -0.2067156434059143, 0.027318594977259636, 0.01244048960506916, -0.17692093551158905, 0.11105503141880035, 0.027104856446385384, 0.31506678462028503, -0.12770816683769226, -0.09811972081661224 },
			{ 0.04032616317272186, -0.28197258710861206, 0.0630476102232933, -0.005987132433801889, -0.41060808300971985, 0.19641660153865814, 0.030553769320249557, 0.0024800393730401993, 0.00615787273272872, -0.05451098084449768 },
			{ -0.033338405191898346, -0.07575765997171402, -0.05167007818818092, -0.26709097623825073, -0.21832464635372162, 0.30968552827835083, 0.1122865080833435, -0.01486093457788229, -0.01587444730103016, -0.02631830796599388 },
			{ -0.32735908031463623, -0.0636451467871666, -0.2602740228176117, -0.18545390665531158, 0.27412402629852295, 0.2193964421749115, -0.016191983595490456, 0.009041761048138142, 0.03852235525846481, -0.15486092865467072 },
			{ -0.0317472368478775, -0.03341323509812355, 0.05598101019859314, -0.21829693019390106, 0.1652286797761917, 0.19583696126937866, 0.04143073037266731, -0.09092913568019867, -0.10693520307540894, -0.03566703200340271 },
			{ 0.05288475379347801, -0.18416374921798706, -0.048360660672187805, -0.13981622457504272, 0.14370381832122803, 0.09653574228286743, -0.020460302010178566, -0.02141806297004223, -0.03395214304327965, -0.16400428116321564 },
			{ -0.12476951628923416, 0.05209758132696152, -0.16611480712890625, 0.10754824429750443, -0.11430098861455917, -0.24047750234603882, 0.02628197893500328, 0.015780799090862274, 0.03610163554549217, -0.05443874001502991 },
			{ -0.025015056133270264, -0.16133983433246613, -0.020280176773667336, -4.348780930740759e-05, 0.036295708268880844, -0.1918213665485382, 0.04765604808926582, 0.05128815397620201, 0.0928986594080925, -0.006230547558516264 },
			{ 0.0056670233607292175, -0.05056999623775482, 0.08556922525167465, 0.037823908030986786, -0.10583677887916565, 0.008299963548779488, -0.19111236929893494, 0.07476736605167389, -0.020737655460834503, 0.08445841073989868 },
			{ -0.1079937219619751, -0.11729902774095535, 0.1982869952917099, 0.011336138471961021, 0.02089007943868637, 0.04624708741903305, -0.2627028524875641, 0.14604783058166504, 0.02695113606750965, -0.163437619805336 },
			{ -0.07671361416578293, 0.05405224859714508, 0.28147435188293457, 0.17953172326087952, -0.16494661569595337, -0.003544365055859089, -0.2957075834274292, 0.09409772604703903, -0.11739272624254227, -0.12726251780986786 },
			{ 0.0384615920484066, 0.006129704415798187, 0.16844186186790466, 0.1449137032032013, -0.19760733842849731, -0.05646965652704239, -0.3039765954017639, 0.08315251022577286, -0.11935194581747055, -0.0698266476392746 },
			{ -0.10127625614404678, 0.10946737974882126, 0.06695833802223206, 0.20057348906993866, -0.10526195913553238, 0.07220800220966339, -0.2741628885269165, 0.14172789454460144, -0.2651367783546448, -0.023951126262545586 },
			{ 0.022206462919712067, -0.059144217520952225, 0.06474241614341736, 0.09946133196353912, -0.06754227727651596, 0.015179147943854332, -0.21066029369831085, 0.26106637716293335, -0.1991119384765625, -0.02451402135193348 },
			{ 0.006418950855731964, -0.1073266863822937, 0.022689927369356155, 0.024688541889190674, -0.20173978805541992, 0.05027754604816437, -0.005618217866867781, 0.18248185515403748, -0.06655067205429077, -0.06633442640304565 },
			{ -0.08576155453920364, -0.1744043529033661, 0.08090558648109436, 0.06830237060785294, -0.18674373626708984, 0.15047957003116608, 0.03814816474914551, 0.02915087155997753, -0.0023793322034180164, -0.05559854581952095 },
			{ -0.08442442864179611, 0.0017848589923232794, -0.0666474923491478, -0.058642081916332245, -0.09577086567878723, -0.029213977977633476, 0.07755172997713089, -0.01610071025788784, 0.1208156868815422, -0.007308464031666517 },
			{ -0.3863605558872223, -0.004158610478043556, 0.008803347125649452, 0.0702068880200386, -0.03141886368393898, 0.2207021415233612, -0.10392585396766663, 0.027434414252638817, 0.03368974104523659, -0.18487395346164703 },
			{ -0.21309860050678253, -0.030272336676716805, 0.02703605592250824, 0.020231671631336212, 0.07086591422557831, 0.24019959568977356, -0.13664206862449646, 0.018637409433722496, -0.07469446212053299, -0.23365338146686554 },
			{ -0.022694028913974762, 0.02597479335963726, 0.12716466188430786, -0.13803350925445557, -0.06860633939504623, 0.3265584409236908, -0.18924793601036072, -0.16961775720119476, -0.03153200447559357, -0.11400328576564789 },
			{ -0.20571783185005188, 0.04069903865456581, -0.08243928849697113, 0.07296350598335266, -0.18089133501052856, 0.021501749753952026, -0.033061254769563675, 0.16496063768863678, 0.020792696624994278, 0.05414646863937378 },
			{ -0.0722317099571228, -0.15087373554706573, 0.06621435284614563, -0.023397674784064293, -0.012399781495332718, -0.11607219278812408, 0.0137118399143219, 0.06394191831350327, 0.0878409594297409, 0.08329629898071289 },
			{ -0.0634617805480957, -0.07850207388401031, -0.0025362030137330294, 0.027689889073371887, 0.01678110659122467, 0.06963814795017242, -0.12286646664142609, 0.01258580107241869, 0.09942343831062317, 0.09109605848789215 },
			{ -0.23015569150447845, -0.07517432421445847, 0.008732082322239876, -0.018233908340334892, 0.08675076812505722, 0.09998412430286407, -0.15357647836208344, 0.016187140718102455, 0.08439610153436661, -0.023094484582543373 },
			{ -0.169241264462471, 0.05698876455426216, 0.18369002640247345, 0.01612705923616886, 0.025497039780020714, 0.06926912814378738, -0.3683384954929352, 0.11878619343042374, -0.044606029987335205, -0.11254896968603134 },
			{ -0.05692840367555618, 0.04614545404911041, 0.176314577460289, 0.06432722508907318, -0.11159369349479675, -0.00849247444421053, -0.2592041492462158, 0.23902714252471924, -0.21236036717891693, -0.05378544703125954 },
			{ -0.18077422678470612, 0.04988623410463333, 0.07296323776245117, 0.15925398468971252, 0.04444095119833946, 0.02139294706285, -0.3040403425693512, 0.15336699783802032, -0.2591038644313812, -0.011393141001462936 },
			{ -0.02176935411989689, -0.054268572479486465, -0.05117672309279442, 0.10108716040849686, 0.023150941357016563, 0.10757503658533096, -0.19939930737018585, -0.015524947084486485, -0.09632460027933121, 0.12869779765605927 },
			{ -0.0279119573533535, 0.02404656633734703, 0.02729083225131035, 0.030582472681999207, -0.23217085003852844, 0.09066186100244522, -0.06595563143491745, -0.028613882139325142, -0.06431577354669571, 0.02455621212720871 },
			{ -0.060461804270744324, 0.0609138086438179, -0.02030065283179283, 0.08659850805997849, -0.10706661641597748, 0.009201728738844395, 0.05260453745722771, 0.11580663919448853, 0.07512460649013519, -0.09272149205207825 },
			{ -0.16045735776424408, -0.019364137202501297, 0.05543893203139305, 0.07591158896684647, 0.14722910523414612, -0.0545637384057045, -0.03763711079955101, -0.06549952179193497, 0.03713986277580261, 0.0049302722327411175 },
			{ -0.18550263345241547, -0.10286574065685272, 0.15448686480522156, 0.014643018133938313, 0.094149149954319, 0.07526662200689316, -0.18804362416267395, -0.06870484352111816, 0.0448441207408905, 0.03929044306278229 },
			{ -0.10447372496128082, 0.04394278675317764, 0.16815997660160065, -0.17282754182815552, 0.019564881920814514, 0.020774703472852707, -0.20635537803173065, -0.2480889856815338, -0.006623053923249245, -0.04373067989945412 },
			{ -0.1552281379699707, 0.011684421449899673, 0.2228950560092926, -0.423475056886673, -0.08551158010959625, -0.061419494450092316, 0.09815436601638794, -0.14491793513298035, 0.10623131692409515, 0.05978766083717346 },
			{ -0.24715735018253326, 0.23399649560451508, -0.05313757807016373, -0.11635182052850723, 0.06424731016159058, -0.14018790423870087, -0.1819198578596115, 0.0814778208732605, 0.030596544966101646, 0.11274134367704391 },
			{ -0.060327909886837006, -0.0025898816529661417, -0.19691601395606995, -0.008315644226968288, 0.02362525835633278, -0.06527129560709, 0.08208686113357544, -0.022480269894003868, -0.03754138574004173, 0.11241230368614197 },
			{ -0.049263425171375275, -0.006609260104596615, -0.13763770461082458, -0.16131196916103363, 0.19729536771774292, 0.03477596119046211, -0.03425920382142067, -0.03307317942380905, 0.028553731739521027, 0.09462394565343857 },
			{ -0.08373799175024033, -0.11931124329566956, -0.2574297785758972, -0.013480264693498611, 0.13080336153507233, 0.18289616703987122, -0.0951596274971962, 0.062212422490119934, 0.013949387706816196, -0.08774657547473907 },
			{ -0.28073328733444214, -0.039220329374074936, -0.12790051102638245, -0.018280625343322754, 0.15515898168087006, 0.24795103073120117, -0.26133298873901367, 0.2674522399902344, 0.0003991271951235831, -0.056582387536764145 },
			{ -0.10701442509889603, 0.06743144989013672, -0.07641201466321945, 0.11044043302536011, 0.08474801480770111, 0.07062935084104538, -0.22852498292922974, 0.21782027184963226, -0.05396924167871475, -0.01120456587523222 },
			{ -0.218330979347229, 0.10542906820774078, -0.15568935871124268, 0.15623724460601807, 0.030507458373904228, 0.0038546649739146233, -0.14517590403556824, -0.02412484586238861, -0.12536197900772095, 0.1426793783903122 },
			{ -0.33773598074913025, -0.13569486141204834, -0.13000530004501343, 0.10689388960599899, -0.022084014490246773, 0.08341671526432037, -0.07993115484714508, -0.1908186674118042, 0.006984116043895483, 0.296752393245697 },
			{ -0.19590243697166443, 0.06138704717159271, -0.07564172893762589, 0.05868122726678848, 0.08507824689149857, -0.10214049369096756, -0.03167995810508728, -0.03425521403551102, -0.026180647313594818, 0.08854760974645615 },
			{ -0.1392122358083725, -0.011757709085941315, -0.010055097751319408, -0.05987747758626938, 0.07287736982107162, -0.12830135226249695, 0.04226071760058403, 0.09143354743719101, -0.024052083492279053, 0.13476720452308655 },
			{ 0.034431733191013336, -0.14719398319721222, 0.010234856978058815, 0.0162497628480196, 0.17558333277702332, -0.2662069797515869, -0.079201839864254, 0.019515812397003174, 0.20281921327114105, 0.08468480408191681 },
			{ -0.05021752417087555, -0.2018262892961502, 0.040443968027830124, -0.0283962395042181, 0.1037449911236763, -0.2826089859008789, 0.07916676253080368, -0.0219554640352726, 0.06316041201353073, 0.07166849076747894 },
			{ 0.036546431481838226, 0.13085290789604187, 0.37332606315612793, -0.36739370226860046, 0.039746515452861786, -0.23386089503765106, -0.08220288157463074, -0.12954315543174744, 0.11673885583877563, 0.017628710716962814 },
			{ -0.030242208391427994, 0.047901030629873276, 0.3288212716579437, -0.10329496115446091, -0.17596322298049927, -0.10994712263345718, 0.04676475003361702, -0.0027671458665281534, -0.08633203059434891, -0.26119208335876465 },
			{ -0.01095258817076683, 0.21925094723701477, -0.012589150108397007, -0.08393419533967972, 0.020961152389645576, -0.041252683848142624, -0.19891512393951416, -0.07908018678426743, -0.2807282507419586, -0.01714749075472355 },
			{ 0.0220700204372406, -0.03402815759181976, -0.049811314791440964, 0.02743087150156498, 0.08265181630849838, -0.00022115721367299557, 0.1510176658630371, -0.0350768081843853, -0.1244334802031517, 0.09097838401794434 },
			{ -0.02427012100815773, -0.0014806921826675534, -0.03574693202972412, -0.09045597910881042, 0.11497500538825989, 0.08465325087308884, 0.028426814824342728, -0.0008401023806072772, -0.1032843068242073, -0.09706548601388931 },
			{ -0.0764942616224289, 0.03427864611148834, -0.08782568573951721, 0.11123654991388321, 0.09877289086580276, 0.04451904445886612, 0.001256300718523562, 0.06870473921298981, -0.1542966067790985, -0.03147956728935242 },
			{ -0.06095834821462631, 0.018927959725260735, -0.05015989765524864, 0.13651849329471588, -0.021615808829665184, 0.13563738763332367, -0.1823328286409378, 0.25794824957847595, -0.1970043182373047, -0.12106823921203613 },
			{ -0.3177139163017273, 0.09852945804595947, 0.01579289138317108, 0.12665899097919464, -0.008155547082424164, 0.08405198901891708, -0.2427297830581665, 0.08428693562746048, -0.10529884696006775, 0.03750975430011749 },
			{ -0.33698663115501404, 0.0035940958186984062, 0.08241581916809082, 0.14991170167922974, -0.02264535240828991, -0.05323201045393944, -0.27209147810935974, -0.19274874031543732, -0.060514044016599655, 0.0985073372721672 },
			{ -0.3122088313102722, 0.018664047122001648, -0.06378629058599472, 0.04529231786727905, 0.035089004784822464, -0.15744657814502716, -0.04887020215392113, -0.046062834560871124, -0.004672180395573378, 0.12134639173746109 },
			{ -0.03171922639012337, 0.08299051225185394, -0.025775538757443428, 0.02791043184697628, 0.1350139081478119, -0.055175263434648514, 0.024160068482160568, 0.05008372664451599, -0.07171044498682022, 0.03376515582203865 },
			{ 0.06623391807079315, -0.2596120238304138, -0.010278195142745972, -0.08129912614822388, 0.08058664202690125, -0.1236865222454071, -0.1112997829914093, -0.0012952841352671385, 0.014586817473173141, 0.10576851665973663 },
			{ 0.07482133060693741, -0.2960008382797241, -0.04049418121576309, -0.0962744653224945, 0.09863200038671494, -0.2170320302248001, 0.015294291079044342, 0.0744667500257492, 0.07544378936290741, -0.20657263696193695 },
			{ -0.004134203772991896, 0.12951447069644928, 0.11242416501045227, -0.17214979231357574, 0.02404009737074375, -0.2636678218841553, -0.015559384599328041, 0.14227668941020966, -0.07039090245962143, -0.16650380194187164 },
			{ -0.016703661531209946, 0.04080277681350708, 0.31645944714546204, -0.24216347932815552, -0.05794429033994675, -0.19819220900535583, 0.10161326080560684, 0.04929465800523758, -0.17341366410255432, -0.16880550980567932 },
			{ 0.0445520356297493, -0.03422371298074722, 0.17682568728923798, -0.11338293552398682, 0.03775126114487648, -0.06357189267873764, -0.0046598599292337894, -0.06743109226226807, -0.0447007454931736, -0.25886106491088867 },
			{ -0.060066260397434235, -0.16566817462444305, 0.07203185558319092, 0.0540497712790966, -0.019706327468156815, -0.1884453147649765, -0.10820025950670242, -0.06603929400444031, -0.14137044548988342, -0.07750043272972107 },
			{ 0.08048860728740692, -0.14610053598880768, -0.04931457340717316, 0.05481208115816116, 0.028804481029510498, 0.06517897546291351, 0.008778372779488564, -0.016166605055332184, -0.13775360584259033, -0.07845932245254517 },
			{ 0.08913924545049667, -0.07765337824821472, -0.032552849501371384, -0.0036512610968202353, 0.05323869362473488, -0.012071412056684494, 0.09110486507415771, 0.020164424553513527, -0.03960393741726875, -0.0524684339761734 },
			{ -0.049368325620889664, -0.023967647925019264, -0.010752188973128796, 0.0047823842614889145, 0.04452575370669365, 0.1323128342628479, -0.015744401142001152, 0.0738464817404747, -0.17552945017814636, -0.07472090423107147 },
			{ -0.03368779644370079, -0.0029667778871953487, -0.031156299635767937, 0.05998900160193443, -0.006822918076068163, 0.11252808570861816, 0.0013836986618116498, 0.09738999605178833, -0.20949901640415192, -0.02116509899497032 },
			{ -0.07627523690462112, 0.09306038171052933, 0.04344193637371063, 0.10604526847600937, 0.0662505179643631, 0.13508684933185577, -0.06600520014762878, -0.07325167208909988, -0.19914424419403076, 0.07449515163898468 },
			{ -0.13912507891654968, 0.1670539826154709, 0.0861196294426918, 0.052861329168081284, -0.10707059502601624, -0.0039361934177577496, -0.10861004889011383, -0.08168070018291473, -0.09324491024017334, 0.12396299839019775 },
			{ 0.10382545739412308, -0.01592080667614937, 0.10284319519996643, 0.035941995680332184, 0.07811293751001358, -0.11308830976486206, 0.08286726474761963, -0.020368970930576324, -0.14607200026512146, 0.12233257293701172 },
			{ 0.05276571959257126, -0.09326160699129105, 0.022826360538601875, 0.021718323230743408, -0.0006385477026924491, -0.10638675093650818, 0.030993787571787834, 0.06280653923749924, -0.13195548951625824, 0.09353285282850266 },
			{ 0.07920227199792862, -0.30621853470802307, -0.061044711619615555, 0.0101566007360816, 0.008732461370527744, -0.1744348108768463, 0.11614503711462021, -0.005339188501238823, -0.14028313755989075, -0.011738985776901245 },
			{ 0.04948900640010834, -0.10033657401800156, 0.14717698097229004, -0.15821915864944458, 0.10820458084344864, -0.1577187031507492, 0.12394747138023376, 0.10220082849264145, -0.011980337090790272, -0.06634225696325302 },
			{ 0.11378779262304306, 0.08336188644170761, 0.2066752165555954, -0.08519534021615982, 0.13025696575641632, -0.09453841298818588, 0.053276196122169495, 0.03545186668634415, -0.09547579288482666, -0.09927324950695038 },
			{ 0.14929832518100739, 0.007158713880926371, 0.17459383606910706, -0.12088657915592194, -0.0026319234166294336, -0.17793945968151093, -0.032934464514255524, -0.0007632060442119837, -0.07840338349342346, -0.19401520490646362 },
			{ -0.019669059664011, -0.05108415335416794, 0.15172521770000458, -0.10157324373722076, -0.11201462149620056, -0.041062045842409134, -0.09699239581823349, -0.005897367373108864, 0.08447659015655518, -0.05097416415810585 },
			{ -0.04065574333071709, 0.025009313598275185, 0.1320621371269226, 0.07065652310848236, -0.09213952720165253, -0.20102465152740479, -0.011748888529837132, -0.03436793014407158, -0.11365799605846405, -0.1848026067018509 },
			{ 0.046376053243875504, -0.024073204025626183, 0.11950022727251053, -0.028363153338432312, -0.049624111503362656, -0.04844952002167702, 0.041659049689769745, -0.05639532580971718, 0.009429261088371277, -0.180462047457695 },
			{ 0.12056532502174377, -0.07249943912029266, 0.06003184989094734, -0.04815555736422539, 0.04971858859062195, -0.005013998132199049, 0.03950895741581917, -0.03199596703052521, -0.034867364913225174, -0.1644914299249649 },
			{ 0.11445698887109756, 0.057198356837034225, 0.07216145843267441, -0.007053581532090902, -0.03437722101807594, 0.005585160106420517, 0.013278860598802567, -0.0013862996129319072, -0.0765102282166481, -0.03092220053076744 },
			{ -0.0006438337732106447, 0.1386834681034088, 0.11751307547092438, 0.03321635723114014, -0.09791158884763718, 0.06929892301559448, -0.030886473134160042, -0.10481835901737213, -0.1325746774673462, -0.07300089299678802 },
			{ 0.0068281409330666065, 0.06797908246517181, 0.04293365776538849, 0.14368881285190582, -0.15381598472595215, 0.05012395977973938, 0.07313545793294907, -0.16820448637008667, -0.13359549641609192, 0.013263212516903877 },
			{ -0.11615969985723495, 0.0324673056602478, -0.0021278979256749153, 0.08690682798624039, -0.15410660207271576, 0.01018537301570177, 0.028561504557728767, -0.1441262811422348, -0.1857384890317917, 0.030587518587708473 },
			{ 0.040958061814308167, -0.033881790935993195, -0.05005721002817154, -0.050691619515419006, 0.008665208704769611, -0.014984202571213245, -0.008304775692522526, 0.03913953900337219, -0.16417863965034485, -0.07634398341178894 },
			{ 0.006782527081668377, -0.10316222906112671, 0.0011607185006141663, 0.18195651471614838, -0.07783286273479462, -0.06989789754152298, -0.0107189966365695, -0.12247926741838455, -0.0034019516315311193, -0.13670526444911957 },
			{ -0.02991810254752636, -0.044546738266944885, 0.07365956157445908, 0.017916761338710785, 0.0007485817768611014, -0.08621051162481308, 0.05926359072327614, -0.16876424849033356, -0.05753667652606964, -0.12072751671075821 },
			{ 0.07891504466533661, 0.07671558856964111, 0.21104979515075684, -0.14257319271564484, -0.10259384661912918, -0.039395298808813095, 0.04509210214018822, -0.10322967171669006, 0.007423182483762503, -0.06946336477994919 },
			{ 0.18269117176532745, 0.13553063571453094, 0.08480783551931381, -0.07797224819660187, 0.048879414796829224, -0.11374538391828537, -0.04513763636350632, 0.036980193108320236, -0.0708565041422844, -0.011222668923437595 },
			{ 0.01381075568497181, 0.01889326609671116, 0.0267909225076437, 0.02445279061794281, 0.05893266573548317, 0.05885299667716026, -0.10502070188522339, -0.04805888235569, -0.062303606420755386, 0.07953885197639465 },
			{ -0.04917697608470917, 0.1817653775215149, -0.045649636536836624, -0.03426218032836914, -0.1027652844786644, -0.11711198091506958, 0.020644407719373703, -0.08720774948596954, -0.10455070436000824, 0.25672128796577454 },
			{ 0.10725568234920502, 0.05336959287524223, 0.13713805377483368, 0.01384884212166071, -0.13411018252372742, -0.07810183614492416, -0.011856872588396072, -0.28059709072113037, -0.005478220526129007, -0.06907802820205688 },
			{ 0.07028757780790329, 0.049226853996515274, 0.08507898449897766, 0.016103146597743034, 0.03935246914625168, -0.03701050952076912, -0.09910202771425247, 0.035544827580451965, 0.05982644483447075, -0.16438859701156616 },
			{ 0.057416025549173355, 0.034127552062273026, 0.1305214762687683, -0.04142668843269348, 0.030519552528858185, -0.029153315350413322, -0.05640324950218201, 0.021345756947994232, 0.09726627171039581, -0.17145447432994843 },
			{ 0.01928221993148327, 0.13528868556022644, 0.035420142114162445, -0.1624920666217804, 0.0508456826210022, -0.13099877536296844, 0.06203576922416687, -0.026886679232120514, -0.013376351445913315, -0.13786259293556213 },
			{ 0.12367315590381622, 0.11234279721975327, 0.022315388545393944, -0.10458777844905853, -0.039506904780864716, -0.06423059850931168, -0.0636034905910492, 0.03563813120126724, 0.021773748099803925, -0.07765021175146103 },
			{ 0.004969592671841383, 0.09468559920787811, 0.13759896159172058, 0.05267602950334549, -0.021431636065244675, 0.044196028262376785, 0.05699988454580307, -0.010812879540026188, -0.036658380180597305, -0.09677891433238983 },
			{ -0.06339762359857559, -0.04816544055938721, 0.03533434122800827, 0.06070961058139801, -0.017993001267313957, 0.07976380735635757, 0.10562685132026672, 0.04011411964893341, 0.0021631086710840464, 0.02217762917280197 },
			{ -0.034647442400455475, -0.05764544755220413, 0.0681476816534996, 0.08306242525577545, 0.03366204351186752, 0.04568013548851013, 0.069550521671772, -0.17414218187332153, 0.041740793734788895, -0.1325349658727646 },
			{ 0.0464150533080101, 0.012110244482755661, 0.07339450716972351, 0.13497522473335266, -0.19639377295970917, 0.06394534558057785, 0.02845504693686962, -0.21924766898155212, 0.06224771961569786, -0.15232302248477936 },
			{ 0.01645834743976593, 0.09534269571304321, 0.0551823154091835, -0.017553770914673805, -0.10089164972305298, -0.07328907400369644, 0.03143377974629402, -0.21399925649166107, 0.009866490960121155, -0.13278186321258545 },
			{ -0.007834294810891151, 0.12361560761928558, 0.11393392086029053, -0.055850908160209656, 0.00884759146720171, 0.015461945906281471, 0.0023799289483577013, -0.2032371610403061, -0.0061421445570886135, -0.06268954277038574 },
			{ 0.09949322044849396, 0.04662748798727989, -0.02253119833767414, -0.06251651048660278, 0.10665419697761536, 0.030226241797208786, -0.037511181086301804, -0.09698182344436646, 0.08399784564971924, -0.0783783495426178 },
			{ 0.06221214681863785, -0.06157431751489639, -0.09941796213388443, -0.15442673861980438, 0.22304667532444, 0.03816984221339226, -0.03146340325474739, -0.1476018875837326, 0.019876651465892792, 0.07655701786279678 },
			{ -0.04087820649147034, -0.07126042991876602, 0.054346922785043716, -0.11869290471076965, 0.05249623581767082, -0.027549641206860542, -0.2054608166217804, -0.37676969170570374, 0.08032653480768204, 0.1944080889225006 },
			{ 0.06871645897626877, 0.11562730371952057, 0.17013207077980042, 0.008470295928418636, -0.2709329128265381, -0.0616641603410244, -0.19213855266571045, 0.05018637701869011, -0.13022971153259277, -0.011199917644262314 },
			{ 0.13682764768600464, -0.009329025633633137, -0.05771089717745781, 0.011029097251594067, 0.012401724234223366, 0.04876581206917763, -0.2330058068037033, 0.07671999931335449, 0.1105213612318039, -0.14483954012393951 },
			{ 0.08501726388931274, 0.07121316343545914, -0.08637983351945877, -0.029363127425312996, 0.030005959793925285, -0.020976249128580093, -0.12205124646425247, 0.1347145140171051, 0.00367915746755898, -0.019211405888199806 },
			{ 0.12303265929222107, 0.10095865279436111, 0.0329766571521759, 0.029285069555044174, 0.01909232698380947, -0.07358735799789429, 0.01213716808706522, 0.07455427199602127, 0.048592016100883484, -0.07040736079216003 },
			{ -0.011245195753872395, 0.07045407593250275, 0.029185671359300613, 0.08751266449689865, -0.062008533626794815, 0.02256348542869091, -0.04817977547645569, 0.05264979973435402, -0.05900726094841957, 0.06459781527519226 },
			{ 0.010246498510241508, -0.03470788523554802, 0.046033333986997604, -0.006794346496462822, 0.016187245026230812, 0.08373573422431946, 0.04540783911943436, -0.01981392316520214, -0.09261608123779297, 0.05210329592227936 },
			{ -0.052817657589912415, -0.090240478515625, 0.03353113681077957, 0.12424937635660172, -0.0608072355389595, -0.003554367460310459, -0.04720224067568779, -0.04853484779596329, 0.03667346015572548, 0.008773150853812695 },
			{ -0.01226296927779913, -0.04284064099192619, 0.10515144467353821, 0.13389897346496582, -0.05638536065816879, 0.02475118450820446, -0.014651639387011528, -0.05006091296672821, 0.052341632544994354, -0.08949576318264008 },
			{ 0.04531020671129227, -0.05587906017899513, 0.18640001118183136, 0.14786291122436523, -0.14941933751106262, 0.13173945248126984, -0.08651121705770493, -0.0581347718834877, 0.04530235752463341, -0.03534870222210884 },
			{ 0.06621557474136353, 0.059290677309036255, 0.15041577816009521, 0.0202875304967165, -0.03861140087246895, -0.006740505341440439, 0.0605292022228241, -0.07896774262189865, 0.06944574415683746, -0.12322652339935303 },
			{ 0.10893126577138901, 0.036279384046792984, 0.008066738955676556, 0.08499632030725479, 0.04795438423752785, 0.1385456919670105, -0.02766433171927929, -0.1660819798707962, 0.055612314492464066, 0.02850869856774807 },
			{ -0.01696074940264225, -0.02762266993522644, -0.17995601892471313, -0.08695069700479507, -0.09329821169376373, 0.02803567238152027, 0.031332552433013916, -0.16911382973194122, 0.062247950583696365, 0.15208643674850464 },
			{ -0.07806631177663803, 0.18362484872341156, -0.18391050398349762, -0.16878637671470642, 0.026735559105873108, 0.10886699706315994, -0.2364715188741684, -0.3392869830131531, 0.044399041682481766, 0.08590643107891083 },
			{ -0.12803104519844055, -0.29702579975128174, -0.11709199100732803, 0.01113995909690857, 0.13372424244880676, 0.03982221335172653, -0.3184141218662262, -0.361793577671051, 0.14084786176681519, 0.032029278576374054 },
			{ -0.1417820155620575, -0.25325098633766174, -0.28528785705566406, 0.08843931555747986, -0.23235709965229034, -0.0037821209989488125, 0.037692517042160034, 0.16699722409248352, -0.31390663981437683, 0.2284422218799591 },
			{ -0.16576848924160004, -0.10967046022415161, -0.14937542378902435, 0.03771662712097168, -0.12008361518383026, 0.07700822502374649, -0.24670660495758057, 0.154587984085083, -0.12821224331855774, 0.03504148870706558 },
			{ -0.08975794166326523, 0.060811445116996765, -0.09225163608789444, 0.041604410856962204, -0.07963710278272629, -0.17595301568508148, -0.26974040269851685, 0.21676108241081238, -0.013307670131325722, 0.14345227181911469 },
			{ 0.006960627157241106, 0.070892833173275, -0.11222975701093674, 0.0543438121676445, -0.0905299186706543, -0.01808430626988411, -0.18105058372020721, 0.06353380531072617, -0.14274992048740387, 0.1240530014038086 },
			{ -0.11342698335647583, 0.03976354002952576, -0.2093733847141266, 0.18376585841178894, 0.027073798701167107, 0.04879181459546089, -0.08040336519479752, 0.05492088198661804, -0.0628945454955101, 0.11042413115501404 },
			{ -0.25815942883491516, -0.09226246178150177, -0.194889634847641, 0.15016959607601166, -0.04283326119184494, 0.003716093488037586, -0.09513705223798752, 0.03162873908877373, -0.09681465476751328, 0.022953398525714874 },
			{ -0.313832551240921, -0.05349661782383919, -0.036227997392416, 0.1335754245519638, -0.2361857146024704, 0.003911681938916445, 0.03590128943324089, -0.08231659233570099, 0.08653885126113892, 0.08164990693330765 },
			{ -0.21332259476184845, -0.17325814068317413, -0.07864567637443542, 0.21999557316303253, -0.0898621678352356, 0.11207360029220581, -0.024462975561618805, -0.04207339137792587, 0.05830737203359604, -0.07973131537437439 },
			{ -0.17108656466007233, -0.1272560954093933, 0.006785286124795675, 0.238994300365448, -0.08488515764474869, 0.18939203023910522, -0.09856722503900528, -0.15449178218841553, 0.16685648262500763, 0.019995536655187607 },
			{ -0.08769918978214264, -0.05509522557258606, -0.16736529767513275, 0.09268764406442642, -0.17298099398612976, 0.18186485767364502, 0.013300103135406971, -0.06701602786779404, 0.06196656823158264, 0.0831506997346878 },
			{ -0.18798379600048065, -0.12755665183067322, -0.11807367950677872, 0.06722240149974823, -0.24774301052093506, 0.12420656532049179, -0.045714717358350754, -0.06255964934825897, 0.0947132483124733, 0.06413295120000839 },
			{ -0.16791297495365143, -0.37659764289855957, -0.2595471739768982, 0.16181986033916473, -0.24374571442604065, 0.1961827278137207, -0.3382343053817749, -0.043540772050619125, -0.04165298119187355, -0.020781660452485085 },
			{ -0.23144356906414032, 0.035518258810043335, -0.17655250430107117, -0.15279139578342438, -0.17073510587215424, 0.13239943981170654, -0.1681303232908249, 0.06436484307050705, -0.27748292684555054, 0.11072526127099991 },
			{ 0.03563547134399414, -0.0031619053333997726, -0.21825364232063293, -0.22137406468391418, 0.1667301207780838, 0.04558764398097992, -0.002116886666044593, -0.04445812106132507, -0.31531041860580444, -0.07126789540052414 },
			{ -0.012387282215058804, 0.12276756018400192, -0.015798218548297882, -0.02456315979361534, -0.06853096932172775, 0.1645554006099701, -0.06361261010169983, 0.12071765959262848, -0.29592669010162354, -0.05616899952292442 },
			{ -0.07816978543996811, 0.11179230362176895, 0.11491753160953522, 0.12528803944587708, -0.151520237326622, 0.13651162385940552, 0.1398332566022873, 0.0524543896317482, -0.19039779901504517, -0.06795856356620789 },
			{ 0.004078398458659649, 0.034416183829307556, 0.14455384016036987, 0.04773355647921562, -0.32180294394493103, 0.01979612372815609, 0.20924906432628632, -0.03947991505265236, -0.03792424499988556, -0.06076155602931976 },
			{ -0.06303982436656952, -0.08435063809156418, 0.17809496819972992, -0.02485649101436138, -0.35039496421813965, -0.08706843107938766, 0.14834406971931458, -0.1464081108570099, -0.033998094499111176, -0.1927732676267624 },
			{ -0.1378975659608841, -0.05662437528371811, 0.10291565954685211, -0.054805658757686615, -0.32727527618408203, 0.046500880271196365, 0.25677719712257385, -0.18684393167495728, -0.10920032858848572, -0.11122873425483704 },
			{ -0.16767066717147827, -0.0006085275090299547, 0.09383014589548111, -0.005372760817408562, -0.0655173510313034, -0.03791132569313049, 0.07385548949241638, -0.07128315418958664, -0.06207368150353432, -0.04903538525104523 },
			{ -0.2034062147140503, 0.005264789331704378, 0.02005002833902836, 0.07852816581726074, -0.09314121305942535, -0.024873977527022362, 0.12935319542884827, -0.189859077334404, -0.00828564167022705, -0.25070813298225403 },
			{ -0.016675984486937523, 0.04897606372833252, -0.0664232075214386, 0.06534802913665771, -0.32137396931648254, 0.04858717322349548, 0.13482137024402618, -0.21558250486850739, 0.0717359259724617, -0.25416722893714905 },
			{ -0.04781665652990341, 0.05942564830183983, -0.145478755235672, -0.15922656655311584, -0.155622199177742, 0.026573333889245987, 0.21939021348953247, -0.17503340542316437, -0.09431222826242447, -0.3523236811161041 },
			{ -0.11424891650676727, 0.036523155868053436, -0.04126206785440445, -0.3270111083984375, 0.09889639914035797, -0.03793410584330559, 0.23269180953502655, -0.002158518647775054, -0.039299704134464264, -0.31178048253059387 },
			{ -0.11443228274583817, -0.01792547106742859, 0.11739122867584229, -0.13544335961341858, -0.2297397255897522, -0.037812136113643646, -0.04704377427697182, 0.03247308358550072, 0.036949895322322845, -0.16536827385425568 },
			{ -0.01608080230653286, 0.0900915116071701, -0.11217541992664337, -0.004136768169701099, -0.24719859659671783, 0.3258175849914551, 0.11230634152889252, -0.06879155337810516, -0.2057657390832901, -0.17200013995170593 },
			{ -0.08625813573598862, -0.03220101818442345, 0.060831982642412186, 0.034267593175172806, -0.1162199154496193, 0.14888830482959747, 0.08484799414873123, 0.04779408872127533, -0.003929880913347006, -0.17406757175922394 },
			{ 0.0005596712580882013, 0.05044076219201088, -0.01175377145409584, -0.07217584550380707, -0.15681937336921692, 0.03568271920084953, 0.0807424858212471, 0.0062944614328444, -0.17670756578445435, -0.0824856236577034 },
			{ -0.16283665597438812, 0.12005318701267242, 0.06059207767248154, 0.10070129483938217, -0.12097194045782089, 0.01398433092981577, 0.1321856528520584, -0.04053497314453125, -0.3157959282398224, -0.13878779113292694 },
			{ -0.12456447631120682, 0.14233613014221191, -0.12303942441940308, 0.03629563748836517, -0.02605903521180153, 0.07104993611574173, 0.14013166725635529, 0.0347149558365345, -0.14508680999279022, -0.17103224992752075 },
			{ -0.13035203516483307, -0.05089503526687622, -0.022740337997674942, -0.07647499442100525, 0.002560966182500124, -0.007280349265784025, 0.03333846479654312, 0.08680997788906097, -0.029592445120215416, -0.11670093238353729 },
			{ -0.07733619958162308, -0.005269720684736967, -0.04034994915127754, -0.022295067086815834, -0.12991046905517578, -0.028981516137719154, 0.11190285533666611, -0.07610087096691132, 0.09670904278755188, -0.04107275232672691 },
			{ -0.12967529892921448, 0.03971048444509506, -0.009190230630338192, 0.03779301792383194, 0.018585816025733948, -0.0770009383559227, 0.038566458970308304, 0.05949489399790764, 0.0809517502784729, -0.10366784036159515 },
			{ -0.012555395253002644, 0.05205091834068298, -0.11757190525531769, 0.0026810546405613422, 0.08524169772863388, -0.095292828977108, 0.10917048156261444, -0.07260119169950485, 0.04726066067814827, -0.13268233835697174 },
			{ 0.0019846570212394, 0.0965777337551117, -0.06660234183073044, 0.04173342138528824, 0.1396041363477707, -0.02334984578192234, 0.22651813924312592, -0.1837264746427536, -0.03622306138277054, -0.2956853210926056 },
			{ -0.05104928836226463, 0.09521164000034332, -0.16483530402183533, -0.14419831335544586, 0.10864517837762833, -0.032416507601737976, 0.15734374523162842, -0.2996993064880371, 0.10066867619752884, -0.1350509524345398 },
			{ -0.016285009682178497, 0.2500789761543274, -0.24138081073760986, -0.29236823320388794, 0.2913475036621094, -0.07287079840898514, 0.1404833346605301, -0.3248082995414734, 0.12342987954616547, -0.3020695447921753 },
			{ -0.04647138714790344, 0.29723870754241943, -0.2300475388765335, -0.412402868270874, 0.3553731441497803, 0.006547334138303995, 0.09018804877996445, -0.19596105813980103, -0.037305764853954315, -0.3452530801296234 },
			{ -0.16427366435527802, 0.16684909164905548, -0.08696886897087097, -0.23797011375427246, 0.15727582573890686, 0.26302051544189453, -0.10793386399745941, -0.16011449694633484, 0.04269258305430412, -0.1187358871102333 },
			{ -0.0627826377749443, 0.12948983907699585, -0.1723371297121048, -0.10165315866470337, 0.14648094773292542, 0.13685813546180725, 0.03150194138288498, -0.20949840545654297, -0.04474601894617081, -0.3244645297527313 },
			{ -0.0748007744550705, 0.10388652980327606, -0.017029698938131332, -0.03380029276013374, 0.03424378111958504, -0.08560995757579803, -0.08775613456964493, 0.02293766848742962, 0.15324142575263977, -0.06219474598765373 },
			{ -0.015590124763548374, 0.1615547090768814, 0.09316239506006241, 0.07095380872488022, 0.01888902857899666, 0.18397562205791473, 0.01978594809770584, -0.21132469177246094, -0.16348057985305786, -0.28803446888923645 },
			{ -0.24849562346935272, 0.17339849472045898, 0.012206383049488068, 0.15218180418014526, -0.15883398056030273, -0.09958036988973618, 0.21739259362220764, -0.0558045469224453, -0.14694619178771973, -0.1931736320257187 },
			{ -0.09527819603681564, 0.04658554121851921, -0.12468447536230087, -0.02660953626036644, 0.05073724687099457, -0.06591062247753143, -0.0016043392242863774, 0.02520824782550335, -0.05483993515372276, -0.1619250625371933 },
			{ -0.08211884647607803, -0.0464814119040966, -0.04937629774212837, -0.05181770399212837, 0.004609290510416031, 0.07517584413290024, 0.06721816211938858, 0.0994364470243454, 0.07737227529287338, -0.002479689661413431 },
			{ -0.12508462369441986, -0.16598942875862122, -0.07858198881149292, -0.18067510426044464, 0.07633239775896072, 0.07894182205200195, 0.20579993724822998, 0.00034835305996239185, 0.13276709616184235, 0.022866379469633102 },
			{ -0.0458235926926136, -0.05580964684486389, -0.09180079400539398, -0.07549186795949936, 0.21829122304916382, -0.006726376712322235, 0.16329222917556763, 0.006644580978900194, 0.08328092098236084, -0.03270472213625908 },
			{ -0.09770513325929642, 0.12522143125534058, -0.07347128540277481, -0.11237616091966629, 0.205330491065979, 0.0012233540182933211, 0.1677270382642746, -0.1593177616596222, 0.07879655063152313, -0.10817812383174896 },
			{ -0.07204443961381912, 0.16908961534500122, -0.03873703256249428, -0.15572436153888702, 0.30970415472984314, -0.16459202766418457, 0.177231565117836, -0.32061946392059326, -0.07911379635334015, -0.08190273493528366 },
			{ 0.008155174553394318, 0.23413603007793427, -0.08782877027988434, -0.177145317196846, 0.44091254472732544, -0.244062140583992, 0.15609611570835114, -0.2509971559047699, -0.23475714027881622, -0.27648788690567017 },
			{ -0.1971253752708435, 0.41921305656433105, -0.22244514524936676, -0.012887879274785519, 0.48344501852989197, -0.36073610186576843, 0.026285646483302116, -0.27983182668685913, -0.1617230772972107, -0.25148993730545044 },
			{ -0.18601317703723907, 0.32003214955329895, -0.1855088174343109, -0.020706411451101303, 0.42316246032714844, -0.06931743025779724, -0.06325652450323105, -0.12758763134479523, -0.23774710297584534, -0.25812387466430664 },
			{ -0.319400429725647, 0.09562761336565018, -0.06468135118484497, -0.08452685922384262, 0.4117431044578552, 0.09212549775838852, -0.3828321397304535, 0.2177523821592331, -0.058357302099466324, -0.2328374981880188 },
			{ -0.12828022241592407, 0.07762249559164047, -0.01486261561512947, 0.06912367790937424, 0.1965634524822235, 0.05791570246219635, -0.12714314460754395, 0.05396954342722893, -0.017550112679600716, -0.12155381590127945 },
			{ -0.07748892903327942, 0.17494410276412964, 0.22549353539943695, 0.04213002324104309, -0.01637308858335018, -0.0994911938905716, -0.10835085809230804, 0.16726253926753998, -0.05989396572113037, 0.061777569353580475 },
			{ 0.1324857771396637, 0.19275741279125214, -0.033460766077041626, 0.13574281334877014, -0.061502065509557724, -0.058656688779592514, -0.06662888824939728, 0.005534857511520386, -0.034936871379613876, -0.23250892758369446 },
			{ -0.20716196298599243, 0.03526211529970169, 0.016875656321644783, 0.10524913668632507, -0.12468110024929047, -0.1420620232820511, 0.1862981915473938, -0.07761357724666595, -0.12356540560722351, -0.059147074818611145 },
			{ -0.05114058777689934, -0.0598149448633194, -0.08008096367120743, -0.09020021557807922, -0.08289793878793716, 0.018178071826696396, -0.0012944526970386505, -0.027868635952472687, 0.08214296400547028, -0.015343994833528996 },
			{ -0.014451094903051853, -0.012332271784543991, -0.167715385556221, -0.06654470413923264, -0.04710016027092934, 0.0831938236951828, -0.009780112653970718, -0.07472776621580124, 0.010278221219778061, 0.10032778233289719 },
			{ -0.09368821978569031, -0.144287109375, -0.0664457306265831, -0.26909926533699036, 0.1537950485944748, 0.02287791483104229, 0.13566087186336517, -0.11391245573759079, 0.08011996746063232, 0.06674746423959732 },
			{ -0.04926728084683418, -0.048366647213697433, -0.05639725551009178, -0.22999542951583862, 0.2470170259475708, 0.11551860719919205, 0.03762133792042732, -0.04374144226312637, 0.10460514575242996, 0.12449623644351959 },
			{ 0.006255803629755974, -0.031335387378931046, -0.045061755925416946, -0.15177561342716217, 0.3908139169216156, 0.09200245141983032, 0.08012397587299347, -0.15677285194396973, -0.08093567937612534, -0.03843049332499504 },
			{ 0.012498130090534687, 0.012617035768926144, 0.02736063301563263, -0.06880700588226318, 0.5155019760131836, -0.04039856046438217, 0.1135089322924614, -0.20719245076179504, -0.1683240532875061, -0.25772061944007874 },
			{ -0.11989110708236694, 0.2678677439689636, 0.05531025677919388, -0.054865602403879166, 0.45299074053764343, -0.3226083517074585, -0.051927708089351654, -0.08684574067592621, -0.24547462165355682, -0.36234694719314575 },
			{ -0.29900410771369934, 0.26925715804100037, 0.14007820188999176, 0.02519312873482704, 0.4399927854537964, -0.6818380951881409, -0.03917843475937843, -0.054837148636579514, -0.11751134693622589, -0.1619897484779358 },
			{ -0.2058876007795334, 0.07969561964273453, 0.18128469586372375, 0.1455346792936325, 0.27659809589385986, -0.7632001042366028, -0.25545719265937805, 0.12895607948303223, -0.007433788385242224, -0.17399166524410248 },
			{ -0.0876329243183136, -0.14145560562610626, 0.06283000856637955, 0.20534645020961761, 0.25407707691192627, -0.5024236440658569, -0.4613616466522217, 0.347626268863678, -0.016208594664931297, -0.31219449639320374 },
			{ -0.06781888753175735, -0.19091472029685974, 0.09011705219745636, 0.05783548206090927, -0.025178339332342148, -0.12873615324497223, -0.25162872672080994, 0.1085122600197792, 0.0050902036018669605, -0.09139088541269302 },
			{ -0.003728298470377922, 0.06993589550256729, 0.07385798543691635, -0.053602736443281174, -0.026922067627310753, -0.3138594925403595, 0.07571134716272354, 0.18021312355995178, -0.02075045555830002, 0.07119017094373703 },
			{ 0.1596672683954239, 0.059088218957185745, -0.0542302280664444, -0.00045054720249027014, -0.114467553794384, -0.1780937761068344, 0.039799872785806656, 0.15386871993541718, -0.11590702831745148, -0.0753236934542656 },
			{ -0.2273140698671341, 0.043378911912441254, -0.014965993352234364, 0.08268382400274277, -0.12071424722671509, -0.09957095235586166, 0.12509065866470337, 0.014681374654173851, 0.0738847628235817, 0.04047857224941254 },
			{ -0.09813366830348969, 0.056225091218948364, -0.07226835936307907, 0.011781224980950356, 0.07205486297607422, 0.03536910563707352, 0.06873633712530136, -0.09350798279047012, 0.05348967760801315, 0.18650004267692566 },
			{ 0.04953215271234512, -0.09438670426607132, -0.23385562002658844, -0.22640657424926758, 0.12757383286952972, 0.022083573043346405, 0.1515628695487976, -0.04426614195108414, 0.03611048683524132, 0.13494618237018585 },
			{ 0.022217143326997757, -0.12023672461509705, -0.19483770430088043, -0.11765701323747635, 0.21657082438468933, 0.0999089926481247, 0.17812924087047577, -0.1511654406785965, 0.015112646855413914, 0.05564944073557854 },
			{ 0.02760770358145237, 0.024752143770456314, -0.16363857686519623, -0.22275002300739288, 0.24628572165966034, 0.10241086781024933, 0.050392281264066696, -0.014426801353693008, -0.0784204751253128, 0.024462368339300156 },
			{ -0.03877650946378708, -0.02130703069269657, -0.18310372531414032, -0.022209953516721725, 0.24331168830394745, 0.1443578600883484, 0.031221026554703712, -0.02827661857008934, -0.11200425028800964, -0.03481175750494003 },
			{ -0.011373767629265785, 0.07662441581487656, 0.007653958164155483, 0.03144237399101257, 0.0853227749466896, -0.02658820152282715, -0.016440460458397865, 0.08345778286457062, -0.23593521118164062, -0.02968638576567173 },
			{ -0.09237761050462723, 0.12798750400543213, 0.22754332423210144, -0.055708594620227814, 0.042986344546079636, -0.25610148906707764, -0.27694404125213623, 0.08690355718135834, -0.17479954659938812, 0.01427717786282301 },
			{ 0.09665575623512268, 0.050622571259737015, 0.19910448789596558, -0.11956916749477386, 0.24796168506145477, -0.7290011048316956, -0.2314775139093399, 0.14745618402957916, -0.030997255817055702, -0.021695641800761223 },
			{ 0.14541567862033844, -0.014710307121276855, 0.20813432335853577, -0.02695503830909729, 0.19196905195713043, -0.7578930258750916, -0.4274457097053528, 0.02737557515501976, 0.10184362530708313, -0.09049364179372787 },
			{ 0.1482929289340973, -0.29069507122039795, 0.17687159776687622, 0.17821946740150452, 0.17960569262504578, -0.8859683275222778, -0.5619986057281494, 0.10935643315315247, 0.16441120207309723, -0.10539472848176956 },
			{ 0.07659265398979187, -0.36204561591148376, 0.17792299389839172, 0.06912701576948166, -0.11786338686943054, -0.461968332529068, -0.21742570400238037, 0.13038238883018494, 0.1779753416776657, 0.029010511934757233 },
			{ 0.10441485047340393, -0.08942200243473053, 0.07262028008699417, -0.10974432528018951, -0.059533823281526566, -0.5714837908744812, 0.19718745350837708, 0.003415627172216773, -0.011736204847693443, 0.05753755569458008 },
			{ 0.20566870272159576, 0.13367217779159546, -0.030465276911854744, -0.09954353421926498, -0.2469378113746643, -0.37496399879455566, 0.07647696882486343, 0.09697993844747543, -0.1068892702460289, 0.10660238564014435 },
			{ -0.04227736219763756, 0.17466425895690918, -0.14699339866638184, -0.11454445868730545, -0.04970580339431763, -0.062547966837883, -0.0009670007275417447, -0.016309186816215515, 0.03786956146359444, 0.20337508618831635 },
			{ 0.030325595289468765, -0.014493191614747047, -0.26148831844329834, -0.19657938182353973, -0.0031926000956445932, -0.04341847822070122, 0.05296839773654938, -0.09612435847520828, 0.03244302421808243, 0.12901853024959564 },
			{ 0.1336931735277176, -0.21408288180828094, -0.2482120543718338, -0.13374987244606018, 0.12112554162740707, -0.08871901035308838, 0.18053871393203735, -0.0762052834033966, -0.09326478093862534, 0.1663675755262375 },
			{ 0.07512221485376358, -0.10396801680326462, -0.29901793599128723, -0.16014616191387177, 0.17537741363048553, 0.05684560164809227, 0.10504988580942154, -0.17765997350215912, -0.08447765558958054, -0.0046144514344632626 },
			{ 0.13344348967075348, -0.06867416203022003, -0.26053592562675476, -0.09918169677257538, 0.05714986100792885, 0.15248268842697144, 0.07574263960123062, -0.10757526010274887, -0.08303745836019516, 0.02608676441013813 },
			{ -0.10871116816997528, 0.15084832906723022, -0.05318131297826767, 0.0021602699998766184, -0.06491555273532867, 0.2152930051088333, -0.04186432436108589, 0.013298023492097855, 0.0017244090558961034, -0.12324082106351852 },
			{ 0.019543107599020004, 0.08919505774974823, 0.01095534022897482, -0.11650381237268448, -0.1303517073392868, -0.054080452769994736, -0.08079028129577637, 0.2630448639392853, 0.053645484149456024, -0.07390034943819046 },
			{ 0.15447154641151428, 0.12527132034301758, 0.022563008591532707, -0.16992367804050446, 0.15631882846355438, -0.25330081582069397, -0.2008795291185379, 0.1672438681125641, -0.08774105459451675, -0.16849510371685028 },
			{ 0.20772667229175568, 0.090891532599926, 0.21961642801761627, -0.34028223156929016, 0.10773489624261856, -0.3698720335960388, -0.33148449659347534, 0.08560307323932648, 0.012758431024849415, -0.07607277482748032 },
			{ 0.3349798917770386, 0.2000899612903595, 0.19614361226558685, -0.5140372514724731, 0.09194859862327576, -0.37446126341819763, -0.23954392969608307, 0.01604849100112915, -0.0028063091449439526, -0.07022707164287567 },
			{ 0.2439364790916443, -0.041509587317705154, 0.15347568690776825, -0.13155187666416168, -0.033099766820669174, -0.5081154108047485, -0.2765786647796631, -0.20829682052135468, -0.04427405446767807, 0.14932264387607574 },
			{ 0.08017924427986145, -0.2553281784057617, 0.13679784536361694, 0.05320591479539871, -0.06257370859384537, -0.17025572061538696, -0.1556500345468521, -0.08932744711637497, -0.009171129204332829, 0.14591169357299805 },
			{ 0.11917480826377869, -0.047687746584415436, -0.06772512197494507, -0.0331018902361393, 0.001610788400284946, -0.3491858243942261, 0.1513994187116623, 0.00656628143042326, -0.1324639618396759, 0.18280760943889618 },
			{ 0.10337652266025543, 0.03037680685520172, -0.1623418778181076, -0.10352404415607452, -0.2559194564819336, -0.2828037738800049, 0.15856707096099854, -0.03587827458977699, 0.0659487172961235, 0.2979297339916229 },
			{ -0.1027572974562645, 0.12975627183914185, -0.0922825038433075, -0.023188462480902672, -0.039177052676677704, -0.0821017175912857, 0.01728486455976963, -0.09913931041955948, -0.08334498852491379, 0.18107682466506958 },
			{ 0.17174316942691803, -0.10089510679244995, -0.15411093831062317, -0.10237240046262741, 0.07494641095399857, -0.041538648307323456, 0.23103304207324982, -0.0911211371421814, -0.07821568846702576, 0.11581339687108994 },
			{ 0.10004475712776184, -0.09595063328742981, -0.17347340285778046, -0.23838631808757782, 0.09790801256895065, -0.02003244310617447, 0.08443868905305862, -0.10580216348171234, 0.06318487226963043, 0.13051511347293854 },
			{ 0.12661300599575043, -0.17425374686717987, -0.19693642854690552, -0.12800689041614532, 0.05256100371479988, -0.10312049090862274, 0.1682526022195816, -0.0275285467505455, 0.10284007340669632, 0.09595892578363419 },
			{ 0.11352327466011047, 0.1441565752029419, -0.16676338016986847, -0.21949084103107452, 0.04497486352920532, 0.02345355600118637, 0.08406028896570206, -0.03567107021808624, 0.005956508684903383, 0.04662300646305084 },
			{ -0.09897644817829132, 0.08785437047481537, -0.13300715386867523, -0.09783992916345596, -0.21038582921028137, 0.08497511595487595, -0.009296789765357971, -0.03961937502026558, 0.12871462106704712, -0.10484680533409119 },
			{ -0.15977366268634796, 0.13740499317646027, -0.046902235597372055, -0.032946858555078506, -0.20009632408618927, 0.09138008952140808, -0.009441702626645565, 0.19382739067077637, -0.02628951147198677, 0.007123726420104504 },
			{ 0.21870118379592896, 0.06587659567594528, 0.029945753514766693, -0.4723828434944153, 0.017545267939567566, -0.010966010391712189, -0.03252731263637543, 0.20433592796325684, -0.029477939009666443, -0.1371718943119049 },
			{ 0.2587527632713318, 0.3109576404094696, 0.11112146079540253, -0.43262091279029846, 0.1973903477191925, -0.01839623972773552, -0.2800697386264801, 0.16090905666351318, -0.32794320583343506, -0.12225719541311264 },
			{ 0.158005490899086, 0.10937754064798355, 0.10023726522922516, -0.6057029366493225, -0.0328497514128685, -0.1044149100780487, -0.059013012796640396, -0.021192869171500206, -0.39088568091392517, 0.2741299569606781 },
			{ 0.2662443220615387, -0.12743520736694336, 0.0779496356844902, -0.1605539619922638, -0.02184429205954075, -0.056197427213191986, 0.01599055714905262, -0.17126676440238953, -0.4063539206981659, 0.2218921035528183 },
			{ 0.08800715953111649, -0.180946484208107, 0.0007414097199216485, 0.02865450829267502, -0.10217547416687012, 0.07133891433477402, 0.03989066183567047, -0.12797479331493378, -0.21542294323444366, 0.09160036593675613 },
			{ 0.06163543835282326, -0.06978761404752731, -0.18826179206371307, -0.06132345646619797, 0.1439305543899536, -0.003558947704732418, -0.03955308720469475, -0.020216895267367363, -0.3903660178184509, 0.24224959313869476 },
			{ 0.17901989817619324, -0.0806996077299118, -0.261782169342041, -0.024910958483815193, -0.03546130657196045, 0.05011719465255737, 0.11369261890649796, 0.1023796796798706, -0.08443491905927658, 0.1742958277463913 },
			{ -0.06945636123418808, 0.10783600807189941, -0.04440261051058769, 0.013033646158874035, -0.005206170957535505, -0.03438958898186684, -0.17801767587661743, -0.02954128012061119, -0.29645758867263794, 0.1293584406375885 },
			{ 0.17327015101909637, -0.1619991958141327, -0.15803977847099304, -0.19770435988903046, -0.05026751756668091, -0.17213483154773712, 0.1996559202671051, 0.01819715090095997, -0.09214220941066742, 0.08394450694322586 },
			{ 0.15856924653053284, -0.16234929859638214, -0.0586458221077919, -0.3198457956314087, 0.06502112001180649, -0.2007080763578415, 0.11434224992990494, -0.03146371990442276, -0.0009693465544842184, -0.07265078276395798 },
			{ 0.1228669136762619, -0.05317379906773567, -0.006554009858518839, -0.14754362404346466, -0.06059591472148895, -0.21659505367279053, 0.13924959301948547, 0.04734858497977257, 0.07621369510889053, -0.040525007992982864 },
			{ 0.10303331911563873, -0.03366275131702423, -0.05130970478057861, -0.10564826428890228, -0.012373381294310093, -0.13701768219470978, 0.21372388303279877, 0.05755646154284477, 0.0319548137485981, -0.1040564551949501 },
			{ -0.13993531465530396, 0.19774922728538513, -0.056310512125492096, -0.09481894969940186, -0.11745313555002213, -0.11246661841869354, 0.11296642571687698, -0.07016343623399734, 0.053401291370391846, -0.13539966940879822 },
			{ -0.03492517024278641, 0.11030862480401993, -0.13376709818840027, -0.0970885306596756, -0.10510201752185822, 0.016723832115530968, 0.11979757249355316, 0.00011498203093651682, -0.01793513633310795, -0.035404615104198456 },
			{ 0.1792825162410736, 0.04652480036020279, -0.05660732463002205, -0.30152371525764465, 0.06363028287887573, 0.07769280672073364, 0.031919509172439575, 0.16582675278186798, -0.25264692306518555, -0.009143230505287647 },
			{ 0.19903594255447388, 0.40454405546188354, 0.03759603947401047, -0.08505356311798096, -0.03081972897052765, -0.041133489459753036, -0.05827466771006584, 0.07942336797714233, -0.30727559328079224, 0.07001372426748276 },
			{ 0.29080212116241455, -0.020360341295599937, -0.21625615656375885, -0.151170551776886, -0.15813909471035004, -0.000981321558356285, -0.02705036662518978, -0.05386251211166382, -0.2825515568256378, 0.20901808142662048 },
			{ 0.210637629032135, -0.15099507570266724, -0.33154672384262085, -0.029536375775933266, -0.09719059616327286, 0.17734003067016602, 0.14835050702095032, 0.005481825675815344, -0.12789374589920044, 0.017765698954463005 },
			{ 0.03424610570073128, -0.11531279236078262, -0.28051748871803284, 0.14372871816158295, 0.11790391802787781, 0.055419061332941055, 0.19383718073368073, 0.1596255749464035, -0.1252535879611969, -0.01187117863446474 },
			{ -0.047998279333114624, -0.06391821801662445, -0.1378345936536789, -0.049569930881261826, 0.06625726073980331, 0.06965316832065582, -0.0909997969865799, 0.2929166257381439, -0.0886177271604538, 0.01371739711612463 },
			{ 0.14229942858219147, -0.056741826236248016, -0.2577213644981384, 0.008031883276998997, 0.13592258095741272, 0.1698397397994995, -0.0421319305896759, 0.1437949538230896, -0.16580034792423248, 0.1419612020254135 },
			{ 0.015943262726068497, 0.004943522624671459, 0.05284671485424042, 0.0676281750202179, 0.06603870540857315, -0.11475443840026855, 0.011964661069214344, -0.05501267686486244, -0.13661019504070282, 0.02455006167292595 },
			{ 0.17774659395217896, -0.23673613369464874, 0.012364436872303486, -0.06914978474378586, -0.023729929700493813, -0.060410141944885254, 0.19296623766422272, -0.08782903105020523, 0.0768168494105339, 0.04246223345398903 },
			{ 0.20023217797279358, -0.05860835313796997, -0.019762856885790825, -0.13860318064689636, -0.07963576167821884, -0.11531621962785721, 0.1513310968875885, 0.06779418140649796, 0.05150686204433441, -0.02912341244518757 },
			{ 0.17590972781181335, 0.01887037791311741, -0.012540590018033981, -0.23511123657226562, -0.06303715705871582, -0.13040266931056976, 0.05356670171022415, 0.037029001861810684, 0.08435238897800446, -0.0141619136556983 },
			{ 0.10953403264284134, 0.07322487980127335, 0.020268132910132408, 0.019039206206798553, -0.0514250211417675, -0.17768444120883942, 0.12624816596508026, -0.12707939743995667, 0.12846775352954865, -0.015501214191317558 },
			{ -0.015867775306105614, 0.1422547847032547, -0.03578575327992439, 0.03947005048394203, 0.012226469814777374, -0.03467746078968048, 0.05173821002244949, 0.04190720617771149, 0.046442657709121704, 0.0138259781524539 },
			{ -0.013715749606490135, 0.22341156005859375, -0.07303508371114731, -0.07455895096063614, -0.0006667657871730626, -0.02604023739695549, 0.11979875713586807, -0.03253961727023125, -0.06072910130023956, -0.0576513446867466 },
			{ 0.0978420078754425, 0.0576680563390255, 0.014514769427478313, -0.10387944430112839, -0.039162777364254, 0.05339765176177025, -0.048082102090120316, 0.03860782831907272, -0.10290204733610153, 0.01525289099663496 },
			{ 0.04178833216428757, -0.03876155614852905, -0.33342742919921875, -0.051008809357881546, -0.11645521968603134, 0.12599337100982666, -0.05634558945894241, 0.09903975576162338, 0.12190238386392593, -0.02984588034451008 },
			{ 0.13990014791488647, -0.30128905177116394, -0.32920846343040466, 0.027991576120257378, -0.19444212317466736, 0.17285411059856415, 0.013475940562784672, -0.11766799539327621, 0.09077922254800797, -0.008968932554125786 },
			{ 0.14112581312656403, -0.18394578993320465, -0.15157458186149597, 0.11701134592294693, -0.24100850522518158, 0.12910227477550507, 0.1322917491197586, -0.2353825718164444, 0.0443049818277359, -0.20887914299964905 },
			{ -0.06826522946357727, 0.03382577374577522, -0.17047710716724396, 0.09053058177232742, 0.018270013853907585, 0.14957720041275024, 0.02727612294256687, -0.11328382045030594, -0.0010009899269789457, -0.020771391689777374 },
			{ -0.021618572995066643, -0.1527332067489624, -0.0010978009086102247, 0.04945121333003044, 0.2604871690273285, 0.004133633337914944, -0.2169186919927597, 0.0765707716345787, -0.08656232804059982, -0.06598905473947525 },
			{ -0.0091733792796731, -0.08693573623895645, -0.14556194841861725, 0.020428085699677467, 0.11374688893556595, 0.1019405946135521, -0.09264948219060898, -0.0999123603105545, 0.06275632977485657, 0.19127723574638367 },
			{ 0.033087633550167084, 0.019221406430006027, 0.11894316226243973, -0.04922259971499443, -0.021984057500958443, -0.022121399641036987, -0.022604720667004585, -0.17186708748340607, -0.11782210320234299, -0.12645666301250458 },
			{ 0.013938496820628643, -0.030722040683031082, 0.12536944448947906, -0.06631877273321152, -0.19934916496276855, -0.03081430308520794, 0.08701711893081665, -0.08251577615737915, 0.1409178376197815, -0.09663169085979462 },
			{ 0.049284543842077255, 0.0034976142924278975, 0.07072631269693375, -0.08599693328142166, -0.038762710988521576, -0.1666664034128189, 0.1398332566022873, 0.08792321383953094, 0.08707226812839508, -0.1360076516866684 },
			{ 0.07728540897369385, -0.0046821460127830505, 0.0869489461183548, -0.1655281037092209, -0.06472352892160416, -0.22014568746089935, 0.1541604846715927, 0.0485701709985733, 0.14009025692939758, -0.20726393163204193 },
			{ 0.07285536080598831, -0.009751508943736553, 0.03156000003218651, -0.16377247869968414, 0.04846401885151863, -0.17721450328826904, 0.10883273929357529, 0.015750760212540627, 0.003519018180668354, -0.011410032398998737 },
			{ -0.1232561469078064, 0.07904323190450668, -0.025747055187821388, 0.0352187417447567, 0.03905763849616051, -0.17892611026763916, 0.05032137408852577, -0.02083655633032322, -0.027691759169101715, -0.054424963891506195 },
			{ -0.16913242638111115, 0.22356797754764557, -0.09081819653511047, -0.037291284650564194, 0.11776569485664368, -0.0010733575327321887, -0.14527903497219086, 0.07231610268354416, -0.004883235320448875, 0.05476541072130203 },
			{ 0.015362120233476162, 0.05738160386681557, -0.22242237627506256, -0.07455655187368393, 0.012349925003945827, -0.062306031584739685, 0.06074795871973038, 0.06555008143186569, 0.07134732604026794, 0.029896330088377 },
			{ -0.07966475188732147, -0.3371957838535309, -0.3229483366012573, 0.008404180407524109, 0.011855557560920715, -0.025198696181178093, -0.04529695585370064, 0.061120130121707916, 0.15115587413311005, 0.011599041521549225 },
			{ -0.09247482568025589, -0.4215250015258789, -0.1496075838804245, 0.12305280566215515, 0.055823832750320435, 0.07940925657749176, 0.08364710211753845, -0.13083010911941528, 0.2554169297218323, -0.10330639779567719 },
			{ -0.04922487959265709, -0.07950806617736816, -0.18834468722343445, 0.16569408774375916, -0.15655715763568878, 0.1336832195520401, 0.037549301981925964, -0.3983605206012726, 0.27876681089401245, -0.172500342130661 },
			{ -0.04966176673769951, 0.10606613010168076, 0.10775265097618103, -0.06202838569879532, -0.10700037330389023, 0.08916881680488586, -0.14432409405708313, -0.13884815573692322, 0.09233144670724869, -0.08044403791427612 },
			{ -0.08494514226913452, 0.07103702425956726, -0.058265574276447296, 0.08492347598075867, 0.03497140482068062, 0.042286232113838196, -0.10795533657073975, -0.00024883143487386405, 0.01953314058482647, -0.048155732452869415 },
			{ -0.22317305207252502, -0.03445075452327728, -0.13686494529247284, 0.06465665251016617, -0.018120041117072105, 0.062088388949632645, -0.09475322812795639, -0.2345106303691864, 0.023497765883803368, 0.264944851398468 },
			{ -0.00165278441272676, 0.004369686357676983, 0.02968115732073784, -0.014173826202750206, -0.0801430493593216, 0.002177785849198699, 0.0016206863801926374, -0.01718384400010109, -0.07418230921030045, -0.21863453090190887 },
			{ 0.04610924795269966, 0.005973378662019968, -0.03345838189125061, -0.10942277312278748, -0.13486509025096893, -0.08602800965309143, -0.1245747059583664, 0.1240120381116867, -0.029239874333143234, -0.13734564185142517 },
			{ 0.0856345072388649, -0.05017023906111717, 0.052017755806446075, -0.1590505689382553, -0.0322873480618, -0.08548625558614731, 0.031593386083841324, -0.015336165204644203, -0.05178852751851082, -0.1143420934677124 },
			{ 0.0747373104095459, 0.12724776566028595, 0.16665415465831757, -0.18029282987117767, -0.02584357000887394, -0.04361980780959129, -0.010670487768948078, 0.13011027872562408, 0.012591722421348095, -0.00471913255751133 },
			{ 0.06692537665367126, 0.09432622790336609, 0.07732901722192764, -0.2249705195426941, -0.04349531605839729, -0.23198367655277252, 0.06717851758003235, 0.051878463476896286, -0.0387532003223896, -0.039708059281110764 },
			{ -0.10963694006204605, 0.027766147628426552, -0.054701440036296844, -0.11357393115758896, 0.15047258138656616, -0.2757781147956848, 0.057278115302324295, 0.09972205758094788, 0.03413813188672066, 0.11498379707336426 },
			{ -0.566659688949585, 0.21826516091823578, -0.2156817466020584, -0.03634924069046974, 0.17584696412086487, -0.13767945766448975, -0.02170538529753685, 0.0880943089723587, -0.166455939412117, -0.04474334418773651 },
			{ -0.2605043053627014, 0.18614797294139862, -0.1980053335428238, 0.09047489613294601, 0.17667175829410553, 0.01746145822107792, -0.24005942046642303, 0.1357051581144333, -0.10400397330522537, -0.01868031919002533 },
			{ -0.4443938136100769, 0.19372761249542236, -0.2519456744194031, 0.04536643996834755, 0.20710766315460205, 0.03646725043654442, -0.15468129515647888, 0.07528942823410034, -0.025277234613895416, -0.08163963258266449 },
			{ -0.2356078326702118, 0.0023344215005636215, -0.14949603378772736, -0.046867381781339645, 0.24608798325061798, 0.12058627605438232, -0.14665256440639496, -0.007335441652685404, 0.22008539736270905, -0.07848285138607025 },
			{ -0.5091221928596497, 0.23602893948554993, 0.34478405117988586, -0.2367853969335556, 0.032200608402490616, -0.024255212396383286, -0.31148090958595276, -0.21545569598674774, 0.12762798368930817, -0.05704037845134735 },
			{ -0.28013983368873596, 0.2904515862464905, 0.19633787870407104, -0.14852550625801086, -0.12529045343399048, 0.024010533466935158, -0.2021007537841797, -0.11828222125768661, 0.0472998209297657, 0.02885322831571102 },
			{ -0.20265546441078186, 0.16943299770355225, -0.007976144552230835, 0.021148361265659332, -0.03176611289381981, 0.0009558469755575061, -0.10763654857873917, 0.04973629489541054, -0.09460308402776718, 0.04080263525247574 },
			{ -0.2610863447189331, 0.0760238915681839, -0.048783980309963226, 0.11349780112504959, -0.032013148069381714, 0.10885706543922424, -0.15869656205177307, -0.22448936104774475, 0.005072381347417831, 0.22231769561767578 },
			{ -0.05278456583619118, 0.0407957024872303, 0.048336468636989594, -0.007515619043260813, -0.2042730152606964, -0.027776209637522697, -0.10020703077316284, -0.0025099962949752808, -0.19589340686798096, -0.11952156573534012 },
			{ 0.05165160447359085, 0.08110959082841873, 0.030928198248147964, -0.09943947196006775, -0.0955629050731659, -0.11089201271533966, -0.11645488440990448, 0.19037696719169617, 0.0017336412565782666, -0.06637103110551834 },
			{ 0.15971879661083221, -0.01044483482837677, -0.009096608497202396, 0.07395093888044357, -0.01945303939282894, -0.11886868625879288, 0.036706987768411636, 0.0623500682413578, 0.07383187115192413, 0.047740768641233444 },
			{ -0.05150975286960602, 0.09757640212774277, -0.07502928376197815, -0.061551958322525024, -0.04756461828947067, -0.0003120588371530175, 0.07742345333099365, 0.06583379954099655, -0.02006230130791664, 0.04261186346411705 },
			{ -0.020272115245461464, 0.011569629423320293, -0.03398606553673744, -0.1804400235414505, -0.04915417358279228, -0.15622833371162415, -0.046513400971889496, 0.1702229529619217, 0.08110077679157257, 0.0518573597073555 },
			{ -0.044752731919288635, 0.05744296312332153, -0.05689912661910057, -0.2105294018983841, 0.03072255849838257, -0.1900073140859604, 0.00698320847004652, 0.11509524285793304, 0.028572823852300644, 0.0018629468977451324 },
			{ -0.36656737327575684, -0.04651172086596489, -0.20160534977912903, -0.2446536123752594, 0.0008140392019413412, -0.23454289138317108, 0.026584124192595482, 0.16911008954048157, -0.025784030556678772, 0.09332950413227081 },
			{ -0.5970849990844727, 0.08991134911775589, -0.10972645878791809, -0.0980033352971077, 0.06758207827806473, -0.21749372780323029, -0.1078750416636467, 0.21728594601154327, -0.03129517659544945, -0.0038093128241598606 },
			{ -0.6818543672561646, 0.2632932960987091, -0.09362010657787323, -0.006071573588997126, 0.19572746753692627, -0.09788890182971954, -0.2399241030216217, 0.1516760140657425, -0.1939121037721634, 0.061497341841459274 },
			{ -0.6266077756881714, 0.10291672497987747, -0.009552390314638615, -0.0875827968120575, 0.27668681740760803, -0.14107286930084229, -0.21305149793624878, 0.05121742933988571, -0.19926176965236664, -0.010423092171549797 },
			{ -0.731090247631073, 0.21805696189403534, 0.30180856585502625, -0.45952510833740234, 0.14310376346111298, -0.031443119049072266, -0.2908247709274292, -0.07434605807065964, -0.029855743050575256, 0.08750088512897491 },
			{ -0.5118624567985535, 0.1429976522922516, 0.19780488312244415, -0.13696205615997314, -0.05960891395807266, 0.09258252382278442, -0.0927964523434639, -0.15015998482704163, -0.04135004058480263, 0.07175890356302261 },
			{ -0.26917603611946106, 0.18157415091991425, 0.024133145809173584, -0.16626028716564178, 0.0005314155714586377, -0.05589953064918518, -0.031103773042559624, 0.0006190815474838018, -0.13736137747764587, 0.11623265594244003 },
			{ -0.11810952425003052, -0.12915410101413727, 0.033082906156778336, 0.0033971467055380344, 0.042230963706970215, 0.1542302668094635, -0.1395360678434372, -0.01505880244076252, -0.10463163256645203, 0.06776969879865646 },
			{ -0.009843068197369576, 0.1375768482685089, 0.06668222695589066, -0.06056535989046097, -0.2559807300567627, 0.054153453558683395, -0.053881462663412094, 0.20960862934589386, -0.2193812131881714, -0.04914192855358124 },
			{ 0.1470794975757599, 0.13602015376091003, -0.006487836595624685, -0.10951966047286987, -0.140132337808609, -0.12293962389230728, -0.23354442417621613, 0.09126273542642593, -0.12202082574367523, -0.010468553751707077 },
			{ 0.11575169861316681, 0.027244146913290024, -0.05170367285609245, -0.05558217316865921, -0.10315997898578644, -0.13058829307556152, -0.17829325795173645, 0.1152629479765892, 0.00012754020281136036, 0.01080272626131773 },
			{ -0.011511102318763733, 0.03260894492268562, -0.09545072913169861, -0.04841266945004463, -0.04731649532914162, -0.060824330896139145, 0.012588152661919594, 0.07683616876602173, 0.07104866206645966, 0.010970989242196083 },
			{ -0.09723139554262161, -0.01727362722158432, -0.0520569384098053, -0.025710614398121834, 0.040361035615205765, -0.0858946144580841, 0.00031615913030691445, -0.016187002882361412, -0.018427100032567978, 0.08353447914123535 },
			{ 0.091299869120121, 0.017780719324946404, -0.06404939293861389, 0.0026622391305863857, -0.058381497859954834, -0.06699763238430023, 0.015522193163633347, 0.1744784563779831, 0.05374196544289589, -0.01995994709432125 },
			{ 0.001205313135869801, -0.08136298507452011, -0.25948143005371094, -0.18077072501182556, 0.0632682591676712, -0.15227775275707245, 0.10234879702329636, 0.09884225577116013, -0.040739648044109344, 0.15561436116695404 },
			{ -0.20472687482833862, -0.02832743152976036, -0.06656666100025177, -0.05849659442901611, 0.11652744561433792, -0.16809986531734467, -0.11978159844875336, 0.16643895208835602, 0.09579885005950928, 0.04606126993894577 },
			{ -0.3928092122077942, 0.10086029767990112, 0.026679562404751778, -0.126686230301857, 0.09539520740509033, -0.29506176710128784, -0.16841524839401245, 0.12769418954849243, 0.031165190041065216, 0.20045872032642365 },
			{ -0.39061662554740906, 0.07154466956853867, -0.0061907111667096615, -0.25256863236427307, 0.16165699064731598, -0.39516162872314453, -0.103848896920681, -0.050574883818626404, -0.17655125260353088, 0.2458038032054901 },
			{ -0.5001655220985413, -0.10262923687696457, 0.27877917885780334, -0.20256860554218292, 0.12394551932811737, -0.041507523506879807, -0.16388657689094543, -0.12125879526138306, -0.24671393632888794, 0.10802127420902252 },
			{ -0.3222906291484833, 0.08913340419530869, 0.20770175755023956, -0.09771993011236191, -0.10943692177534103, 0.22074219584465027, -0.18410293757915497, 0.006590799428522587, -0.26975494623184204, 0.07107479125261307 },
			{ -0.10654004663228989, 0.10582434386014938, 0.13857457041740417, -0.07785199582576752, -0.18376031517982483, 0.23660403490066528, -0.1310117244720459, 0.2175787091255188, -0.18161074817180634, 0.0075571187771856785 },
			{ 0.02191539853811264, -0.006493967957794666, -0.012855679728090763, -0.07085474580526352, -0.004925708286464214, 0.23780514299869537, -0.01868855580687523, -0.017094139009714127, -0.29656726121902466, -0.05066697299480438 },
			{ -0.1045166552066803, 0.08855755627155304, -0.0963941365480423, 0.12360291928052902, -0.15755149722099304, 0.22045838832855225, 0.00014326212112791836, 0.2438020557165146, -0.22607317566871643, -0.005507213994860649 },
			{ -0.09544719010591507, -0.060598764568567276, -0.22355182468891144, 0.2119629681110382, -0.14768050611019135, -0.04003237187862396, -0.03339627757668495, 0.052549149841070175, -0.3273482322692871, 0.12243926525115967 },
			{ -0.16261696815490723, -0.006970416754484177, -0.17314913868904114, 0.18103347718715668, -0.1290973722934723, 0.00022733336663804948, -0.19307659566402435, 0.23700328171253204, -0.14889410138130188, 0.16242435574531555 },
			{ -0.15163633227348328, -0.008908271789550781, -0.21585628390312195, 0.08538754284381866, 0.038661397993564606, 0.10595343261957169, -0.269260436296463, 0.07368507236242294, 0.008998180739581585, 0.0842830166220665 },
			{ -0.22339937090873718, 0.10264604538679123, -0.07538476586341858, 0.08571899682283401, -0.017280101776123047, 0.10643140226602554, -0.12272165715694427, -0.03327099606394768, -0.00017737525922711939, 0.14124654233455658 },
			{ -0.01946444995701313, 0.02218662016093731, -0.06496983021497726, 0.011450349353253841, 0.021747052669525146, 0.11585026979446411, -0.13176831603050232, -0.01751944236457348, 0.048940591514110565, 0.011527303606271744 },
			{ 0.0044417185708880424, -0.12585850059986115, -0.028109842911362648, -0.08400656282901764, -0.007907459512352943, 0.09043213725090027, 0.056018393486738205, 0.07282949239015579, -0.11517909169197083, -0.04022645950317383 },
			{ -0.004534471780061722, -0.01728343591094017, -0.038379814475774765, -0.029893450438976288, 0.035288821905851364, 0.06593070179224014, 0.07444876432418823, 0.021582860499620438, -0.0965251699090004, 0.06340260058641434 },
			{ -0.14319078624248505, 0.052338846027851105, -0.14757099747657776, -0.07505112141370773, -0.00090667640324682, 0.046931494027376175, -0.16330674290657043, 0.07642655074596405, 0.13576103746891022, 0.08218056708574295 },
			{ -0.12825128436088562, 0.18119071424007416, -0.19341903924942017, -0.09047846496105194, -0.15192215144634247, -0.2019246518611908, -0.11481312662363052, -0.15064141154289246, -0.054304350167512894, 0.28734275698661804 },
			{ -0.13416583836078644, -0.08298442512750626, -0.06960979104042053, -0.08463392406702042, 0.15798771381378174, 0.11812881380319595, -0.1894814670085907, -0.16170634329319, -0.10501889884471893, 0.1661277711391449 },
			{ -0.03071078658103943, 0.006989976856857538, 0.03155917674303055, -0.04170908033847809, -0.2332698106765747, 0.24671189486980438, -0.14558836817741394, 0.045981187373399734, -0.263263463973999, 0.13734406232833862 },
			{ -0.014705205336213112, 0.09287231415510178, 0.09234907478094101, -0.06332414597272873, -0.2339882254600525, 0.09317532926797867, -0.052476923912763596, 0.1274360716342926, -0.24248309433460236, -0.06463047116994858 },
			{ -0.05439647659659386, 0.1795663982629776, 0.0536007322371006, -0.09667035192251205, -0.07526370137929916, 0.27855220437049866, 0.04822350665926933, 0.03678607568144798, -0.2680148184299469, -0.10667941719293594 },
			{ -0.08916731923818588, 0.17841964960098267, -0.01994391530752182, -0.002830188488587737, -0.10989409685134888, 0.13970595598220825, -0.000653039722237736, 0.10506000369787216, -0.3170148730278015, -0.12559877336025238 },
			{ -0.0589153952896595, 0.16618229448795319, 0.047866977751255035, 0.12226564437150955, -0.1123175248503685, 0.05147918313741684, 0.05871379375457764, 0.03505038097500801, -0.35063907504081726, 0.013579223304986954 },
			{ -0.023529699072241783, 0.06130397692322731, -0.0201802309602499, 0.11316553503274918, -0.14791171252727509, -0.015943456441164017, 0.10090078413486481, -0.05266990140080452, -0.21159575879573822, -0.173628032207489 },
			{ -0.0662495344877243, -0.12769927084445953, 0.0008634232799522579, -0.008031010627746582, -0.25159168243408203, -0.10799244046211243, 0.15226607024669647, -0.2704069912433624, 0.051679577678442, -0.19718331098556519 },
			{ -0.044173989444971085, -0.05380745232105255, 0.07259915769100189, 0.04916592687368393, -0.31478333473205566, -0.03880998492240906, 0.05967387929558754, -0.2602633237838745, 0.04603588208556175, -0.16639839112758636 },
			{ -0.1522059589624405, -0.05540653318166733, 0.017749391496181488, -0.06470653414726257, -0.1919873207807541, 0.0461425855755806, 0.045097921043634415, -0.24912096560001373, 0.028896883130073547, -0.04034111276268959 },
			{ -0.15481533110141754, -0.07226192951202393, 0.017680706456303596, -0.012561703100800514, -0.20395103096961975, 0.08145411312580109, -0.09358999133110046, -0.11587509512901306, 0.006372934672981501, -0.006068478804081678 },
			{ -0.008122457191348076, -0.012129593640565872, 0.05991565063595772, 0.117396280169487, -0.11191794276237488, -0.03955332562327385, -0.02822689525783062, -0.16936072707176208, 0.023660732433199883, 0.009866616688668728 },
			{ -0.042684152722358704, 0.04006471112370491, 0.033752672374248505, 0.03352984040975571, -0.15028515458106995, 0.07698417454957962, -0.023819494992494583, -0.18692293763160706, 0.0013941610231995583, 0.05091323330998421 },
			{ -0.025911346077919006, 0.021690059453248978, -0.019128860905766487, 0.17196029424667358, -0.1932813674211502, -0.04228907823562622, -0.05315537750720978, -0.24622701108455658, 0.06559450179338455, -0.09236522018909454 },
			{ 0.003073266940191388, -0.021636802703142166, -0.10685395449399948, 0.1577119529247284, -0.06684379279613495, -0.04325542226433754, 0.011631191708147526, -0.12012233585119247, -0.06076423451304436, -0.10383671522140503 },
			{ 0.03198234364390373, 0.027899082750082016, -0.08347330242395401, 0.15010453760623932, -0.08375531435012817, -0.14572134613990784, 0.08041050285100937, -0.13973210752010345, 0.013538073748350143, -0.0843207910656929 },
			{ -0.10289991647005081, 0.020412376150488853, 0.03988005220890045, 0.12247104942798615, 0.09560249745845795, -0.0995839312672615, 0.1767943948507309, 0.032356951385736465, -0.0757177323102951, -0.2412053495645523 },
			{ -0.01583597995340824, 0.12460929155349731, 0.04438583925366402, -0.013367261737585068, -0.022897381335496902, 0.07360071688890457, 0.013815001584589481, 0.04052067920565605, -0.024853013455867767, -0.05364426597952843 },
			{ -0.0726260095834732, 0.0569249652326107, 0.0009137310553342104, 0.1657968908548355, -0.023858845233917236, 0.11210478097200394, 0.0207871925085783, 0.07904847711324692, -0.23421725630760193, -0.1530013382434845 },
			{ 0.05463903769850731, 0.12730637192726135, -0.043328460305929184, 0.10790825635194778, 0.042408544570207596, -0.0023169550113379955, -0.007789431139826775, 0.17281897366046906, -0.18947577476501465, -0.1570381224155426 },
			{ -0.04101981595158577, 1.3371565728448331e-05, 0.025161998346447945, -0.07762773334980011, -0.019089750945568085, -0.047600019723176956, 0.04371550306677818, -0.008853912353515625, -0.047330908477306366, -0.012410236522555351 },
			{ -0.10297845304012299, 0.11154018342494965, -0.02333868108689785, 0.04329366981983185, -0.06941357254981995, 0.026797419413924217, 0.02103126049041748, 0.0927964299917221, -0.06294833868741989, -0.009562070481479168 },
			{ -0.016845300793647766, -0.060883667320013046, -0.012260984629392624, 0.0708550214767456, 0.011447921395301819, -0.07454178482294083, -0.07771290093660355, 0.02136705256998539, 0.060585975646972656, 0.041902586817741394 },
			{ 0.021935686469078064, -0.0915636196732521, 0.04640555754303932, -0.020354092121124268, -0.04985123872756958, 0.04629143327474594, -0.1560719609260559, -0.07283855229616165, 0.035947948694229126, -0.048593804240226746 },
			{ -0.09167364984750748, -0.07069868594408035, -0.0281808003783226, 0.008197576738893986, -0.20050793886184692, 0.0254935622215271, -0.1376379430294037, -0.016358058899641037, 0.053929951041936874, 0.08281834423542023 },
			{ 0.058588821440935135, -0.023942144587635994, 0.060053929686546326, 0.031017247587442398, -0.08762618899345398, -0.11616341024637222, -0.15892015397548676, 0.0026304733473807573, 0.06219422072172165, 0.10237713158130646 },
			{ 0.07560081034898758, -0.13413026928901672, 0.03275308012962341, 0.10107991844415665, -0.1752183884382248, -0.02135201171040535, -0.11918718367815018, 0.012694441713392735, -0.025107720866799355, 0.09103620797395706 },
			{ -0.01003927644342184, 0.023050107061862946, -0.0006918053841218352, 0.06799916177988052, -0.22246351838111877, -0.10791652649641037, -0.11065738648176193, -0.06119393929839134, 0.01704149693250656, 0.02571733482182026 },
			{ 0.031546734273433685, 0.02655120939016342, -0.027712441980838776, 0.05688467249274254, -0.10697052627801895, -0.13303042948246002, -0.1061069592833519, -0.14616237580776215, 0.017688317224383354, 0.006770825479179621 },
			{ -0.05744803696870804, 0.03050266019999981, -0.05504672974348068, 0.1587488204240799, 0.06945420801639557, -0.03925042226910591, -0.05763765797019005, -0.1331019550561905, -0.020962152630090714, 0.08775061368942261 },
			{ 0.05908806249499321, -0.03469432517886162, -0.03056047111749649, 0.07783899456262589, 0.024129461497068405, -0.2017371505498886, 0.14353317022323608, -0.06499384343624115, -0.08334244042634964, -0.1602889448404312 },
			{ -0.14398255944252014, 0.012892736122012138, -0.01621384546160698, 0.021642200648784637, -0.016756879165768623, 0.02045227400958538, 0.05368838831782341, -0.3815617561340332, 0.052166830748319626, -0.3229275941848755 },
			{ -0.12455097585916519, 0.09746567159891129, 0.06981123238801956, 0.10580411553382874, -0.06540971249341965, -0.08377286046743393, -0.05106242001056671, 0.023409567773342133, -0.06809863448143005, -0.18844446539878845 },
			{ -0.10508415102958679, -0.12739892303943634, 0.06346696615219116, 0.12600044906139374, -0.0323672741651535, -0.04600628465414047, -0.07906406372785568, 0.09185388684272766, -0.04157758504152298, -0.2375076711177826 },
			{ 0.07166218757629395, -0.012732530012726784, 0.02613840252161026, 0.016117267310619354, -0.08511823415756226, -0.01895948126912117, -0.14519231021404266, 0.19278429448604584, 0.03468012809753418, -0.05144328996539116 },
			{ -0.11235766112804413, -0.04185674339532852, -0.02388264238834381, -0.05553235858678818, 0.013121039606630802, 0.059661202132701874, -0.04567541182041168, 0.07334072887897491, -0.027955936267971992, -0.017443999648094177 },
			{ -0.09277614206075668, -0.10718025267124176, 0.009472506120800972, -0.06502743810415268, -0.006566416006535292, -0.00711214542388916, -0.20565885305404663, 0.13960692286491394, -0.001395681407302618, -0.01403415109962225 },
			{ -0.15040135383605957, -0.044199876487255096, -0.08201979845762253, -0.020219584926962852, -0.014102584682404995, 0.011785635724663734, -0.03635464608669281, 0.05264739692211151, -0.03679727762937546, -0.03059588372707367 },
			{ -0.021692046895623207, -0.10961953550577164, 0.08136406540870667, 0.1609620898962021, -0.14890331029891968, -0.06823181360960007, -0.1594623625278473, 0.15285152196884155, -0.012482279911637306, 0.11321543157100677 },
			{ -0.029338037595152855, -0.093946173787117, -0.06005406752228737, 0.15120677649974823, -0.1875188648700714, 0.08035461604595184, -0.27990609407424927, 0.09177272766828537, 0.05319439619779587, 0.051149263978004456 },
			{ 0.035298191010951996, 0.05218319594860077, -0.04260285198688507, 0.09684640169143677, -0.1936303973197937, -0.015756309032440186, -0.2762852609157562, 0.0863269492983818, -0.11650392413139343, 0.11198215186595917 },
			{ 0.014085446484386921, 0.014315076172351837, -0.039914827793836594, -0.014897260814905167, -0.12030161917209625, 0.026613974943757057, -0.1700364351272583, 0.06242717429995537, -0.05113672465085983, 0.11988632380962372 },
			{ 0.05177624896168709, 0.03948964923620224, -0.07404972612857819, 0.022151006385684013, -0.04993389546871185, 0.010838199406862259, -0.1945776790380478, 0.00714014982804656, 0.09873092919588089, 0.050100523978471756 },
			{ -0.0017471655737608671, -0.0025656193029135466, -0.10359013080596924, 0.07618849724531174, -0.05497584491968155, -0.04318588599562645, -0.029755668714642525, 0.09034360200166702, 0.014813300222158432, 0.023630117997527122 },
			{ 0.10775626450777054, 0.0967855229973793, 0.025872865691781044, -0.08199725300073624, 0.07390636950731277, -0.10672781616449356, 0.07517439872026443, -0.06269833445549011, 0.04717164486646652, -0.08414169400930405 },
			{ 0.03881797567009926, -0.12998497486114502, -0.20876313745975494, -0.1559678465127945, 0.13673712313175201, 0.08568336814641953, -0.05161397531628609, -0.1709025502204895, 0.04758216068148613, -0.18326689302921295 },
			{ -0.12748980522155762, 0.07100357115268707, 0.020068373531103134, 0.13487420976161957, -0.0892779529094696, -0.0739109069108963, 0.07497436553239822, 0.0016802483005449176, -0.0327131524682045, -0.13821470737457275 },
			{ -0.1361299604177475, 0.05588281527161598, 0.08801254630088806, 0.12061262875795364, -0.14330273866653442, -0.09162772446870804, -0.041770100593566895, 0.08690331131219864, -0.05232350155711174, -0.04099111258983612 },
			{ -0.05751904845237732, 0.04664986953139305, -0.03341614827513695, 0.1170945093035698, -0.15151497721672058, -0.13094231486320496, 0.03519992157816887, 0.12212713062763214, 0.1003476232290268, 0.09798640012741089 },
			{ 0.017992611974477768, 0.18147824704647064, -0.12826891243457794, 0.033653780817985535, -0.08874320238828659, -0.041865766048431396, 0.04876742139458656, 0.24407517910003662, 0.0025895126163959503, -0.10159260034561157 },
			{ 0.012286001816391945, 0.0966252014040947, -0.042902588844299316, 0.035939984023571014, -0.020599542185664177, 0.017435120418667793, -0.1101212128996849, 0.2178274244070053, -0.10487854480743408, -0.23734094202518463 },
			{ 0.003825344145298004, -0.07215771824121475, -0.023647071793675423, 0.04239440709352493, 0.04812423139810562, -0.04302851855754852, -0.0756363794207573, 0.285897433757782, -0.08475606143474579, -0.23457549512386322 },
			{ -0.023464299738407135, -0.05975831300020218, -0.007279508747160435, 0.13892152905464172, -0.08586020022630692, -0.026340952143073082, -0.24525022506713867, 0.24380317330360413, -0.07066118717193604, -0.22230206429958344 },
			{ 0.11472781747579575, 0.03633015230298042, 0.11643433570861816, 0.006949707865715027, -0.09630218893289566, -0.051418062299489975, -0.37543585896492004, 0.19967831671237946, -0.014797951094806194, -0.18117579817771912 },
			{ 0.1478121131658554, 0.039711177349090576, -0.03060499019920826, 0.08255709707736969, -0.10006558895111084, -0.04920073226094246, -0.2024269551038742, 0.10624238103628159, -0.16973772644996643, 0.018666068091988564 },
			{ 0.04366619139909744, 0.006883022375404835, 0.03366747498512268, 0.007265070918947458, -0.07613826543092728, -0.026296675205230713, -0.20537175238132477, 0.17559395730495453, 0.05942460894584656, 0.0820128321647644 },
			{ -0.00910443626344204, -0.01971835270524025, -0.040718160569667816, -0.10244440287351608, -0.04390718415379524, -0.08209780603647232, -0.15054365992546082, 0.13484109938144684, 0.008692215196788311, -0.02094445563852787 },
			{ 0.06524152308702469, -0.030459357425570488, -0.0325031615793705, -0.15139323472976685, 0.0368337407708168, -0.09810981899499893, 0.013981141149997711, 0.00045724018127657473, -0.05564866587519646, -0.00019804967450909317 },
			{ 0.10470936447381973, 0.10116281360387802, -0.14169922471046448, -0.16991223394870758, -0.015503106638789177, -0.015868430957198143, -0.06515786796808243, 0.11429610103368759, -0.011500815860927105, 0.024519866332411766 },
