/*
 * This file is auto-generated by train.ipynb
 */

#pragma once

#include "definitions.h"


// Conv layer weights.
fixed_point_t conv_weights [FILTERS][KRN_ROWS][KRN_COLS]
	= {
			{
				{ -0.02242259681224823, 0.08969985693693161, 0.5745459794998169, 0.28007206320762634, 0.12684758007526398, -0.34160879254341125, -0.5871683359146118 },
				{ -0.45392706990242004, -0.2369370311498642, -0.014452113769948483, 0.7204209566116333, 0.3331880271434784, -0.06858934462070465, -0.4137752652168274 },
				{ -0.19382955133914948, -0.5423179864883423, 0.07377684116363525, 0.21401037275791168, 0.27850356698036194, 0.34474045038223267, 0.32157212495803833 },
				{ -0.19080165028572083, -0.7097209692001343, -0.37368810176849365, -0.25157585740089417, 0.39757078886032104, 0.5589160323143005, 0.2522794306278229 },
				{ -0.41533488035202026, -0.38079628348350525, 0.13462668657302856, -0.07861115783452988, 0.26737892627716064, 0.4702416658401489, -0.08768822252750397 },
				{ -0.5910770297050476, -0.5794212222099304, -0.030292987823486328, 0.5465560555458069, 0.7476658821105957, -0.0007255814271047711, -0.6084378361701965 },
				{ -0.5476334691047668, 0.15024176239967346, 0.31706103682518005, 0.40103501081466675, 0.40636709332466125, -0.2846994400024414, -0.8021065592765808 }
			},
			{
				{ 0.003139712382107973, 0.26149168610572815, 0.10965795069932938, 0.2299330234527588, 0.2663842439651489, -0.3225367069244385, 0.1622452586889267 },
				{ -0.06380803138017654, 0.17307262122631073, 0.2866929769515991, -0.13103345036506653, 0.06391960382461548, -0.06707485020160675, -0.04193361848592758 },
				{ -0.024098645895719528, 0.09093789756298065, -0.2743249833583832, -0.21348370611667633, 0.406545490026474, 0.17993055284023285, 0.13427749276161194 },
				{ 0.35831010341644287, 0.4097200930118561, 0.5756473541259766, 0.31373101472854614, 0.10458915680646896, 0.5267431139945984, 0.2758108079433441 },
				{ -0.29361462593078613, -0.10434655845165253, 0.5832090377807617, 0.5805516242980957, 0.36864832043647766, 0.30880168080329895, 0.28113317489624023 },
				{ -0.33495044708251953, -0.4909891188144684, -0.36883094906806946, -0.3785479962825775, -0.42011433839797974, -0.12304943054914474, 0.24151752889156342 },
				{ -0.9460428357124329, -0.9952701330184937, -1.0966826677322388, -0.6652771830558777, -0.5654184818267822, -0.7647819519042969, -0.5510018467903137 }
			},
			{
				{ 0.022405799478292465, 0.16422051191329956, 0.5523864030838013, -0.19002996385097504, -0.7017764449119568, -0.48361217975616455, 0.11158890277147293 },
				{ 0.10287553071975708, 0.5673787593841553, 0.24781952798366547, -0.4659483730792999, -0.23949578404426575, -0.18002979457378387, 0.44708898663520813 },
				{ 0.3266621530056, 0.414877712726593, 0.0004934384487569332, -0.3430180549621582, -0.5092127919197083, -0.42150717973709106, 0.8034615516662598 },
				{ 0.14902707934379578, 0.22852781414985657, -0.19146156311035156, -0.49597951769828796, -0.9761928915977478, -0.6837535500526428, 0.396806538105011 },
				{ 0.28104105591773987, 0.045846324414014816, -0.09744621068239212, -0.15282920002937317, -0.2699809968471527, -0.6807751059532166, -0.5042519569396973 },
				{ 0.3447054326534271, 0.6011961102485657, 0.7129348516464233, 0.22537292540073395, -0.3208870589733124, 0.09298177063465118, -0.5064082145690918 },
				{ -0.19829347729682922, 0.008921980857849121, 0.04323042556643486, 0.5236047506332397, 0.4530547261238098, -0.006506918463855982, -0.08038013428449631 }
			},
			{
				{ -0.44981256127357483, 0.031407430768013, 0.004331231117248535, -0.13774077594280243, 0.1915309876203537, -0.3840772211551666, -0.4806552529335022 },
				{ 0.009826640598475933, -0.0330076701939106, 0.04922983795404434, -0.26093143224716187, -0.28875571489334106, -0.575900137424469, -0.4981417655944824 },
				{ 0.28510668873786926, -0.3105603754520416, -0.11864978075027466, -0.3129679262638092, -0.24863111972808838, -0.3908640444278717, 0.18685927987098694 },
				{ 0.2431144416332245, 0.14897556602954865, 0.03409567475318909, -0.09467175602912903, 0.08864308148622513, 0.5156949758529663, 0.7352205514907837 },
				{ -0.05619540065526962, -0.03824302926659584, -0.09155348688364029, 0.29558679461479187, 0.31963351368904114, 0.5913062691688538, 0.6310765147209167 },
				{ 0.2379162609577179, 0.3597182631492615, 0.42028456926345825, -0.013423987664282322, 0.3541239798069, -0.1883583962917328, -0.30377820134162903 },
				{ 0.11922907084226608, -0.20563094317913055, 0.09129282832145691, 0.19442014396190643, -0.4388503134250641, -0.33114323019981384, -0.6416289210319519 }
			}
		};

// Conv layer biases.
fixed_point_t conv_biases [FILTERS] = { -0.04826860874891281, 0.09684976190328598, 0.014086918905377388, -0.009278903715312481 };
