/*
 * This file is auto-generated by train.ipynb
 */

#pragma once

#include "definitions.h"


// Conv layer weights.
fixed_point_t conv_weights [FILTERS][KRN_ROWS][KRN_COLS]
	= {
			{
				{ 0.23652471601963043, 0.020854227244853973, 0.11352115124464035, 0.2835928797721863, 0.5286239981651306, 0.30329903960227966, 0.2789851129055023 },
				{ 0.5852640271186829, 0.7492222189903259, 0.5399119853973389, 0.6737554669380188, 0.484717458486557, 0.22515808045864105, 0.22685858607292175 },
				{ 0.0007448213873431087, -0.014516261406242847, 0.4368788003921509, -0.06482494622468948, -0.03721582517027855, 0.07159459590911865, -0.30593499541282654 },
				{ -0.14607560634613037, -0.03478585183620453, -0.6580773591995239, -0.07234358042478561, -0.20497393608093262, 0.09335552155971527, 0.17226746678352356 },
				{ -0.6178014278411865, -1.0140424966812134, -0.5739673972129822, -0.7840564250946045, -0.2316012680530548, -0.11341296881437302, 0.24380174279212952 },
				{ -0.5124372243881226, -0.28802210092544556, -0.5317190289497375, -0.47756269574165344, -0.516330361366272, 0.1191781759262085, 0.2755751609802246 },
				{ -0.06678210198879242, 0.5631002187728882, 0.2881299555301666, 0.403764545917511, -0.15402096509933472, -0.4576205611228943, -0.27714529633522034 }
			},
			{
				{ -0.5717207789421082, -0.2486431747674942, -0.6892549991607666, -0.6826130151748657, -0.6047983169555664, -0.7361693382263184, -0.32378950715065 },
				{ -0.39556053280830383, -0.6462494730949402, -0.5008832216262817, -0.5780685544013977, -0.32550907135009766, -0.1598329395055771, 0.2649068534374237 },
				{ -0.13330616056919098, -0.5018318295478821, -0.436118483543396, -0.17778846621513367, -0.08191566169261932, 0.2148967981338501, 0.45390456914901733 },
				{ -0.6990340352058411, -0.3511795997619629, 0.05756700411438942, 0.22458603978157043, 0.14700917899608612, 0.5894482135772705, 0.5372563600540161 },
				{ -0.06941579282283783, -0.1299445480108261, -0.2541479468345642, 0.16419677436351776, 0.3681575059890747, 0.48757773637771606, -0.029683997854590416 },
				{ 0.22901861369609833, 0.17362302541732788, 0.4172370135784149, 0.17108042538166046, 0.268436074256897, 0.23102223873138428, -0.032893106341362 },
				{ 0.2957548201084137, 0.06946522742509842, 0.17341186106204987, 0.04054289683699608, 0.11084851622581482, 0.1575918048620224, 0.15570451319217682 }
			},
			{
				{ -0.15631499886512756, 0.08603335916996002, -0.0759754404425621, -0.18412911891937256, 0.1567135602235794, 0.05304308980703354, 0.21521680057048798 },
				{ 0.3175460994243622, -0.15430690348148346, -0.3266892433166504, -0.47019219398498535, 0.12479494512081146, -0.006014302838593721, 0.024395473301410675 },
				{ 0.48068246245384216, 0.18401694297790527, -0.2683444023132324, -0.542763888835907, -0.07315967977046967, 0.20463041961193085, 0.18516048789024353 },
				{ 0.48430007696151733, 0.39115050435066223, -0.21071647107601166, -0.8319317698478699, -0.3697390854358673, 0.39999645948410034, 0.21445584297180176 },
				{ 0.15029484033584595, 0.2365908920764923, -0.3086419999599457, -0.8697904944419861, -0.45420223474502563, 0.50145024061203, 0.4370221197605133 },
				{ 0.39201879501342773, 0.07599634677171707, -0.7824448943138123, -0.7518872618675232, -0.554022490978241, 0.37446486949920654, 0.6243903040885925 },
				{ 0.3996507525444031, 0.031220661476254463, -0.3395559787750244, -0.8375899791717529, -0.4911081790924072, 0.10949323326349258, 0.48533114790916443 }
			},
			{
				{ -0.08640246093273163, -0.3464779555797577, 0.060993749648332596, 0.4261620044708252, 0.2749985456466675, 0.38210853934288025, -0.3405887484550476 },
				{ -0.24381615221500397, -0.22302505373954773, -0.3171805739402771, -0.2846977412700653, 0.4325059652328491, 0.2975614070892334, 0.1872778683900833 },
				{ 0.03644970804452896, 0.2744206488132477, 0.21259023249149323, -0.20920154452323914, 0.2151978760957718, 0.10038165748119354, 0.17773810029029846 },
				{ 0.7027134299278259, -0.0018288459395989776, -0.3760606646537781, -0.41465628147125244, -0.35278406739234924, 0.20088830590248108, 0.40931445360183716 },
				{ -0.29202261567115784, -0.029025385156273842, -0.5574768781661987, 0.04753157123923302, 0.08773709833621979, 0.5096984505653381, 0.4078480899333954 },
				{ -0.5113680958747864, -0.14652174711227417, 0.1993950605392456, -0.11177990585565567, 0.15055124461650848, 0.13739751279354095, -0.13925659656524658 },
				{ 0.22115810215473175, 0.06720662117004395, 0.08819194883108139, 0.07891290634870529, 0.35296034812927246, 0.27056705951690674, -0.3729051947593689 }
			}
		};

// Conv layer biases.
fixed_point_t conv_biases [FILTERS] = { 0.0023469976149499416, 0.06941423565149307, -0.04515792801976204, -0.1738937944173813 };
