/*
 * This file is auto-generated by train.ipynb
 */

#pragma once

#include "definitions.h"


// Dense layer weights.
fixed_point_t dense_weights[FLAT_SIZE][DENSE_SIZE]
	 = {
			{ 0.18936705589294434, 0.17099788784980774, -0.04044504836201668, -0.23076313734054565, -0.2512911260128021, -0.009499388746917248, 0.09039802849292755, 0.005838289391249418, 0.008973432704806328, 0.25300732254981995 },
			{ 0.12520992755889893, 0.1191832423210144, -0.0506216436624527, -0.26351413130760193, -0.2949110269546509, -0.014649839140474796, 0.14634469151496887, 0.026032907888293266, -0.08182606846094131, 0.21065497398376465 },
			{ 0.18789826333522797, 0.08156661689281464, -0.017779910936951637, -0.11570195108652115, -0.3257863521575928, -0.1368747055530548, 0.08236141502857208, -0.005329461302608252, -0.10524673014879227, 0.1619061380624771 },
			{ -0.09131768345832825, -0.06375344842672348, 0.0914103239774704, 0.06441894918680191, -0.22993144392967224, -0.18418818712234497, 0.2559908330440521, -0.17741960287094116, -0.02557786926627159, 0.14254458248615265 },
			{ -0.22161373496055603, 0.13538230955600739, 0.20915400981903076, -0.10156949609518051, -0.10774027556180954, -0.26451221108436584, 0.055194955319166183, -0.27044108510017395, -0.2517145574092865, 0.005703863222151995 },
			{ -0.22646233439445496, 0.1742154210805893, 0.24391523003578186, -0.13148894906044006, -0.23148000240325928, -0.21400484442710876, 0.11787375062704086, -0.4821506142616272, -0.2161673754453659, -0.24584805965423584 },
			{ 0.004976812284439802, 0.059977103024721146, 0.05938587337732315, 0.013375388458371162, -0.12314485013484955, -0.30979421734809875, -0.017010398209095, -0.2695305645465851, 0.02161923050880432, -0.20024952292442322 },
			{ 0.1949443221092224, -0.10617171227931976, -0.09545448422431946, -0.23855914175510406, 0.07223200052976608, 0.05344859138131142, 0.037756454199552536, -0.15130606293678284, 0.1907598227262497, -0.1893519163131714 },
			{ -0.03416676074266434, -0.07233400642871857, -0.24391040205955505, -0.2609126567840576, 0.2939058244228363, 0.033895187079906464, 0.024890514090657234, -0.24761706590652466, 0.03896613046526909, -0.08598123490810394 },
			{ 0.15115875005722046, 0.06745494902133942, -0.2094087153673172, -0.27402743697166443, 0.39373108744621277, 0.09590307623147964, -0.056896552443504333, -0.5102289915084839, -0.0008772880537435412, -0.052930135279893875 },
			{ 0.14063237607479095, 0.19497253000736237, -0.11094836890697479, -0.14314867556095123, 0.0687018483877182, -0.0657757818698883, -0.08399196714162827, -0.007969152182340622, -0.057275306433439255, -0.16698946058750153 },
			{ 0.07373655587434769, 0.05640886351466179, -0.1254166066646576, -0.14247527718544006, 0.28988131880760193, -0.1916198432445526, 0.11063925176858902, 0.05546937137842178, -0.11208967119455338, -0.16865061223506927 },
			{ -0.009959996677935123, -0.005102751776576042, -0.24047525227069855, -0.11128316074609756, 0.15574416518211365, 0.08119437843561172, -0.1352517306804657, 0.07276634871959686, -0.1131444051861763, 0.07886576652526855 },
			{ 0.04917154833674431, -0.14781294763088226, -0.15848174691200256, -0.2425851672887802, -0.007451820652931929, 0.03906620293855667, -0.026108715683221817, 0.008292649872601032, 0.03603361174464226, 0.17845864593982697 },
			{ 0.1927078366279602, 0.08553945273160934, -0.19936086237430573, -0.05866195261478424, -0.2630448043346405, 0.018739571794867516, 0.1223117858171463, 0.14108948409557343, -0.0533861480653286, 0.2521263360977173 },
			{ -0.01784864440560341, -0.05054881423711777, 0.054830946028232574, -0.08908002078533173, -0.09271526336669922, -0.17803235352039337, 0.16346566379070282, -0.013009635731577873, 0.02400641329586506, 0.2775338292121887 },
			{ -0.06006563827395439, -0.031257953494787216, 0.01776355691254139, 0.20076577365398407, -0.1251009851694107, -0.30146414041519165, 0.09662926197052002, 0.06655067950487137, -0.4279850423336029, -0.12022078782320023 },
			{ 0.013767994940280914, 0.08513764292001724, 0.029487352818250656, 0.103485606610775, 0.16739708185195923, -0.33136266469955444, 0.0023320140317082405, 0.2564450800418854, -0.3347747325897217, -0.5027863383293152 },
			{ -0.11139660328626633, -0.09963172674179077, 0.06951539218425751, 0.22823168337345123, 0.2342749834060669, -0.3368316888809204, -0.0796264111995697, 0.09417445957660675, -0.11645809561014175, -0.5815630555152893 },
			{ 0.15057292580604553, -0.1734476536512375, 0.07229994237422943, 0.3238106369972229, 0.04658391699194908, -0.2283044308423996, -0.012124180793762207, -0.09613864868879318, -0.1891300529241562, -0.1853494495153427 },
			{ 0.09397895634174347, -0.2697378993034363, 0.07283738255500793, 0.07111333310604095, 0.06525866687297821, -0.17467008531093597, -0.10738608241081238, -0.22167955338954926, 0.11451791971921921, -0.07884029299020767 },
			{ 0.17070512473583221, -0.171938955783844, -0.04539079964160919, -0.04941880330443382, -0.015519416891038418, -0.16014182567596436, 0.011596712283790112, -0.25205740332603455, 0.16596762835979462, -0.2215576022863388 },
			{ 0.21618546545505524, 0.12050151079893112, -0.3653428852558136, -0.14934395253658295, 0.11879052221775055, 0.12522301077842712, 0.0741659477353096, -0.14985547959804535, -0.18273940682411194, -0.13937459886074066 },
			{ -0.23890894651412964, 0.04202253371477127, -0.42190811038017273, -0.24556736648082733, 0.29291340708732605, -0.05125904083251953, 0.07692745327949524, 0.06950471550226212, -0.01048598624765873, -0.18567082285881042 },
			{ -0.29227933287620544, 0.23016901314258575, -0.037007369101047516, -0.3585284948348999, 0.32403337955474854, -0.22992202639579773, 0.006863750983029604, -0.040206119418144226, 0.07032699882984161, -0.20613323152065277 },
			{ -0.06613805890083313, 0.25625425577163696, -0.12986218929290771, -0.36635011434555054, 0.1265009492635727, 0.08816240727901459, -0.15668824315071106, -0.14863276481628418, -0.10844454169273376, -0.3944697380065918 },
			{ -0.08431164920330048, 0.22640617191791534, -0.19206789135932922, -0.2151605486869812, 0.144440159201622, -0.029614800587296486, -0.020707886666059494, -0.21954487264156342, -0.02061907760798931, -0.3072238862514496 },
			{ -0.19923894107341766, -0.02637665346264839, -0.131186380982399, -0.1791914999485016, -0.023001989349722862, -0.09201639890670776, 0.07274172455072403, -0.14984498918056488, 0.15662191808223724, -0.0353253148496151 },
			{ 0.13983646035194397, 0.09842247515916824, -0.16089998185634613, 0.06634971499443054, -0.11403343826532364, -0.08229585736989975, 0.09341289848089218, -0.03125222772359848, -0.10560666024684906, 0.07013300806283951 },
			{ 0.07095365226268768, -0.00013290118658915162, -0.0640128031373024, 0.02519186958670616, -0.03368017449975014, -0.2402597814798355, -0.11938624083995819, 0.23070953786373138, -0.25760143995285034, -0.21895146369934082 },
			{ -0.03934343531727791, -0.031701523810625076, -0.07372275739908218, 0.16714277863502502, -0.0594613179564476, -0.2540265619754791, -0.04174643009901047, 0.32457882165908813, -0.24042508006095886, -0.6542000770568848 },
			{ -0.1816176027059555, 0.11172875016927719, -0.15603135526180267, 0.16735202074050903, -0.04104626551270485, -0.13862022757530212, -0.08187679201364517, 0.7063827514648438, -0.3102295994758606, -0.904693067073822 },
			{ -0.06487242132425308, -0.1229613721370697, 0.1276511549949646, 0.1390540897846222, 0.004292177967727184, -0.12373492121696472, -0.2377927005290985, 0.7590907216072083, -0.15201377868652344, -0.6884227991104126 },
			{ 0.07930918037891388, -0.15132683515548706, 0.17467045783996582, 0.08280355483293533, 0.013256740756332874, -0.18483534455299377, -0.2087121158838272, 0.1545553058385849, 0.1048678457736969, -0.16898927092552185 },
			{ -0.0921388491988182, -0.3090643882751465, 0.29703187942504883, 0.10673626512289047, -0.1490408480167389, -0.15372800827026367, -0.21093961596488953, -0.1504019796848297, 0.13266655802726746, -0.08529308438301086 },
			{ -0.15783783793449402, -0.2104594111442566, 0.24870942533016205, 0.13090260326862335, -0.18969027698040009, 0.04607842490077019, -0.04505760595202446, -0.3252212703227997, 0.020771849900484085, 0.06465162336826324 },
			{ 0.06485036015510559, -0.09047553688287735, -0.08766458183526993, 0.035184524953365326, 0.003849937114864588, 0.05382216349244118, 0.049818675965070724, -0.40332794189453125, -0.042254723608493805, -0.0875956118106842 },
			{ -0.07371243089437485, -0.05178346857428551, -0.334634929895401, -0.20051538944244385, 0.2617010474205017, 0.09946685284376144, 0.020963767543435097, -0.09648645669221878, -0.1374998241662979, -0.11953067779541016 },
			{ -0.19787459075450897, -0.22097747027873993, -0.5515037775039673, -0.43581506609916687, 0.06841500103473663, 0.20767496526241302, 0.0832253247499466, -0.24807986617088318, 0.1000603586435318, -0.17371781170368195 },
			{ -0.3007802963256836, -0.2684808075428009, -0.3948604464530945, -0.4553438127040863, -0.017115730792284012, 0.2073914259672165, 0.24067474901676178, 0.0018412776989862323, 0.14525815844535828, -0.3000198304653168 },
			{ -0.11936300247907639, -0.18437696993350983, -0.25846078991889954, -0.42401647567749023, 0.03689751774072647, 0.06214458867907524, 0.07128313183784485, 0.00472117168828845, 0.11750741302967072, -0.19801971316337585 },
			{ 0.007616584189236164, -0.16043062508106232, 0.048309776932001114, -0.593660831451416, -0.03772952780127525, -0.003199242753908038, -0.022948864847421646, -0.17081710696220398, 0.012874173000454903, 0.01015806570649147 },
			{ -0.027236731722950935, -0.013562423177063465, 0.07163623720407486, 0.11822791397571564, 0.007543649524450302, -0.3233526647090912, 0.0916726142168045, -0.043288715183734894, -0.07289215177297592, -0.22340841591358185 },
			{ 0.00685167359188199, -0.09795119613409042, 0.014697480015456676, 0.1396082043647766, 0.02234932966530323, -0.1293991208076477, -0.1119186282157898, 0.030549272894859314, -0.047540079802274704, -0.2929806411266327 },
			{ -0.16457392275333405, 0.05848710611462593, -0.09540089964866638, 0.17954577505588531, -0.10111606866121292, -0.13987945020198822, -0.0024758651852607727, 0.46972113847732544, -0.03620826080441475, -0.5742482542991638 },
			{ -0.10334168374538422, 0.14566881954669952, 0.08728314191102982, 0.11445226520299911, 0.0338904932141304, -0.2578449249267578, -0.32351213693618774, 0.39390629529953003, 0.10847026109695435, -0.6155391335487366 },
			{ -0.26043975353240967, 0.048203617334365845, 0.07850117236375809, 0.146900475025177, 0.01898558996617794, -0.17015977203845978, -0.45193132758140564, 0.3218083381652832, 0.0716949999332428, -0.6210339665412903 },
			{ -0.2631177306175232, -0.17068123817443848, 0.10188189148902893, 0.24275508522987366, -0.009911262430250645, -0.1621422916650772, -0.40687403082847595, 0.16087618470191956, -0.02770964242517948, 0.0008896369836293161 },
			{ -0.13421648740768433, -0.30934759974479675, 0.09573601931333542, 0.13130711019039154, -0.18637841939926147, -0.004128605127334595, -0.3727624714374542, 0.05901877582073212, 0.0805218294262886, 0.17179769277572632 },
			{ -0.05441832169890404, -0.32611364126205444, 0.06613550335168839, 0.14735651016235352, -0.33028700947761536, -0.021636970341205597, -0.24323934316635132, 0.22087958455085754, 0.05513274669647217, 0.10510411858558655 },
			{ 0.051170263439416885, -0.2157737761735916, 0.07199215888977051, -0.10804426670074463, -0.256869912147522, 0.13944776356220245, 0.03708484396338463, -0.06120830401778221, 0.04176907241344452, 0.022158421576023102 },
			{ -0.1505759358406067, -0.35671094059944153, 0.05611109733581543, -0.15389040112495422, -0.1672050803899765, 0.26229462027549744, 0.19084972143173218, -0.15860188007354736, -0.04948360472917557, 0.10491232573986053 },
			{ -0.14459435641765594, -0.2343679666519165, -0.2572466731071472, -0.22037357091903687, -0.04126043617725372, 0.13050933182239532, 0.17472077906131744, -0.06604450196027756, 0.09108217805624008, -0.2797591984272003 },
			{ -0.2989725172519684, 0.011377934366464615, -0.5046341419219971, -0.26772403717041016, 0.08497068285942078, 0.2558877468109131, 0.21828138828277588, -0.17981895804405212, 0.1409597247838974, -0.2571624517440796 },
			{ -0.20563338696956635, -0.14685609936714172, -0.387076735496521, -0.42273661494255066, 0.2534940242767334, 0.1269649714231491, 0.05248190090060234, -0.35001593828201294, 0.15968117117881775, -0.40226176381111145 },
			{ -0.20754003524780273, -0.06574665009975433, -0.14164404571056366, -0.2397446185350418, 0.21884916722774506, -0.02938714064657688, 0.1710101068019867, -0.2696036994457245, 0.08588982373476028, -0.3818357586860657 },
			{ -0.1419045329093933, 0.07865118235349655, -0.008404447697103024, 0.24688516557216644, -0.23351432383060455, -0.1854417324066162, 0.06726055592298508, 0.08719618618488312, -0.05593341588973999, -0.2775273323059082 },
			{ -0.030682232230901718, 0.09448423981666565, 0.123716801404953, 0.0853632315993309, -0.02546367235481739, -0.049293603748083115, -0.18314924836158752, 0.1767076700925827, -0.008098697289824486, -0.2959424555301666 },
			{ -0.09256009012460709, 0.04199669882655144, 0.010618478991091251, -0.017188644036650658, 0.0679488480091095, -0.001019914518110454, -0.09888941049575806, 0.022435331717133522, 0.04338566213846207, -0.39059311151504517 },
			{ -0.14664442837238312, 0.07557548582553864, 0.05826627463102341, 0.00905950553715229, -0.003547642845660448, -0.044274263083934784, -0.3863736093044281, 0.07176975160837173, -0.05516708642244339, -0.1931755542755127 },
			{ -0.18212011456489563, -0.06365787237882614, 0.09944303333759308, 0.04140389338135719, -0.19856169819831848, -0.23488165438175201, -0.38421207666397095, 0.12216416001319885, 0.12626728415489197, -0.006783932447433472 },
			{ -0.08047538995742798, -0.0810081884264946, 0.09658845514059067, 0.17357930541038513, -0.2978048324584961, -0.10288270562887192, -0.36415645480155945, 0.04668078571557999, 0.0029165546875447035, 0.031132152304053307 },
			{ 0.003173182252794504, -0.18013840913772583, 0.1378358155488968, 0.11064109951257706, -0.5992097854614258, -0.038838207721710205, -0.22210848331451416, 0.10349200665950775, 0.02227291464805603, 0.09225457161664963 },
			{ 0.019096963107585907, -0.2699078917503357, 0.04106578603386879, 0.07251231372356415, -0.5201227068901062, 0.06462917476892471, -0.05536876991391182, 0.0266947690397501, 0.0783211886882782, 0.08702868223190308 },
			{ -0.008197417482733727, -0.47354263067245483, 0.06767772883176804, -0.06753064692020416, -0.4872857630252838, 0.3155096173286438, 0.12642759084701538, 0.13522900640964508, 0.02577851712703705, 0.05590926110744476 },
			{ 0.020450033247470856, -0.5666761994361877, -0.07230100780725479, -0.11992345005273819, -0.5620309710502625, 0.33441418409347534, 0.29335516691207886, 0.020702050998806953, 0.011126499623060226, -0.0038087356369942427 },
			{ -0.0035414230078458786, -0.19983816146850586, -0.09823474287986755, -0.11951437592506409, -0.26301059126853943, 0.3965863585472107, 0.1595761626958847, -0.16749411821365356, 0.01727832853794098, -0.08713096380233765 },
			{ -0.19194212555885315, -0.04236292839050293, -0.361432284116745, -0.03136514127254486, 0.0957580953836441, 0.2738804221153259, 0.1549621820449829, -0.13269208371639252, -0.1159418523311615, -0.05815570428967476 },
			{ -0.1318473517894745, -0.12055367976427078, -0.017755595967173576, -0.03476634621620178, 0.0816890150308609, 0.10417994111776352, 0.07249664515256882, -0.2200918346643448, -0.05258801579475403, -0.08601268380880356 },
			{ -0.03662976995110512, -0.08179851621389389, -0.014770828187465668, 0.021687377244234085, 0.13850603997707367, -0.02080901712179184, 0.08250970393419266, -0.3147117793560028, -0.07129761576652527, -0.12746533751487732 },
			{ -0.04255513846874237, 0.02445259317755699, -0.025541918352246284, 0.10032013058662415, -0.1518893539905548, -0.24810285866260529, 0.11460495740175247, 0.11577101051807404, 0.1283540278673172, -0.16329239308834076 },
			{ -0.10311298072338104, -0.17127573490142822, -0.0017128875479102135, -0.011843698099255562, -0.11838511377573013, -0.08403660356998444, -0.04429376497864723, 0.1447920948266983, 0.07203471660614014, 0.025781262665987015 },
			{ -0.14572100341320038, -0.026383904740214348, -0.04555346816778183, 0.08004289865493774, 0.07315153628587723, -0.16851545870304108, -0.16480191051959991, 0.1338033825159073, 0.02408469095826149, -0.1711197942495346 },
			{ -0.19321882724761963, -0.02787337265908718, 0.07738084346055984, 0.08243543654680252, -0.016618279740214348, -0.14893679320812225, -0.2307676076889038, 0.05429457500576973, -0.019291700795292854, -0.05720606446266174 },
			{ -0.11870064586400986, 0.005471642594784498, 0.02745029143989086, 0.21495471894741058, -0.22052611410617828, -0.15061834454536438, -0.5337643623352051, 0.05870138108730316, -0.058241624385118484, -0.04443437606096268 },
			{ -0.10882098227739334, 0.0131392115727067, 0.09655396640300751, 0.20930223166942596, -0.4751826822757721, -0.16798973083496094, -0.4621325731277466, -0.00724346237257123, -0.0011132776271551847, -0.03285118192434311 },
			{ -0.010141247883439064, -0.10146220773458481, 0.142250195145607, 0.16359882056713104, -0.17932739853858948, 0.041786275804042816, -0.4236350655555725, 0.1231168657541275, 0.034026242792606354, -0.11461155116558075 },
			{ 0.061652228236198425, -0.19622978568077087, 0.13593091070652008, 0.03768710047006607, -0.13367408514022827, 0.038460537791252136, -0.18998096883296967, 0.08913465589284897, -0.09235908091068268, -0.06047184020280838 },
			{ -0.011868036352097988, -0.27689749002456665, 0.06848686933517456, 0.12075482308864594, -0.21171289682388306, 0.18991659581661224, 0.026804432272911072, 0.19543957710266113, 0.030620910227298737, -0.11711521446704865 },
			{ -0.06799851357936859, -0.4248614013195038, -0.009260013699531555, 0.0830886960029602, -0.38621342182159424, 0.21222363412380219, 0.24744178354740143, -0.01831241510808468, 0.06917189061641693, -0.2000214159488678 },
			{ -0.1771182417869568, -0.1547839343547821, -0.0800221636891365, -0.0036439986433833838, -0.14563877880573273, 0.16571582853794098, 0.20334140956401825, -0.009776784107089043, 0.16867196559906006, -0.03394346684217453 },
			{ -0.19071213901042938, -0.10088445246219635, -0.10858721286058426, 0.027400407940149307, -0.07385795563459396, 0.147771418094635, -0.004244721028953791, -0.116937555372715, -0.012197854928672314, -0.07798339426517487 },
			{ -0.16303344070911407, 0.026146695017814636, 0.09273843467235565, -0.03941057249903679, 0.06464720517396927, 0.12158180773258209, -0.24278230965137482, -0.09409772604703903, 0.01256207749247551, -0.14072948694229126 },
			{ -0.0748002901673317, -0.1422453373670578, 0.03882528841495514, -0.01992938481271267, 0.0851028710603714, 0.14176544547080994, -0.3497067391872406, -0.13252076506614685, -0.15345583856105804, -0.13455051183700562 },
			{ -0.018450502306222916, 0.12816348671913147, -0.16169655323028564, 0.04352289438247681, -0.0032301973551511765, -0.1446872353553772, 0.01724444329738617, 0.10236368328332901, -0.20921000838279724, -0.057343579828739166 },
			{ 0.13087473809719086, 0.01723657362163067, -0.17005707323551178, -0.08962314575910568, 0.10351555794477463, 0.09965182095766068, -0.047436270862817764, 0.09588682651519775, -0.031836409121751785, -0.1445063203573227 },
			{ -0.0383451022207737, 0.04083005711436272, 0.05865180492401123, 0.11724799126386642, -0.08998087793588638, 0.1727563589811325, -0.1437048465013504, 0.01646958850324154, 0.047713812440633774, -0.026890773326158524 },
			{ -0.20225408673286438, -0.08719100058078766, 0.06930045038461685, 0.16165246069431305, -0.20138229429721832, 0.04271204024553299, -0.1838199943304062, 0.026599742472171783, -0.04246320575475693, -0.015706073492765427 },
			{ -0.07580913603305817, 0.04918723925948143, 0.13065630197525024, 0.11563582718372345, -0.1599719226360321, 0.04329996928572655, -0.4342195391654968, -0.05906510725617409, 0.013390148989856243, -0.12483615428209305 },
			{ -0.1823386698961258, 0.008137177675962448, 0.12665635347366333, 0.21002240478992462, -0.17050513625144958, 0.0807955414056778, -0.5257883667945862, 0.1842694878578186, 0.047453902661800385, -0.09652254730463028 },
			{ -0.18630750477313995, 0.0014083724236115813, 0.04299955442547798, 0.050717465579509735, -0.11080086976289749, -0.037758342921733856, -0.40340933203697205, 0.15648527443408966, -0.1521110087633133, -0.03687956929206848 },
			{ -0.0658688098192215, -0.3343433141708374, -0.06028130277991295, 0.17727576196193695, -0.14373664557933807, 0.08977282792329788, -0.13109177350997925, 0.10101844370365143, 0.00231519085355103, 0.06410416960716248 },
			{ 0.021655680611729622, -0.26545384526252747, -0.06608252227306366, 0.10054861009120941, -0.35522210597991943, 0.24604769051074982, 0.023163927718997, -0.07074425369501114, 0.03165191784501076, -0.06176166981458664 },
			{ -0.12275345623493195, -0.31186455488204956, -0.0921010822057724, 0.18927210569381714, -0.3888551592826843, 0.17042915523052216, 0.174544095993042, -0.05487298592925072, 0.11830643564462662, -0.08054093271493912 },
			{ -0.03227885067462921, -0.14408019185066223, -0.0620267353951931, 0.057954415678977966, -0.23985891044139862, 0.0749099850654602, -0.009994756430387497, -0.09645476937294006, 0.10200294852256775, -0.07010902464389801 },
			{ -0.2701767086982727, -0.039487916976213455, 0.043248552829027176, 0.22683939337730408, -0.13114599883556366, 0.056740909814834595, -0.2382434606552124, 0.08078351616859436, 0.1678687334060669, -0.08810064196586609 },
			{ -0.14586806297302246, 0.01415856834501028, 0.11070629954338074, 0.15311910212039948, -0.06794873625040054, 0.25022995471954346, -0.3777877688407898, -0.060750849545001984, 0.11526358127593994, -0.07004048675298691 },
			{ -0.14808624982833862, -0.014252846129238605, 0.036863941699266434, -0.1728610247373581, -0.30061134696006775, 0.3855923116207123, -0.3666587471961975, -0.17891225218772888, 0.1772357076406479, -0.01438971422612667 },
			{ -0.05852954834699631, 0.04995221644639969, -0.03400316461920738, -0.1130194365978241, -0.0817013755440712, 0.01233514491468668, -0.13888734579086304, 0.13353672623634338, 0.03229347988963127, -0.03626862168312073 },
			{ 0.08310670405626297, 0.01363325584679842, -0.13370800018310547, -0.08750895410776138, -0.030336886644363403, -0.12640778720378876, -0.026158081367611885, -0.006490777712315321, 0.013125809840857983, -0.023849643766880035 },
			{ -0.07396681606769562, -0.03273569047451019, 0.010850244201719761, 0.007063377648591995, 0.027674200013279915, 0.1607353538274765, -0.04677159711718559, 0.013807414099574089, -0.006066946778446436, -0.09559691697359085 },
			{ -0.18523582816123962, -0.13175518810749054, -0.09400837868452072, 0.05159483850002289, -0.08673004806041718, 0.31743863224983215, -0.24777156114578247, 0.08817440271377563, 0.054693982005119324, -0.05967681482434273 },
			{ -0.28156283497810364, 0.0144715690985322, -0.00011529761832207441, 0.22764432430267334, -0.07733497768640518, 0.2783273458480835, -0.24321666359901428, 0.016430648043751717, -0.02265329286456108, -0.14375583827495575 },
			{ -0.13462236523628235, -0.0014114330988377333, 0.054702285677194595, 0.07759535312652588, 0.04650706425309181, 0.05293194577097893, -0.429852694272995, 0.21706844866275787, -0.10196325182914734, -0.046627309173345566 },
			{ -0.3230489194393158, -0.18368831276893616, -0.22598622739315033, 0.09801380336284637, 0.06037920340895653, 0.0025567535776644945, -0.20549196004867554, 0.06008359417319298, -0.03306266665458679, 0.1701081395149231 },
			{ -0.148623988032341, -0.42786943912506104, -0.24753499031066895, 0.10896740108728409, -0.08172119408845901, 0.13740123808383942, -0.13168758153915405, -0.17232105135917664, 0.08805655688047409, 0.30987733602523804 },
			{ -0.07427473366260529, -0.25748443603515625, -0.17355597019195557, 0.17968004941940308, -0.20119421184062958, 0.08962929993867874, 0.04261857643723488, -0.27171239256858826, 0.15035220980644226, 0.18887688219547272 },
			{ -0.25031957030296326, -0.14563588798046112, -0.06614305824041367, 0.12505318224430084, 0.019268982112407684, -0.080180823802948, 0.027609262615442276, -0.09642968326807022, 0.0648442953824997, -0.021541457623243332 },
			{ -0.07560887187719345, -0.098631352186203, -0.13143637776374817, 0.07179873436689377, 0.010224725119769573, -0.21714000403881073, -0.20599795877933502, -0.0817544087767601, 0.1253746896982193, -0.0004768787184730172 },
			{ 0.038818176835775375, -0.16119328141212463, 0.08339834213256836, -0.06674017757177353, -0.020427808165550232, -0.10300102084875107, -0.1882210075855255, -0.11135666072368622, 0.3302159011363983, 0.018961947411298752 },
			{ -0.032288968563079834, -0.005910828243941069, 0.1795939803123474, -0.23192115128040314, 0.00028869701782241464, -0.20524893701076508, -0.06810060888528824, -0.14660488069057465, 0.09649292379617691, -0.08260910958051682 },
			{ -0.04639020934700966, 0.09737887978553772, 0.256984144449234, -0.4810892343521118, -0.0750444233417511, -0.03931780904531479, 0.09213393926620483, -0.12488728761672974, 0.051928672939538956, -0.00781785324215889 },
			{ 0.017807934433221817, 0.11465928703546524, -0.03428890183568001, 0.09408364444971085, -0.009752459824085236, 0.057618360966444016, -0.22968564927577972, 0.161589115858078, -0.3133363127708435, 0.011462116613984108 },
			{ 0.03152571618556976, 0.021970110014081, 0.0005171172088012099, -0.03312385082244873, 0.053027015179395676, 0.12004722654819489, -0.0673244297504425, 0.053937334567308426, -0.2090335488319397, -0.004755673464387655 },
			{ 0.1027984619140625, 0.03131295368075371, -0.1437172144651413, -0.004148996435105801, 0.12074471265077591, 0.17337796092033386, -0.038230083882808685, -0.06295033544301987, -0.0892036110162735, -0.03550466150045395 },
			{ 0.037042394280433655, -0.04388785362243652, -0.13029421865940094, 0.090491883456707, 0.03633280098438263, 0.23939776420593262, -0.20475122332572937, -0.05231373384594917, 0.042002905160188675, 0.0683678686618805 },
			{ -0.13322831690311432, -0.030259400606155396, -0.0753258541226387, 0.12523700296878815, 0.004926531575620174, 0.14346538484096527, -0.20617109537124634, 0.03223716840147972, 0.012402812018990517, -0.09656606614589691 },
			{ -0.42228463292121887, 0.1166713684797287, -0.18160365521907806, 0.03286664932966232, 0.052837222814559937, 0.07229393720626831, -0.15410323441028595, -0.007588469889014959, 0.04953813925385475, 0.05912530794739723 },
			{ -0.30833929777145386, -0.27148357033729553, -0.144548237323761, 0.02596631646156311, 0.07623971253633499, 0.1585913449525833, -0.13024836778640747, -0.1864047348499298, -0.017527667805552483, 0.21252426505088806 },
			{ -0.3695000410079956, -0.2665078043937683, 0.026429036632180214, 0.17651019990444183, -0.03874080255627632, -0.007229723501950502, -0.06685933470726013, -0.43562594056129456, 0.11215551197528839, 0.21333159506320953 },
			{ -0.3331740200519562, -0.07545076310634613, -0.01774933934211731, 0.10075701773166656, 0.05345870554447174, -0.09248588979244232, 0.03650666028261185, -0.11220066249370575, 0.055660031735897064, 0.09196094423532486 },
			{ -0.07702479511499405, -0.08272350579500198, 0.008189388550817966, -0.008867759257555008, 0.1876114308834076, -0.027485646307468414, -0.037524595856666565, -0.03486206382513046, 0.09026326984167099, 0.08761943131685257 },
			{ 0.029703838750720024, -0.3401745557785034, -0.0542961061000824, 0.030525613576173782, 0.06427614390850067, -0.2340116798877716, -0.031721629202365875, 0.20192378759384155, 0.1644718199968338, -0.03916384279727936 },
			{ 0.0713319331407547, -0.12682612240314484, 0.104799784719944, -0.12246180325746536, 0.11028588563203812, -0.33503028750419617, 0.037624698132276535, 0.11772701889276505, 0.11431198567152023, -0.0609419047832489 },
			{ 0.03873042017221451, 0.07006727904081345, 0.2588510811328888, -0.3987976908683777, -0.02210935391485691, -0.25160443782806396, 0.05011741816997528, -0.034486740827560425, -0.1116337850689888, -0.035200610756874084 },
			{ 0.09468360990285873, -0.07660361379384995, 0.19953985512256622, -0.0728456974029541, -0.17841297388076782, -0.15564481914043427, 0.05985500290989876, -0.15795792639255524, -0.16891057789325714, -0.1202227920293808 },
			{ 0.006835430394858122, -0.0016980193322524428, 0.07373615354299545, 0.13033106923103333, 0.01878332532942295, 0.056689731776714325, 0.029113130643963814, -0.1330506056547165, -0.24966932833194733, -0.06273378431797028 },
			{ -0.07512255012989044, -0.0886617973446846, -0.02677612006664276, 0.12059042602777481, -0.047233786433935165, 0.08760737627744675, 0.022953426465392113, -0.17629790306091309, -0.016867028549313545, -0.06005997583270073 },
			{ -0.06464485824108124, 0.004966931417584419, -0.023310720920562744, 0.08722484111785889, -0.05855649709701538, 0.2424248903989792, -0.016008375212550163, -0.05970148369669914, -0.06386460363864899, -0.014591759070754051 },
			{ -0.0786626860499382, -0.04955955594778061, -0.13671188056468964, 0.14581480622291565, 0.06381706148386002, 0.17155294120311737, -0.01627631112933159, -0.022236326709389687, -0.02307206578552723, -0.07745815813541412 },
			{ -0.025015681982040405, -0.1032177060842514, -0.16468912363052368, 0.1326921284198761, 0.005652051419019699, 0.10449285060167313, -0.04667925834655762, -0.13099806010723114, -0.23863382637500763, 0.05172507092356682 },
			{ -0.12046580761671066, -0.08787301927804947, -0.10073057562112808, 0.10306333750486374, 0.05687977373600006, 0.10887295752763748, -0.22877848148345947, -0.13109037280082703, -0.08583173900842667, 0.27803853154182434 },
			{ -0.23448218405246735, -0.1760968714952469, -0.007163664326071739, 0.09650611877441406, 0.08907238394021988, 0.12513796985149384, -0.11033737659454346, -0.27736636996269226, 0.04265114665031433, 0.16192282736301422 },
			{ -0.21660712361335754, -0.13231781125068665, 0.02984805218875408, 0.06492546945810318, 0.016259770840406418, -0.0534851998090744, -0.02914162538945675, -0.28954610228538513, 0.06202656403183937, 0.04773406684398651 },
			{ -0.008576536551117897, -0.23845192790031433, -0.0400555394589901, -0.050896573811769485, 0.08362723886966705, 0.029557684436440468, -0.0207960307598114, -0.06534378975629807, -0.09169746935367584, 0.06929104775190353 },
			{ 0.04211173579096794, -0.6142722368240356, 0.05215216055512428, -0.11083332449197769, 0.0699148029088974, -0.042286138981580734, 0.14525046944618225, 0.04186874255537987, -0.06867314875125885, -0.09477284550666809 },
			{ 0.07214564085006714, -0.29260969161987305, 0.08889400213956833, -0.09758582711219788, 0.05479588359594345, -0.06600149720907211, 0.1520882248878479, 0.15308839082717896, -0.07105571031570435, -0.21299611032009125 },
			{ 0.017875012010335922, 0.011278821155428886, 0.14327557384967804, -0.12727345526218414, 0.06224678456783295, -0.05897879600524902, 0.13052278757095337, 0.032469723373651505, -0.1266331672668457, -0.31021225452423096 },
			{ 0.09130494296550751, -0.017049767076969147, 0.08024194091558456, -0.08546685427427292, -0.09095263481140137, -0.17038510739803314, 0.06137767806649208, 0.04655997455120087, -0.18773919343948364, -0.06944451481103897 },
			{ 0.05501416698098183, -0.04926643520593643, 0.15604038536548615, 0.005013950169086456, -0.1109459325671196, 0.034099429845809937, 0.0026680375449359417, -0.11186012625694275, -0.2094963937997818, -0.31887155771255493 },
			{ -0.06829087436199188, 0.08332841843366623, -0.03563084453344345, 0.09685105830430984, -0.02496301382780075, -0.05150413513183594, -0.18951866030693054, -0.23745226860046387, -0.20244380831718445, -0.11775030195713043 },
			{ 0.012672724202275276, -0.017796924337744713, -0.013085694052278996, -0.034411754459142685, -0.12820446491241455, 0.0912562906742096, -0.048738956451416016, -0.11552831530570984, -0.02606922574341297, -0.11767126619815826 },
			{ -0.06897734105587006, -0.10372056812047958, -0.08841201663017273, 0.029572661966085434, 0.03783735632896423, -0.0015521245077252388, 0.0336277149617672, -0.1960689276456833, -0.005995104555040598, 0.0335882231593132 },
			{ -0.007846123538911343, -0.023547479882836342, -0.101414754986763, 0.11880508065223694, -0.08892340958118439, 0.08285050839185715, -0.044387087225914, -0.17301926016807556, -0.18274280428886414, 0.10432007908821106 },
			{ -0.007856659591197968, -0.09313193708658218, -0.09642039984464645, 0.2359451800584793, -0.001654049614444375, 0.22068463265895844, 0.029521502554416656, -0.17825840413570404, -0.15588264167308807, 0.21507319808006287 },
			{ 0.01324743963778019, -0.06142065301537514, -0.00430408725515008, 0.15714755654335022, -0.011568074114620686, 0.18023952841758728, -0.0815441757440567, -0.27957504987716675, -0.11117258667945862, 0.21802794933319092 },
			{ -0.04953436926007271, -0.024455541744828224, 0.047846175730228424, 0.03508477658033371, -0.05363747850060463, 0.06000276654958725, -0.06595978140830994, -0.22120502591133118, -0.09366393089294434, 0.27524814009666443 },
			{ 0.0017208389472216368, -0.16450387239456177, 0.014252600260078907, 0.039009179919958115, -0.02094789408147335, 0.00471873115748167, 0.0007385862991213799, -0.16050875186920166, 0.002655092626810074, -0.032925136387348175 },
			{ 0.060517892241477966, -0.2752140164375305, 0.017054153606295586, 0.06353117525577545, 0.08021242171525955, -0.04922262951731682, 0.05496177077293396, -0.027623990550637245, 0.034017570316791534, -0.10319633036851883 },
			{ -0.05150309577584267, -0.27485135197639465, 0.08858808130025864, 0.0569467768073082, 0.0406794548034668, -0.09556782245635986, 0.00021041033323854208, -0.10971692204475403, -0.015342233702540398, -0.14781403541564941 },
			{ -0.03777430206537247, 0.04509134218096733, 0.03280564025044441, -0.021354135125875473, -0.011184384115040302, 0.03132864087820053, 0.004909604787826538, -0.031656112521886826, -0.021878916770219803, -0.35717111825942993 },
			{ -0.008085623383522034, 0.1857578009366989, 0.11889361590147018, -0.02653234265744686, 0.034932129085063934, 0.014081335626542568, 0.05294572189450264, 0.12624235451221466, -0.07273989915847778, -0.1686590015888214 },
			{ 0.050829071551561356, 0.062172770500183105, 0.013285146094858646, -0.10547880828380585, 0.023307006806135178, -0.006476704962551594, 0.03845467045903206, 0.02888633869588375, -0.060702141374349594, -0.22779369354248047 },
			{ 0.07955673336982727, 0.07606357336044312, -0.005097652319818735, -0.08242776244878769, -0.059394706040620804, 0.01086131576448679, 0.08919176459312439, -0.10552939027547836, 0.08553647249937057, -0.09819839894771576 },
			{ -0.05963572487235069, -0.029685767367482185, 0.023640740662813187, 0.156905397772789, -0.05765385553240776, -0.07388871163129807, -0.030821004882454872, 0.1890275627374649, -0.1252095103263855, -0.24111613631248474 },
			{ 0.010876204818487167, 0.05157586932182312, -0.03282565623521805, 0.13319170475006104, 0.09102628380060196, 0.04980892315506935, 0.0012468844652175903, 0.017057720571756363, -0.025117307901382446, -0.04943754896521568 },
			{ -0.0693969577550888, 0.08564350008964539, -0.03473271057009697, 0.05458676069974899, -0.03104606457054615, 0.011217456310987473, 0.01719050109386444, -0.0011447679717093706, -0.12300994247198105, -0.029676739126443863 },
			{ 0.09983789175748825, 0.17108017206192017, -0.038332972675561905, 0.20566146075725555, 0.02442820742726326, 0.08816638588905334, -0.041805971413850784, -0.2728918492794037, -0.08303797990083694, 0.13688120245933533 },
			{ 0.0309296865016222, 0.1243443712592125, -0.006876078434288502, 0.10428468883037567, -0.048698168247938156, 0.13419808447360992, 0.07132630050182343, -0.17347759008407593, -0.03650834411382675, 0.0059458720497787 },
			{ 0.04332779347896576, 0.03292560577392578, 0.025128189474344254, 0.1825011521577835, -0.17802095413208008, 0.09029728174209595, -0.010107799433171749, -0.11478487402200699, -0.1255834549665451, 0.037195079028606415 },
			{ 0.048611704260110855, 0.05924653634428978, -0.03851323574781418, 0.008616868406534195, -0.08653076738119125, 0.08797673135995865, 0.08215714991092682, -0.16718533635139465, -0.07197121530771255, -0.07755457609891891 },
			{ -0.0033823431003838778, 0.048541586846113205, 0.08372843265533447, 0.07122291624546051, -0.041872840374708176, -0.01282123290002346, 0.1710096001625061, -0.23841525614261627, -0.03312226012349129, -0.09845525026321411 },
			{ -0.00827631913125515, 0.005323335994035006, -0.054024018347263336, 0.05849104002118111, -0.1710178703069687, -0.035032160580158234, 0.04005564749240875, -0.26036515831947327, -0.017373021692037582, -0.1934204250574112 },
			{ -0.038114458322525024, 0.09176481515169144, 0.20498068630695343, -0.02157999761402607, 0.028679313138127327, -0.022340457886457443, 0.11311657726764679, -0.2513316571712494, -0.018329469487071037, -0.285835862159729 },
			{ -0.0531160905957222, 0.09847116470336914, 0.14465756714344025, -0.027013996616005898, -0.004735080525279045, -0.03420528769493103, 0.027970198541879654, -0.14599616825580597, 0.027582760900259018, -0.1329430341720581 },
			{ -0.1131177693605423, 0.2087572067975998, 0.15786094963550568, 0.02189410850405693, -0.0548800528049469, -0.03300204128026962, 0.05942360684275627, -0.12938004732131958, -0.005998828448355198, -0.17844094336032867 },
			{ -0.093967966735363, 0.20257484912872314, -0.022023040801286697, -0.11043255031108856, 0.07125475257635117, -0.016712432727217674, -0.05217031389474869, -0.1351860761642456, 0.05569853261113167, 0.027921883389353752 },
			{ -0.11607810854911804, 0.19619551301002502, -0.17253533005714417, -0.14966687560081482, -0.09161410480737686, 0.07401511818170547, -0.036093272268772125, -0.22730757296085358, 0.0784856528043747, 0.11471371352672577 },
			{ 0.06677373498678207, 0.10499667376279831, 0.14657917618751526, -0.036085281521081924, -0.09157152473926544, -0.06248989328742027, -0.09081196784973145, -0.1571013629436493, -0.1714879870414734, -0.04207717627286911 },
			{ 0.059771835803985596, 0.130881205201149, 0.10364657640457153, -0.05978928506374359, -0.08386661112308502, -0.10512801259756088, -0.28354597091674805, -0.1864582598209381, -0.038457684218883514, -0.0017205594340339303 },
			{ 0.09047993272542953, 0.014577646739780903, -0.0504530668258667, 0.044950567185878754, -0.18659816682338715, -0.013121525757014751, -0.019977007061243057, -0.08555498719215393, -0.05483685061335564, 0.05399703606963158 },
			{ 0.1918947994709015, -0.009502675384283066, -0.06786034256219864, 0.07054120302200317, -0.1800682246685028, -0.012158348225057125, 0.03546536713838577, -0.0390344113111496, -0.07566595822572708, 0.013493611477315426 },
			{ 0.21537742018699646, -0.021845877170562744, 0.01871611177921295, 0.019489673897624016, -0.14190377295017242, 0.06466366350650787, 0.11833378672599792, -0.037970010191202164, -0.007345055229961872, -0.0382525734603405 },
			{ 0.05497840419411659, -0.07641580700874329, 0.042717915028333664, 0.056721340864896774, -0.14396481215953827, 0.002105486812070012, 0.0944204032421112, -0.11583961546421051, 0.080732561647892, -0.04393794760107994 },
			{ 0.007095708511769772, -0.10541270673274994, -0.043119125068187714, -0.0372740663588047, -0.07818282395601273, 0.10626234859228134, 0.038013383746147156, -0.09846094250679016, 0.05010309815406799, 0.015413145534694195 },
			{ 0.017207490280270576, -0.12557098269462585, -0.08338239789009094, 0.11918668448925018, -0.2065267562866211, -0.018085286021232605, 0.004761316813528538, -0.15841589868068695, 0.03953338786959648, -0.08316903561353683 },
			{ 0.06904720515012741, 0.03747032582759857, 0.03364541009068489, 0.02610037289559841, -0.07165791839361191, 0.05659540742635727, 0.02852010540664196, -0.1430896669626236, 0.03224948048591614, -0.06985796988010406 },
			{ 0.035657159984111786, 0.126798614859581, 0.08137553930282593, 0.05396527796983719, -0.05829545482993126, 0.044940683990716934, -0.02310176193714142, -0.12748278677463531, 0.0361793115735054, -0.09159118682146072 },
			{ -0.010492652654647827, 0.1750849336385727, 0.19308410584926605, 0.06131140887737274, -0.023318462073802948, -0.05759487673640251, 0.10914253443479538, -0.10767687112092972, 0.03989696502685547, -0.10138235241174698 },
			{ -0.021927019581198692, 0.08355704694986343, 0.0782354474067688, -0.06128775700926781, 0.1815049946308136, -0.11005893349647522, 0.07142707705497742, -0.24919575452804565, 0.030878517776727676, -0.10836189240217209 },
			{ -0.09830232709646225, 0.11682140827178955, -0.025347108021378517, -0.17684543132781982, 0.13833850622177124, -0.02179919183254242, -0.028789347037672997, -0.2890850305557251, 0.017850656062364578, 0.05008239671587944 },
			{ -0.14736969769001007, 0.01613335870206356, 0.1139247938990593, -0.11992514878511429, -0.006451830733567476, 0.025148754939436913, -0.2791716754436493, -0.23690681159496307, -0.06308304518461227, 0.22446124255657196 },
			{ -0.06870905309915543, -0.1180199608206749, -0.1429467797279358, 0.0279138945043087, -0.27814728021621704, 0.14068585634231567, 0.0974523052573204, 0.1402331292629242, -0.054234232753515244, -0.11028479039669037 },
			{ 0.049585938453674316, 0.018342146649956703, -0.12593646347522736, 0.0003764678258448839, -0.1167442724108696, -0.0853242576122284, -0.1387287974357605, 0.1948646754026413, -0.1390136480331421, -0.03410331532359123 },
			{ 0.12663881480693817, 0.0031163268722593784, 0.034962281584739685, 0.08416703343391418, 0.017208099365234375, -0.09350265562534332, -0.20719043910503387, 0.17386263608932495, -0.10840506851673126, 0.019234731793403625 },
			{ 0.051636792719364166, -0.045819301158189774, -0.029628317803144455, 0.09166548401117325, 0.0895521342754364, -0.039352186024188995, -0.12126635760068893, -0.019361380487680435, 0.005186272319406271, -0.03945130854845047 },
			{ 0.14375805854797363, 0.07717573642730713, 0.011092627421021461, 0.10475186258554459, 0.010198195464909077, 0.0005551572539843619, -0.09994389116764069, -0.07746012508869171, 0.09079664200544357, -0.12825362384319305 },
			{ -0.01922645978629589, -0.04621423780918121, -0.005357097368687391, 0.07218042761087418, -0.061060622334480286, 0.043088942766189575, -0.08242173492908478, -0.12805749475955963, 0.13782797753810883, -0.15389931201934814 },
			{ 0.05398477241396904, 0.056727394461631775, 0.011370171792805195, 0.12553705275058746, -0.04564229026436806, 0.019714219495654106, -0.05893642455339432, -0.10916217416524887, 0.1348840445280075, -0.04906323552131653 },
			{ -0.01877615787088871, -0.004924493841826916, 0.1121271550655365, 0.022805863991379738, -0.045641761273145676, 0.022487973794341087, -0.10979785025119781, -0.20022813975811005, -0.00535519327968359, -0.15007571876049042 },
			{ 0.04514352232217789, -0.09124112129211426, 0.09569953382015228, 0.014934784732758999, -0.10831120610237122, 0.0006126574007794261, -0.02135942317545414, -0.11735521256923676, 0.012129528447985649, -0.09575804322957993 },
			{ 0.01594708114862442, -0.025516867637634277, 0.17059996724128723, 0.02914331667125225, -0.03787015378475189, -0.04909087345004082, -0.016258763149380684, -0.05164238438010216, 0.03291342034935951, 0.033304136246442795 },
			{ -0.189927875995636, 0.10025348514318466, 0.04922895133495331, -0.06366891413927078, -0.03737742081284523, -0.0018270120490342379, -0.05453338846564293, -0.06951358169317245, 0.113495372235775, -0.0171066801995039 },
			{ -0.27585336565971375, 0.03282024338841438, -0.08003883808851242, -0.04968341439962387, -0.12862974405288696, 0.048491962254047394, -0.09990539401769638, -0.06480737775564194, 0.002386165549978614, 0.1285650134086609 },
			{ -0.15921159088611603, -0.006496220361441374, 0.03699609264731407, -0.06322318315505981, 0.05734207481145859, 0.04987550154328346, -0.26984789967536926, -0.05539247393608093, -0.149104505777359, -0.000882711901795119 },
			{ -0.2249634563922882, -0.14391353726387024, 0.028028715401887894, -0.27136823534965515, -0.07348515093326569, 0.16937749087810516, -0.28449055552482605, -0.18926769495010376, -0.22980862855911255, 0.10303820669651031 },
			{ 0.08366508781909943, 0.007743575610220432, -0.05405087769031525, -0.19382143020629883, -0.08222883194684982, 0.2305704802274704, 0.027605855837464333, -0.04592301324009895, -0.0991353988647461, -0.015671072527766228 },
			{ 0.11335425823926926, 0.02169083058834076, 0.0354202538728714, -0.00761894416064024, -0.1720980852842331, 0.14498338103294373, 0.17036262154579163, 0.020508455112576485, -0.0969216376543045, -0.12204354256391525 },
			{ 0.0368797704577446, -0.014541108161211014, 0.10614965856075287, -0.01323061902076006, -0.1812250018119812, 0.04865766689181328, 0.186101034283638, -0.08056662976741791, -0.09676171094179153, -0.05483395233750343 },
			{ -0.008386225439608097, 0.0037402482703328133, 0.04945306479930878, -0.08709318935871124, -0.32050544023513794, 0.04126095771789551, 0.3004566431045532, -0.164419025182724, 0.027566105127334595, -0.1444326639175415 },
			{ -0.05886788293719292, -0.17091260850429535, 0.15611059963703156, 0.05727113038301468, -0.23376017808914185, -0.06115466728806496, 0.12643592059612274, -0.2128366082906723, 0.08938778936862946, -0.06472908705472946 },
			{ -0.14706994593143463, -0.08764529973268509, 0.13785633444786072, -0.003454511519521475, -0.3816800117492676, 0.07091929763555527, 0.21161140501499176, -0.2507718801498413, -0.0014924755087122321, -0.10254687815904617 },
			{ -0.1913817822933197, -0.11762720346450806, -0.000875768018886447, 0.06269631534814835, -0.3456374704837799, 0.18377049267292023, 0.11446017026901245, -0.20717307925224304, -0.014007407240569592, -0.02156178466975689 },
			{ -0.19398561120033264, 0.003322553588077426, -0.003489693393930793, 0.04629519209265709, -0.3814314007759094, 0.11990146338939667, 0.0786721408367157, -0.27824532985687256, 0.09861813485622406, -0.17307665944099426 },
			{ -0.18632057309150696, 0.023214783519506454, 0.024908851832151413, 0.07339326292276382, -0.1691809892654419, 0.17217957973480225, 0.05454965680837631, -0.29580360651016235, -0.03325437381863594, -0.05353593826293945 },
			{ -0.0770777016878128, -0.08497460931539536, -0.05654508247971535, 0.14607657492160797, -0.18681548535823822, 0.048439137637615204, 0.03659357130527496, -0.12718987464904785, -0.0355154387652874, -0.1277725249528885 },
			{ -0.18633590638637543, -0.12714442610740662, -0.0641893669962883, 0.12549082934856415, -0.07001762837171555, 0.03429465740919113, 0.08889192342758179, -0.10904180258512497, -0.022989492863416672, -0.20810748636722565 },
			{ -0.139383465051651, -0.10398845374584198, -0.008701058104634285, 0.11420854926109314, 0.019077610224485397, -0.10860083997249603, 0.057104986160993576, -0.048995181918144226, -0.01457587257027626, -0.14521574974060059 },
			{ -0.02209480106830597, -0.13293848931789398, 0.07542549818754196, -0.025889068841934204, 0.03923015296459198, -0.1363312005996704, 0.06581518799066544, -0.08199962228536606, 0.013802556321024895, -0.22155433893203735 },
			{ 0.09583967924118042, -0.05634148046374321, -0.07484404742717743, -0.2198302298784256, 0.044898346066474915, 0.10891862958669662, 0.10464127361774445, 0.003984444309026003, -0.0761929452419281, -0.0041327523067593575 },
			{ 0.09595555812120438, 0.0241998303681612, 0.08091148734092712, -0.11324940621852875, -0.1612747460603714, 0.19764193892478943, 0.03839828446507454, 0.060994952917099, -0.03592240437865257, -0.09929782152175903 },
			{ -0.05312592536211014, 0.050678376108407974, -0.17837844789028168, 0.004230775870382786, -0.024733180180191994, 0.06696231663227081, 0.162985697388649, -0.019062932580709457, -0.14088305830955505, -0.1828390210866928 },
			{ 0.0041085961274802685, -0.07238149642944336, 0.027453580871224403, 0.004328226204961538, -0.03946961835026741, 0.02208595722913742, 0.04331185668706894, 0.03438541293144226, -0.12081290781497955, -0.011514839716255665 },
			{ 0.041801661252975464, 0.01998993568122387, -0.030552059412002563, -0.05316288024187088, -0.024991139769554138, 0.03099244460463524, 0.07699347287416458, 0.031406719237565994, 0.009191606193780899, 0.06421209871768951 },
			{ 0.040933217853307724, -0.019143778830766678, 0.006137638818472624, 0.010453694500029087, -0.18427497148513794, 0.13545218110084534, 0.07923684269189835, -0.03305533900856972, -0.005605603102594614, 0.11636506021022797 },
			{ 0.07232694327831268, -0.015836302191019058, -0.015695421025156975, -0.1050879955291748, -0.21505975723266602, -0.01248963177204132, -0.02518935315310955, -0.012829030863940716, 0.08518356829881668, 0.17331504821777344 },
			{ -0.08178887516260147, 0.11286116391420364, -0.13246260583400726, 0.02284218743443489, -0.07066791504621506, -0.006453560199588537, 0.010664508678019047, -0.10739659518003464, -0.018675127997994423, 0.08175159990787506 },
			{ -0.010714349336922169, 0.043515004217624664, -0.0791480764746666, 0.02529170922935009, -0.07390689849853516, 0.06271404027938843, 0.05354410409927368, -0.13122040033340454, 0.031130827963352203, -0.05149133503437042 },
			{ -0.03971095383167267, 0.00656697666272521, -0.11504154652357101, 0.030368978157639503, 0.0006836710963398218, 0.11509431153535843, -0.05470827966928482, -0.12882885336875916, 0.043864063918590546, -0.0893414095044136 },
			{ -0.00458157155662775, 0.042365822941064835, 0.0031207995489239693, 0.01030286680907011, 0.03569357842206955, 0.027116866782307625, 0.11027447879314423, -0.06798414885997772, 0.048639167100191116, -0.09347786754369736 },
			{ 0.026829667389392853, -0.09215627610683441, 0.1453201174736023, 0.010913894511759281, 0.14533181488513947, -0.12848319113254547, -0.008741039782762527, -0.26787692308425903, 0.05938110873103142, -0.09462695568799973 },
			{ -0.004340845160186291, -0.07338058203458786, 0.191475510597229, 0.0328848697245121, 0.11224529892206192, -0.13797993957996368, 0.03606663644313812, -0.22596894204616547, -0.053191449493169785, -0.14705412089824677 },
			{ -0.023023411631584167, 0.07307956367731094, 0.21443352103233337, 0.1388637274503708, 0.0206825602799654, -0.07389412820339203, -0.012784273363649845, -0.15281370282173157, -0.053625691682100296, -0.21854642033576965 },
			{ -0.09065942466259003, -0.02892100252211094, -0.017732199281454086, -0.10205378383398056, 0.1420900672674179, 0.008321803994476795, 0.18376187980175018, -0.13147477805614471, -0.04691989719867706, -0.16155147552490234 },
			{ 0.03178218752145767, -0.06696878373622894, -0.04658759757876396, 0.07424226403236389, -0.14612765610218048, -0.05011310800909996, 0.11049061268568039, 0.1571754515171051, -0.018560199066996574, -0.049091171473264694 },
			{ -0.10087452828884125, -0.05398663878440857, -0.02469003014266491, -0.03132576122879982, 0.05906518176198006, 0.03447380289435387, 0.07762539386749268, 0.08690334111452103, -0.03145096078515053, -0.17093807458877563 },
			{ 0.06290345638990402, -0.03797706216573715, -0.10312519967556, 0.004776806104928255, 0.030495718121528625, -0.06918944418430328, 0.003010920714586973, 0.13786454498767853, -0.007176040206104517, -0.05171507969498634 },
			{ 0.01360807940363884, -0.10378538072109222, 0.03014846332371235, 0.00831197015941143, -0.005068537313491106, 0.030567437410354614, 0.030796434730291367, -0.03129076957702637, -0.009262019768357277, 0.10577726364135742 },
			{ -0.03708714619278908, 0.0641152486205101, -0.040337320417165756, -0.06646726280450821, -0.01941794343292713, -0.029634810984134674, -0.050575874745845795, -0.0014967138413339853, -0.02807098999619484, 0.05857521668076515 },
			{ 0.08331573754549026, -0.026896227151155472, 0.0019816365092992783, -0.032615963369607925, -0.10033664852380753, -0.010319282300770283, 0.017278648912906647, -0.037823621183633804, -0.030728742480278015, 0.0569319874048233 },
			{ -0.057677384465932846, 0.15942448377609253, -0.06577884405851364, -0.028769712895154953, -0.02097107656300068, 0.004499920643866062, -0.05711940675973892, 0.0862419530749321, 0.011795940808951855, 0.02524694986641407 },
			{ 0.02742612361907959, 0.03319234028458595, -0.031586624681949615, 0.055067747831344604, -0.09213044494390488, 0.08118769526481628, 0.027650225907564163, -0.06274350732564926, 0.0702606737613678, 0.0679698958992958 },
			{ -0.0404815711081028, 0.10549161583185196, -0.036657921969890594, 0.06667924672365189, -0.076483815908432, -0.04412250220775604, -0.06847399473190308, -0.07262571901082993, 0.019468655809760094, 0.17619939148426056 },
			{ -0.042089760303497314, -0.0044889263808727264, -0.16014330089092255, -0.022439321503043175, 0.02209586650133133, 0.043713945895433426, -0.033263955265283585, 0.02162034623324871, 0.08918920159339905, 0.13829509913921356 },
			{ -0.001131623168475926, -0.07223126292228699, -0.07851407676935196, -0.048310380429029465, 0.07301153987646103, 0.007305033504962921, -0.1472681760787964, 0.02586887963116169, 0.0660930871963501, 0.07358059287071228 },
			{ 0.0966663807630539, 0.012364760972559452, -0.1284351497888565, -0.1161808967590332, 0.11309976130723953, 0.014022043906152248, -0.035734452307224274, -0.02091512829065323, 0.06328797340393066, 0.0006078783771954477 },
			{ 0.05930070951581001, -0.017231449484825134, -0.028952104970812798, -0.07437248528003693, 0.001523519866168499, -0.116840660572052, -0.16267085075378418, -0.08224129676818848, 0.11047130078077316, -0.035959940403699875 },
			{ 0.16933846473693848, -0.2010846734046936, -0.09611714631319046, -0.17584477365016937, -0.02633054368197918, 0.06722602248191833, -0.11570972949266434, -0.1949359029531479, 0.08079095184803009, -0.033846259117126465 },
			{ 0.011084658093750477, -0.03428894281387329, 0.003683367045596242, 0.01825377531349659, -0.08083127439022064, 0.0029403013177216053, 0.1462678611278534, 0.0421995185315609, -0.020654408261179924, -0.17244432866573334 },
			{ -0.00048362973029725254, -0.03573065623641014, -0.009219987317919731, 0.009542297571897507, 0.13090910017490387, 0.007697968743741512, -0.034940872341394424, 0.03316764160990715, -0.132293701171875, -0.0015636587049812078 },
			{ 0.04222222790122032, -0.08764340728521347, -0.013981310650706291, 0.028672417625784874, -0.09795673936605453, 0.019692735746502876, 0.04385007172822952, 0.13276834785938263, 0.04278736189007759, -0.02230265364050865 },
			{ -0.0050868322141468525, -0.08172468841075897, 0.011937432922422886, 0.028789011761546135, 0.07597417384386063, -0.024821611121296883, -0.0547734759747982, 0.11551456153392792, -0.06204188987612724, 0.06519104540348053 },
			{ 0.0680232122540474, 0.008577206172049046, -0.05618317797780037, -0.014922652393579483, 0.04681174457073212, -0.060215339064598083, -0.005300306249409914, 0.08117319643497467, -0.06801989674568176, 0.08297037333250046 },
			{ 0.006962422281503677, 0.003505547298118472, -0.12406556308269501, -0.07273844629526138, -0.10353128612041473, 0.029139261692762375, -0.026800747960805893, 0.09237519651651382, -0.06159825623035431, 0.0397852398455143 },
			{ -0.028907816857099533, 0.08681341260671616, -0.07603030651807785, -0.05876762047410011, -0.046894192695617676, -0.05702368915081024, 0.03958461433649063, 0.044586263597011566, -0.03286860138177872, 0.11187347769737244 },
			{ 0.10004092007875443, 0.19761261343955994, -0.07016435265541077, -0.0696345642209053, -0.006282949820160866, 0.02634132094681263, -0.010076307691633701, 0.06703167408704758, -0.0858687311410904, -0.0009846490575000644 },
			{ 0.09422290325164795, 0.20369969308376312, -0.08799119293689728, -0.15794725716114044, -0.008706552907824516, 0.15415583550930023, -0.07424621284008026, 0.17868264019489288, -0.13311196863651276, -0.03563125059008598 },
			{ -0.04769684746861458, 0.033156365156173706, -0.17426154017448425, -0.20280802249908447, 0.0631193146109581, 0.06027217581868172, -0.1471235752105713, 0.057884782552719116, -0.006801876239478588, -0.037701550871133804 },
			{ 0.012010396458208561, 0.04378094524145126, -0.0007243934087455273, -0.2128150463104248, 0.06562723219394684, 0.19307027757167816, -0.15181629359722137, 0.1204489916563034, -0.03704547882080078, -0.11642727255821228 },
			{ 0.12903423607349396, -0.1765764355659485, -0.17687124013900757, -0.28497710824012756, 0.037942610681056976, 0.2675100564956665, -0.09445830434560776, 0.03238682821393013, 0.14252527058124542, 0.00921585038304329 },
			{ 0.07645785063505173, -0.26344573497772217, -0.17286723852157593, -0.23108568787574768, -0.0352371484041214, 0.1361881047487259, -0.12355901300907135, 0.007736575789749622, 0.11549603939056396, 0.005869271699339151 },
			{ 0.1133744940161705, -0.18596437573432922, -0.058402497321367264, -0.15126746892929077, -0.16281695663928986, 0.2692257761955261, -0.21183563768863678, -0.12624186277389526, 0.10765852779150009, -0.07028581947088242 },
			{ -0.06068912521004677, -0.05762861669063568, -0.044220566749572754, 0.01455402560532093, -0.21605418622493744, -0.13616180419921875, -0.0020848277490586042, 0.026043221354484558, -0.09645050764083862, -0.11332307010889053 },
			{ 0.08225969225168228, -0.08321299403905869, 0.10369361937046051, -0.11906396597623825, -0.034708816558122635, -0.09517145156860352, 0.010905114002525806, 0.10960312187671661, -0.005525708664208651, 0.10895607620477676 },
			{ -0.02152394875884056, -0.07161904871463776, -0.06730308383703232, -0.08877170830965042, -0.023483600467443466, -0.11770337074995041, -0.020872829481959343, -0.037694476544857025, 0.04793289676308632, 0.0857255831360817 },
			{ 0.050693415105342865, -0.147274911403656, 0.05227019265294075, 0.008337111212313175, 0.09108319878578186, -0.12147583067417145, 0.04397288337349892, -0.04526307433843613, 0.0957137942314148, 0.040658049285411835 },
			{ 0.09183317422866821, -0.21435336768627167, 0.06031518056988716, -0.05027659609913826, -0.02761937864124775, -0.104544997215271, 0.1448049694299698, -0.07965315133333206, 0.05639377608895302, 0.02691938541829586 },
			{ 0.10687846690416336, -0.13855138421058655, -0.013250214979052544, -0.04821385070681572, -0.08121364563703537, -0.09925706684589386, 0.06566435098648071, -0.001626469544135034, -0.009942235425114632, 0.030129972845315933 },
			{ 0.041795287281274796, 0.08524782955646515, -0.08886214345693588, -0.08441904187202454, -0.0717114508152008, -0.06832826882600784, 0.09478843212127686, 0.07942718267440796, -0.08655121177434921, 0.04854516312479973 },
			{ 0.11422223597764969, 0.20482145249843597, -0.2048507034778595, -0.13207799196243286, -0.030954716727137566, 0.029750386252999306, 0.15955750644207, 0.07116375863552094, -0.23453906178474426, -0.08633482456207275 },
			{ -0.04229312390089035, 0.18516626954078674, -0.2959425449371338, -0.1653299778699875, 0.04379722848534584, 0.00027902922010980546, 0.14303162693977356, 0.11287292093038559, -0.050949469208717346, -0.1923219859600067 },
			{ -0.05877739191055298, 0.22955356538295746, -0.2529422342777252, -0.1833667755126953, 0.17175251245498657, 0.00019401172176003456, 0.16445498168468475, 0.12859366834163666, -0.25730475783348083, -0.26994162797927856 },
			{ 0.042378079146146774, -0.0195458997040987, -0.10457224398851395, -0.23134133219718933, 0.1521618366241455, 0.20916180312633514, 0.23778849840164185, 0.06588572263717651, -0.16528554260730743, -0.24384020268917084 },
			{ -0.10646884888410568, -0.022742412984371185, -0.14944545924663544, -0.40822288393974304, 0.013212096877396107, 0.3749399781227112, 0.1407647579908371, 0.023416435346007347, -0.10545089095830917, -0.08591259270906448 },
			{ -0.030375635251402855, 0.03949126973748207, -0.12358754128217697, -0.45407363772392273, -0.10877831280231476, 0.2357841283082962, 0.0681498572230339, 0.018213599920272827, 0.004674867261201143, 0.07801303267478943 },
			{ 0.015196711756289005, -0.019794387742877007, -0.07735168933868408, -0.34500575065612793, -0.2190847098827362, 0.392813503742218, -0.003278475720435381, -0.08460107445716858, -0.023564808070659637, 0.08294074982404709 },
			{ -0.023435402661561966, 0.059010300785303116, -0.001326568890362978, -0.00580753106623888, -0.16355018317699432, -0.12805503606796265, -0.09182074666023254, 0.0309821218252182, -0.0065695783123373985, 0.016646506264805794 },
			{ 0.03768360987305641, 0.04885005205869675, 0.03700307756662369, -0.14061594009399414, -0.04080282151699066, -0.1371229737997055, -0.07822895795106888, 0.10034333169460297, 0.03899445757269859, 0.040783219039440155 },
			{ 0.05049165338277817, -0.12811630964279175, -0.06732574105262756, -0.16648703813552856, 0.0897657498717308, -0.2892530858516693, 0.20057348906993866, -0.08813346922397614, -0.006189099512994289, -0.002952868351712823 },
			{ 0.057188257575035095, -0.0212056003510952, 0.12100666761398315, 0.02251528948545456, 0.1341773122549057, -0.23723985254764557, 0.1281755566596985, -0.07813714444637299, 0.03083183988928795, 0.10286395251750946 },
			{ 0.08236180990934372, -0.07873611897230148, 0.1521238386631012, 0.11413826048374176, 0.09947764873504639, -0.15675635635852814, 0.052199605852365494, -0.09299539029598236, -0.10612189769744873, 0.11664262413978577 },
			{ 0.10578141361474991, -0.12500041723251343, -0.013020236045122147, 0.07833598554134369, -0.0717889666557312, -0.07378926873207092, 0.13856223225593567, 0.0026307967491447926, -0.11848612129688263, -0.0022452373523265123 },
			{ -0.005361671559512615, 0.15074163675308228, -0.04687250033020973, 0.0065283700823783875, 0.0026619085110723972, -0.1050119698047638, 0.034970249980688095, 0.015858883038163185, -0.1595427393913269, 0.005906456615775824 },
			{ -0.20100577175617218, 0.12487653642892838, 0.022822758182883263, -0.05185244604945183, 0.10295208543539047, -0.031782571226358414, 0.13255372643470764, 0.08616667240858078, -0.11363653093576431, -0.09733027964830399 },
			{ -0.36245033144950867, 0.30769413709640503, -0.1223256066441536, -0.10449198633432388, 0.16615928709506989, -0.0534832701086998, 0.08332587033510208, 0.042405758053064346, -0.09264920651912689, 0.02248038537800312 },
			{ -0.33992865681648254, 0.29416266083717346, -0.1885610669851303, -0.10362225025892258, 0.06696351617574692, -0.08478666096925735, 0.10517539829015732, 0.23260928690433502, -0.03674580901861191, -0.20719055831432343 },
			{ -0.18379153311252594, 0.021788038313388824, -0.08779507875442505, -0.09142691642045975, 0.04660990834236145, 0.12809890508651733, 0.21491800248622894, 0.27240803837776184, -0.09977101534605026, -0.31602510809898376 },
			{ -0.09812437742948532, -0.06877126544713974, -0.10428500920534134, 0.03238227218389511, 0.12906944751739502, 0.387522429227829, 0.15564550459384918, 0.09721259772777557, -0.2688577175140381, -0.2618321180343628 },
			{ -0.12387900799512863, -0.044499997049570084, 0.05790744721889496, -0.2220393717288971, 0.02080574631690979, 0.3005904257297516, 0.0510079562664032, 0.10727690905332565, -0.111496202647686, -0.17748354375362396 },
			{ 0.012467577122151852, -0.007793008349835873, 0.12579292058944702, -0.14199618995189667, -0.22325800359249115, 0.18891625106334686, -0.00403178296983242, -0.09658201783895493, -0.17254884541034698, -0.1513635218143463 },
			{ -0.0032485746778547764, 0.11022237688302994, -0.06267435848712921, -0.10148394852876663, -0.19252312183380127, 0.018775109201669693, -0.06868854910135269, 0.13900254666805267, -0.0060715582221746445, -0.04940032213926315 },
			{ 0.04853527247905731, -0.0064082518219947815, 0.07835912704467773, -0.11964718997478485, -0.009798522107303143, -0.15679460763931274, 0.026904277503490448, 0.06280391663312912, -0.04722054302692413, 0.027857419103384018 },
			{ 0.15516401827335358, -0.10858706384897232, 0.22200094163417816, -0.16239334642887115, 0.09295924752950668, -0.1792536973953247, 0.12974342703819275, -0.04867428168654442, -0.17367632687091827, -0.03915615752339363 },
			{ 0.11851401627063751, 0.11774549633264542, 0.3048899173736572, 0.018607592210173607, 0.07083266973495483, -0.2914997935295105, 0.03775274008512497, 0.004940483719110489, -0.1411278247833252, -0.10997889935970306 },
			{ 0.12393345683813095, 0.08968688547611237, 0.1477813869714737, 0.12612931430339813, -0.0020925351418554783, -0.15308991074562073, 0.014765428379178047, 0.1152581125497818, -0.34151801466941833, -0.15732049942016602 },
			{ 0.09068570286035538, 0.0658164769411087, 0.13468144834041595, 0.1689581423997879, -0.11697016656398773, -0.033795684576034546, 0.09516914188861847, 0.050512827932834625, -0.32481664419174194, -0.4543379247188568 },
			{ -0.12333017587661743, 0.16313424706459045, 0.08136636763811111, 0.12032077461481094, -0.08074907958507538, -0.06787804514169693, 0.05038117244839668, 0.1179911196231842, -0.11259027570486069, -0.280343234539032 },
			{ -0.318491131067276, 0.12930828332901, -0.006358031183481216, 0.10193032771348953, 0.004965533968061209, -0.10102532058954239, 0.053771208971738815, -0.020902199670672417, -0.12639127671718597, 0.04089333862066269 },
			{ -0.34998375177383423, 0.17122820019721985, 0.0033623334020376205, -0.02884972281754017, 0.04219817742705345, 0.03798307105898857, 0.0814448744058609, -0.21828900277614594, 0.0029192545916885138, 0.07780683785676956 },
			{ -0.2419857531785965, 0.04804123193025589, 0.025906741619110107, 0.1541837900876999, -0.01778235100209713, 0.04536742344498634, 0.009027950465679169, -0.1357111632823944, -0.00756579777225852, -0.01987462490797043 },
			{ -0.099815733730793, -0.2240488976240158, -0.1223389282822609, 0.1183411255478859, 0.10479274392127991, 0.03641198202967644, 0.14787143468856812, 0.03544974699616432, -0.08115621656179428, -0.14517934620380402 },
			{ -0.18023885786533356, -0.22023643553256989, -0.04229117929935455, 0.27793267369270325, 0.04137928783893585, 0.15894322097301483, 0.025254862383008003, 0.07197065651416779, -0.18563993275165558, -0.20813621580600739 },
			{ -0.25067338347435, -0.07466456294059753, 0.09779690951108932, 0.16003765165805817, 0.030645862221717834, 0.2669316530227661, -0.15467584133148193, 0.027439411729574203, -0.2414970099925995, -0.31189030408859253 },
			{ -0.014274341985583305, -0.07210687547922134, -0.011804541572928429, -0.06450096517801285, -0.0707395076751709, 0.24987365305423737, 0.0041038054041564465, -0.116049624979496, -0.17219531536102295, -0.24740442633628845 },
			{ -0.12969303131103516, 0.0907081738114357, 0.1332259178161621, 0.014041824266314507, -0.01885443553328514, 0.05143166333436966, -0.11690293252468109, 0.014393516816198826, -0.176452174782753, 0.026710018515586853 },
			{ 0.08004692941904068, -0.15314602851867676, 0.10578341782093048, 0.025251301005482674, -0.01179387979209423, 0.026180449873209, 0.011733866296708584, -0.048905082046985626, -0.14381812512874603, -0.2515741288661957 },
			{ 0.05660143122076988, -0.12833650410175323, 0.13905000686645508, -0.11100631952285767, -0.010871711187064648, -0.13749267160892487, -0.03548789396882057, 0.15441469848155975, -0.042928505688905716, -0.28402185440063477 },
			{ 0.030035197734832764, -0.030758589506149292, 0.31992286443710327, -0.11772356182336807, -0.036000508815050125, -0.17877067625522614, -0.0508679635822773, 0.28738996386528015, -0.03907464072108269, -0.3227567970752716 },
			{ 0.10851538926362991, 0.07726416736841202, 0.40411314368247986, -0.09587736427783966, -0.1276722252368927, -0.2563464939594269, 0.048139043152332306, 0.4170564115047455, -0.07778754830360413, -0.4872159957885742 },
			{ -0.1207205280661583, 0.11394704133272171, 0.19167755544185638, 0.08951473236083984, -0.12856382131576538, -0.20905736088752747, -0.10977736115455627, 0.3021695017814636, -0.2657204866409302, -0.41615429520606995 },
			{ -0.23159702122211456, 0.12821386754512787, 0.06715396046638489, 0.1324532926082611, -0.17205500602722168, -0.29006704688072205, 0.05110248923301697, 0.15955592691898346, -0.13849009573459625, 0.019245512783527374 },
			{ -0.11223743110895157, 0.053635746240615845, 0.08278132230043411, 0.02415197528898716, 0.0373556949198246, -0.24072115123271942, 0.022572936490178108, -0.011296152137219906, 0.02766440249979496, -0.07069385796785355 },
			{ -0.016083823516964912, -0.05538947135210037, 0.11433853209018707, -0.0899818167090416, 0.16838815808296204, -0.18034173548221588, 0.054841622710227966, -0.19029967486858368, 0.057290442287921906, 0.0728587657213211 },
			{ -0.024727335199713707, -0.0810895562171936, -0.005562545731663704, 0.038082439452409744, 0.012076940387487411, -0.10267160832881927, 0.01874122954905033, -0.25615519285202026, -4.6373192162718624e-05, 0.16462737321853638 },
			{ -0.06856604665517807, -0.1152019277215004, 0.018267609179019928, 0.13010790944099426, 0.10332035273313522, 0.0010092930169776082, -0.01083201915025711, 0.009795828722417355, 0.0365670807659626, -0.1224430724978447 },
			{ -0.29013195633888245, 0.11751386523246765, 0.09446899592876434, 0.05251558870077133, 0.09951069205999374, -0.04483507201075554, -0.06669355928897858, -0.05687924474477768, 0.043230090290308, -0.2588067054748535 },
			{ -0.48030006885528564, 0.022320209071040154, 0.14608120918273926, 0.046645406633615494, 0.19302232563495636, 0.04021209850907326, -0.15368351340293884, -0.11593838781118393, 0.00677666999399662, -0.3336560130119324 },
			{ -0.017346292734146118, 0.1419883668422699, 0.12098338454961777, -0.08826267719268799, 0.06318818777799606, 0.03268437460064888, -0.04079415276646614, -0.08695393800735474, -0.0674407035112381, -0.16100090742111206 },
			{ -0.12821651995182037, -0.10237670689821243, 0.10707014054059982, 0.0401897132396698, 0.017095718532800674, 0.06797130405902863, -0.02384820580482483, -0.03700311481952667, -0.21346421539783478, -0.13224297761917114 },
			{ -0.0183783657848835, -0.12384358048439026, 0.1441798359155655, 0.028872361406683922, -0.20128613710403442, 0.03643843159079552, -0.043915435671806335, 0.07776427268981934, 0.08189000189304352, -0.2623346447944641 },
			{ -0.07909393310546875, -0.14401745796203613, 0.18125179409980774, -0.01755131222307682, -0.026799988001585007, -0.04637622460722923, -0.12087684869766235, 0.10814511030912399, 0.1502334326505661, -0.24048209190368652 },
			{ -0.06938789784908295, -0.0034989325795322657, 0.17518651485443115, -0.16301187872886658, -0.10874640196561813, -0.018118998035788536, -0.14021416008472443, 0.34498345851898193, 0.03127792850136757, -0.4029148817062378 },
			{ -0.16178229451179504, 0.019529424607753754, 0.19466084241867065, -0.3279789388179779, -0.1788022667169571, -0.15677380561828613, -0.061124254018068314, 0.38596534729003906, 0.148762047290802, -0.569858729839325 },
			{ -0.166957825422287, 0.06561368703842163, 0.17555034160614014, -0.14538149535655975, -0.2947958707809448, -0.14362958073616028, 0.03846488147974014, 0.11917807906866074, -0.02049916982650757, -0.1559048593044281 },
			{ -0.038204796612262726, -0.10234762728214264, -0.017685886472463608, -0.08947589993476868, -0.03668268769979477, 0.04882650449872017, 0.09030276536941528, 0.1083550825715065, -0.050013285130262375, -0.12443337589502335 },
			{ 9.025378676597029e-05, 0.0794450044631958, 0.007418805733323097, -0.012927074916660786, 0.03925509750843048, 0.016347380355000496, -0.11531136184930801, 0.18864288926124573, -0.12025419622659683, -0.08655620366334915 },
			{ 0.14319463074207306, 0.013127701357007027, 0.0781024619936943, -0.061379555612802505, 0.14548879861831665, -0.15679606795310974, -0.1749662309885025, 0.043200619518756866, -0.38858112692832947, -0.015548069030046463 },
			{ -0.007156749721616507, 0.11859802901744843, 0.09367641806602478, -0.14852528274059296, 0.015954874455928802, -0.17140910029411316, -0.0059471032582223415, 0.05663224309682846, -0.2843528687953949, 0.010942059569060802 },
			{ 0.024964570999145508, 0.20666620135307312, 0.04011053964495659, -0.11216481775045395, -0.025927670300006866, -0.21830995380878448, 0.0391368605196476, 0.08390876650810242, -0.05220064893364906, -0.3244955539703369 },
			{ -0.2589794993400574, 0.11431676149368286, 0.2050837278366089, -0.29449427127838135, 0.17424455285072327, -0.12045492231845856, -0.223439022898674, 0.13407418131828308, -0.0038639891427010298, -0.38001665472984314 },
			{ -0.34048137068748474, 0.08315551280975342, 0.2277836799621582, -0.18798589706420898, 0.03225289657711983, 0.004138374701142311, -0.09105969965457916, 0.019200291484594345, -0.05942722037434578, -0.17027969658374786 },
			{ -0.09364603459835052, 0.18828138709068298, 0.13006961345672607, -0.1752573847770691, -0.17303593456745148, 0.07231950014829636, 0.008898093365132809, -0.11772862821817398, -0.03620972856879234, -0.01315438374876976 },
			{ -0.09658642113208771, -0.027621369808912277, 0.15673157572746277, 0.05366910994052887, -0.042330555617809296, 0.008783631026744843, -0.1114562451839447, -0.10787646472454071, -0.09046966582536697, -0.2243426889181137 },
			{ 0.05203067511320114, -0.1443425416946411, 0.016507035121321678, -0.04581257328391075, 0.0701003223657608, 0.1631118804216385, -0.0989062637090683, -0.020264316350221634, 0.03876335173845291, -0.08592405915260315 },
			{ -0.15219753980636597, -0.0058997999876737595, 0.042459264397621155, 0.028202343732118607, 0.0719374343752861, -0.051711756736040115, -0.15683196485042572, -0.014539835043251514, 0.033101636916399, -0.17496395111083984 },
			{ -0.29386550188064575, 0.030436690896749496, 0.07334308326244354, -0.06423283368349075, 0.09579943865537643, 0.09829919040203094, -0.14495840668678284, 0.12341941148042679, 0.02508627250790596, -0.24218851327896118 },
			{ -0.1428186446428299, 0.001244166400283575, 0.11502128839492798, 0.012681405991315842, -0.01717006228864193, -0.012830371968448162, -0.29439777135849, 0.17094434797763824, 0.060883354395627975, -0.1716006100177765 },
			{ -0.01579899899661541, 0.028164494782686234, 0.1129879504442215, -0.1139676570892334, -0.07140572369098663, 0.07950717955827713, -0.15068945288658142, 0.14277693629264832, -0.025362692773342133, -0.06777285784482956 },
			{ -0.0031074148137122393, -0.020164212211966515, -0.013803137466311455, 0.005230763927102089, -0.03636162728071213, 0.06999217718839645, -0.02449883334338665, 0.055567674338817596, -0.26457276940345764, -0.027515990659594536 },
			{ 0.08392177522182465, 0.3025684058666229, 0.03174378350377083, -0.02545277215540409, -0.1814698427915573, 0.10879349708557129, -0.1793268471956253, 0.07321566343307495, -0.20160232484340668, -0.0212382934987545 },
			{ 0.037133000791072845, -0.231134295463562, 0.09108981490135193, -0.0857730507850647, -0.17448292672634125, -0.05621881037950516, -0.0282883457839489, 0.21024422347545624, -0.17021490633487701, -0.0060180784203112125 },
			{ 0.1193431168794632, -0.010653543286025524, 0.20942281186580658, -0.1481163203716278, -0.1354895830154419, -0.017345193773508072, -0.07223275303840637, 0.08761271834373474, -0.1340329647064209, -0.1409245878458023 },
			{ -0.0030140287708491087, 0.11686529964208603, 0.1887265145778656, -0.08113536983728409, -0.05416565388441086, -0.00022395094856619835, -0.10953181982040405, -0.1506796032190323, -0.13887107372283936, -0.20648525655269623 },
			{ -0.12076465785503387, 0.12872576713562012, 0.39268481731414795, -0.3585909903049469, -0.3164021968841553, 0.014297300018370152, -0.06516158580780029, -0.10375320911407471, -0.19285285472869873, -0.17408792674541473 },
			{ -0.2198711633682251, 0.06036233529448509, 0.40577855706214905, -0.27714303135871887, -0.19243517518043518, -0.014299480244517326, 0.023893626406788826, -0.1427706629037857, -0.23370489478111267, -0.08939921855926514 },
			{ -0.18674655258655548, -0.03238634020090103, 0.30692189931869507, -0.1952248215675354, -0.27134034037590027, 0.0813007801771164, -0.014586272649466991, -0.17059652507305145, -0.11457664519548416, 0.11473088711500168 },
			{ -0.04078996554017067, 0.006749553605914116, -0.009784489870071411, -0.0577562153339386, 0.05327749624848366, -0.02248726412653923, 0.06579294800758362, -0.04135189950466156, -0.17107367515563965, -0.21183717250823975 },
			{ 0.05915425345301628, -0.0007494722376577556, 0.056518133729696274, -0.07893068343400955, 0.09421465545892715, -0.019743124023079872, -0.033383000642061234, 0.013713935390114784, -0.0628330409526825, -0.003899619448930025 },
			{ -0.05563190579414368, 0.03842820227146149, 0.008240369148552418, -0.0724465474486351, 0.046964436769485474, -0.02241532690823078, -0.31057900190353394, 0.04527513310313225, -0.015027860179543495, 0.015100695192813873 },
			{ -0.15800686180591583, 0.08397798985242844, 0.06350350379943848, -0.013879758305847645, 0.14777959883213043, 0.17109160125255585, -0.33035317063331604, 0.002113573718816042, -0.07799571007490158, -0.01453523337841034 },
			{ -0.09399417042732239, 0.09291226416826248, -0.009284904226660728, 0.026300964877009392, 0.17530414462089539, 0.10701194405555725, -0.4680735170841217, 0.10624843090772629, -0.144774928689003, 0.025565508753061295 },
			{ -0.09296973049640656, 0.08243465423583984, 0.07671607285737991, 0.04592807963490486, -0.015277943573892117, 0.21511070430278778, -0.36465397477149963, -0.01411760039627552, -0.29160767793655396, 0.10832895338535309 },
			{ 0.06771416962146759, 0.15532177686691284, 0.07626915723085403, 0.08968769758939743, -0.19757108390331268, 0.11199510097503662, -0.26465463638305664, -0.12796902656555176, -0.23945942521095276, -0.025187065824866295 },
			{ 0.11418460309505463, -0.22310683131217957, 0.0053348359651863575, 0.05655747652053833, -0.168138325214386, 0.10441112518310547, 0.06076589971780777, -0.06550465524196625, -0.14610078930854797, 0.010368970222771168 },
			{ 0.13722050189971924, -0.41395092010498047, -0.09781023114919662, -0.020697660744190216, -0.28539058566093445, -0.0007368508959189057, 0.05861064791679382, -0.03127266466617584, -0.1470710188150406, -0.015085472725331783 },
			{ 0.07441357523202896, -0.1760430932044983, 0.08544974029064178, -0.009773516096174717, -0.2675666809082031, 0.06336614489555359, 0.15183955430984497, -0.12124043703079224, -0.009342316538095474, -0.20677779614925385 },
			{ 0.18658943474292755, -0.07644534856081009, 0.4034986197948456, -0.1151265874505043, -0.20531031489372253, 0.14586129784584045, -0.019358118996024132, -0.5132375955581665, -0.12084042280912399, -0.062016915529966354 },
			{ 0.10338122397661209, -0.07017316669225693, 0.5506705641746521, -0.3117852210998535, -0.09032167494297028, -0.17810001969337463, -0.10208918154239655, -0.3837874233722687, -0.37483319640159607, -0.05335598066449165 },
			{ -0.02418062463402748, 0.057936061173677444, 0.4333729147911072, -0.27431273460388184, -0.08098539710044861, -0.04363463819026947, -0.12851373851299286, -0.19913442432880402, -0.054947711527347565, 0.023530177772045135 },
			{ -0.0445747934281826, -0.06451956182718277, 0.22216983139514923, -0.18669721484184265, -0.19355374574661255, 0.08313358575105667, 0.049847524613142014, -0.1752660721540451, -0.0336010679602623, 0.038667697459459305 },
			{ -0.022358115762472153, 0.028872108086943626, 0.0416886992752552, -0.012577610090374947, -0.10875286161899567, 0.04939339682459831, -0.041284043341875076, -0.01364678330719471, -0.08231818675994873, -0.152090385556221 },
			{ -0.051861472427845, 0.18695558607578278, -0.04715942591428757, -0.03619461879134178, -0.1284540593624115, -0.09456866979598999, -0.20941294729709625, 0.17943547666072845, -0.13480764627456665, -0.06989021599292755 },
			{ -0.04476800933480263, 0.06187622621655464, -0.05664031207561493, -0.020536072552204132, 0.01209299173206091, -0.05679822713136673, -0.3431330621242523, 0.07155159115791321, -0.17191646993160248, 0.08652601391077042 },
			{ -0.3392306864261627, 0.0718785747885704, -0.11699504405260086, -0.034133750945329666, 0.13742497563362122, -0.03673607483506203, -0.29561829566955566, 0.2545216381549835, -0.33303597569465637, 0.0781896784901619 },
			{ -0.4774268567562103, 0.04502081498503685, -0.07348580658435822, 0.011710891500115395, 0.02571311593055725, 0.07707532495260239, -0.7018915414810181, 0.02253924496471882, -0.3348084092140198, 0.07391422241926193 },
			{ -0.323703795671463, 0.02781814895570278, -0.08921419829130173, 0.14341236650943756, -0.06208081170916557, 0.20379303395748138, -0.8230714797973633, 0.039685022085905075, -0.42312556505203247, 0.14656701683998108 },
			{ -0.14602090418338776, -0.2775162160396576, -0.1576468050479889, 0.23294958472251892, 0.026666782796382904, 0.2678375840187073, -0.6844099760055542, -0.11890348047018051, -0.4083465337753296, -0.03895743936300278 },
			{ -0.08280283212661743, -0.5654017925262451, -0.2649890184402466, 0.1391059011220932, -0.21683162450790405, 0.18538957834243774, -0.13053330779075623, -0.05509965494275093, -0.11309118568897247, -0.13799647986888885 },
			{ 0.008470340631902218, 0.23537985980510712, -0.2123187929391861, 0.27498048543930054, -0.12767446041107178, 0.26359298825263977, 0.23598918318748474, -0.10745827108621597, -0.18722613155841827, -0.23885148763656616 },
			{ 0.10536576062440872, 0.046622373163700104, -0.004702741280198097, -0.05451786145567894, -0.11199857294559479, 0.1801280379295349, 0.03211240470409393, -0.21470052003860474, -0.0195505041629076, 0.01108459010720253 },
			{ 0.009747838601469994, -0.12081340700387955, 0.16712655127048492, -0.03523697704076767, -0.11338826268911362, 0.2468547224998474, -0.18027366697788239, -0.35396209359169006, -0.00974950846284628, 0.049399301409721375 },
			{ -0.053642164915800095, -0.20591974258422852, 0.3630346655845642, -0.040364425629377365, -0.16985701024532318, 0.2047630101442337, -0.10093969851732254, -0.0912061408162117, -0.10498123615980148, 0.06447011232376099 },
			{ 0.015734687447547913, -0.11276522278785706, 0.16894187033176422, -0.17656904458999634, -0.006723994389176369, 0.12022685259580612, -0.016325874254107475, -0.06475409865379333, -0.022947585210204124, -0.011679451912641525 },
			{ 0.06115369871258736, -0.03431650251150131, 0.1083013042807579, -0.18405357003211975, -0.05757702887058258, 0.20878693461418152, 0.044382136315107346, -0.1343335211277008, -0.07768259942531586, -0.06150490790605545 },
			{ -0.09893713891506195, -0.09604527056217194, -0.03948371857404709, -0.046035461127758026, -0.15300332009792328, 0.12383699417114258, 0.04816138371825218, 0.11373725533485413, -0.09700525552034378, -0.13860894739627838 },
			{ -0.13307519257068634, -0.11174961924552917, -0.13111606240272522, 0.05871082842350006, -0.10758782923221588, -0.18425367772579193, 0.01670416258275509, 0.1347343772649765, -0.21231089532375336, 0.05636255443096161 },
			{ -0.47662171721458435, -0.01912318915128708, -0.09993637353181839, 0.0927746519446373, -0.04693213850259781, -0.09652189910411835, -0.06999817490577698, 0.1199827641248703, -0.30388256907463074, 0.1477251946926117 },
			{ -0.7083215117454529, 0.004152142908424139, -0.3693709969520569, 0.04794616252183914, -0.027151361107826233, -0.15199118852615356, -0.3444066047668457, 0.22754795849323273, -0.3197903633117676, 0.2263973206281662 },
			{ -0.6561932563781738, -0.12271913886070251, -0.5494291186332703, 0.14810173213481903, -0.07715988904237747, -0.1612553894519806, -0.578336775302887, 0.21155160665512085, -0.4453761577606201, 0.23404549062252045 },
			{ -0.6630590558052063, -0.16038480401039124, -0.26874473690986633, 0.3722597360610962, -0.058712661266326904, 0.04908756539225578, -0.6913500428199768, 0.011345762759447098, -0.6514771580696106, 0.210525780916214 },
			{ -0.6483993530273438, -0.14480045437812805, -0.34882494807243347, 0.37416723370552063, -0.16711634397506714, 0.32790693640708923, -0.635361909866333, -0.035425424575805664, -0.5844174027442932, 0.1635449379682541 },
			{ -0.5074350237846375, 0.2729332745075226, -0.6224313378334045, 0.4362877905368805, -0.2882835566997528, 0.3704126477241516, -0.3827698826789856, 0.10876765102148056, -0.3319801390171051, -0.0253992211073637 },
			{ -0.07294564694166183, 0.3123224675655365, -0.42344948649406433, 0.3166418671607971, -0.27506110072135925, 0.26973745226860046, -0.10439380258321762, 0.12733638286590576, -0.40400028228759766, -0.16825518012046814 },
			{ 0.06639571487903595, -0.004951683338731527, -0.37160295248031616, 0.09227263927459717, -0.03186498582363129, 0.2890847325325012, -0.04105477035045624, -0.008471721783280373, -0.20011097192764282, -0.20838822424411774 },
			{ 0.028111902996897697, 0.010330446064472198, -0.31778207421302795, 0.05872785672545433, 0.16351649165153503, 0.3213057219982147, -0.06718727201223373, 0.1145317479968071, -0.06949466466903687, -0.10275417566299438 },
			{ 0.13088038563728333, -0.07464282959699631, -0.07515843212604523, -0.2055363804101944, -0.10938404500484467, 0.18210169672966003, -0.1214551255106926, -0.03862050920724869, -0.03650851175189018, -0.010385806672275066 },
			{ 0.08771218359470367, -0.02333645150065422, 0.16180874407291412, -0.12216682732105255, -0.04022105783224106, 0.21433138847351074, -0.07073099911212921, 0.04374097287654877, -0.17449714243412018, -0.032360855489969254 },
			{ 0.0208696648478508, -0.04071611166000366, 0.05353257432579994, -0.21652431786060333, -0.09678862988948822, 0.1751812845468521, -0.050551433116197586, 0.06628576666116714, -0.09716073423624039, -0.03425886109471321 },
			{ 0.04213046282529831, 0.09056640416383743, -0.12175171822309494, -0.08657155930995941, -0.08253692090511322, 0.03220094367861748, 0.02931416966021061, 0.2084479033946991, -0.1488751322031021, -0.09048684686422348 },
			{ -0.005769746843725443, -0.08712483942508698, -0.12729083001613617, -0.09367940574884415, -0.0986856147646904, -0.027157610282301903, -0.03187883272767067, 0.024260597303509712, -0.10276027768850327, 0.227329283952713 },
			{ 0.031601231545209885, -0.04230497404932976, -0.03242593631148338, -0.03610428050160408, -0.26897239685058594, -0.11674312502145767, -0.09384498745203018, 0.14762994647026062, -0.3460088074207306, 0.21794883906841278 },
			{ -0.20453961193561554, -0.3262860178947449, -0.2992151975631714, 0.18048195540905, -0.2593275010585785, -0.13776469230651855, 0.011183560825884342, 0.0939147025346756, -0.4279942214488983, 0.1371561586856842 },
			{ -0.16340897977352142, -0.2415769100189209, -0.14609350264072418, 0.00032972326152957976, -0.32466673851013184, 0.020680779591202736, 0.04874385520815849, -0.0201836246997118, -0.24677959084510803, 0.12438314408063889 },
			{ -0.2922842502593994, -0.3653223514556885, -0.24242903292179108, 0.20119735598564148, -0.40690186619758606, -0.01265094056725502, -0.07305686175823212, 0.0035708406940102577, -0.3157658576965332, 0.16128943860530853 },
			{ -0.23134301602840424, 0.05951671674847603, -0.21901629865169525, 0.18818019330501556, -0.29685327410697937, 0.18288692831993103, 0.07852895557880402, -0.040661975741386414, -0.23109251260757446, 0.16942398250102997 },
			{ -0.05574018880724907, 0.14286665618419647, -0.29337581992149353, 0.2851974368095398, -0.3624855577945709, 0.20256003737449646, -0.06572557985782623, 0.006165039725601673, -0.28393983840942383, 0.09716793894767761 },
			{ 0.048502251505851746, 0.04808766767382622, -0.2754114866256714, -0.02448633685708046, -0.32606473565101624, 0.1727350354194641, -0.06614352017641068, 0.0442432165145874, -0.15690720081329346, 0.05274723470211029 },
			{ 0.03624291718006134, 0.006696684285998344, -0.1723177284002304, -0.08924951404333115, -0.07063675671815872, 0.1852634996175766, 0.05004209280014038, 0.1867736428976059, -0.2087079882621765, -0.17334266006946564 },
			{ 0.09255421161651611, 0.024865319952368736, -0.00960586592555046, -0.2116214483976364, -0.043813299387693405, 0.09644739329814911, -0.09571477025747299, 0.04380146041512489, -0.10861729085445404, 0.07442206144332886 },
			{ 0.020223179832100868, -0.013851845636963844, 0.03919181227684021, -0.03220399469137192, -0.0807131975889206, 0.1342368870973587, -0.042736828327178955, -0.01785954460501671, -0.14091944694519043, 0.03849388659000397 },
			{ 0.057197052985429764, 0.1102130264043808, 0.0029288025107234716, -0.21009854972362518, -0.059767454862594604, 0.07017399370670319, 0.003961605951189995, 0.0265212282538414, -0.09185977280139923, 0.0755915716290474 },
			{ 0.018753832206130028, 0.009724495001137257, -0.07944577932357788, -0.05447275564074516, 0.010370329022407532, 0.24210307002067566, -0.020591596141457558, 0.0952177494764328, -0.026043830439448357, 0.013083322905004025 },
			{ -0.04287023842334747, -0.01593432016670704, -0.2317097932100296, 0.08056480437517166, -0.22081094980239868, -0.1572921872138977, 0.18993571400642395, -0.044182103127241135, -0.09616363793611526, -0.041892293840646744 },
			{ -0.1327717900276184, -0.24354839324951172, 0.1574627012014389, 0.0017639617435634136, -0.15460386872291565, -0.08399200439453125, 0.2188073694705963, -0.449599027633667, -0.0342014841735363, -0.049664635211229324 },
			{ 0.006339702755212784, -0.09014501422643661, 0.129239022731781, 0.020702771842479706, -0.3051553964614868, -0.21241027116775513, 0.1529334932565689, -0.4955269992351532, 0.024099569767713547, -0.26465365290641785 },
			{ -0.057654254138469696, 0.004188927821815014, 0.025735488161444664, -0.10753488540649414, -0.3575291335582733, 0.020011000335216522, 0.30173027515411377, -0.6170585751533508, 0.04177635535597801, -0.18528087437152863 },
			{ -0.2815423905849457, -0.006778359413146973, -0.003607349470257759, 0.07534889876842499, -0.29246804118156433, -0.03137208893895149, 0.17383529245853424, -0.24260659515857697, -0.17050886154174805, 0.037132710218429565 },
			{ -0.20693102478981018, 0.024279387667775154, -0.048684749752283096, 0.1084461361169815, -0.12041838467121124, -0.1023763120174408, 0.2757375240325928, -0.43448901176452637, -0.13611392676830292, -0.3063242733478546 },
			{ -0.11198390275239944, 0.11645202338695526, -0.13446927070617676, -0.07337912917137146, -0.17656812071800232, 0.051319584250450134, 0.32277169823646545, -0.6650341749191284, -0.035883814096450806, -0.4129790663719177 },
			{ -0.01928839646279812, -0.10642638057470322, -0.019971294328570366, -0.14597512781620026, -0.21135158836841583, 0.0838300883769989, 0.28720080852508545, -0.44472116231918335, 0.13674621284008026, -0.3729475438594818 },
			{ -0.10441919416189194, -0.05693509802222252, -0.3209529519081116, -0.22206276655197144, -0.00347722414880991, 0.2194901406764984, 0.3016337752342224, -0.17358386516571045, 0.1981910765171051, -0.2507849633693695 },
			{ -0.054702047258615494, -0.04448108747601509, -0.03917987272143364, -0.21598824858665466, -0.007614593021571636, 0.044550273567438126, 0.3097238838672638, -0.05170639231801033, 0.08695854991674423, -0.2517581582069397 },
			{ -0.1230253204703331, -0.11846055835485458, 0.10313133895397186, -0.09343306720256805, -0.033173102885484695, 0.14628104865550995, 0.024509288370609283, -0.5365278124809265, 0.04938167333602905, -0.07279777526855469 },
			{ -0.023211734369397163, 0.08938203752040863, -0.025604737922549248, 0.02001444436609745, -0.06053626909852028, -0.1016526147723198, 0.022719750180840492, -0.2999412417411804, 0.0072145843878388405, -0.23427169024944305 },
			{ -0.07831624895334244, -0.014564579352736473, -0.025759348645806313, 0.050337228924036026, 0.1992095559835434, -0.2883451581001282, 0.13193999230861664, 0.07248219847679138, -0.01224474050104618, -0.2869926691055298 },
			{ 0.019291702657938004, -0.1301567107439041, -0.13187289237976074, -0.09828956425189972, 0.19097843766212463, -0.09849091619253159, 0.08120261877775192, -0.1859101802110672, 0.05378718301653862, -0.10289622098207474 },
			{ -0.012846353463828564, 0.039219483733177185, -0.15537741780281067, 0.14453627169132233, -0.17040449380874634, -0.14165113866329193, 0.22878709435462952, -0.09323212504386902, -0.22604908049106598, -0.3117978870868683 },
			{ 0.04149403050541878, 0.15398292243480682, -0.16491101682186127, -0.040065616369247437, 0.09918884932994843, 0.023865777999162674, 0.09784778952598572, 0.10209129005670547, -0.17247235774993896, -0.11534211039543152 },
			{ -0.14587631821632385, -0.033425427973270416, 0.04755067825317383, -0.02056334912776947, -0.020335908979177475, 0.0337035171687603, 0.14303894340991974, -0.11622089892625809, -0.021118884906172752, -0.02066616714000702 },
			{ 0.00698394188657403, 0.018993595615029335, 0.0148104727268219, -0.000788915145676583, -0.07533706724643707, 0.14044900238513947, 0.20450395345687866, -0.1143517792224884, -0.05452670156955719, -0.017834758386015892 },
			{ -0.04104902595281601, 0.1423608511686325, -0.021744556725025177, -0.0025293235667049885, 0.1385449320077896, -0.07417251169681549, 0.16951224207878113, 0.04999801516532898, -0.0739871934056282, -0.07344955950975418 },
			{ 0.008237607777118683, 0.14667344093322754, -0.1579979509115219, -0.09129691123962402, 0.24779190123081207, 0.06872542947530746, 0.20393213629722595, -0.1810218244791031, -0.06542576849460602, -0.3942885100841522 },
			{ -0.021310217678546906, 0.19472436606884003, -0.0017431213054805994, -0.1537247896194458, 0.32033413648605347, 0.03595118597149849, 0.28004106879234314, -0.34103643894195557, -0.08421046286821365, -0.4809907078742981 },
			{ -0.062228839844465256, 0.05416688695549965, 0.06845030188560486, -0.19353044033050537, 0.23569393157958984, -0.22554680705070496, 0.15266861021518707, -0.47591233253479004, -0.04962708801031113, -0.395420640707016 },
			{ -0.017634546384215355, 0.15762265026569366, -0.20507976412773132, -0.31306886672973633, 0.360215425491333, -0.18123821914196014, 0.1826009601354599, -0.302094966173172, 0.19080545008182526, -0.22032377123832703 },
			{ 0.021752692759037018, 0.21811549365520477, -0.11722063273191452, -0.25910988450050354, 0.16609549522399902, -0.005595983471721411, 0.1583315134048462, -0.1984660029411316, 0.2004588097333908, -0.19604866206645966 },
			{ -0.1661853790283203, 0.02020513452589512, -0.09288407862186432, -0.16195635497570038, 0.2254096269607544, 0.12513387203216553, -0.0558055117726326, -0.04789596423506737, 0.11108759045600891, -0.13406342267990112 },
			{ -0.11183305084705353, 0.09125391393899918, -0.16235899925231934, -0.00755314901471138, -0.009674469009041786, -0.14464133977890015, -0.03756444528698921, -0.21565227210521698, 0.2198764979839325, -0.14621907472610474 },
			{ 0.05725560337305069, -0.04183323308825493, 0.26427361369132996, 0.08194047212600708, 0.02771851047873497, -0.2819575369358063, -0.08905693888664246, -0.19153188169002533, -0.012836202047765255, -0.038341592997312546 },
			{ -0.02848237007856369, 0.025061875581741333, 0.11555567383766174, 0.08645687997341156, 0.1798076033592224, 0.07836174219846725, 0.0664493516087532, -0.4083555042743683, -0.1789528876543045, -0.2027430385351181 },
			{ -0.13409243524074554, -0.043926239013671875, -0.025035005062818527, -2.1442701836349443e-05, 0.12702445685863495, -0.2509884834289551, 0.10537406802177429, -0.05239171162247658, 0.007340830750763416, -0.20783913135528564 },
			{ -0.006600246764719486, 0.046755481511354446, -0.18041373789310455, 0.03644167631864548, 0.029728218913078308, 0.03661512956023216, -0.0380079410970211, 0.15035076439380646, -0.0845344066619873, -0.07810340821743011 },
			{ -0.012358889915049076, -0.04944214969873428, -0.07473228126764297, -0.09731163829565048, 0.04293234646320343, 0.13599255681037903, 0.14181537926197052, 0.15286995470523834, -0.016938213258981705, -0.01565442606806755 },
			{ -0.002549736527726054, -0.004196806810796261, -0.16964715719223022, -0.07126174122095108, 0.15901227295398712, 0.01874113827943802, 0.22530119121074677, 0.17543691396713257, -0.017380500212311745, -0.23699316382408142 },
			{ -0.042405109852552414, 0.14899583160877228, -0.03688833862543106, -0.08559787273406982, 0.1687677651643753, 0.0715160071849823, 0.1398382931947708, 0.32521700859069824, -0.08604485541582108, -0.24548442661762238 },
			{ -0.26764699816703796, 0.17813646793365479, -0.06759370863437653, -0.12621620297431946, 0.3445760905742645, 0.025450382381677628, 0.1649923324584961, -0.1321897804737091, -0.031171534210443497, -0.3153601288795471 },
			{ -0.078023761510849, 0.13615012168884277, -0.07231653481721878, -0.120857834815979, 0.5690776109695435, -0.053050510585308075, 0.25311803817749023, -0.3250913918018341, 0.055111125111579895, -0.34202098846435547 },
			{ 0.015431706793606281, 0.18325108289718628, 0.020015675574541092, -0.0437578447163105, 0.45378780364990234, -0.1446516364812851, 0.09708411246538162, -0.34022262692451477, -0.009719595313072205, -0.3455987870693207 },
			{ -0.013013100251555443, 0.2385711669921875, 0.01994566060602665, 0.0028001130558550358, 0.4156106114387512, -0.3495756685733795, -0.027403250336647034, -0.49951496720314026, 0.007415446452796459, -0.3553451895713806 },
			{ -0.08248518407344818, 0.07153954356908798, 0.034388087689876556, 0.01380117330700159, 0.3909896910190582, -0.27182960510253906, -0.04313340783119202, -0.15044660866260529, 0.06637394428253174, -0.07427753508090973 },
			{ -0.16239936649799347, 0.08093558251857758, -0.0696236863732338, 0.005324147175997496, 0.28082212805747986, -0.14953432977199554, -0.05987876281142235, -0.08270334452390671, 0.19661667943000793, -0.08677016943693161 },
			{ -0.17576156556606293, 0.011513154953718185, 0.041108470410108566, 0.03017892874777317, 0.012007327750325203, -0.2525041401386261, -0.06926804035902023, -0.08046293258666992, 0.043141480535268784, -0.08134891092777252 },
			{ 0.09121841937303543, 0.14174380898475647, 0.14812055230140686, 0.03948521986603737, 0.03723471984267235, -0.2355726957321167, -0.026468083262443542, -0.026369746774435043, 0.08300784230232239, 0.07084409892559052 },
			{ 0.1390930861234665, 0.023255672305822372, -0.037321772426366806, 0.09549801796674728, 0.04130203276872635, 0.032080575823783875, -0.06395101547241211, -0.07160252332687378, -0.055346425622701645, -0.08859629184007645 },
			{ -0.1324193775653839, 0.02043120190501213, 0.04907388240098953, -0.0731380507349968, -0.024479925632476807, -0.17752183973789215, 0.10110355913639069, -0.01898590661585331, -0.05389946326613426, -0.19065292179584503 },
			{ -0.05863600969314575, -0.0027218498289585114, -0.020952051505446434, -0.029178323224186897, 0.04915441572666168, -0.017162466421723366, 0.08237872272729874, -0.009107782505452633, 0.04542207345366478, -0.03580225631594658 },
			{ 0.08990784734487534, -0.0027247690595686436, -0.14331674575805664, -0.04866555333137512, 0.06903602927923203, 0.060999490320682526, 0.1642964780330658, 0.02964213117957115, 0.0404093898832798, -0.01526735071092844 },
			{ -0.13056032359600067, -0.053757116198539734, -0.06271609663963318, -0.15540561079978943, 0.20551113784313202, 0.04218749701976776, 0.23360730707645416, 0.10431217402219772, 0.07482346147298813, -0.13550886511802673 },
			{ -0.10841456800699234, -0.005104223266243935, -0.05695820599794388, -0.1986667364835739, 0.22674283385276794, 0.1683613359928131, -0.04194509983062744, -0.04627661406993866, 0.07384765893220901, -0.08702654391527176 },
			{ -0.14667020738124847, -0.019774461165070534, -0.099484384059906, -0.26183629035949707, 0.4538857638835907, 0.1304093897342682, 0.01932109333574772, -0.14206263422966003, -0.019454533234238625, -0.04264632984995842 },
			{ 0.08120550215244293, 0.06988311558961868, -0.06135467067360878, -0.16892464458942413, 0.41274696588516235, 0.04134495556354523, 0.08526142686605453, -0.19606614112854004, -0.0873107761144638, -0.07927931100130081 },
			{ -0.040548622608184814, 0.07872812449932098, 0.07440997660160065, 0.009412510320544243, 0.3300308287143707, -0.20407721400260925, 0.03347068652510643, -0.0870831310749054, 0.05744144320487976, -0.1127326637506485 },
			{ 0.11563235521316528, 0.13240166008472443, -0.01741502247750759, 0.019677303731441498, 0.27089881896972656, -0.36455222964286804, 0.03032318316400051, -0.0515199638903141, -0.03767741098999977, -0.05963468551635742 },
			{ -0.04300156235694885, 0.03249962255358696, 0.12662220001220703, 0.12046842277050018, 0.23814289271831512, -0.34002718329429626, -0.13158920407295227, 0.06620609015226364, -0.029071776196360588, -0.1833876073360443 },
			{ -0.17034433782100677, -0.003371690632775426, 0.04265723377466202, 0.0686902403831482, 0.19541241228580475, -0.24880331754684448, -0.3729630410671234, 0.1253051459789276, 0.06654524058103561, -0.14063730835914612 },
			{ -0.0243282038718462, -0.045757751911878586, 0.0013113933382555842, 0.03986445814371109, 0.07199797034263611, -0.13301481306552887, -0.17057539522647858, -0.06562434881925583, 0.04260769113898277, -0.05348604917526245 },
			{ 0.10631291568279266, 0.009508729912340641, 0.0983424261212349, 0.07602985948324203, -0.020640384405851364, -0.41636183857917786, -0.12158435583114624, 0.078224316239357, 0.05721918120980263, -0.0937914252281189 },
