/*
 * This file is auto-generated by train.ipynb
 */

#pragma once

#include "definitions.h"


// Dense layer weights.
float dense_weights[FLAT_SIZE][DENSE_SIZE]
	 = {
			{ 0.0051419781520962715, 0.12019386887550354, -0.045675378292798996, 0.017933109775185585, -0.10241357237100601, -0.007053650449961424, -0.07262804359197617, -0.05635499209165573, 0.0766846239566803, 0.05797727778553963 },
			{ -0.07081367820501328, 0.011683852411806583, -0.130310520529747, 0.044690776616334915, -0.26994138956069946, -0.009825047105550766, 0.2838025391101837, -0.10404072701931, 0.0016347022028639913, 0.040481459349393845 },
			{ -0.03899405896663666, -0.07836504280567169, 0.038178179413080215, 0.06248806416988373, -0.20724666118621826, 0.05162884667515755, 0.19124263525009155, -0.09813801199197769, 0.023453569039702415, -0.07876763492822647 },
			{ -0.0804096981883049, 0.07205521315336227, 0.031812023371458054, -0.07904241979122162, -0.3421081006526947, -0.000330212467815727, 0.23882777988910675, -0.17278173565864563, 0.025875423103570938, -0.18247053027153015 },
			{ -0.05375182628631592, 0.051495615392923355, -0.003051281441003084, 0.028758328408002853, -0.39739519357681274, 0.02007504738867283, 0.1385406255722046, -0.4239516258239746, -0.09292170405387878, -0.24630460143089294 },
			{ -0.09241537749767303, -0.03708701953291893, 0.08558113873004913, 0.04738730192184448, -0.13890336453914642, -0.01942039281129837, 0.08447078615427017, -0.20316734910011292, -0.018580418080091476, 0.0008392338058911264 },
			{ 0.05518040433526039, -0.032108280807733536, 0.059344567358493805, 0.04238199442625046, -0.13728035986423492, 0.0498054176568985, 0.04605771601200104, -0.16399966180324554, 0.03875668719410896, -0.07069192826747894 },
			{ -0.1667458862066269, -0.03702275827527046, 0.08210232108831406, 0.0810471698641777, -0.09475491940975189, 0.10891900956630707, -0.08604166656732559, -0.21819137036800385, 0.05435111001133919, -0.046953313052654266 },
			{ -0.07314572483301163, -0.0943068116903305, 0.0344994030892849, 0.1138187050819397, -0.16998596489429474, -0.027942923828959465, -0.10672784596681595, -0.13585276901721954, 0.0780276358127594, -0.10984071344137192 },
			{ -0.02087818644940853, -0.04173528403043747, -0.00818803533911705, 0.16706813871860504, -0.07517971098423004, -0.01697172038257122, -0.11193858087062836, -0.3322940766811371, 0.1799939125776291, 0.024425875395536423 },
			{ -0.00883003231137991, -0.027565622702240944, -0.11189773678779602, -0.013583607971668243, -0.11693276464939117, -0.03611787036061287, -0.03837115317583084, -0.2141362726688385, -0.04172757640480995, 0.003380980109795928 },
			{ 0.08644511550664902, -0.022687433287501335, 0.020330948755145073, 0.00884204637259245, 0.011225997470319271, -0.11336661875247955, 0.03971855342388153, -0.04243512079119682, -0.05068531259894371, -0.09718576073646545 },
			{ 0.004794605076313019, -0.1036679744720459, -0.017025528475642204, 0.010455695912241936, 0.05642625316977501, 0.11695146560668945, -0.029378706589341164, -0.009245462715625763, 0.01299174502491951, -0.19927652180194855 },
			{ -0.10072506219148636, -0.11746794730424881, -0.052857253700494766, 0.0033987369388341904, -0.1070525050163269, 0.20890916883945465, -0.021085960790514946, -0.06162472814321518, 0.04881123825907707, 0.0059314691461622715 },
			{ -0.11554861068725586, 0.16217872500419617, -0.0033460096456110477, -0.011439604684710503, -0.16383402049541473, 0.008464012295007706, 0.23284699022769928, 0.0711289718747139, 0.05869996175169945, 0.10158619284629822 },
			{ -0.029515158385038376, 0.1914411187171936, -0.12387660145759583, 0.02865747921168804, -0.05511109158396721, 0.028922976925969124, 0.18076780438423157, -0.04320337250828743, -0.08509239554405212, -0.1779441386461258 },
			{ 0.04934575781226158, 0.11070729047060013, -0.23735326528549194, -0.02374069020152092, 0.1116563156247139, 0.11995571106672287, 0.1388181895017624, 0.11959046125411987, 0.01805512234568596, -0.23194104433059692 },
			{ 0.13343657553195953, -0.021943457424640656, -0.15107013285160065, -0.15018732845783234, 0.09661468863487244, 0.11664200574159622, 0.20945437252521515, 0.005780201405286789, -0.000666084757540375, 0.01722281612455845 },
			{ -0.08515890687704086, 0.04753589630126953, -0.08599252998828888, -0.1633351892232895, -0.025049284100532532, 0.0008499479154124856, -0.007229834329336882, 0.015963777899742126, 0.00194780551828444, -0.06971827894449234 },
			{ 0.05522148683667183, -0.005173608660697937, -0.12453609704971313, -0.10152685642242432, 0.06333499401807785, 0.0423722118139267, 0.02192673273384571, -0.06433623284101486, 0.039991430938243866, 0.03366741165518761 },
			{ -0.023504896089434624, 0.14371702075004578, -0.020581448450684547, 0.018844928592443466, 0.11753050982952118, -0.0009286456042900681, -0.056610338389873505, 0.020834743976593018, 0.05603823810815811, 0.03847358003258705 },
			{ 0.02288215607404709, 0.021058185026049614, -0.001129991956986487, 0.07874440401792526, -0.017478592693805695, -0.014791727066040039, -0.018620025366544724, 0.0342245027422905, 0.0986727774143219, 0.044016242027282715 },
			{ -0.06490825116634369, 0.06904249638319016, 0.03845873475074768, 0.020122068002820015, -0.0334092415869236, 0.10472405701875687, 0.017106104642152786, -0.09951556473970413, 0.0791417807340622, 0.038439709693193436 },
			{ -0.03856843337416649, -0.032017480581998825, 0.04084788262844086, 0.09683634340763092, -0.0653158575296402, 0.050994690507650375, -0.02570013888180256, -0.10724882036447525, 0.15204933285713196, 0.022872518748044968 },
			{ -0.007406718097627163, -0.00951461959630251, 0.003910303581506014, 0.0598214827477932, 0.01713368482887745, -0.023520108312368393, -0.020406173542141914, -0.07067462801933289, 0.009575575590133667, 0.0207038726657629 },
			{ 0.0017484126146882772, 0.06425192952156067, 0.01268580462783575, -0.11349817365407944, 0.009356417693197727, 0.021967187523841858, 0.01657426916062832, -0.1768290400505066, 0.08920112997293472, 0.008224493823945522 },
			{ 0.04606613889336586, 0.10572212934494019, -0.008045263588428497, -0.004896548576653004, 0.021260101348161697, 0.15198561549186707, 0.02286018617451191, -0.0669739842414856, -0.007327631581574678, -0.10614347457885742 },
			{ -0.02476678229868412, -0.06692954152822495, -0.19811832904815674, -0.09314998239278793, -0.03815734013915062, 0.14704443514347076, 0.014957915991544724, -0.27578049898147583, 0.0924755111336708, -0.15856622159481049 },
			{ -0.13830138742923737, 0.1560559868812561, 0.022131700068712234, 0.14939337968826294, -0.1305168718099594, -0.010862755589187145, 0.1053321436047554, -0.07199724018573761, -0.03912373259663582, -0.2459879368543625 },
			{ 0.12731967866420746, -0.03565939888358116, -0.12204620987176895, 0.056165698915719986, 0.14472617208957672, 0.027176931500434875, -0.0652242973446846, 0.0008871497120708227, -0.07615451514720917, -0.0004103534738533199 },
			{ 0.025808051228523254, -0.103997141122818, -0.0620090588927269, -0.026607830077409744, 0.09483181685209274, 0.09682319313287735, 0.07148539274930954, 0.0847386047244072, 0.09057129174470901, -0.008813627064228058 },
			{ 0.004786134231835604, -0.14378835260868073, -0.14144903421401978, -0.06698167324066162, 0.0678754597902298, 0.10104213654994965, 0.05033843219280243, 0.09064549952745438, -0.033720146864652634, 0.010948022827506065 },
			{ -0.010091700591146946, -0.09755316376686096, -0.1303325891494751, -0.041792869567871094, 0.1428147554397583, 0.10693264752626419, 0.0862906351685524, 0.16603313386440277, 0.1663193702697754, 0.03640194237232208 },
			{ -0.04626483842730522, 0.015217327512800694, -0.17860399186611176, -0.07829683274030685, 0.052549198269844055, 0.04021383821964264, -0.09913105517625809, 0.09057895839214325, 0.13100628554821014, 0.0811438336968422 },
			{ -0.17127494513988495, 0.06827573478221893, -0.16694168746471405, 0.06685252487659454, 0.058126457035541534, 0.014399530366063118, -0.10727272182703018, 0.12490285187959671, 0.0002570232900325209, 0.07422733306884766 },
			{ 0.0027275774627923965, 0.06873884052038193, -0.19664938747882843, -0.046496711671352386, 0.07972583174705505, 0.04576973244547844, 0.03134307637810707, 0.024673929437994957, -0.03624527156352997, 0.1317608505487442 },
			{ 0.005046670790761709, 0.13159750401973724, -0.18545565009117126, -0.030094942077994347, 0.08561454713344574, -0.02458939142525196, -0.1089809462428093, 0.005671578925102949, -0.08177484571933746, 0.11517271399497986 },
			{ 0.09211578220129013, 0.1510806381702423, -0.25527191162109375, -0.11419185250997543, 0.05569757521152496, 0.09814086556434631, -0.16713574528694153, 0.001495792530477047, -0.05507659539580345, 0.039778437465429306 },
			{ -0.11548255383968353, 0.10624805837869644, -0.276931494474411, -0.06615453958511353, 0.011803748086094856, 0.08791555464267731, -0.0705980733036995, 0.06339067220687866, 0.0807875320315361, 0.10582614690065384 },
			{ -0.06197308003902435, 0.11460834741592407, -0.18691809475421906, -0.23649446666240692, 0.05157386511564255, 0.17337287962436676, -0.0360209122300148, 0.11096149682998657, -0.0073895701207220554, -0.0024650958366692066 },
			{ 0.0451667457818985, -0.00142643169965595, -0.17155583202838898, -0.23376210033893585, 0.2184164673089981, 0.15739741921424866, -0.08588036149740219, -0.09882358461618423, -0.11794736236333847, -0.07406961172819138 },
			{ 0.08269327878952026, -0.29864081740379333, -0.010347411967813969, -0.26578885316848755, -0.007254195865243673, 0.21095961332321167, -0.24243532121181488, -0.12395446747541428, 0.03966687247157097, -0.1721019297838211 },
			{ -0.05895299091935158, 0.06716352701187134, 0.06745545566082001, 0.02837001532316208, -0.11744809150695801, -0.07359278947114944, 0.10781239718198776, 0.04691992327570915, 0.048318710178136826, -0.060708578675985336 },
			{ 0.014950702898204327, -0.07070966064929962, -0.08812373131513596, -0.09614191204309464, 0.09658565372228622, -0.07953003793954849, -0.08745072782039642, 0.07904449105262756, 0.15369148552417755, 0.0012795116053894162 },
			{ -0.0804578959941864, -0.05520050972700119, -0.06599212437868118, 0.014122572727501392, 0.014729105867445469, -0.13043202459812164, 0.09338593482971191, 0.00809558480978012, 0.08641942590475082, 0.06184816733002663 },
			{ 0.024616317823529243, -0.0829659178853035, -0.2563284635543823, -0.029842734336853027, 0.039611369371414185, -0.16512161493301392, -0.023643983528017998, 0.0936325341463089, -0.004562484100461006, 0.14656955003738403 },
			{ 0.08237048983573914, -0.2107575684785843, -0.18285953998565674, -0.11404374241828918, -0.005086442921310663, -0.014739281497895718, -0.06478843092918396, 0.07567821443080902, 0.07330214232206345, 0.06107168272137642 },
			{ 0.06861896067857742, -0.08839858323335648, -0.15816079080104828, -0.09584257751703262, 0.07492730766534805, 0.0775129571557045, 0.046394191682338715, -0.04221288114786148, -0.03484724834561348, 0.123135045170784 },
			{ 0.008483967743813992, -0.05631228908896446, -0.21991777420043945, -0.19198526442050934, -0.022324608638882637, 0.1237245723605156, -0.04123714938759804, 0.07135897874832153, 0.03930315747857094, -0.025975335389375687 },
			{ 0.09923248738050461, 0.1162857934832573, -0.24246086180210114, -0.12260036170482635, 0.13534806668758392, 0.1041615828871727, -0.0077115814201533794, 0.024460826069116592, -0.23091846704483032, -0.0782417580485344 },
			{ 0.06714043766260147, 0.1822541207075119, -0.10483364760875702, -0.14845849573612213, 0.22742001712322235, 0.09939143806695938, 0.006422961130738258, 0.08034168928861618, -0.2826780080795288, -0.0319216288626194 },
			{ -0.03455864638090134, 0.2672855854034424, -0.31370922923088074, -0.1218632236123085, 0.29117846488952637, 0.13962405920028687, -0.0027182591147720814, 0.0010143658146262169, -0.15242336690425873, -0.08607963472604752 },
			{ -0.2331913560628891, 0.30145859718322754, -0.4435647428035736, -0.10705561935901642, 0.20839466154575348, 0.13151144981384277, 0.07612727582454681, 0.09375585615634918, 0.01983542926609516, -0.1559540033340454 },
			{ -0.16391710937023163, 0.14035913348197937, -0.3704008162021637, -0.2929462790489197, 0.0855497196316719, 0.3752724826335907, 0.0504678413271904, 0.15701059997081757, 0.006716248579323292, -0.09429145604372025 },
			{ -0.1918877214193344, -0.09573735296726227, -0.2596573829650879, -0.42543521523475647, 0.1409844011068344, 0.34704092144966125, 0.007377661764621735, 0.07663171738386154, -0.027399592101573944, -0.11295002698898315 },
			{ -0.11862940341234207, -0.20025314390659332, -0.1665426790714264, -0.40971383452415466, -0.036417894065380096, 0.29853036999702454, -0.18005859851837158, -0.076121985912323, -0.053204379975795746, -0.22774221003055573 },
			{ 0.0417630709707737, -0.10360762476921082, -0.2921362817287445, -0.03846777230501175, -0.23615877330303192, 0.07105569541454315, -0.08382672816514969, 0.08129855245351791, 0.07229377329349518, -0.04047027602791786 },
			{ 0.13485994935035706, -0.009272812865674496, -0.04140825197100639, 0.023841047659516335, -0.15840566158294678, -0.05611487478017807, -0.12710675597190857, -0.05792141705751419, -0.053623609244823456, 0.05433491989970207 },
			{ 0.008741171099245548, -0.001930360565893352, -0.004928510636091232, 0.14893855154514313, -0.05289315804839134, -0.2985314428806305, 0.09675706177949905, 0.027496876195073128, 0.11261335760354996, 0.0025431904941797256 },
			{ 0.07320519536733627, -0.007733860053122044, -0.28797468543052673, -0.057833604514598846, -0.00706875417381525, -0.11606267094612122, -0.023650037124753, 0.021239932626485825, 0.04895821958780289, 0.06346432864665985 },
			{ 0.05071120709180832, -0.3189561069011688, -0.13894568383693695, -0.12406782060861588, 0.055931851267814636, -0.10805007815361023, 0.16069793701171875, -0.0988178625702858, 0.060452673584222794, 0.11494365334510803 },
			{ 0.06718101352453232, -0.21286927163600922, -0.09021163731813431, -0.34441253542900085, 0.14218811690807343, -0.18538467586040497, 0.15314795076847076, -0.036686453968286514, 0.04452301934361458, 0.02442358247935772 },
			{ -0.08259909600019455, -0.012680916115641594, -0.1432664841413498, -0.25242507457733154, 0.1564280092716217, 0.021349912509322166, -0.03952975571155548, -0.01793203502893448, -0.00814779568463564, 0.025144631043076515 },
			{ -0.02338767610490322, 0.060232650488615036, -0.1592097133398056, -0.07769107073545456, 0.18521100282669067, 0.04458238556981087, 0.015965623781085014, 0.0055777328088879585, -0.027954120188951492, -0.2211855798959732 },
			{ 0.006511596962809563, 0.11877567321062088, -0.008972723968327045, -0.18688878417015076, 0.2719753682613373, -0.017896102741360664, 0.02017403393983841, 0.05013597756624222, -0.35065457224845886, -0.3851853311061859 },
			{ -0.2150150090456009, 0.28402096033096313, -0.12421797960996628, -0.13389696180820465, 0.29893749952316284, 0.015667596831917763, 0.1631525754928589, 0.06882485747337341, -0.21713906526565552, -0.32719796895980835 },
			{ -0.0923304557800293, 0.0992714986205101, -0.30849596858024597, -0.08221869170665741, 0.27882108092308044, 0.019251320511102676, 0.15519855916500092, 0.09108749777078629, -0.10535155236721039, -0.3464384377002716 },
			{ -0.2867201268672943, 0.08309954404830933, -0.18707287311553955, 0.038416069000959396, 0.16373494267463684, 0.2566518187522888, 0.2875036299228668, 0.26175448298454285, -0.2770707607269287, -0.33585333824157715 },
			{ -0.29817304015159607, -0.04400094226002693, -0.14676879346370697, -0.40125808119773865, 0.09687111526727676, 0.2494233399629593, 0.26168009638786316, -0.0034272444900125265, -0.02605733834207058, -0.23814933001995087 },
			{ -0.11691252887248993, 0.07132389396429062, 0.06074780598282814, -0.17453636229038239, -0.15833693742752075, 0.42788568139076233, 0.07442428171634674, -0.22597147524356842, -0.0947260633111, -0.20187701284885406 },
			{ 0.10960228741168976, -0.06263884902000427, -0.2697296440601349, -0.239510178565979, -0.11387905478477478, -0.14680472016334534, -0.33793601393699646, 0.08572127670049667, 0.12136007845401764, 0.08114925771951675 },
			{ 0.06381134688854218, 0.22756415605545044, 0.09128317981958389, 0.051993533968925476, -0.13630986213684082, -0.2360776960849762, 0.08565061539411545, -0.08499854803085327, -0.09035435318946838, 0.0489361397922039 },
			{ -0.030486740171909332, 0.025320112705230713, 0.02098110504448414, -0.03803124651312828, 0.07380674034357071, -0.2380305826663971, 0.1563790738582611, 0.020019883289933205, 0.06358132511377335, -0.07550490647554398 },
			{ 0.07301528751850128, 0.005905019585043192, -0.046517785638570786, -0.20442187786102295, -0.008465230464935303, -0.07681503891944885, 0.16148436069488525, 0.08525391668081284, -0.1124177798628807, 0.10040849447250366 },
			{ 0.14955569803714752, -0.3275817930698395, 0.11808490008115768, -0.20891831815242767, 0.05145011097192764, -0.020928215235471725, 0.22212183475494385, -0.15084482729434967, 0.06551536172628403, 0.009363334625959396 },
			{ 0.10083343088626862, -0.1673879474401474, 0.1328534632921219, -0.0792323425412178, 0.10488052666187286, -0.06251582503318787, 0.206866055727005, -0.16837497055530548, -0.06851119548082352, -0.01711028814315796 },
			{ -0.013356348499655724, -0.09319020062685013, -0.07162434607744217, -0.15824858844280243, 0.12049528956413269, 0.11651626974344254, 0.08765409141778946, -0.032292213290929794, -0.03073323890566826, -0.018881332129240036 },
			{ -0.20839032530784607, 0.02479860559105873, -0.08891937881708145, -0.03878070414066315, 0.10357329994440079, 0.016792001202702522, 0.17480827867984772, 0.19306258857250214, -0.10689188539981842, -0.1528407484292984 },
			{ -0.2158694714307785, 0.2014540582895279, 0.04607892781496048, -0.18120653927326202, 0.23592306673526764, 0.08297470211982727, 0.13904321193695068, 0.21874694526195526, -0.27709466218948364, -0.23102262616157532 },
			{ -0.0816771611571312, 0.17165137827396393, 0.035595718771219254, -0.21978886425495148, 0.2330746054649353, -0.09659554064273834, 0.037855252623558044, 0.21160513162612915, -0.0895988941192627, -0.0945730060338974 },
			{ -0.11110135912895203, -0.03604957461357117, -0.060343414545059204, -0.06596729159355164, 0.17008604109287262, -0.309855580329895, 0.15621106326580048, 0.16694553196430206, 0.021191371604800224, -0.1731829047203064 },
			{ -0.10772015899419785, 0.02492227591574192, 0.006294066086411476, 0.1445755809545517, 0.23046764731407166, -0.3030804395675659, -0.03962196409702301, 0.2452748566865921, -0.05219288542866707, -0.3801678419113159 },
			{ -0.05468873679637909, -0.09968708455562592, 0.12469248473644257, -0.030628865584731102, -0.06705286353826523, 0.027585886418819427, -0.04898097366094589, 0.04501521214842796, -0.07029920816421509, -0.2957078516483307 },
			{ -0.43211546540260315, 0.17516373097896576, 0.20987731218338013, -0.1294194906949997, -0.06796430051326752, 0.3122440278530121, -0.030941873788833618, 0.10257767140865326, -0.25810638070106506, -0.30009594559669495 },
			{ 0.12144698202610016, 0.15891176462173462, 0.0046406956389546394, -0.0894845649600029, -0.05142144113779068, -0.1465659886598587, -0.22393503785133362, -0.003438243642449379, -0.23844003677368164, 0.08999035507440567 },
			{ -0.007640790194272995, 0.026604048907756805, 0.34831446409225464, 0.15111136436462402, -0.2748594284057617, -0.1491592526435852, 0.07710202783346176, -0.22868035733699799, -0.10928785800933838, -0.002821901347488165 },
			{ 0.0165352001786232, 0.12581555545330048, 0.16027012467384338, -0.22055378556251526, 0.012114539742469788, -0.17348559200763702, -0.01018274761736393, -0.11892532557249069, 0.06614058464765549, -0.11756860464811325 },
			{ 0.18826034665107727, -0.008897651918232441, 0.08688705414533615, -0.07993067055940628, -0.08122973144054413, -0.09853867441415787, 0.08179810643196106, -0.050927285104990005, 0.059829212725162506, -0.05728010833263397 },
			{ 0.1036926731467247, -0.18487000465393066, 0.2322091907262802, -0.08964070677757263, -0.06216450408101082, -0.05364608392119408, 0.1108456552028656, -0.04828141629695892, -0.029757117852568626, 0.0006384631851688027 },
			{ 0.16602292656898499, -0.20512175559997559, 0.12625610828399658, -0.22747159004211426, 0.09302159398794174, -0.0809360221028328, 0.16790126264095306, 0.06609191745519638, -0.019568439573049545, 0.09584439545869827 },
			{ -0.008117828518152237, 0.01625961624085903, 0.030217034742236137, -0.12241028994321823, 0.06321242451667786, 0.01936209201812744, 0.15451161563396454, 0.09110845625400543, -0.15241281688213348, -0.13950686156749725 },
			{ -0.18397098779678345, 0.10487557202577591, 0.006426826119422913, 0.03238369897007942, -0.035958800464868546, 0.0076638744212687016, 0.19164390861988068, 0.28884434700012207, -0.003699834691360593, -0.3038189709186554 },
			{ -0.28474706411361694, 0.1620001643896103, -0.01973801665008068, -0.18438316881656647, 0.05394904688000679, -0.04910634085536003, 0.20250068604946136, 0.22496013343334198, -0.17342297732830048, -0.27514609694480896 },
			{ -0.06392478197813034, -0.013875243254005909, 0.04618893191218376, -0.3062708377838135, 0.17230023443698883, -0.1831945776939392, -0.0731058344244957, 0.09099500626325607, -0.02503250725567341, -0.13279765844345093 },
			{ 0.10030986368656158, 0.025261159986257553, 0.20805229246616364, -0.27411019802093506, 0.2736610174179077, -0.32015228271484375, -0.1497092992067337, -0.04927581176161766, -0.23304319381713867, 0.10719585418701172 },
			{ 0.10131516307592392, -0.07762296497821808, 0.22367654740810394, -0.010852273553609848, 0.25667428970336914, -0.23092472553253174, -0.2621077299118042, 0.044657643884420395, -0.1569020003080368, -0.107027068734169 },
			{ -0.13010187447071075, 0.026084037497639656, 0.3034992516040802, 0.09152372181415558, 0.11438131332397461, -0.12450464814901352, -0.11118721961975098, -0.10645949095487595, -0.38211628794670105, -0.02489423006772995 },
			{ -0.46781039237976074, 0.23250962793827057, 0.23204410076141357, 0.11069149523973465, -0.04539482295513153, 0.020856305956840515, -0.049376823008060455, -0.16206558048725128, -0.03520182520151138, -0.0747467502951622 },
			{ 0.009051375091075897, 0.035441476851701736, 0.011225219815969467, 0.16006267070770264, -0.1368294060230255, -0.16562773287296295, 0.017908474430441856, 0.09342226386070251, -0.0851091668009758, -0.11160324513912201 },
			{ 0.026755524799227715, -0.03192046284675598, 0.2546899914741516, 0.04374169185757637, -0.21887145936489105, -0.01484309509396553, -0.09291144460439682, -0.1869787573814392, 0.030336810275912285, -0.12648113071918488 },
			{ -0.01843096688389778, -0.046860598027706146, 0.09274608641862869, -0.002218719106167555, -0.03900611400604248, 0.07297298312187195, -0.04705917835235596, -0.07810429483652115, 0.057925060391426086, -0.2425055354833603 },
			{ 0.03940674290060997, -0.05278719961643219, 0.11407743394374847, 0.03944355994462967, -0.04922393336892128, -0.22685737907886505, 0.04676242172718048, 0.10664335638284683, 0.09688594192266464, -0.06417527049779892 },
			{ 0.0042299795895814896, -0.1055738776922226, 0.11974368244409561, -0.13134123384952545, -0.08109058439731598, -0.18089404702186584, -0.0410141795873642, 0.1158706396818161, 0.04976064711809158, 0.09863868355751038 },
			{ 0.10238109529018402, -0.1553899049758911, 0.14815963804721832, -0.17588955163955688, -0.051805153489112854, -0.12166444957256317, 0.11011684685945511, 0.09857852756977081, -0.14336936175823212, 0.06925301253795624 },
			{ -0.004331094678491354, 0.0026660391595214605, 0.11490963399410248, -0.2578245997428894, 0.13708068430423737, -0.06047847121953964, 0.0726354569196701, 0.10355865210294724, -0.07000625878572464, -0.2228037714958191 },
			{ -0.45048919320106506, 0.10515853017568588, -0.09322624653577805, -0.09704826027154922, -0.2717433571815491, 0.09435529261827469, 0.10612725466489792, 0.08587180823087692, 0.05781878903508186, -0.06820272654294968 },
			{ -0.062218088656663895, 0.13990943133831024, 0.07714460045099258, -0.40014684200286865, 0.13714313507080078, -0.21658775210380554, 0.1813250035047531, 0.2298487275838852, -0.018005913123488426, -0.3087709844112396 },
			{ 0.14703889191150665, 0.1985444575548172, 0.28325536847114563, -0.5778822898864746, 0.4262397587299347, -0.11702444404363632, -0.287150502204895, 0.06160374730825424, -0.3790073096752167, -0.04328298941254616 },
			{ -0.008303234353661537, 0.04589259997010231, 0.15584617853164673, -0.3411526381969452, 0.3301670551300049, -0.25884467363357544, -0.2724534273147583, 0.07396653294563293, -0.6253238320350647, 0.08092021942138672 },
			{ 0.20591242611408234, 0.06570757180452347, 0.13481523096561432, -0.36263927817344666, 0.24587033689022064, -0.20759963989257812, -0.2523655891418457, 0.15114909410476685, -0.316398948431015, 0.030606908723711967 },
			{ 0.045742716640233994, 0.11040516197681427, 0.2864331305027008, -0.17803046107292175, 0.07460961490869522, -0.2865608036518097, -0.3064606487751007, -0.05714565888047218, -0.20923256874084473, -0.042468540370464325 },
			{ -0.4211280047893524, 0.15690423548221588, 0.29060032963752747, -0.21724937856197357, -0.07487551122903824, -0.1120234951376915, -0.34802210330963135, -0.061996251344680786, -0.04409415274858475, 0.07896673679351807 },
			{ 0.09537748247385025, -0.1646406054496765, 0.14455080032348633, -0.11511512845754623, -0.04086456820368767, -0.00211556744761765, 0.054797641932964325, 0.06288471072912216, 0.03689359128475189, -0.20377200841903687 },
			{ -0.0808408334851265, -0.031186096370220184, 0.2293725460767746, 0.015237807296216488, -0.20987196266651154, 0.20596128702163696, -0.38506880402565, -0.042443037033081055, 0.06958319246768951, -0.1866309940814972 },
			{ -0.11361969262361526, 0.03502319008111954, -0.013621575199067593, 0.061678335070610046, -0.0595439188182354, 0.0821135863661766, -0.03521910682320595, -0.08113917708396912, -0.10091691464185715, -0.14101044833660126 },
			{ -0.0723680853843689, -0.13288471102714539, 0.13420628011226654, 0.13616815209388733, -0.11822810024023056, 0.11805494129657745, -0.0856848806142807, 0.006525518838316202, 0.02270720899105072, -0.05838368088006973 },
			{ -0.07655337452888489, -0.19120465219020844, 0.1464754343032837, -0.017600785940885544, -0.1211901530623436, -0.08152366429567337, -0.15759481489658356, 0.08458367735147476, 0.07069014757871628, -0.14932121336460114 },
			{ 0.01412645261734724, -0.06744742393493652, 0.09437531232833862, -0.12930501997470856, -0.09852928668260574, -0.05933257192373276, 0.103806272149086, -0.03373616933822632, 0.03636323660612106, -0.09282006323337555 },
			{ -0.014719407074153423, 0.0813579112291336, 0.06707731634378433, -0.09313984215259552, 0.016981320455670357, -0.12308404594659805, 0.05823950096964836, -0.09910310059785843, 0.0027660485357046127, -0.24192269146442413 },
			{ -0.09428228437900543, 0.2668141722679138, -0.003635791363194585, -0.19348475337028503, 0.06486871093511581, -0.00712150102481246, 0.07199177891016006, -0.010012771002948284, -0.040325552225112915, -0.25248202681541443 },
			{ 0.18968169391155243, 0.2619076371192932, -0.05138932168483734, -0.26448795199394226, -0.06925194710493088, -0.10651308298110962, -0.07893508672714233, 0.27343305945396423, -0.31602734327316284, -0.1759616881608963 },
			{ 0.25059133768081665, -0.026448147371411324, 0.19845864176750183, -0.2072119563817978, 0.13682405650615692, -0.0063608866184949875, -0.2818584144115448, 0.23565660417079926, -0.2845419943332672, -0.08308272063732147 },
			{ 0.008721118792891502, 0.18598970770835876, 0.05802609771490097, 0.027187805622816086, 0.24581576883792877, -0.02313174679875374, -0.17117950320243835, 0.3046514689922333, -0.36381879448890686, -0.177456796169281 },
			{ 0.04302363097667694, -0.00366738298907876, 0.19105447828769684, -0.3632380962371826, 0.06421048194169998, -0.14400821924209595, -0.10506350547075272, 0.11393198370933533, -0.33049172163009644, 0.07703687250614166 },
			{ 0.024472003802657127, 0.14268741011619568, 0.21439243853092194, -0.4093836843967438, 0.17621542513370514, -0.05673487111926079, -0.293578565120697, -0.07594023644924164, -0.15576712787151337, 0.06731870025396347 },
			{ -0.38342970609664917, 0.14270393550395966, 0.26448774337768555, -0.16558225452899933, -0.21241062879562378, -0.04258120059967041, -0.1747581958770752, -0.0048380885273218155, -0.307616263628006, 0.17224229872226715 },
			{ 0.011392704211175442, 0.18817764520645142, 0.13633742928504944, -0.0843629539012909, -0.09339571744203568, -0.016190826892852783, -0.0759497657418251, -0.04718613252043724, -0.10110742598772049, -0.11036726087331772 },
			{ -0.011244876310229301, 0.3150426149368286, -0.04377855360507965, -0.055363018065690994, -0.16919897496700287, 0.038977235555648804, -0.39624810218811035, 0.06570858508348465, 0.02030227519571781, -0.16548378765583038 },
			{ -0.1381612867116928, 0.23874406516551971, 0.01199463289231062, -0.0059035541489720345, -0.04672541841864586, 0.02873268350958824, -0.22559292614459991, -0.06275925785303116, 0.0023784551303833723, -0.16913644969463348 },
			{ 0.029496612027287483, -0.04452335834503174, -0.05541346222162247, 0.09839646518230438, -0.029865330085158348, -0.00028590959846042097, -0.03439750522375107, 0.006383168511092663, -0.05834343284368515, -0.06596985459327698 },
			{ -0.0556379072368145, -0.036067280918359756, 0.018173709511756897, 0.1262744963169098, -0.13174167275428772, 0.08740295469760895, -0.26170220971107483, -0.05564024671912193, 0.03344350680708885, -0.0352838896214962 },
			{ 0.03719596937298775, -0.12009730935096741, 0.03478477522730827, -0.02734227292239666, -0.12444621324539185, 0.01580193266272545, -0.19564951956272125, -0.1935882270336151, -0.013221366330981255, -0.014305300079286098 },
			{ 0.06382962316274643, 0.09418182820081711, -0.016959363594651222, -0.0239475779235363, 0.0020689857192337513, 0.030872154980897903, -0.1751018464565277, -0.10898813605308533, 0.009525190107524395, -0.20348340272903442 },
			{ -0.0338178351521492, 0.3942735493183136, -0.05589170381426811, -0.18559530377388, -0.048499949276447296, -0.041836485266685486, -0.04943705350160599, -0.0787132978439331, -0.10881420224905014, -0.03446530923247337 },
			{ 0.24227707087993622, 0.24075883626937866, -0.022739406675100327, -0.256928026676178, -0.022824544459581375, 0.06737314164638519, 0.06466038525104523, 0.040433790534734726, -0.12212271988391876, 0.00768296467140317 },
			{ 0.14843839406967163, -0.18726304173469543, 0.14910298585891724, -0.10772209614515305, -0.1323576420545578, 0.15416501462459564, -0.026325255632400513, 0.2193881869316101, -0.17112761735916138, -0.058958426117897034 },
			{ 0.24029308557510376, 0.01778610236942768, 0.04893393814563751, -0.1340934783220291, -0.08290290087461472, 0.05431462079286575, -0.006343602202832699, 0.0857270136475563, -0.18332159519195557, -0.1540108323097229 },
			{ 0.16770225763320923, -0.08241313695907593, 0.1772441267967224, -0.14827387034893036, -0.31025469303131104, 0.09566742181777954, 0.022702829912304878, -0.05829324200749397, -0.18922646343708038, 0.054108161479234695 },
			{ 0.06966856122016907, 0.05314456298947334, 0.04158387333154678, -0.07319122552871704, 0.07791028171777725, 0.06358680874109268, 0.026297781616449356, -0.22475962340831757, -0.11908227205276489, 0.07075930386781693 },
			{ 0.11399684101343155, 0.015337562188506126, 0.2687181532382965, -0.13389480113983154, -0.17961835861206055, -0.026782767847180367, -0.15670697391033173, -0.053524915128946304, -0.3080044388771057, 0.07462722808122635 },
			{ -0.12868288159370422, 0.07516521960496902, -0.08712008595466614, 0.06187402829527855, -0.10910556465387344, 0.06568799167871475, -0.05787460133433342, 0.05306750908493996, -0.15947282314300537, -0.1652245670557022 },
			{ -0.2664281725883484, 0.2430514246225357, 0.02491966262459755, 0.07821257412433624, -0.1228441372513771, 0.03872421383857727, -0.1591593325138092, 0.07285658270120621, -0.11194752156734467, -0.06962636858224869 },
			{ -0.020751630887389183, 0.08980225771665573, -0.14003826677799225, 0.03296968340873718, -0.0346018485724926, 0.06863930821418762, -0.11471104621887207, -0.013697455637156963, -0.07406627386808395, 0.07858099043369293 },
			{ 0.09639789909124374, -0.20209495723247528, 0.013309407979249954, 0.02944674715399742, -0.18349668383598328, 0.007089075166732073, -0.09687379002571106, -0.03875336796045303, -0.001703782007098198, 0.049721356481313705 },
			{ 0.09176826477050781, -0.1567842960357666, 0.08873452246189117, 0.15974649786949158, -0.10624532401561737, -0.007562709040939808, -0.27230891585350037, -0.19467338919639587, -0.06092214211821556, 0.011803676374256611 },
			{ 0.10085888206958771, -0.06512721627950668, 0.02547272853553295, 0.0689241960644722, -0.13504794239997864, 0.15507836639881134, -0.16194361448287964, -0.15448199212551117, 0.029358122497797012, 0.03762844204902649 },
			{ 0.14781564474105835, 0.09968621283769608, 0.08125387877225876, -0.020936086773872375, -0.06506228446960449, 0.03156217932701111, -0.47443288564682007, -0.05269380658864975, -0.1086842268705368, 0.046476636081933975 },
			{ 0.03873060271143913, 0.26322656869888306, -0.14379577338695526, -0.2233484536409378, -0.02425112947821617, 0.012153197079896927, -0.28879526257514954, 0.019185932353138924, -0.030934685841202736, 0.06872468441724777 },
			{ 0.25264549255371094, -0.20423942804336548, 0.015843786299228668, -0.07941704243421555, 0.10567782819271088, 0.0556989349424839, 0.05233079940080643, -0.015873974189162254, -0.19562429189682007, 0.1469285935163498 },
			{ 0.13890497386455536, -0.540758490562439, -0.08644358068704605, -0.025946034118533134, -0.04998768866062164, -0.004281992558389902, 0.1104542687535286, -0.05403684079647064, 0.02248425967991352, 0.11684907972812653 },
			{ 0.09719321131706238, -0.031627535820007324, -0.032149676233530045, 0.09216835349798203, -0.07353756576776505, 0.03631950914859772, 0.10921839624643326, -0.1846151351928711, -0.1581544280052185, -0.07415186613798141 },
			{ 0.19119440019130707, -0.20736713707447052, 0.11926734447479248, 0.06087300926446915, -0.06521359831094742, 0.18191862106323242, -0.3281151354312897, -0.38022229075431824, -0.06772545725107193, -0.11441583931446075 },
			{ -0.02750067599117756, 0.12733440101146698, 0.06736177951097488, -0.19181673228740692, 0.0035019845236092806, -0.024381393566727638, -0.17283478379249573, -0.19585362076759338, -0.057863134890794754, 0.1654258817434311 },
			{ 0.22225245833396912, 0.01920999400317669, 0.011087555438280106, 0.042557526379823685, -0.0967024490237236, -0.06459976732730865, -0.008245944045484066, -0.020475124940276146, -0.16567978262901306, 0.029298031702637672 },
			{ 0.008534875698387623, -0.07673777639865875, -0.3263392150402069, 0.06231217458844185, -0.19192473590373993, 0.051120150834321976, -0.017085609957575798, 0.10002528876066208, -0.20255282521247864, 0.07741065323352814 },
			{ -0.35721930861473083, -0.14990045130252838, 0.03994331136345863, 0.07401128113269806, -0.029899535700678825, 0.0851750373840332, -0.12055604159832001, 0.3111085593700409, -0.3834664523601532, 0.03266502544283867 },
			{ -0.16596485674381256, 0.08759103715419769, -0.21096427738666534, 0.22886449098587036, -0.14216023683547974, 0.17567557096481323, -0.3731476068496704, 0.006813946645706892, -0.14461103081703186, -0.03254561498761177 },
			{ 0.05743793398141861, -0.07721919566392899, -0.052096888422966, 0.36718326807022095, -0.08285187929868698, -0.08077874779701233, -0.4033668637275696, -0.0023069805465638638, -0.15607599914073944, 0.10584120452404022 },
			{ -0.24012699723243713, -0.1794130802154541, -0.0751495286822319, 0.20998433232307434, -0.04994497075676918, 0.06825906038284302, -0.24028845131397247, -0.17504170536994934, 0.1289876401424408, 0.04789847135543823 },
			{ -0.3697476089000702, 0.13552190363407135, -0.15191650390625, -0.006240487098693848, 0.10500670969486237, 0.07251707464456558, -0.33619433641433716, -0.0039232755079865456, 0.10498528182506561, -0.06093418598175049 },
			{ -0.4808964729309082, -0.13580802083015442, -0.06501036137342453, -0.17310036718845367, 0.17995208501815796, -0.17606477439403534, -0.34814369678497314, 0.07323209941387177, -0.10136082768440247, 0.12817440927028656 },
			{ -0.4815784990787506, 0.16940711438655853, -0.05674770101904869, -0.11323247849941254, 0.11139097064733505, -0.11970019340515137, -0.5512359142303467, 0.03471296653151512, -0.24115890264511108, 0.16894972324371338 },
			{ -0.5076443552970886, -0.0006519125890918076, -0.20485243201255798, -0.1638631820678711, 0.09500247240066528, 0.19814623892307281, -0.8616970181465149, -0.01427117083221674, -0.28652599453926086, 0.12625640630722046 },
			{ -0.3562096357345581, 0.04074791446328163, -0.04320784658193588, 0.12257876247167587, 0.1693509966135025, 0.10822165757417679, -0.6534439921379089, -0.06664682179689407, 0.04328705370426178, -0.006577782798558474 },
			{ -0.2713087499141693, 0.1988029032945633, -0.10399939864873886, -0.01876334473490715, 0.17791372537612915, 0.1419745236635208, -0.41855108737945557, -0.1364552527666092, -0.23742137849330902, 0.023426668718457222 },
			{ -0.22425377368927002, -0.008564362302422523, 0.17169520258903503, 0.12774524092674255, 0.043342020362615585, 0.21563081443309784, -0.2899782955646515, -0.23215579986572266, 0.019251903519034386, -0.11955519765615463 },
			{ -0.15500719845294952, 0.04253626614809036, -0.11152781546115875, 0.02048490010201931, 0.06934084743261337, 0.11228002607822418, -0.18261820077896118, -0.19150777161121368, -0.14965489506721497, 0.1842970848083496 },
			{ 0.05696609243750572, 0.1247195452451706, 0.026744388043880463, -0.03835528716444969, -0.05749347433447838, -0.052999455481767654, 0.043862439692020416, -0.08171907067298889, -0.10117723047733307, -0.08990178257226944 },
			{ -0.10219768434762955, -0.006040194071829319, 0.19767919182777405, -0.20158542692661285, -0.17721228301525116, -0.0015967104118317366, -0.02007542923092842, -0.044916845858097076, -0.10840130597352982, 0.07637054473161697 },
			{ 0.04099193215370178, 0.26575732231140137, 0.28864747285842896, -0.20308318734169006, -0.22362619638442993, -0.252128005027771, -0.06879832595586777, -0.2169950008392334, -0.36659830808639526, 0.20955348014831543 },
			{ -0.0508822426199913, 0.07663979381322861, -0.20676203072071075, -0.03871425241231918, -0.07142624258995056, 0.1540706604719162, -0.039391081780195236, 0.1357174813747406, -0.06598518043756485, 0.08705279976129532 },
			{ -0.27228909730911255, 0.1251419633626938, -0.2996536195278168, 0.13313384354114532, 0.005852874368429184, 0.06894570589065552, -0.05295681208372116, 0.2365967333316803, -0.18965768814086914, 0.06240268796682358 },
			{ -0.5189083814620972, 0.09097237884998322, -0.35118362307548523, -0.016977420076727867, -0.03256778419017792, 0.10232219099998474, 0.0233745276927948, 0.2871205806732178, -0.22799214720726013, 0.11972551792860031 },
			{ -0.5633067488670349, -0.07079226523637772, -0.2813180983066559, -0.1852387636899948, 0.18106411397457123, 0.063965804874897, 0.0021467995829880238, 0.274962842464447, -0.40942761301994324, 0.2988344132900238 },
			{ -0.29869240522384644, -0.16388316452503204, -0.5988020300865173, -0.19663606584072113, -0.002719287062063813, -0.2696314752101898, -0.12120877951383591, 0.162191241979599, -0.47642824053764343, 0.3201638162136078 },
			{ -0.6037970185279846, 0.09365116059780121, -0.47604304552078247, -0.16269053518772125, 0.23441144824028015, -0.4037494361400604, -0.034790702164173126, 0.08733861148357391, -0.722554624080658, 0.3436400890350342 },
			{ -0.6878584027290344, -0.0367945171892643, -0.07256939262151718, -0.06220651790499687, 0.15218272805213928, -0.10207345336675644, -0.4123636484146118, 0.15080206096172333, -0.5130758285522461, 0.2752399146556854 },
			{ -0.7392702102661133, 0.21011315286159515, 0.045297879725694656, 0.03831914812326431, 0.3282608687877655, -0.015597433783113956, -0.3944168984889984, 0.29338017106056213, -0.480031818151474, 0.07984641939401627 },
			{ -0.38567930459976196, 0.05707722157239914, -0.1102263331413269, -0.04579167813062668, 0.33316412568092346, 0.009564516134560108, -0.41893208026885986, 0.11462718993425369, -0.26063743233680725, 0.054110337048769 },
			{ -0.275397390127182, 0.058531537652015686, 0.21632792055606842, -0.31482458114624023, 0.14498192071914673, 0.157287135720253, -0.3025391101837158, 0.20923300087451935, -0.026111099869012833, -0.097320556640625 },
			{ -0.10478146374225616, 0.15330149233341217, 0.060486771166324615, -0.04215317219495773, -0.1157364696264267, 0.13882960379123688, -0.007884099148213863, -0.055055487900972366, -0.2594631314277649, -0.06928058713674545 },
			{ 0.027985939756035805, 0.15963295102119446, -0.012912803329527378, 0.0468689426779747, -0.04491369426250458, 0.06406107544898987, 0.040430665016174316, -0.09291685372591019, -0.0138435959815979, -0.034636739641427994 },
			{ -0.05815429240465164, 0.11824323982000351, -0.07168813794851303, 0.12055746465921402, -0.09783834964036942, -0.035528697073459625, -0.023095732554793358, 0.02630819007754326, 0.022236455231904984, 0.019380705431103706 },
			{ -0.09111238270998001, 0.04913535341620445, -0.07167606800794601, -0.058146968483924866, -0.19390864670276642, 0.17629626393318176, -0.07385337352752686, -0.1575053483247757, 0.02730461396276951, 0.08601990342140198 },
			{ 0.08306749165058136, 0.024912241846323013, 0.017014997079968452, -0.1339399516582489, -0.13630643486976624, 0.0005788696580566466, -0.16075173020362854, 0.07531531155109406, -0.12938594818115234, -0.1147041916847229 },
			{ 0.10872526466846466, 0.12581636011600494, 0.013197154738008976, -0.05003393068909645, 0.15491770207881927, -0.0318310372531414, -0.12395431101322174, -0.08084993809461594, -0.04054605960845947, -0.03236599639058113 },
			{ 0.13004055619239807, 0.39140912890434265, -0.18085333704948425, -0.017750123515725136, -0.002372974995523691, -0.009891289286315441, -0.1598053127527237, 0.019396958872675896, -0.14160002768039703, 0.012484549544751644 },
			{ 0.15687969326972961, 0.14181473851203918, -0.13921983540058136, 0.05471169948577881, 0.020413286983966827, -0.0619361512362957, -0.1723850667476654, 0.07166475057601929, -0.1883179098367691, 0.08957285434007645 },
			{ 0.11030533909797668, 0.2715376913547516, -0.3638375997543335, -0.004756574053317308, 0.0013677708338946104, -0.007996149361133575, -0.13327857851982117, 0.06809280067682266, 0.08157601952552795, -0.024675941094756126 },
			{ -0.003986263182014227, 0.09823285043239594, -0.47205275297164917, -0.09989383071660995, 0.02444913238286972, -0.2247907519340515, -0.14171692728996277, 0.2730095386505127, -0.015439199283719063, 0.23405544459819794 },
			{ -0.42391714453697205, 0.3756488263607025, -0.3433077335357666, -0.4485316574573517, 0.2947083115577698, -0.18042324483394623, -0.30576810240745544, 0.13947263360023499, 0.14284388720989227, 0.028767885640263557 },
			{ -0.5524899363517761, 0.37410444021224976, 0.008863778784871101, -0.2560306489467621, 0.23179376125335693, -0.4960898458957672, -0.17241184413433075, 0.1159299910068512, 0.042891260236501694, 0.07293646037578583 },
			{ -0.28597745299339294, -0.06030387431383133, 0.031675830483436584, -0.15239445865154266, 2.9070964956190437e-05, -0.13921388983726501, -0.3256814777851105, -0.005504983011633158, -0.01168201956897974, 0.19731637835502625 },
			{ -0.10573942959308624, 0.006021220237016678, -0.06728622317314148, -0.08731573820114136, -0.12323347479104996, 0.07536621391773224, -0.17069903016090393, 0.10247589647769928, -0.040547460317611694, 0.12257613986730576 },
			{ -0.12164735049009323, 0.09471400082111359, -0.026443738490343094, 0.12394814938306808, -0.12601691484451294, 0.14256952702999115, -0.12526953220367432, -0.010406624525785446, -0.15793508291244507, -0.031646113842725754 },
			{ -0.03411596640944481, 0.16979268193244934, -0.021968187764286995, 0.02905595861375332, 0.01868928223848343, 0.09042441099882126, -0.0030793333426117897, 0.006727080326527357, 0.03665805608034134, 0.10053543001413345 },
			{ -0.06911803036928177, -0.047236282378435135, 0.05854569748044014, 0.0021608774550259113, 0.07822372019290924, 0.025188427418470383, 0.049406591802835464, 0.023180898278951645, 0.04651293158531189, 0.02447134256362915 },
			{ -0.08749966323375702, -0.008544770069420338, -0.04271845519542694, 0.026248188689351082, 0.02764950692653656, -0.05804595351219177, 0.023212650790810585, 0.01607544720172882, -0.06046925485134125, 0.04858807474374771 },
			{ 0.03778521344065666, 0.07812716066837311, 0.08113493025302887, 0.04219091311097145, -0.110814668238163, -0.05898269638419151, -0.10033994168043137, 0.03893493488430977, 0.04101686552166939, 0.01759999431669712 },
			{ -0.21751946210861206, -0.03510742634534836, -0.119761161506176, 0.044573746621608734, -0.17426028847694397, -0.09564987570047379, 0.24193519353866577, -0.11849509924650192, -0.08219306915998459, 0.003588097169995308 },
			{ -0.1333523541688919, -0.04638129845261574, -0.1510322540998459, 0.10158482939004898, -0.20363742113113403, -0.2039048671722412, 0.4100162982940674, -0.21656212210655212, -0.07222332805395126, -0.21793018281459808 },
			{ -0.41625717282295227, 0.18250378966331482, -0.08067604899406433, -0.2047872692346573, -0.33797895908355713, 0.13144385814666748, 0.5111050605773926, -0.3507269322872162, -0.24413326382637024, -0.4194064140319824 },
			{ -0.12237481772899628, 0.053251635283231735, -0.16706012189388275, -0.1682576984167099, -0.33161625266075134, 0.0229474026709795, 0.4179556667804718, -0.32602566480636597, -0.12714031338691711, -0.3979647755622864 },
			{ -0.059206586331129074, 0.22509688138961792, -0.28351709246635437, -0.07518266886472702, -0.1644912213087082, -0.2046453207731247, 0.3358827531337738, -0.37198296189308167, -0.2932417094707489, -0.36053547263145447 },
			{ -0.20378485321998596, 0.05145787447690964, -0.16551141440868378, -0.08256508409976959, -0.1750834882259369, -0.05135635286569595, 0.3863595426082611, -0.11959266662597656, -0.23720088601112366, -0.3544519543647766 },
			{ -0.1571713536977768, 0.14839263260364532, -0.04429110884666443, 0.018081584945321083, -0.16646254062652588, -0.06090811267495155, 0.04223603382706642, -0.30771932005882263, -0.035331763327121735, -0.3761560618877411 },
			{ -0.1900828629732132, -0.06455077975988388, -0.20156213641166687, 0.05397432669997215, -0.3091987371444702, 0.2222667634487152, 0.1873784363269806, -0.304245263338089, -0.14900732040405273, 0.021526938304305077 },
			{ -0.24094462394714355, -0.15756835043430328, -0.09224550426006317, -0.015957247465848923, -0.01787635125219822, -0.20532000064849854, 0.4193815290927887, -0.23131485283374786, -0.15709660947322845, -0.13497774302959442 },
			{ 0.004498016554862261, -0.09846124798059464, 0.11907798796892166, -0.006131007336080074, 0.08139082789421082, -0.18027766048908234, 0.10763482004404068, -0.04149894788861275, 0.010510706342756748, -0.2936808466911316 },
			{ -0.08805853128433228, -0.028205811977386475, 0.004152518697082996, -0.1369490623474121, 0.045952506363391876, 0.21836934983730316, 0.04276089742779732, -0.15294867753982544, -0.1668580174446106, -0.0588010810315609 },
			{ 0.01874789409339428, 0.03290972113609314, 0.022900154814124107, 0.058703724294900894, -0.01561187393963337, -0.05888432636857033, 0.058719415217638016, -0.000986474216915667, -0.06288589537143707, -0.06332694739103317 },
			{ 0.06559571623802185, -0.07166340202093124, -0.05952494218945503, 0.013492073863744736, -0.06255371868610382, -0.004019285086542368, 0.0076577928848564625, 0.07465380430221558, -0.025021031498908997, -0.12595973908901215 },
			{ -0.18449519574642181, -0.21643958985805511, -0.0868748128414154, 0.11523370444774628, -0.0677672028541565, 0.023173270747065544, 0.11291705071926117, -0.06340154260396957, -0.06877873092889786, -0.15273252129554749 },
			{ -0.2674403190612793, -0.12820258736610413, -0.09342404454946518, 0.09933393448591232, -0.2330046147108078, -0.21971307694911957, 0.3436774015426636, -0.2313915342092514, -0.20325486361980438, -0.2716550827026367 },
			{ -0.38287144899368286, 0.11698244512081146, -0.13978727161884308, -0.09235884994268417, -0.13423918187618256, -0.2485324889421463, 0.25527316331863403, -0.3754376769065857, 0.20079538226127625, -0.44040659070014954 },
			{ -0.10797455906867981, 0.29621851444244385, -0.08961600810289383, -0.27992475032806396, 0.0019543946254998446, 0.127726212143898, 0.2554108500480652, -0.11320201307535172, 0.005740291904658079, -0.728584349155426 },
			{ -0.07119712978601456, 0.39208245277404785, -0.3469112515449524, -0.07790074497461319, 0.19477160274982452, -0.05056794360280037, 0.21134398877620697, -0.46246257424354553, -0.18329598009586334, -0.5494188666343689 },
			{ -0.11304570734500885, 0.317825049161911, -0.360879510641098, -0.2983054518699646, 0.0983135774731636, 0.002898265840485692, 0.15706036984920502, -0.16237260401248932, -0.048972006887197495, -0.28745198249816895 },
			{ -0.2303217351436615, 0.26315462589263916, -0.3175986111164093, -0.23274588584899902, 0.2888765037059784, 0.17522475123405457, 0.04644804075360298, -0.2687627375125885, -0.08734642714262009, -0.30682817101478577 },
			{ -0.1985369473695755, 0.11637722700834274, -0.2886359989643097, -0.23294441401958466, 0.09618975967168808, 0.39700251817703247, 0.10141084343194962, -0.27779659628868103, 0.00745860580354929, -0.2584780156612396 },
			{ -0.20847682654857635, 0.09632022678852081, -0.21830637753009796, -0.08069980144500732, 0.14222058653831482, 0.17825809121131897, 0.18661606311798096, -0.5284627676010132, -0.11497851461172104, -0.21624812483787537 },
			{ -0.05690944939851761, 0.02619750052690506, 0.06710211932659149, -0.13796819746494293, 0.1929461658000946, 0.01704801619052887, 0.07626699656248093, -0.41899800300598145, -0.03997451812028885, 0.046846937388181686 },
			{ 0.007743084337562323, 0.13366979360580444, 0.10232304781675339, 0.11392392218112946, 0.1266603022813797, 0.13412775099277496, -0.12986327707767487, -0.2857743203639984, -0.09404318034648895, -0.35945531725883484 },
			{ -0.24314333498477936, -0.08334013819694519, -0.09747477620840073, 0.04078289493918419, -0.03671970218420029, 0.14165222644805908, -0.036567602306604385, -0.36819565296173096, 0.1199709102511406, -0.24444988369941711 },
			{ -0.010728069581091404, -0.0375143438577652, -0.14588062465190887, 0.1323487013578415, -0.05029672384262085, -0.19825439155101776, -0.11964113265275955, 0.08098168671131134, -0.053732842206954956, -0.10618606209754944 },
			{ -0.08056788146495819, -0.03601307049393654, -0.001511920359916985, 0.170450821518898, -0.07685178518295288, -0.12651345133781433, -0.032668985426425934, 0.0839461237192154, -0.20262840390205383, -0.1726560890674591 },
			{ -0.18606328964233398, -0.2605178654193878, 0.07958224415779114, 0.1007934957742691, -0.2645854353904724, -0.45101457834243774, 0.27663153409957886, 0.02656218595802784, -0.3548395037651062, -0.2754806876182556 },
			{ -0.13607235252857208, -0.17666277289390564, 0.11214252561330795, -0.004995347931981087, 0.025890683755278587, 0.06421724706888199, 0.1363176703453064, -0.12720179557800293, 0.05250105634331703, -0.6626666188240051 },
			{ -0.20010985434055328, -0.33182230591773987, -0.12571902573108673, -0.11961717903614044, 0.09316101670265198, 0.065171979367733, 0.1869325339794159, -0.032181382179260254, 0.19928660988807678, -0.021789032965898514 },
			{ -0.05310067534446716, -0.09238854050636292, -0.03096860647201538, -0.21840523183345795, 0.16900019347667694, 0.115866519510746, 0.19386079907417297, -0.2036200910806656, 0.17205993831157684, 0.03948395699262619 },
			{ -0.04046769067645073, 0.04766947031021118, 0.008490724489092827, -0.19790764153003693, 0.04632580280303955, -0.025929044932127, 0.1653064340353012, -0.28148171305656433, 0.11005423963069916, 0.17969250679016113 },
			{ -0.02685103751718998, 0.033272743225097656, -0.056705158203840256, -0.23006752133369446, 0.2815505564212799, -0.07704012840986252, 0.17130039632320404, -0.2780414819717407, -0.0017851267475634813, -0.13578946888446808 },
			{ -0.17930695414543152, 0.03238362818956375, -0.09972187131643295, -0.1890503466129303, 0.3366812765598297, 0.09706400334835052, 0.12003909796476364, -0.14618520438671112, 0.07763386517763138, -0.1901535540819168 },
			{ -0.18009993433952332, 0.026493387296795845, -0.26726263761520386, -0.28566187620162964, 0.23150774836540222, 0.24592188000679016, 0.12058882415294647, 0.012186353094875813, -0.036199938505887985, -0.1472814381122589 },
			{ -0.2531213164329529, 0.23979735374450684, -0.30768901109695435, -0.21048954129219055, 0.22534725069999695, 0.2582874596118927, 0.09462045878171921, 0.1224852204322815, -0.10453128814697266, -0.22370603680610657 },
			{ -0.10069438070058823, 0.12559349834918976, -0.19442754983901978, -0.27363792061805725, 0.17648890614509583, 0.19361169636249542, -0.06936541944742203, 0.13101983070373535, -0.1676717847585678, -0.16953399777412415 },
			{ -0.1381765455007553, -0.012050590477883816, -0.09354200959205627, -0.07068482786417007, 0.18571321666240692, 0.17636199295520782, -0.15246394276618958, -0.0540025494992733, -0.017887668684124947, -0.07877758145332336 },
			{ 0.007996238768100739, -0.5443629026412964, 0.02770288847386837, -0.3388020694255829, 0.1008191928267479, 0.22061209380626678, -0.09728063642978668, -0.2857118546962738, -0.04680938646197319, -0.06508225947618484 },
			{ 0.022543488070368767, -0.01858186349272728, -0.025913827121257782, 0.16673724353313446, -0.08429336547851562, -0.23024991154670715, -0.05563657358288765, 0.001764977816492319, -0.12544256448745728, -0.1473885327577591 },
			{ -0.004425735678523779, 0.010718999430537224, 0.08546610176563263, 0.38097503781318665, -0.2532248795032501, -0.1848624050617218, -0.16478703916072845, -0.02422061562538147, -0.34360480308532715, -0.1964452862739563 },
			{ -0.23302024602890015, 0.006736684590578079, 0.3108012080192566, 0.1579803228378296, -0.24944372475147247, -0.26037096977233887, 0.23681841790676117, -0.4626235067844391, -0.0853482335805893, -0.014258199371397495 },
			{ -0.10673537850379944, -0.2844555974006653, 0.08058778941631317, -0.004341071005910635, 0.00108996219933033, -0.03725975379347801, 0.24023906886577606, -0.2758975923061371, 0.09133829921483994, 0.3356325924396515 },
			{ -0.1446533203125, -0.38396045565605164, -0.04009362310171127, 0.04772549122571945, 0.11523178219795227, -0.023874783888459206, 0.15816383063793182, -0.31647878885269165, 0.03293308988213539, 0.24026191234588623 },
			{ -0.01820254698395729, -0.23573942482471466, -0.02428729087114334, -0.09394089132547379, 0.026395956054329872, -0.08087942749261856, 0.12484495341777802, -0.20009861886501312, 0.06250017881393433, 0.24298855662345886 },
			{ 0.032875530421733856, -0.24245715141296387, -0.07810542732477188, -0.05547633767127991, -0.05482230708003044, 0.012615985237061977, 0.17117634415626526, -0.1612137407064438, 0.11924707144498825, 0.09324429929256439 },
			{ -0.08165151625871658, -0.01851927489042282, 0.05727170407772064, 0.02455659583210945, 0.02700403891503811, -0.0599774569272995, 0.17868535220623016, -0.19785095751285553, 0.015267637558281422, 0.07609373331069946 },
			{ -0.062371790409088135, -0.015751788392663002, -0.001622713403776288, 0.04258230701088905, 0.331720232963562, -0.12065538018941879, 0.10694511234760284, -0.133672297000885, 0.09232234209775925, -0.034956689924001694 },
			{ -0.1653166264295578, -0.0030820858664810658, -0.052143458276987076, 0.03893784061074257, 0.3051895797252655, 0.0037116408348083496, 0.009977223351597786, 0.05756307393312454, -0.007251961622387171, -0.24155361950397491 },
			{ -0.2026502788066864, 0.0186047051101923, -0.05700792744755745, -0.048854827880859375, 0.24233315885066986, -0.0008699545869603753, -0.03280282020568848, -0.057024531066417694, -0.12213846296072006, -0.17115840315818787 },
			{ -0.03897177428007126, 0.11522305011749268, 0.06366131454706192, -0.062237437814474106, 0.148016557097435, -0.006212948821485043, -0.015213819220662117, 0.03279261663556099, -0.04009059816598892, -0.29728785157203674 },
			{ -0.17197811603546143, -0.1746864765882492, -0.06426940858364105, 0.02574770525097847, 0.1609601378440857, 0.0015321028186008334, -0.10362549126148224, 0.002218433888629079, -0.0924234613776207, -0.16119636595249176 },
			{ -0.19251753389835358, -0.6857508420944214, -0.09695210307836533, -0.6614162921905518, 0.1542065143585205, 0.2894802689552307, -0.3153984844684601, -0.09078584611415863, 0.0060743363574147224, -0.3873599171638489 },
			{ -0.157593235373497, -0.06350056827068329, 0.07625901699066162, 0.02997664175927639, -0.15308727324008942, -0.1976320594549179, -0.07350146025419235, 0.029362753033638, -0.033757761120796204, -0.21123209595680237 },
			{ -0.0350806787610054, 0.0003358428948558867, 0.056230660527944565, 0.11904661357402802, -0.16806715726852417, -0.20008441805839539, -0.16126832365989685, -0.07951682060956955, -0.07421207427978516, -0.0690908133983612 },
			{ -0.1661563664674759, -0.004245061427354813, 0.18646644055843353, 0.054070159792900085, -0.11403511464595795, -0.11854825913906097, 0.1955854594707489, -0.2655111849308014, -0.0428173802793026, 0.23316457867622375 },
			{ -0.0706581324338913, -0.12163402885198593, 0.01785181276500225, 0.03188615292310715, -0.05864240974187851, -0.06982264667749405, 0.08400093019008636, -0.22517719864845276, 0.027349265292286873, 0.24626491963863373 },
			{ 0.1281738430261612, 0.025282463058829308, -0.1667879819869995, 0.034684520214796066, -0.041830845177173615, -0.11357229948043823, 0.09282446652650833, -0.16874729096889496, -0.030427400022745132, 0.15027298033237457 },
			{ -0.02019423246383667, -0.20976029336452484, -0.08642814308404922, -0.04568114131689072, 0.07759065926074982, 0.00843158271163702, 0.14510220289230347, -0.03336373344063759, -0.10647246241569519, 0.0679813027381897 },
			{ 0.009646478109061718, -0.029324214905500412, -0.09334997832775116, 0.058929942548274994, 0.007678504567593336, -0.06613606214523315, 0.015733938664197922, -0.1725742369890213, -0.130470409989357, 0.08386548608541489 },
			{ 0.02225172333419323, -0.040000464767217636, -0.007906054146587849, 0.0792674869298935, 0.0017681256867945194, -0.3041359484195709, 0.12467797845602036, -0.01564410887658596, -0.07718835026025772, 0.05958295613527298 },
			{ 0.030965451151132584, -0.11766993254423141, 0.04199368879199028, 0.26233288645744324, 0.037065133452415466, -0.38479873538017273, -0.005283812060952187, -0.011424361728131771, 0.022130755707621574, 0.12469088286161423 },
			{ -0.1255377233028412, -0.16267411410808563, 0.01693161018192768, 0.2264726459980011, 0.13288740813732147, -0.34485843777656555, -0.12050134688615799, 0.031103231012821198, 0.12582607567310333, 0.053543876856565475 },
			{ -0.12703219056129456, -0.1647118479013443, 0.06473778933286667, 0.21525342762470245, 0.11594991385936737, -0.42989715933799744, -0.07205689698457718, 0.059426113963127136, 0.1577608585357666, -0.03971046209335327 },
			{ 0.019662603735923767, 0.020425906404852867, 0.09233903139829636, 0.13947708904743195, 0.1240629032254219, -0.34019458293914795, -0.15737518668174744, 0.08460000157356262, 0.11686830222606659, -0.2012033313512802 },
			{ -0.07941048592329025, -0.14903269708156586, -0.015676423907279968, -0.24293088912963867, 0.1475415825843811, -0.004385341424494982, -0.15566258132457733, 0.04205646738409996, 0.1372196525335312, -0.2702420651912689 },
			{ -0.36517736315727234, -0.013473783619701862, -0.08360375463962555, -0.4936530590057373, 0.025461118668317795, 0.2641262710094452, 0.03708215430378914, -0.1974204033613205, -0.007400845643132925, -0.24759487807750702 },
			{ -0.11053309589624405, -0.042251646518707275, 0.10727719962596893, 0.0006161609780974686, -0.2213299423456192, -0.1608872264623642, -0.1655389964580536, 0.1710183471441269, 0.034961067140102386, -0.2459927648305893 },
			{ -0.03011046163737774, -0.22556346654891968, 0.10400427877902985, 0.12491098791360855, -0.04891695827245712, -0.07053936272859573, -0.277461975812912, -0.03877999633550644, -0.007631723303347826, -0.10573160648345947 },
			{ 0.07808339595794678, -0.09803256392478943, 0.093966044485569, 0.13252325356006622, -0.16979794204235077, -0.08375900983810425, 0.1134561076760292, -0.03343386575579643, -0.0755452811717987, 0.12036565691232681 },
			{ 0.16881775856018066, 0.06944991648197174, -0.06278156489133835, 0.16367487609386444, -0.013653079979121685, -0.09407605230808258, 0.1656654328107834, -0.16854093968868256, -0.07369381189346313, 0.08893013000488281 },
			{ 0.11335432529449463, 0.07384306192398071, -0.05680977553129196, 0.16319067776203156, 0.08539306372404099, -0.04948803409934044, 0.06638552993535995, -0.04810794070363045, -0.14631697535514832, 0.09827294200658798 },
			{ 0.030671648681163788, 0.06717415153980255, -0.13841508328914642, 0.1631322205066681, -0.030100706964731216, -0.06685805320739746, -0.032247770577669144, -0.00034597027115523815, -0.2240498960018158, 0.01373933907598257 },
			{ 0.09117618203163147, -0.0059122564271092415, -0.05709792301058769, 0.21468977630138397, 0.02191690355539322, -0.0014841603115200996, 0.018544670194387436, 0.0103915398940444, -0.07940047234296799, 0.0050791362300515175 },
			{ 0.0048796492628753185, 0.20745639503002167, -0.008978304453194141, 0.2234657257795334, -0.17612051963806152, -0.31561771035194397, 0.003690870478749275, -0.01902708411216736, -0.05648272857069969, 0.06270862370729446 },
			{ -0.040384791791439056, -0.09848232567310333, 0.0272243469953537, 0.11021390557289124, -0.026865154504776, -0.5183813571929932, -0.12654846906661987, 0.15783190727233887, 0.10398462414741516, 0.08653844892978668 },
			{ -0.07172179967164993, -0.22423575818538666, 0.06742093712091446, 0.09859397262334824, -0.09013144671916962, -0.4467582702636719, -0.17363253235816956, 0.07617007195949554, 0.2188778668642044, -0.006729485932737589 },
			{ 0.00943167507648468, -0.20433540642261505, 0.07781198620796204, 0.021876191720366478, 0.046048786491155624, -0.3987043499946594, -0.21326789259910583, 0.10301299393177032, 0.223131462931633, 0.02923029288649559 },
			{ 0.1478617787361145, -0.045075077563524246, 0.06274875998497009, 0.02758581005036831, -0.1295490562915802, -0.2774946987628937, -0.2820873558521271, -0.06910274177789688, 0.2931365966796875, 0.08623093366622925 },
			{ -0.040254924446344376, -0.1585593968629837, 0.1153903678059578, -0.3362884819507599, -0.02138453908264637, -0.04821942746639252, -0.05050218105316162, -0.36978650093078613, 0.2303706407546997, 0.08035511523485184 },
			{ -0.13594289124011993, -0.3450961112976074, 0.2151171714067459, -0.28998202085494995, -0.08482315391302109, 0.3189816474914551, -0.08586333692073822, 0.06017002463340759, -0.11835621297359467, -0.3507031202316284 },
			{ -0.024791961535811424, -0.030052898451685905, -0.21600820124149323, -0.04479637369513512, -0.1312854290008545, -0.22167626023292542, -0.19124698638916016, 0.054566122591495514, 0.0379851795732975, 0.12609702348709106 },
			{ -0.18244385719299316, -0.04121460020542145, 0.04018000140786171, 0.07845290750265121, -0.4487645626068115, 0.03687272593379021, -0.13151460886001587, 0.24492162466049194, -0.02768438309431076, -0.025494998320937157 },
			{ -0.004062964115291834, 0.11857008188962936, -0.0033490429632365704, 0.0034965730737894773, -0.19314399361610413, -0.008404022082686424, 0.09690182656049728, 0.037135012447834015, -0.16320331394672394, -0.037618912756443024 },
			{ 0.20028150081634521, -0.004757357761263847, 0.03366577997803688, -0.05917865037918091, 0.08774371445178986, -0.12912686169147491, 0.11606839299201965, 0.1855810135602951, -0.28181886672973633, -0.03921828046441078 },
			{ 0.22829245030879974, 0.14432109892368317, -0.049539584666490555, -0.12302246689796448, 0.057308126240968704, -0.09593559056520462, 0.045445069670677185, 0.07155545055866241, -0.12882280349731445, -0.1344224065542221 },
			{ 0.15916556119918823, 0.017124656587839127, -0.07267280668020248, 0.07332214713096619, 0.08458448201417923, -0.0912087932229042, 0.04121222347021103, 0.18675383925437927, -0.12629081308841705, -0.28313353657722473 },
			{ 0.06444596499204636, 0.19312182068824768, -0.08073291927576065, 0.08386001735925674, -0.18421857059001923, -0.004941488616168499, -0.060837388038635254, -0.08882596343755722, -0.06442533433437347, -0.18970386683940887 },
			{ -0.18785054981708527, -0.003697172272950411, 0.05413065850734711, 0.10040615499019623, -0.3941045105457306, -0.17052888870239258, 0.049479175359010696, 0.03462359681725502, 0.04119284451007843, 0.03971519693732262 },
			{ 0.04132238030433655, 0.05794545263051987, 0.11685335636138916, 0.08170782029628754, -0.10454822331666946, -0.3584968149662018, -0.16698399186134338, -0.0005586256738752127, 0.12061922252178192, 0.09696386754512787 },
			{ 0.10279674828052521, -0.07802973687648773, 0.07556150108575821, 0.012790988199412823, 0.025165116414427757, -0.30200475454330444, -0.14171481132507324, 0.019454604014754295, 0.23350095748901367, 0.021752063184976578 },
			{ 0.07484600692987442, -0.14933662116527557, 0.1817321926355362, -0.23082052171230316, 0.005814238451421261, -0.2814829349517822, -0.05349307507276535, -0.041065625846385956, 0.0926629975438118, 0.08002477884292603 },
			{ 0.1712867170572281, -0.1475503295660019, 0.037934914231300354, -0.4193233549594879, -0.07678420096635818, -0.2799130082130432, -0.022247059270739555, -0.10742779076099396, 0.08685179799795151, 0.07018829137086868 },
			{ 0.04113037511706352, -0.27390119433403015, 0.013913295231759548, 0.049043525010347366, -0.2198055237531662, -0.05624755844473839, -0.03061806783080101, -0.06452612578868866, 0.14710845053195953, -0.08199084550142288 },
			{ -0.19113130867481232, -0.19947132468223572, 0.1668155938386917, -0.12627041339874268, -0.12943187355995178, 0.30095958709716797, -0.11455538868904114, -0.2941440939903259, -0.039075590670108795, -0.3495851457118988 },
			{ -0.04756758734583855, -0.04480560123920441, -0.2203141301870346, -0.05139237269759178, 0.015297804027795792, -0.14320087432861328, -0.12852367758750916, 0.18604733049869537, -0.1088816374540329, -0.06193458288908005 },
			{ -0.11229037493467331, -0.09152889251708984, -0.06725962460041046, 0.010772494599223137, -0.05045058950781822, 0.06876654177904129, -0.06607001274824142, 0.2658520042896271, 0.0883079543709755, -0.08505669981241226 },
			{ 0.2236994504928589, -0.020520620048046112, -0.1196461170911789, -0.4128165543079376, -0.0460597462952137, 0.020494811236858368, -0.08332585543394089, 0.2497328221797943, -0.1309579759836197, -0.028624065220355988 },
			{ 0.18665233254432678, 0.06498555839061737, 0.04418457671999931, -0.36609962582588196, -0.027779405936598778, -0.10336754471063614, -0.0008642167667858303, 0.3041257858276367, 0.10820773243904114, -0.16866327822208405 },
			{ 0.0983855128288269, 0.14134594798088074, 0.0835266262292862, -0.2990736961364746, 0.10957614332437515, -0.07119303196668625, 0.07908499240875244, 0.34282538294792175, 0.10191010683774948, -0.28166934847831726 },
			{ 0.08037637919187546, 0.03673781454563141, 0.10129977017641068, -0.20051461458206177, -0.10901276022195816, -0.05493432655930519, 0.03632450848817825, 0.1942589432001114, 0.11170009523630142, -0.2727459669113159 },
			{ -0.055564768612384796, 0.09598783403635025, 0.035379886627197266, -0.10251688212156296, -0.17506827414035797, -0.05463138595223427, 0.009015189483761787, -0.03430933505296707, 0.07712607830762863, -0.10650108009576797 },
			{ -0.23597198724746704, 0.04061904922127724, 0.18970216810703278, 0.050359200686216354, -0.1709982305765152, -0.15482160449028015, -0.08805440366268158, -0.031726110726594925, 0.04444947838783264, 0.13436095416545868 },
			{ -0.008569137193262577, -0.07836053520441055, 0.08799757063388824, -0.08916380256414413, -0.09613551944494247, -0.05775972828269005, 0.022778483107686043, -0.04502936825156212, -0.09965036064386368, 0.13854984939098358 },
			{ 0.12891902029514313, -0.32696273922920227, -0.0547289103269577, 0.010626361705362797, -0.11588525027036667, -0.08076940476894379, 0.03187517449259758, 0.1281929463148117, 0.005417194217443466, -0.034902025014162064 },
			{ 0.08942949771881104, -0.043022166937589645, -0.11427231878042221, -0.09527365863323212, -0.0809800922870636, -0.03634067252278328, 0.1339927315711975, 0.05169561505317688, -0.11327657848596573, 0.1310628056526184 },
			{ 0.12506137788295746, -0.09749854356050491, -0.04847979545593262, -0.2381781041622162, -0.0907333716750145, -0.09084784984588623, 0.1055549755692482, -0.040854886174201965, -0.22223639488220215, 0.10801415890455246 },
			{ 0.11149009317159653, -0.16861194372177124, -0.10435662418603897, 0.05461416393518448, -0.0883457213640213, 0.08606869727373123, 0.15022790431976318, -0.060922231525182724, -0.01614123396575451, -0.0910552591085434 },
			{ -0.4444862902164459, -0.03521798551082611, 0.28166279196739197, -0.366025447845459, -0.1587679535150528, 0.019094184041023254, 0.10155138373374939, -0.2329861968755722, 0.1026787981390953, -0.20210431516170502 },
			{ 0.14122489094734192, 0.042429715394973755, -0.13069279491901398, -0.21582676470279694, -0.10108918696641922, -0.03803670406341553, -0.16227783262729645, 0.19762325286865234, -0.1307065635919571, 0.11321122199296951 },
			{ 0.1163654699921608, -0.21207793056964874, -0.08625003695487976, -0.3060712218284607, 0.20616427063941956, 0.06740031391382217, 2.1861394998268224e-05, 0.1236470490694046, -0.017572393640875816, -0.07735247910022736 },
			{ 0.08447109162807465, 0.030396845191717148, 0.03218118101358414, -0.3484923243522644, 0.0816468670964241, 0.02803434617817402, -0.037028536200523376, 0.020038101822137833, 0.1431187242269516, -0.022740919142961502 },
			{ 0.030853761360049248, -0.0468887984752655, 0.16301506757736206, -0.4653578996658325, -0.042419977486133575, -0.16778910160064697, -0.04164066165685654, 0.20362849533557892, 0.1999969482421875, -0.24329134821891785 },
			{ 0.07747559249401093, -0.06372617930173874, 0.21593314409255981, -0.36088863015174866, 0.04496106132864952, -0.19339391589164734, 0.08802003413438797, 0.05849967896938324, 0.24876800179481506, -0.29989200830459595 },
			{ 0.0438116230070591, 0.08405464887619019, 0.17508968710899353, -0.17462797462940216, -0.006106773857027292, -0.06392709165811539, 0.01888304576277733, 0.07160776108503342, 0.21940959990024567, -0.2575192451477051 },
			{ 0.057590778917074203, 0.04786650836467743, 0.24910058081150055, -0.15183696150779724, -0.09730183333158493, -0.13952608406543732, 0.01787393167614937, -0.10736460983753204, 0.14172261953353882, -0.00905932579189539 },
			{ -0.010801779106259346, -0.11896970123052597, 0.18124893307685852, -0.06121907755732536, -0.08610063791275024, -0.004943855572491884, -0.1289498507976532, -0.07756632566452026, 0.03052343800663948, 0.18587134778499603 },
			{ 0.014119783416390419, -0.31098800897598267, 0.030595721676945686, -0.03055613860487938, 0.0004159956006333232, 0.06457056850194931, -0.004357240162789822, -0.052034057676792145, -0.1868562251329422, 0.16873164474964142 },
			{ 0.08996672183275223, -0.20971080660820007, -0.1527348756790161, 0.03303375467658043, -0.07448850572109222, 0.012137374840676785, 0.12724566459655762, 0.10734248161315918, -0.1472282111644745, 0.06622930616140366 },
			{ 0.05754303187131882, 0.025166288018226624, -0.2419363409280777, 0.042159274220466614, -0.0672772154211998, -0.0708807110786438, 0.039069753140211105, 0.154563307762146, -0.08838110417127609, 0.00781290140002966 },
			{ 0.16910624504089355, -0.02125224471092224, -0.21455630660057068, 0.016200227662920952, 0.008094914257526398, -0.09508376568555832, 0.09386628866195679, -0.025970982387661934, -0.04501807689666748, -0.08226009458303452 },
			{ 0.14625926315784454, -0.005378319416195154, -0.25170183181762695, -0.016573652625083923, 0.01109034102410078, 0.11101486533880234, 0.015770403668284416, -0.12012602388858795, 0.049213092774152756, -0.22649194300174713 },
			{ -0.2812398374080658, 0.24677768349647522, 0.16299112141132355, -0.38871854543685913, -0.10481026023626328, -0.183497816324234, -0.04200713336467743, 0.03451669216156006, -0.11767683923244476, -0.08299722522497177 },
			{ -0.05966651067137718, -0.12267988920211792, 0.16382764279842377, 0.07174516469240189, 0.011035778559744358, -0.2405155599117279, -0.12476717680692673, 0.12032533437013626, -0.15683653950691223, 0.07234416157007217 },
			{ 0.028741007670760155, -0.12027352303266525, 0.20416337251663208, -0.11484786123037338, 0.12632402777671814, 0.03413398936390877, 0.08606128394603729, -0.032272111624479294, -0.17006666958332062, 0.0639059916138649 },
			{ -0.0012495866976678371, -0.07075285911560059, 0.21090790629386902, -0.10411089658737183, 0.13097825646400452, 0.02038433402776718, -0.12699203193187714, -0.05038752406835556, -0.05610399320721626, -0.011466264724731445 },
			{ 0.03562880679965019, 0.09011006355285645, 0.16017036139965057, -0.250461608171463, 0.011307449080049992, -0.10604120790958405, -0.1515665352344513, 0.024682557210326195, 0.0881693959236145, -0.018993418663740158 },
			{ -0.017543617635965347, 0.19610461592674255, 0.028827426955103874, -0.3699200451374054, 0.22952203452587128, -0.12808369100093842, -0.023332295939326286, 0.10823460668325424, 0.15959176421165466, -0.12120398133993149 },
			{ -0.0028508699033409357, 0.06318744271993637, 0.07006681710481644, -0.23761633038520813, 0.06623820215463638, -0.138198584318161, -0.08886734396219254, -0.00781470537185669, 0.1041155532002449, -0.0057197012938559055 },
			{ 0.00962209701538086, -0.1161571741104126, 0.09253857284784317, -0.16451285779476166, 0.05251770094037056, -0.0880122184753418, -0.04889379441738129, 0.09390835464000702, 0.061799146234989166, 0.009975048713386059 },
			{ -0.035793740302324295, -0.2674718499183655, 0.04004766792058945, 0.016105642542243004, -0.02924272045493126, 0.008239955641329288, -0.028024625033140182, -0.01009105984121561, 0.10843569785356522, 0.040895015001297 },
			{ -0.02452162653207779, -0.4691178500652313, -0.03219756856560707, 0.05900679901242256, 0.019253425300121307, -0.012940431013703346, 0.04164415970444679, 0.07702892273664474, 0.018447764217853546, 0.01462243776768446 },
			{ 0.034612566232681274, -0.5551884174346924, -0.21799445152282715, 0.07735459506511688, -0.16684411466121674, 0.061034806072711945, 0.12109044939279556, -0.06003803387284279, 0.052963774651288986, -0.00892707984894514 },
			{ 0.04309102147817612, -0.28074902296066284, -0.24981670081615448, 0.014416811056435108, -0.14799462258815765, 0.1416015625, 0.11512576043605804, 0.07475220412015915, 0.027226775884628296, -0.010981003753840923 },
			{ 0.031213242560625076, -0.13070230185985565, -0.15799283981323242, 0.11567278206348419, -0.25087007880210876, 0.016861358657479286, 0.10242847353219986, -0.04292416572570801, 0.16361871361732483, -0.20913253724575043 },
			{ 0.030263176187872887, 0.08302295953035355, -0.2688750922679901, -0.044878099113702774, -0.09381307661533356, 0.11038404703140259, -0.019630378112196922, -0.2680186927318573, 0.1251853108406067, -0.012874975800514221 },
			{ -0.0834246575832367, 0.11584457010030746, 0.21029794216156006, -0.3195367753505707, -0.033453382551670074, -0.08570024371147156, 0.09524808824062347, -0.35698384046554565, -0.2660061717033386, -0.027302352711558342 },
			{ -0.10139460116624832, -0.01931431144475937, 0.16522309184074402, -0.06872952729463577, 0.042817018926143646, -0.23225568234920502, -0.12450960278511047, -0.13499678671360016, -0.029354166239500046, -0.08246968686580658 },
			{ 0.04353305324912071, -0.04388780891895294, 0.12291870266199112, -0.1337612420320511, 0.02074328623712063, -0.007480935659259558, 0.09053696691989899, -0.19248642027378082, -0.08595725148916245, -0.1303281933069229 },
			{ -0.051122769713401794, 0.08727842569351196, 0.11829119175672531, -0.05418912321329117, 0.16847151517868042, 0.12235209345817566, -0.01533815823495388, -0.11878155171871185, -0.14727114140987396, 0.00848368275910616 },
			{ -0.01511291041970253, 0.07998547703027725, 0.1050022542476654, -0.15058666467666626, 0.1209302470088005, 0.07672629505395889, -0.1693762242794037, 0.07909786701202393, -0.03518898785114288, -0.03305475413799286 },
			{ 0.08358679711818695, -0.0006759848911315203, 0.11128703504800797, -0.09152644872665405, 0.047944311052560806, -0.0015433721709996462, -0.06623571366071701, 0.11855992674827576, -0.10630732029676437, 0.08379344642162323 },
			{ 0.06508112698793411, -0.006454952526837587, 0.034146249294281006, -0.12486633658409119, 0.10319220274686813, 0.02779199741780758, -0.06308054178953171, 0.05957853049039841, -0.16512049734592438, 0.08245626837015152 },
			{ 0.07445019483566284, -0.11976407468318939, -0.09924007952213287, 0.043092455714941025, 0.03893671929836273, 0.035858411341905594, 0.09774912148714066, -4.6575536543969065e-05, -0.0747375562787056, -0.022422103211283684 },
			{ -0.04543042182922363, -0.11738120019435883, -0.10111505538225174, 0.18434809148311615, 0.01689138449728489, 0.02123602293431759, 0.007073246408253908, -0.06758980453014374, 0.15053099393844604, 0.02096227928996086 },
			{ 0.08830835670232773, -0.30790358781814575, -0.14037927985191345, 0.12157531082630157, -0.01568368449807167, 0.008111588656902313, -0.05662772059440613, -0.1105012595653534, 0.19185128808021545, -0.022148216143250465 },
			{ -0.05435506999492645, -0.3860859274864197, -0.12645071744918823, 0.20035891234874725, -0.1593237966299057, 0.1671697199344635, -0.0608716756105423, -0.08653998374938965, 0.1821816861629486, -0.1087288185954094 },
			{ -0.00944741815328598, -0.2681085765361786, -0.2368871420621872, 0.1849682778120041, -0.07142069190740585, 0.16319209337234497, 0.11057082563638687, -0.05643824115395546, 0.18130338191986084, -0.114329032599926 },
			{ 0.04647461697459221, -0.22305434942245483, -0.20407834649085999, -0.014316411688923836, 0.05993406102061272, 0.1739489734172821, 0.0910494327545166, -0.18111789226531982, 0.1261540949344635, -0.16364900767803192 },
			{ -0.09544165432453156, -0.07045570760965347, -0.008962053805589676, -0.1466771364212036, -0.10362124443054199, 0.13109292089939117, 0.0013601804384961724, -0.2053157389163971, 0.10773957520723343, 0.049852143973112106 },
			{ -0.05135485529899597, 0.02957771345973015, 0.19730021059513092, -0.13545843958854675, -0.05879605934023857, -0.027186555787920952, -0.015922989696264267, 0.08617380261421204, -0.11946003139019012, -0.11373214423656464 },
			{ -0.04446108639240265, 0.04907539114356041, 0.21984946727752686, -0.05409666523337364, 0.02347906492650509, -0.15296994149684906, -0.04195910692214966, -0.2649298906326294, -0.011895764619112015, -0.039086662232875824 },
			{ 0.07286268472671509, -0.037918128073215485, 0.1253543645143509, -0.11080162227153778, 0.11324054002761841, -0.06988399475812912, -0.028356317430734634, 0.0027231229469180107, -0.006339402869343758, -0.06999842822551727 },
			{ 0.08702846616506577, -0.02025744505226612, 0.11704092472791672, -0.09297624230384827, -0.0002916138037107885, -0.04367484524846077, -0.1121794655919075, -0.028137793764472008, 0.0062842038460075855, 0.009428799152374268 },
			{ -0.03910452127456665, 0.1134483739733696, 0.0026520583778619766, -0.020342553034424782, 0.07469204068183899, -0.0417959950864315, -0.15004320442676544, 0.11742022633552551, -0.062398992478847504, 0.024238230660557747 },
			{ -0.022837288677692413, 0.10798769444227219, 0.03521239385008812, 0.0014343969523906708, -0.023363906890153885, 0.03943023830652237, -0.03937157988548279, 0.11744382232427597, -0.22946889698505402, -0.046664610505104065 },
			{ -0.09800287336111069, -0.0001696626713965088, -0.07697109878063202, 0.14837493002414703, 0.06913123279809952, -0.014517533592879772, 0.06882718205451965, 0.06675130873918533, -0.11127728223800659, 0.07822128385305405 },
			{ -0.01467034313827753, 0.01069148350507021, -0.10803838819265366, 0.11004365235567093, -0.019376516342163086, 0.09001041203737259, -0.02132255584001541, 0.0340709425508976, -0.009876019321382046, -0.021574119105935097 },
			{ -0.09510712325572968, 0.06682363152503967, -0.0570242702960968, 0.18515801429748535, -0.034856922924518585, 0.07378199696540833, -0.010509527288377285, 0.017503274604678154, -0.013066580519080162, -0.02802255004644394 },
			{ -0.13946782052516937, 0.04457772150635719, -0.1819218397140503, 0.09055483341217041, 0.09317968785762787, 0.00922512635588646, -0.035569705069065094, 0.014035976491868496, 0.06967564672231674, -0.14731109142303467 },
			{ -0.07735347002744675, -0.00035434006713330746, -0.03955024853348732, 0.21327705681324005, 0.03615093231201172, 0.10939451307058334, 0.009746192954480648, -0.10549163073301315, 0.062431417405605316, -0.25864556431770325 },
			{ -0.1962810605764389, 0.1210285872220993, -0.08618707209825516, 0.002227270510047674, 0.10779635608196259, 0.060546863824129105, 0.0576249398291111, -0.02674621157348156, 0.10919274389743805, -0.15966187417507172 },
			{ -0.12381337583065033, -0.009603124111890793, 0.025666436180472374, -0.05732171609997749, 0.10674142837524414, 0.12609221041202545, -0.14060789346694946, -0.11570574343204498, 0.007115441840142012, -0.07871967554092407 },
			{ -0.229265034198761, 0.13751764595508575, 0.31876200437545776, -0.27923208475112915, -0.14085254073143005, 0.13023142516613007, -0.13459955155849457, -0.36234405636787415, -0.26031482219696045, -0.004023605491966009 },
			{ -0.16680152714252472, 0.09163537621498108, 0.1470859795808792, -0.22497424483299255, -0.15562540292739868, 0.04062162712216377, -0.06919494271278381, -0.19784921407699585, 0.007837562821805477, 0.08320233970880508 },
			{ -0.14811207354068756, -0.03932919353246689, 0.16413825750350952, 0.005133011378347874, -0.1566551774740219, -0.059106238186359406, -0.19029250741004944, -0.012425495311617851, -0.11441855877637863, -0.06303134560585022 },
			{ 0.12712949514389038, 0.12334427237510681, 0.02694222703576088, 0.005402321461588144, -0.21609964966773987, -0.11373398452997208, -0.15925320982933044, 0.050448935478925705, -0.07792797684669495, -0.04572715610265732 },
			{ 0.10529819130897522, -0.049887701869010925, -0.009920273907482624, -0.011219681240618229, -0.15733088552951813, -0.1200161799788475, 0.009020031429827213, 0.043188851326704025, 0.052827395498752594, 0.04733450710773468 },
			{ 0.10593704879283905, 0.030999088659882545, -0.03308386728167534, -0.020118504762649536, 0.08592106401920319, -0.09988729655742645, 0.039853326976299286, 0.00815481785684824, -0.06185300275683403, 0.11418551951646805 },
			{ 0.012833714485168457, 0.0020470828749239445, -0.03942590579390526, -0.07469532638788223, -0.07391607761383057, -0.05480377376079559, -0.027732692658901215, 0.009179267100989819, -0.07367914915084839, 0.07806776463985443 },
			{ -0.06892501562833786, 0.013277474790811539, -0.015418017283082008, 0.08606153726577759, -0.08673464506864548, -0.09105514734983444, 0.04786517843604088, -0.005085920449346304, -0.1389792561531067, 0.06860922276973724 },
			{ -0.031794141978025436, 0.06635713577270508, 0.003980093169957399, 0.11846154928207397, -0.11838755756616592, -0.016668492928147316, -0.014625566080212593, -0.052492957562208176, -0.01564660854637623, -0.04132410138845444 },
			{ -0.17343012988567352, -0.04977365583181381, -0.177077516913414, 0.01100215781480074, -0.13147711753845215, -0.02658144012093544, 0.0751180648803711, -0.036658648401498795, 0.06258648633956909, -0.1295604109764099 },
			{ -0.24497756361961365, 0.1558583527803421, -0.14999587833881378, -0.06017778068780899, -0.0941404178738594, 0.06177528575062752, 0.05045226216316223, 0.06776072829961777, 0.19624266028404236, 0.056138306856155396 },
			{ -0.2546018958091736, 0.18029575049877167, -0.12394041568040848, -0.04441370069980621, 0.11009059101343155, -0.033047303557395935, 0.07022207230329514, 0.07457656413316727, 0.04631238803267479, -0.01893620751798153 },
			{ -0.3032381534576416, 0.015478790737688541, -0.07342471182346344, -0.04507517069578171, -0.10091543942689896, 0.06876397132873535, -0.022902904078364372, -0.03859899193048477, 0.008581186644732952, 0.10369370132684708 },
			{ -0.12691663205623627, 0.02504323422908783, 0.04355918988585472, -0.23056833446025848, 0.18287768959999084, 0.14503151178359985, -0.1210622638463974, 0.018790990114212036, -0.06387980282306671, 0.04331403225660324 },
			{ -0.14523395895957947, -0.07242824882268906, 0.04149946942925453, -0.17238570749759674, 0.04342043399810791, 0.27238142490386963, -0.0031623858958482742, -0.16594961285591125, -0.2032104730606079, -0.06459879130125046 },
			{ -0.0693548247218132, 0.04427765682339668, 0.0983525961637497, -0.14683470129966736, -0.10952482372522354, -0.053288836032152176, -0.15026675164699554, -0.09088218957185745, -0.2514503300189972, 0.011798026040196419 },
			{ -0.01113201305270195, -0.05927934870123863, -0.10148752480745316, 0.11688990145921707, -0.07007458806037903, 0.12023814767599106, -0.02653597854077816, -0.01144329085946083, -0.11964891105890274, -0.038825925439596176 },
			{ -0.042680878192186356, -0.18768449127674103, -0.09884265810251236, 0.09609424322843552, -0.2060501128435135, 0.055630218237638474, -0.1641228199005127, 0.10472839325666428, -0.033204056322574615, -0.06802572309970856 },
			{ 0.04640452191233635, 0.00517041701823473, 0.08726081997156143, -0.012725022621452808, -0.043224580585956573, -0.021217916160821915, -0.20716729760169983, 0.09189409017562866, -0.08591379225254059, 0.1169637069106102 },
			{ 0.07095656543970108, 0.039253588765859604, -0.0189528688788414, -0.08302434533834457, -0.027889566496014595, 0.04056957736611366, -0.06234920769929886, -0.045141782611608505, -0.09242117404937744, 0.024148037657141685 },
			{ -0.09702590107917786, 0.10043670237064362, -0.020685382187366486, 0.07573963701725006, -0.22413522005081177, -0.10341843962669373, -0.01725500263273716, 0.06392061710357666, -0.07957318425178528, 0.1293923556804657 },
			{ -0.03517907112836838, -0.039449501782655716, 0.08813886344432831, 0.07943366467952728, -0.18199743330478668, 0.0673666000366211, 0.047516513615846634, -0.07913046330213547, 0.03390810266137123, -0.005573139525949955 },
			{ 0.06900183111429214, 0.12007637321949005, 0.15730270743370056, 0.04689003527164459, -0.229728102684021, 0.007311474997550249, 0.07102832943201065, -0.11865871399641037, -0.12312930822372437, 0.053670525550842285 },
			{ 0.08452253043651581, 0.1148948073387146, 0.04571746289730072, 0.08924650400876999, -0.1822548508644104, 0.03799492493271828, 0.10423628985881805, -0.20916038751602173, -0.14477956295013428, 0.13061179220676422 },
			{ 0.03143221512436867, 0.09012950956821442, -0.043209515511989594, 0.011280123144388199, -0.2022058665752411, 0.055756162852048874, 0.058947060257196426, -0.03943591192364693, -0.06124155595898628, 0.1041787639260292 },
			{ 0.055572185665369034, 0.06283033639192581, -0.12389282137155533, 0.05121827498078346, -0.186410591006279, -0.09948462247848511, 0.08464907109737396, -0.05204444006085396, 0.05830669403076172, 0.16603530943393707 },
			{ -0.009634803049266338, 0.09411776810884476, 0.07488346844911575, -0.17776592075824738, -0.06193132698535919, -0.12213630974292755, 0.0704779401421547, -0.06718239188194275, 0.04482174664735794, 0.12124631553888321 },
			{ 0.007494100369513035, -0.027311209589242935, 0.07101594656705856, -0.2727411985397339, 0.035284023731946945, -0.10552956163883209, 0.02733510360121727, -0.0038281187880784273, 0.09789031744003296, -0.06333952397108078 },
			{ -0.004201352596282959, -0.2122815102338791, 0.044857896864414215, -0.24449490010738373, -0.09909972548484802, 0.004097043536603451, -0.18458569049835205, -0.3447346091270447, 0.09991348534822464, 0.08485545217990875 },
			{ -0.1978914886713028, -0.025773288682103157, -0.09218817949295044, -0.06928034871816635, 0.05429477617144585, 0.06753620505332947, -0.12001140415668488, -0.07626055181026459, -0.008545123040676117, 0.11227545142173767 },
			{ -0.1279604136943817, -0.07199206203222275, -0.15535356104373932, 0.06734447926282883, -0.11589448153972626, -0.10316542536020279, 0.12431617081165314, -0.029369646683335304, -0.0675712451338768, -0.1601356416940689 },
			{ -0.09634058177471161, -0.30011841654777527, -0.029784251004457474, 0.05259351059794426, -0.19221387803554535, -0.09873500466346741, 0.25706446170806885, -0.26707759499549866, -0.11843212693929672, -0.17395232617855072 },
			{ -0.055216118693351746, 0.020212693139910698, 0.07137452065944672, -0.12473323941230774, -0.03349612280726433, -0.033982597291469574, 0.2123725712299347, -0.36551928520202637, 0.051195163279771805, -0.33893120288848877 },
			{ 0.06608852744102478, 0.11323340982198715, 0.0030597015284001827, 0.03315719962120056, -0.19916559755802155, 0.01295213121920824, 0.20766431093215942, -0.5325897932052612, -0.02658909000456333, -0.36298948526382446 },
			{ -0.08398500829935074, 0.10815891623497009, 0.006160376593470573, -0.05978497117757797, -0.22713567316532135, -0.0004946851986460388, 0.14653541147708893, -0.1862856149673462, 0.030263163149356842, -0.08324111253023148 },
			{ 0.02217588946223259, -0.07409582287073135, 0.01392117328941822, 0.002241892507299781, -0.022808294743299484, 0.0706377774477005, -0.03567114099860191, -0.10498994588851929, 0.0671573355793953, 0.04667429253458977 },
			{ -0.1645529568195343, -0.15553241968154907, 0.10621259361505508, 0.07128139585256577, 0.06149076297879219, 0.018296092748641968, 0.016181785613298416, -0.10949523001909256, 0.04859267547726631, -0.07421736419200897 },
			{ -0.04586868733167648, -0.1879822462797165, 0.003257535630837083, 0.03761885315179825, -0.09650547057390213, -0.01848711632192135, -0.1283165067434311, -0.22585061192512512, 0.086543969810009, -0.049529749900102615 },
			{ -0.009958755224943161, 0.004706324078142643, 0.1165834367275238, 0.14452829957008362, -0.14887695014476776, -0.04864829033613205, -0.0681878998875618, -0.35483458638191223, 0.04105287045240402, -0.026795435696840286 },
			{ 0.0014131690841168165, -0.02802971936762333, -0.02418716438114643, 0.08428407460451126, -0.1866464763879776, -0.0957619845867157, 0.017430521547794342, -0.22996306419372559, -0.03472902625799179, -0.01323703583329916 },
			{ -0.07872361689805984, -0.10226486623287201, -0.08298759162425995, 0.08209086209535599, -0.10248345881700516, -0.11376092582941055, -0.005360729992389679, -0.06944768130779266, 0.04982335865497589, -0.0602351538836956 },
			{ -0.1783497929573059, -0.034048646688461304, -0.0752287432551384, 0.02828626148402691, -0.12265796214342117, 0.00883371103554964, 0.03389190509915352, -0.05813082680106163, -0.010001870803534985, -0.22688676416873932 },
			{ -0.06769708544015884, -0.19577902555465698, -0.06840973347425461, -0.09607364982366562, -0.10515586286783218, 0.15780441462993622, 0.12719020247459412, -0.03627200797200203, 0.07703202962875366, -0.2506510317325592 },
			{ -0.07324225455522537, -0.12187778949737549, 0.09703482687473297, -0.06019469350576401, -0.0018059872090816498, 0.04847056418657303, 0.0010940018109977245, -0.058945342898368835, -0.04477353394031525, -0.07420482486486435 },
			{ -0.2211877703666687, -0.04599094018340111, 0.05516180396080017, 0.1486765444278717, -0.022626342251896858, -0.053231921046972275, 0.1910991668701172, -0.19407011568546295, -0.33772629499435425, -0.25364255905151367 },
			{ -0.023868275806307793, 0.018946271389722824, -0.19454213976860046, 0.1325470209121704, 0.01810898259282112, 0.06802738457918167, 0.14902539551258087, 0.13448385894298553, -0.09207790344953537, -0.1970876157283783 },
			{ 0.11590389162302017, -0.05861092731356621, -0.10826689004898071, 0.033487334847450256, 0.08103521913290024, 0.039569202810525894, 0.09967094659805298, 0.09649736434221268, -0.028224267065525055, 0.0005896229995414615 },
			{ 0.07418867945671082, -0.011482920497655869, -0.14511226117610931, -0.11600583046674728, 0.16548576951026917, 0.10586609691381454, 0.026033813133835793, 0.1259300261735916, -0.012734882533550262, 0.08975674211978912 },
			{ -0.00907639879733324, -0.007853993214666843, -0.07568961381912231, -0.04472294822335243, 0.13105927407741547, 0.1119450107216835, -0.04755108803510666, 0.07083306461572647, 0.0650465190410614, 0.016137709841132164 },
			{ -0.033869024366140366, -0.038028690963983536, -0.016129745170474052, 0.03667735308408737, 0.020315518602728844, -0.01013206411153078, -0.05382348969578743, -0.00969682540744543, 0.047491654753685, 0.036418281495571136 },
			{ -0.06400755792856216, -0.032921090722084045, 0.08342968672513962, -0.0032224429305642843, -0.06063011661171913, -0.07148139923810959, -0.07644768059253693, -0.07998083531856537, 0.07920164614915848, 0.030750352889299393 },
			{ -0.06372489780187607, 0.03873291611671448, 0.06964527070522308, 0.06688789278268814, -0.06787346303462982, -0.09977753460407257, -0.05930742248892784, 0.08436142653226852, 0.07694404572248459, -0.007335324306041002 },
			{ -0.005904973950237036, 0.07007389515638351, -0.007283422630280256, -0.010813122615218163, -0.13686548173427582, -0.00723270745947957, -0.15053023397922516, 0.021093739196658134, 0.07127994298934937, 0.02695091813802719 },
			{ 0.048743732273578644, -0.07243034243583679, 0.11863552778959274, 0.06421182304620743, -0.14199678599834442, -0.06066734343767166, -0.15966375172138214, -0.09486829489469528, -0.01766604743897915, 0.00910903699696064 },
			{ 0.044705264270305634, 0.05733828246593475, 0.14053185284137726, 0.06624162942171097, -0.020448489114642143, -0.13204260170459747, -0.09698625653982162, -0.20276543498039246, 0.07010966539382935, 0.007128817029297352 },
			{ 0.022736961022019386, 0.14211170375347137, 0.023699583485722542, 0.10372906178236008, -0.13067983090877533, -0.11882590502500534, 0.028156744316220284, -0.22372372448444366, 0.005619427189230919, 0.007553556002676487 },
			{ 0.025761423632502556, -0.0831887498497963, 0.012395573779940605, 0.05199872702360153, 0.05640091374516487, -0.0007449674885720015, 0.01623513549566269, -0.24237486720085144, -0.060842759907245636, -0.15572591125965118 },
			{ -0.09740635007619858, -0.14745888113975525, -0.12586577236652374, -0.00578515836969018, 0.09090195596218109, 0.127675861120224, 0.014143436215817928, -0.25564756989479065, 0.08589652180671692, -0.2451980710029602 },
			{ -0.15057282149791718, -0.041827090084552765, -0.0032193101942539215, 0.0922723338007927, 0.05263276770710945, -0.2080041915178299, 0.2177671492099762, 0.030869420617818832, 0.10783997923135757, -0.24926790595054626 },
			{ 0.10764260590076447, -0.21093785762786865, -0.08891402930021286, 0.08174722641706467, 0.246966153383255, -0.0441570021212101, -0.08107419312000275, 0.06926284730434418, 0.01706705242395401, 0.04690413177013397 },
			{ -0.04753350466489792, -0.10641282796859741, -0.004456210415810347, -0.13711507618427277, 0.13019481301307678, 0.014016116969287395, -0.08560916036367416, 0.037569209933280945, -0.07125024497509003, 0.11534736305475235 },
			{ 0.02429300919175148, -0.08562932163476944, -0.07414238899946213, -0.04560338705778122, 0.1843603551387787, 0.04354393109679222, -0.19537562131881714, 0.07897128909826279, -0.08312900364398956, -0.02497563138604164 },
			{ -0.13200050592422485, -0.10822835564613342, 0.015249854885041714, -0.015052974224090576, 0.038078323006629944, -0.05659687519073486, -0.21141622960567474, 0.14123515784740448, -0.0026189798954874277, -0.10441669821739197 },
			{ -0.06061319634318352, -0.14921602606773376, 0.034757670015096664, 0.09165575355291367, -0.1662149280309677, 0.016756722703576088, -0.09565703570842743, 0.13103601336479187, 0.046813856810331345, 0.06615731120109558 },
			{ 0.07226824760437012, -0.17587319016456604, 0.0013879651669412851, 0.005291374400258064, -0.18856260180473328, -0.0012075371341779828, -0.15354396402835846, -0.005160600412636995, 0.03620532155036926, 0.13799481093883514 },
			{ 0.04625999182462692, -0.14103205502033234, 0.009672095999121666, 0.04423650726675987, -0.14024034142494202, -0.041992295533418655, -0.18851681053638458, 0.10409656167030334, 0.1563529074192047, 0.16476218402385712 },
			{ 0.09799587726593018, -0.001641725772060454, -0.12640318274497986, -0.010791274718940258, -0.08356072753667831, -0.012017524801194668, -0.1922326385974884, -0.017425261437892914, 0.16563910245895386, 0.20917044579982758 },
			{ 0.07904495298862457, 0.013403458520770073, -0.03552474454045296, 0.0072075664065778255, -0.12405725568532944, 0.0042339591309428215, -0.09855938702821732, 0.07355641573667526, 0.06959165632724762, 0.018290340900421143 },
			{ 0.14316947758197784, 0.02610340528190136, -0.07021541148424149, 0.03545477241277695, -0.04286082834005356, -0.14052945375442505, -0.12614113092422485, 0.0008015132043510675, 0.07551024109125137, 0.1642182618379593 },
			{ 0.15014053881168365, -0.019229065626859665, -0.02383645623922348, 0.002692008391022682, -0.09841176122426987, -0.21313324570655823, -0.06646402180194855, -0.08693141490221024, -0.048301827162504196, 0.04880492389202118 },
			{ 0.2308124452829361, -0.06433529406785965, 0.1116243377327919, -0.019899815320968628, 0.04748279228806496, -0.10752880573272705, -0.16121619939804077, -0.09841098636388779, 0.009548170492053032, 0.08889475464820862 },
			{ 0.08184412121772766, -0.14113351702690125, -0.04765450209379196, 0.11920876055955887, 0.04643651470541954, 0.09821083396673203, -0.03717070817947388, -0.39173609018325806, 0.02686496078968048, -0.13104499876499176 },
			{ 0.05477409437298775, -0.1706669181585312, -0.1084970161318779, -0.06018643453717232, -0.0029796690214425325, -0.1629195213317871, -0.14194348454475403, 0.049112699925899506, 0.24642178416252136, 0.0319226048886776 },
			{ 0.04428417235612869, -0.1565842181444168, -0.0466240830719471, 0.04305968061089516, 0.04426060989499092, -0.0361463837325573, -0.17741598188877106, -0.05707291513681412, 0.028907226398587227, -0.01242584828287363 },
			{ -0.020441364496946335, -0.013299571350216866, 0.014416876249015331, 0.10050617903470993, -0.07633525133132935, -0.19445684552192688, -0.1801450252532959, -0.0432770811021328, -0.06237100809812546, 0.07718966156244278 },
			{ 0.06408042460680008, 0.18528999388217926, -0.19335801899433136, 0.06677894294261932, -0.0003651616279967129, -0.14500942826271057, 0.0364828035235405, 0.17275282740592957, 0.01954689435660839, 0.03739480674266815 },
			{ 0.05251873657107353, -0.018071213737130165, -0.13822583854198456, 0.014766044914722443, -0.11631570011377335, -0.10306161642074585, -0.07168201357126236, 0.14570671319961548, 0.13783463835716248, 0.1041846051812172 },
			{ -0.04959221929311752, -0.24277837574481964, -0.07233837991952896, -0.08871252089738846, -0.15117022395133972, -0.0252650436013937, -0.03026752546429634, 0.15876299142837524, 0.2789455056190491, 0.08810171484947205 },
			{ 0.07397988438606262, 0.13106563687324524, -0.1618221253156662, -0.06042188033461571, -0.1404077261686325, -0.02298644930124283, -0.05184436962008476, 0.059073831886053085, 0.14775943756103516, 0.11140504479408264 },
			{ 0.0908876359462738, 0.029615109786391258, 0.07490541785955429, -0.0294246394187212, -0.10367073118686676, 0.05627023056149483, -0.11235260218381882, 0.024633007124066353, 0.04961837828159332, 0.06507079303264618 },
			{ 0.05839778110384941, 0.05003729835152626, -0.02091497741639614, -0.05264761671423912, -0.06223716959357262, -0.10948921740055084, -0.12165035307407379, -0.049344196915626526, 0.004116907250136137, 0.058079350739717484 },
			{ 0.2128690928220749, -0.006303633097559214, -0.13252153992652893, -0.10872986912727356, -0.08375249803066254, -0.11908085644245148, -0.11538669466972351, 0.004058604594320059, 0.036889348179101944, 0.13409897685050964 },
			{ 0.09978875517845154, -0.056809328496456146, -0.07472247630357742, 0.05356452614068985, -0.02596837840974331, -0.07128673046827316, -0.17839562892913818, 0.13627338409423828, 0.10593383014202118, 0.023787343874573708 },
			{ 0.013055095449090004, 0.003997397143393755, -0.012411213479936123, -0.03228016570210457, -0.16366858780384064, -0.14893986284732819, -0.16388656198978424, 0.00018547647050581872, 0.10438870638608932, 0.1574094146490097 },
			{ 0.1289491206407547, 0.043381065130233765, -0.039056915789842606, -0.03470379486680031, 0.05758030340075493, -0.17361235618591309, -0.1510949432849884, 0.03328888863325119, -0.04395977780222893, 0.052625663578510284 },
